{"learner":{"attributes":{"best_iteration":"99","best_ntree_limit":"100","scikit_learn":"{\"use_label_encoder\": null, \"n_estimators\": 100, \"objective\": \"multi:softprob\", \"max_depth\": null, \"max_leaves\": null, \"max_bin\": null, \"grow_policy\": null, \"learning_rate\": null, \"verbosity\": null, \"booster\": null, \"tree_method\": null, \"gamma\": null, \"min_child_weight\": null, \"max_delta_step\": null, \"subsample\": null, \"sampling_method\": null, \"colsample_bytree\": null, \"colsample_bylevel\": null, \"colsample_bynode\": null, \"reg_alpha\": null, \"reg_lambda\": null, \"scale_pos_weight\": null, \"base_score\": null, \"missing\": NaN, \"num_parallel_tree\": null, \"random_state\": null, \"n_jobs\": null, \"monotone_constraints\": null, \"interaction_constraints\": null, \"importance_type\": null, \"gpu_id\": null, \"validate_parameters\": null, \"predictor\": null, \"enable_categorical\": false, \"feature_types\": null, \"max_cat_to_onehot\": null, \"max_cat_threshold\": null, \"eval_metric\": null, \"early_stopping_rounds\": null, \"callbacks\": null, \"classes_\": [0, 1, 2, 3, 4, 5, 6, 7, 8, 9, 10, 11, 12, 13, 14, 15, 16, 17, 18, 19, 20, 21, 22, 23, 24, 25, 26, 27, 28, 29, 30, 31, 32, 33, 34, 35, 36, 37, 38, 39, 40, 41, 42, 43, 44, 45, 46, 47, 48, 49, 50, 51, 52, 53, 54, 55, 56, 57, 58, 59, 60, 61, 62, 63, 64, 65, 66, 67, 68, 69, 70, 71, 72], \"n_classes_\": 73, \"_estimator_type\": \"classifier\"}"},"feature_names":[],"feature_types":[],"gradient_booster":{"model":{"gbtree_model_param":{"num_parallel_tree":"1","num_trees":"7300","size_leaf_vector":"0"},"tree_info":[0,1,2,3,4,5,6,7,8,9,10,11,12,13,14,15,16,17,18,19,20,21,22,23,24,25,26,27,28,29,30,31,32,33,34,35,36,37,38,39,40,41,42,43,44,45,46,47,48,49,50,51,52,53,54,55,56,57,58,59,60,61,62,63,64,65,66,67,68,69,70,71,72,0,1,2,3,4,5,6,7,8,9,10,11,12,13,14,15,16,17,18,19,20,21,22,23,24,25,26,27,28,29,30,31,32,33,34,35,36,37,38,39,40,41,42,43,44,45,46,47,48,49,50,51,52,53,54,55,56,57,58,59,60,61,62,63,64,65,66,67,68,69,70,71,72,0,1,2,3,4,5,6,7,8,9,10,11,12,13,14,15,16,17,18,19,20,21,22,23,24,25,26,27,28,29,30,31,32,33,34,35,36,37,38,39,40,41,42,43,44,45,46,47,48,49,50,51,52,53,54,55,56,57,58,59,60,61,62,63,64,65,66,67,68,69,70,71,72,0,1,2,3,4,5,6,7,8,9,10,11,12,13,14,15,16,17,18,19,20,21,22,23,24,25,26,27,28,29,30,31,32,33,34,35,36,37,38,39,40,41,42,43,44,45,46,47,48,49,50,51,52,53,54,55,56,57,58,59,60,61,62,63,64,65,66,67,68,69,70,71,72,0,1,2,3,4,5,6,7,8,9,10,11,12,13,14,15,16,17,18,19,20,21,22,23,24,25,26,27,28,29,30,31,32,33,34,35,36,37,38,39,40,41,42,43,44,45,46,47,48,49,50,51,52,53,54,55,56,57,58,59,60,61,62,63,64,65,66,67,68,69,70,71,72,0,1,2,3,4,5,6,7,8,9,10,11,12,13,14,15,16,17,18,19,20,21,22,23,24,25,26,27,28,29,30,31,32,33,34,35,36,37,38,39,40,41,42,43,44,45,46,47,48,49,50,51,52,53,54,55,56,57,58,59,60,61,62,63,64,65,66,67,68,69,70,71,72,0,1,2,3,4,5,6,7,8,9,10,11,12,13,14,15,16,17,18,19,20,21,22,23,24,25,26,27,28,29,30,31,32,33,34,35,36,37,38,39,40,41,42,43,44,45,46,47,48,49,50,51,52,53,54,55,56,57,58,59,60,61,62,63,64,65,66,67,68,69,70,71,72,0,1,2,3,4,5,6,7,8,9,10,11,12,13,14,15,16,17,18,19,20,21,22,23,24,25,26,27,28,29,30,31,32,33,34,35,36,37,38,39,40,41,42,43,44,45,46,47,48,49,50,51,52,53,54,55,56,57,58,59,60,61,62,63,64,65,66,67,68,69,70,71,72,0,1,2,3,4,5,6,7,8,9,10,11,12,13,14,15,16,17,18,19,20,21,22,23,24,25,26,27,28,29,30,31,32,33,34,35,36,37,38,39,40,41,42,43,44,45,46,47,48,49,50,51,52,53,54,55,56,57,58,59,60,61,62,63,64,65,66,67,68,69,70,71,72,0,1,2,3,4,5,6,7,8,9,10,11,12,13,14,15,16,17,18,19,20,21,22,23,24,25,26,27,28,29,30,31,32,33,34,35,36,37,38,39,40,41,42,43,44,45,46,47,48,49,50,51,52,53,54,55,56,57,58,59,60,61,62,63,64,65,66,67,68,69,70,71,72,0,1,2,3,4,5,6,7,8,9,10,11,12,13,14,15,16,17,18,19,20,21,22,23,24,25,26,27,28,29,30,31,32,33,34,35,36,37,38,39,40,41,42,43,44,45,46,47,48,49,50,51,52,53,54,55,56,57,58,59,60,61,62,63,64,65,66,67,68,69,70,71,72,0,1,2,3,4,5,6,7,8,9,10,11,12,13,14,15,16,17,18,19,20,21,22,23,24,25,26,27,28,29,30,31,32,33,34,35,36,37,38,39,40,41,42,43,44,45,46,47,48,49,50,51,52,53,54,55,56,57,58,59,60,61,62,63,64,65,66,67,68,69,70,71,72,0,1,2,3,4,5,6,7,8,9,10,11,12,13,14,15,16,17,18,19,20,21,22,23,24,25,26,27,28,29,30,31,32,33,34,35,36,37,38,39,40,41,42,43,44,45,46,47,48,49,50,51,52,53,54,55,56,57,58,59,60,61,62,63,64,65,66,67,68,69,70,71,72,0,1,2,3,4,5,6,7,8,9,10,11,12,13,14,15,16,17,18,19,20,21,22,23,24,25,26,27,28,29,30,31,32,33,34,35,36,37,38,39,40,41,42,43,44,45,46,47,48,49,50,51,52,53,54,55,56,57,58,59,60,61,62,63,64,65,66,67,68,69,70,71,72,0,1,2,3,4,5,6,7,8,9,10,11,12,13,14,15,16,17,18,19,20,21,22,23,24,25,26,27,28,29,30,31,32,33,34,35,36,37,38,39,40,41,42,43,44,45,46,47,48,49,50,51,52,53,54,55,56,57,58,59,60,61,62,63,64,65,66,67,68,69,70,71,72,0,1,2,3,4,5,6,7,8,9,10,11,12,13,14,15,16,17,18,19,20,21,22,23,24,25,26,27,28,29,30,31,32,33,34,35,36,37,38,39,40,41,42,43,44,45,46,47,48,49,50,51,52,53,54,55,56,57,58,59,60,61,62,63,64,65,66,67,68,69,70,71,72,0,1,2,3,4,5,6,7,8,9,10,11,12,13,14,15,16,17,18,19,20,21,22,23,24,25,26,27,28,29,30,31,32,33,34,35,36,37,38,39,40,41,42,43,44,45,46,47,48,49,50,51,52,53,54,55,56,57,58,59,60,61,62,63,64,65,66,67,68,69,70,71,72,0,1,2,3,4,5,6,7,8,9,10,11,12,13,14,15,16,17,18,19,20,21,22,23,24,25,26,27,28,29,30,31,32,33,34,35,36,37,38,39,40,41,42,43,44,45,46,47,48,49,50,51,52,53,54,55,56,57,58,59,60,61,62,63,64,65,66,67,68,69,70,71,72,0,1,2,3,4,5,6,7,8,9,10,11,12,13,14,15,16,17,18,19,20,21,22,23,24,25,26,27,28,29,30,31,32,33,34,35,36,37,38,39,40,41,42,43,44,45,46,47,48,49,50,51,52,53,54,55,56,57,58,59,60,61,62,63,64,65,66,67,68,69,70,71,72,0,1,2,3,4,5,6,7,8,9,10,11,12,13,14,15,16,17,18,19,20,21,22,23,24,25,26,27,28,29,30,31,32,33,34,35,36,37,38,39,40,41,42,43,44,45,46,47,48,49,50,51,52,53,54,55,56,57,58,59,60,61,62,63,64,65,66,67,68,69,70,71,72,0,1,2,3,4,5,6,7,8,9,10,11,12,13,14,15,16,17,18,19,20,21,22,23,24,25,26,27,28,29,30,31,32,33,34,35,36,37,38,39,40,41,42,43,44,45,46,47,48,49,50,51,52,53,54,55,56,57,58,59,60,61,62,63,64,65,66,67,68,69,70,71,72,0,1,2,3,4,5,6,7,8,9,10,11,12,13,14,15,16,17,18,19,20,21,22,23,24,25,26,27,28,29,30,31,32,33,34,35,36,37,38,39,40,41,42,43,44,45,46,47,48,49,50,51,52,53,54,55,56,57,58,59,60,61,62,63,64,65,66,67,68,69,70,71,72,0,1,2,3,4,5,6,7,8,9,10,11,12,13,14,15,16,17,18,19,20,21,22,23,24,25,26,27,28,29,30,31,32,33,34,35,36,37,38,39,40,41,42,43,44,45,46,47,48,49,50,51,52,53,54,55,56,57,58,59,60,61,62,63,64,65,66,67,68,69,70,71,72,0,1,2,3,4,5,6,7,8,9,10,11,12,13,14,15,16,17,18,19,20,21,22,23,24,25,26,27,28,29,30,31,32,33,34,35,36,37,38,39,40,41,42,43,44,45,46,47,48,49,50,51,52,53,54,55,56,57,58,59,60,61,62,63,64,65,66,67,68,69,70,71,72,0,1,2,3,4,5,6,7,8,9,10,11,12,13,14,15,16,17,18,19,20,21,22,23,24,25,26,27,28,29,30,31,32,33,34,35,36,37,38,39,40,41,42,43,44,45,46,47,48,49,50,51,52,53,54,55,56,57,58,59,60,61,62,63,64,65,66,67,68,69,70,71,72,0,1,2,3,4,5,6,7,8,9,10,11,12,13,14,15,16,17,18,19,20,21,22,23,24,25,26,27,28,29,30,31,32,33,34,35,36,37,38,39,40,41,42,43,44,45,46,47,48,49,50,51,52,53,54,55,56,57,58,59,60,61,62,63,64,65,66,67,68,69,70,71,72,0,1,2,3,4,5,6,7,8,9,10,11,12,13,14,15,16,17,18,19,20,21,22,23,24,25,26,27,28,29,30,31,32,33,34,35,36,37,38,39,40,41,42,43,44,45,46,47,48,49,50,51,52,53,54,55,56,57,58,59,60,61,62,63,64,65,66,67,68,69,70,71,72,0,1,2,3,4,5,6,7,8,9,10,11,12,13,14,15,16,17,18,19,20,21,22,23,24,25,26,27,28,29,30,31,32,33,34,35,36,37,38,39,40,41,42,43,44,45,46,47,48,49,50,51,52,53,54,55,56,57,58,59,60,61,62,63,64,65,66,67,68,69,70,71,72,0,1,2,3,4,5,6,7,8,9,10,11,12,13,14,15,16,17,18,19,20,21,22,23,24,25,26,27,28,29,30,31,32,33,34,35,36,37,38,39,40,41,42,43,44,45,46,47,48,49,50,51,52,53,54,55,56,57,58,59,60,61,62,63,64,65,66,67,68,69,70,71,72,0,1,2,3,4,5,6,7,8,9,10,11,12,13,14,15,16,17,18,19,20,21,22,23,24,25,26,27,28,29,30,31,32,33,34,35,36,37,38,39,40,41,42,43,44,45,46,47,48,49,50,51,52,53,54,55,56,57,58,59,60,61,62,63,64,65,66,67,68,69,70,71,72,0,1,2,3,4,5,6,7,8,9,10,11,12,13,14,15,16,17,18,19,20,21,22,23,24,25,26,27,28,29,30,31,32,33,34,35,36,37,38,39,40,41,42,43,44,45,46,47,48,49,50,51,52,53,54,55,56,57,58,59,60,61,62,63,64,65,66,67,68,69,70,71,72,0,1,2,3,4,5,6,7,8,9,10,11,12,13,14,15,16,17,18,19,20,21,22,23,24,25,26,27,28,29,30,31,32,33,34,35,36,37,38,39,40,41,42,43,44,45,46,47,48,49,50,51,52,53,54,55,56,57,58,59,60,61,62,63,64,65,66,67,68,69,70,71,72,0,1,2,3,4,5,6,7,8,9,10,11,12,13,14,15,16,17,18,19,20,21,22,23,24,25,26,27,28,29,30,31,32,33,34,35,36,37,38,39,40,41,42,43,44,45,46,47,48,49,50,51,52,53,54,55,56,57,58,59,60,61,62,63,64,65,66,67,68,69,70,71,72,0,1,2,3,4,5,6,7,8,9,10,11,12,13,14,15,16,17,18,19,20,21,22,23,24,25,26,27,28,29,30,31,32,33,34,35,36,37,38,39,40,41,42,43,44,45,46,47,48,49,50,51,52,53,54,55,56,57,58,59,60,61,62,63,64,65,66,67,68,69,70,71,72,0,1,2,3,4,5,6,7,8,9,10,11,12,13,14,15,16,17,18,19,20,21,22,23,24,25,26,27,28,29,30,31,32,33,34,35,36,37,38,39,40,41,42,43,44,45,46,47,48,49,50,51,52,53,54,55,56,57,58,59,60,61,62,63,64,65,66,67,68,69,70,71,72,0,1,2,3,4,5,6,7,8,9,10,11,12,13,14,15,16,17,18,19,20,21,22,23,24,25,26,27,28,29,30,31,32,33,34,35,36,37,38,39,40,41,42,43,44,45,46,47,48,49,50,51,52,53,54,55,56,57,58,59,60,61,62,63,64,65,66,67,68,69,70,71,72,0,1,2,3,4,5,6,7,8,9,10,11,12,13,14,15,16,17,18,19,20,21,22,23,24,25,26,27,28,29,30,31,32,33,34,35,36,37,38,39,40,41,42,43,44,45,46,47,48,49,50,51,52,53,54,55,56,57,58,59,60,61,62,63,64,65,66,67,68,69,70,71,72,0,1,2,3,4,5,6,7,8,9,10,11,12,13,14,15,16,17,18,19,20,21,22,23,24,25,26,27,28,29,30,31,32,33,34,35,36,37,38,39,40,41,42,43,44,45,46,47,48,49,50,51,52,53,54,55,56,57,58,59,60,61,62,63,64,65,66,67,68,69,70,71,72,0,1,2,3,4,5,6,7,8,9,10,11,12,13,14,15,16,17,18,19,20,21,22,23,24,25,26,27,28,29,30,31,32,33,34,35,36,37,38,39,40,41,42,43,44,45,46,47,48,49,50,51,52,53,54,55,56,57,58,59,60,61,62,63,64,65,66,67,68,69,70,71,72,0,1,2,3,4,5,6,7,8,9,10,11,12,13,14,15,16,17,18,19,20,21,22,23,24,25,26,27,28,29,30,31,32,33,34,35,36,37,38,39,40,41,42,43,44,45,46,47,48,49,50,51,52,53,54,55,56,57,58,59,60,61,62,63,64,65,66,67,68,69,70,71,72,0,1,2,3,4,5,6,7,8,9,10,11,12,13,14,15,16,17,18,19,20,21,22,23,24,25,26,27,28,29,30,31,32,33,34,35,36,37,38,39,40,41,42,43,44,45,46,47,48,49,50,51,52,53,54,55,56,57,58,59,60,61,62,63,64,65,66,67,68,69,70,71,72,0,1,2,3,4,5,6,7,8,9,10,11,12,13,14,15,16,17,18,19,20,21,22,23,24,25,26,27,28,29,30,31,32,33,34,35,36,37,38,39,40,41,42,43,44,45,46,47,48,49,50,51,52,53,54,55,56,57,58,59,60,61,62,63,64,65,66,67,68,69,70,71,72,0,1,2,3,4,5,6,7,8,9,10,11,12,13,14,15,16,17,18,19,20,21,22,23,24,25,26,27,28,29,30,31,32,33,34,35,36,37,38,39,40,41,42,43,44,45,46,47,48,49,50,51,52,53,54,55,56,57,58,59,60,61,62,63,64,65,66,67,68,69,70,71,72,0,1,2,3,4,5,6,7,8,9,10,11,12,13,14,15,16,17,18,19,20,21,22,23,24,25,26,27,28,29,30,31,32,33,34,35,36,37,38,39,40,41,42,43,44,45,46,47,48,49,50,51,52,53,54,55,56,57,58,59,60,61,62,63,64,65,66,67,68,69,70,71,72,0,1,2,3,4,5,6,7,8,9,10,11,12,13,14,15,16,17,18,19,20,21,22,23,24,25,26,27,28,29,30,31,32,33,34,35,36,37,38,39,40,41,42,43,44,45,46,47,48,49,50,51,52,53,54,55,56,57,58,59,60,61,62,63,64,65,66,67,68,69,70,71,72,0,1,2,3,4,5,6,7,8,9,10,11,12,13,14,15,16,17,18,19,20,21,22,23,24,25,26,27,28,29,30,31,32,33,34,35,36,37,38,39,40,41,42,43,44,45,46,47,48,49,50,51,52,53,54,55,56,57,58,59,60,61,62,63,64,65,66,67,68,69,70,71,72,0,1,2,3,4,5,6,7,8,9,10,11,12,13,14,15,16,17,18,19,20,21,22,23,24,25,26,27,28,29,30,31,32,33,34,35,36,37,38,39,40,41,42,43,44,45,46,47,48,49,50,51,52,53,54,55,56,57,58,59,60,61,62,63,64,65,66,67,68,69,70,71,72,0,1,2,3,4,5,6,7,8,9,10,11,12,13,14,15,16,17,18,19,20,21,22,23,24,25,26,27,28,29,30,31,32,33,34,35,36,37,38,39,40,41,42,43,44,45,46,47,48,49,50,51,52,53,54,55,56,57,58,59,60,61,62,63,64,65,66,67,68,69,70,71,72,0,1,2,3,4,5,6,7,8,9,10,11,12,13,14,15,16,17,18,19,20,21,22,23,24,25,26,27,28,29,30,31,32,33,34,35,36,37,38,39,40,41,42,43,44,45,46,47,48,49,50,51,52,53,54,55,56,57,58,59,60,61,62,63,64,65,66,67,68,69,70,71,72,0,1,2,3,4,5,6,7,8,9,10,11,12,13,14,15,16,17,18,19,20,21,22,23,24,25,26,27,28,29,30,31,32,33,34,35,36,37,38,39,40,41,42,43,44,45,46,47,48,49,50,51,52,53,54,55,56,57,58,59,60,61,62,63,64,65,66,67,68,69,70,71,72,0,1,2,3,4,5,6,7,8,9,10,11,12,13,14,15,16,17,18,19,20,21,22,23,24,25,26,27,28,29,30,31,32,33,34,35,36,37,38,39,40,41,42,43,44,45,46,47,48,49,50,51,52,53,54,55,56,57,58,59,60,61,62,63,64,65,66,67,68,69,70,71,72,0,1,2,3,4,5,6,7,8,9,10,11,12,13,14,15,16,17,18,19,20,21,22,23,24,25,26,27,28,29,30,31,32,33,34,35,36,37,38,39,40,41,42,43,44,45,46,47,48,49,50,51,52,53,54,55,56,57,58,59,60,61,62,63,64,65,66,67,68,69,70,71,72,0,1,2,3,4,5,6,7,8,9,10,11,12,13,14,15,16,17,18,19,20,21,22,23,24,25,26,27,28,29,30,31,32,33,34,35,36,37,38,39,40,41,42,43,44,45,46,47,48,49,50,51,52,53,54,55,56,57,58,59,60,61,62,63,64,65,66,67,68,69,70,71,72,0,1,2,3,4,5,6,7,8,9,10,11,12,13,14,15,16,17,18,19,20,21,22,23,24,25,26,27,28,29,30,31,32,33,34,35,36,37,38,39,40,41,42,43,44,45,46,47,48,49,50,51,52,53,54,55,56,57,58,59,60,61,62,63,64,65,66,67,68,69,70,71,72,0,1,2,3,4,5,6,7,8,9,10,11,12,13,14,15,16,17,18,19,20,21,22,23,24,25,26,27,28,29,30,31,32,33,34,35,36,37,38,39,40,41,42,43,44,45,46,47,48,49,50,51,52,53,54,55,56,57,58,59,60,61,62,63,64,65,66,67,68,69,70,71,72,0,1,2,3,4,5,6,7,8,9,10,11,12,13,14,15,16,17,18,19,20,21,22,23,24,25,26,27,28,29,30,31,32,33,34,35,36,37,38,39,40,41,42,43,44,45,46,47,48,49,50,51,52,53,54,55,56,57,58,59,60,61,62,63,64,65,66,67,68,69,70,71,72,0,1,2,3,4,5,6,7,8,9,10,11,12,13,14,15,16,17,18,19,20,21,22,23,24,25,26,27,28,29,30,31,32,33,34,35,36,37,38,39,40,41,42,43,44,45,46,47,48,49,50,51,52,53,54,55,56,57,58,59,60,61,62,63,64,65,66,67,68,69,70,71,72,0,1,2,3,4,5,6,7,8,9,10,11,12,13,14,15,16,17,18,19,20,21,22,23,24,25,26,27,28,29,30,31,32,33,34,35,36,37,38,39,40,41,42,43,44,45,46,47,48,49,50,51,52,53,54,55,56,57,58,59,60,61,62,63,64,65,66,67,68,69,70,71,72,0,1,2,3,4,5,6,7,8,9,10,11,12,13,14,15,16,17,18,19,20,21,22,23,24,25,26,27,28,29,30,31,32,33,34,35,36,37,38,39,40,41,42,43,44,45,46,47,48,49,50,51,52,53,54,55,56,57,58,59,60,61,62,63,64,65,66,67,68,69,70,71,72,0,1,2,3,4,5,6,7,8,9,10,11,12,13,14,15,16,17,18,19,20,21,22,23,24,25,26,27,28,29,30,31,32,33,34,35,36,37,38,39,40,41,42,43,44,45,46,47,48,49,50,51,52,53,54,55,56,57,58,59,60,61,62,63,64,65,66,67,68,69,70,71,72,0,1,2,3,4,5,6,7,8,9,10,11,12,13,14,15,16,17,18,19,20,21,22,23,24,25,26,27,28,29,30,31,32,33,34,35,36,37,38,39,40,41,42,43,44,45,46,47,48,49,50,51,52,53,54,55,56,57,58,59,60,61,62,63,64,65,66,67,68,69,70,71,72,0,1,2,3,4,5,6,7,8,9,10,11,12,13,14,15,16,17,18,19,20,21,22,23,24,25,26,27,28,29,30,31,32,33,34,35,36,37,38,39,40,41,42,43,44,45,46,47,48,49,50,51,52,53,54,55,56,57,58,59,60,61,62,63,64,65,66,67,68,69,70,71,72,0,1,2,3,4,5,6,7,8,9,10,11,12,13,14,15,16,17,18,19,20,21,22,23,24,25,26,27,28,29,30,31,32,33,34,35,36,37,38,39,40,41,42,43,44,45,46,47,48,49,50,51,52,53,54,55,56,57,58,59,60,61,62,63,64,65,66,67,68,69,70,71,72,0,1,2,3,4,5,6,7,8,9,10,11,12,13,14,15,16,17,18,19,20,21,22,23,24,25,26,27,28,29,30,31,32,33,34,35,36,37,38,39,40,41,42,43,44,45,46,47,48,49,50,51,52,53,54,55,56,57,58,59,60,61,62,63,64,65,66,67,68,69,70,71,72,0,1,2,3,4,5,6,7,8,9,10,11,12,13,14,15,16,17,18,19,20,21,22,23,24,25,26,27,28,29,30,31,32,33,34,35,36,37,38,39,40,41,42,43,44,45,46,47,48,49,50,51,52,53,54,55,56,57,58,59,60,61,62,63,64,65,66,67,68,69,70,71,72,0,1,2,3,4,5,6,7,8,9,10,11,12,13,14,15,16,17,18,19,20,21,22,23,24,25,26,27,28,29,30,31,32,33,34,35,36,37,38,39,40,41,42,43,44,45,46,47,48,49,50,51,52,53,54,55,56,57,58,59,60,61,62,63,64,65,66,67,68,69,70,71,72,0,1,2,3,4,5,6,7,8,9,10,11,12,13,14,15,16,17,18,19,20,21,22,23,24,25,26,27,28,29,30,31,32,33,34,35,36,37,38,39,40,41,42,43,44,45,46,47,48,49,50,51,52,53,54,55,56,57,58,59,60,61,62,63,64,65,66,67,68,69,70,71,72,0,1,2,3,4,5,6,7,8,9,10,11,12,13,14,15,16,17,18,19,20,21,22,23,24,25,26,27,28,29,30,31,32,33,34,35,36,37,38,39,40,41,42,43,44,45,46,47,48,49,50,51,52,53,54,55,56,57,58,59,60,61,62,63,64,65,66,67,68,69,70,71,72,0,1,2,3,4,5,6,7,8,9,10,11,12,13,14,15,16,17,18,19,20,21,22,23,24,25,26,27,28,29,30,31,32,33,34,35,36,37,38,39,40,41,42,43,44,45,46,47,48,49,50,51,52,53,54,55,56,57,58,59,60,61,62,63,64,65,66,67,68,69,70,71,72,0,1,2,3,4,5,6,7,8,9,10,11,12,13,14,15,16,17,18,19,20,21,22,23,24,25,26,27,28,29,30,31,32,33,34,35,36,37,38,39,40,41,42,43,44,45,46,47,48,49,50,51,52,53,54,55,56,57,58,59,60,61,62,63,64,65,66,67,68,69,70,71,72,0,1,2,3,4,5,6,7,8,9,10,11,12,13,14,15,16,17,18,19,20,21,22,23,24,25,26,27,28,29,30,31,32,33,34,35,36,37,38,39,40,41,42,43,44,45,46,47,48,49,50,51,52,53,54,55,56,57,58,59,60,61,62,63,64,65,66,67,68,69,70,71,72,0,1,2,3,4,5,6,7,8,9,10,11,12,13,14,15,16,17,18,19,20,21,22,23,24,25,26,27,28,29,30,31,32,33,34,35,36,37,38,39,40,41,42,43,44,45,46,47,48,49,50,51,52,53,54,55,56,57,58,59,60,61,62,63,64,65,66,67,68,69,70,71,72,0,1,2,3,4,5,6,7,8,9,10,11,12,13,14,15,16,17,18,19,20,21,22,23,24,25,26,27,28,29,30,31,32,33,34,35,36,37,38,39,40,41,42,43,44,45,46,47,48,49,50,51,52,53,54,55,56,57,58,59,60,61,62,63,64,65,66,67,68,69,70,71,72,0,1,2,3,4,5,6,7,8,9,10,11,12,13,14,15,16,17,18,19,20,21,22,23,24,25,26,27,28,29,30,31,32,33,34,35,36,37,38,39,40,41,42,43,44,45,46,47,48,49,50,51,52,53,54,55,56,57,58,59,60,61,62,63,64,65,66,67,68,69,70,71,72,0,1,2,3,4,5,6,7,8,9,10,11,12,13,14,15,16,17,18,19,20,21,22,23,24,25,26,27,28,29,30,31,32,33,34,35,36,37,38,39,40,41,42,43,44,45,46,47,48,49,50,51,52,53,54,55,56,57,58,59,60,61,62,63,64,65,66,67,68,69,70,71,72,0,1,2,3,4,5,6,7,8,9,10,11,12,13,14,15,16,17,18,19,20,21,22,23,24,25,26,27,28,29,30,31,32,33,34,35,36,37,38,39,40,41,42,43,44,45,46,47,48,49,50,51,52,53,54,55,56,57,58,59,60,61,62,63,64,65,66,67,68,69,70,71,72,0,1,2,3,4,5,6,7,8,9,10,11,12,13,14,15,16,17,18,19,20,21,22,23,24,25,26,27,28,29,30,31,32,33,34,35,36,37,38,39,40,41,42,43,44,45,46,47,48,49,50,51,52,53,54,55,56,57,58,59,60,61,62,63,64,65,66,67,68,69,70,71,72,0,1,2,3,4,5,6,7,8,9,10,11,12,13,14,15,16,17,18,19,20,21,22,23,24,25,26,27,28,29,30,31,32,33,34,35,36,37,38,39,40,41,42,43,44,45,46,47,48,49,50,51,52,53,54,55,56,57,58,59,60,61,62,63,64,65,66,67,68,69,70,71,72,0,1,2,3,4,5,6,7,8,9,10,11,12,13,14,15,16,17,18,19,20,21,22,23,24,25,26,27,28,29,30,31,32,33,34,35,36,37,38,39,40,41,42,43,44,45,46,47,48,49,50,51,52,53,54,55,56,57,58,59,60,61,62,63,64,65,66,67,68,69,70,71,72,0,1,2,3,4,5,6,7,8,9,10,11,12,13,14,15,16,17,18,19,20,21,22,23,24,25,26,27,28,29,30,31,32,33,34,35,36,37,38,39,40,41,42,43,44,45,46,47,48,49,50,51,52,53,54,55,56,57,58,59,60,61,62,63,64,65,66,67,68,69,70,71,72,0,1,2,3,4,5,6,7,8,9,10,11,12,13,14,15,16,17,18,19,20,21,22,23,24,25,26,27,28,29,30,31,32,33,34,35,36,37,38,39,40,41,42,43,44,45,46,47,48,49,50,51,52,53,54,55,56,57,58,59,60,61,62,63,64,65,66,67,68,69,70,71,72,0,1,2,3,4,5,6,7,8,9,10,11,12,13,14,15,16,17,18,19,20,21,22,23,24,25,26,27,28,29,30,31,32,33,34,35,36,37,38,39,40,41,42,43,44,45,46,47,48,49,50,51,52,53,54,55,56,57,58,59,60,61,62,63,64,65,66,67,68,69,70,71,72,0,1,2,3,4,5,6,7,8,9,10,11,12,13,14,15,16,17,18,19,20,21,22,23,24,25,26,27,28,29,30,31,32,33,34,35,36,37,38,39,40,41,42,43,44,45,46,47,48,49,50,51,52,53,54,55,56,57,58,59,60,61,62,63,64,65,66,67,68,69,70,71,72,0,1,2,3,4,5,6,7,8,9,10,11,12,13,14,15,16,17,18,19,20,21,22,23,24,25,26,27,28,29,30,31,32,33,34,35,36,37,38,39,40,41,42,43,44,45,46,47,48,49,50,51,52,53,54,55,56,57,58,59,60,61,62,63,64,65,66,67,68,69,70,71,72,0,1,2,3,4,5,6,7,8,9,10,11,12,13,14,15,16,17,18,19,20,21,22,23,24,25,26,27,28,29,30,31,32,33,34,35,36,37,38,39,40,41,42,43,44,45,46,47,48,49,50,51,52,53,54,55,56,57,58,59,60,61,62,63,64,65,66,67,68,69,70,71,72,0,1,2,3,4,5,6,7,8,9,10,11,12,13,14,15,16,17,18,19,20,21,22,23,24,25,26,27,28,29,30,31,32,33,34,35,36,37,38,39,40,41,42,43,44,45,46,47,48,49,50,51,52,53,54,55,56,57,58,59,60,61,62,63,64,65,66,67,68,69,70,71,72,0,1,2,3,4,5,6,7,8,9,10,11,12,13,14,15,16,17,18,19,20,21,22,23,24,25,26,27,28,29,30,31,32,33,34,35,36,37,38,39,40,41,42,43,44,45,46,47,48,49,50,51,52,53,54,55,56,57,58,59,60,61,62,63,64,65,66,67,68,69,70,71,72,0,1,2,3,4,5,6,7,8,9,10,11,12,13,14,15,16,17,18,19,20,21,22,23,24,25,26,27,28,29,30,31,32,33,34,35,36,37,38,39,40,41,42,43,44,45,46,47,48,49,50,51,52,53,54,55,56,57,58,59,60,61,62,63,64,65,66,67,68,69,70,71,72,0,1,2,3,4,5,6,7,8,9,10,11,12,13,14,15,16,17,18,19,20,21,22,23,24,25,26,27,28,29,30,31,32,33,34,35,36,37,38,39,40,41,42,43,44,45,46,47,48,49,50,51,52,53,54,55,56,57,58,59,60,61,62,63,64,65,66,67,68,69,70,71,72,0,1,2,3,4,5,6,7,8,9,10,11,12,13,14,15,16,17,18,19,20,21,22,23,24,25,26,27,28,29,30,31,32,33,34,35,36,37,38,39,40,41,42,43,44,45,46,47,48,49,50,51,52,53,54,55,56,57,58,59,60,61,62,63,64,65,66,67,68,69,70,71,72,0,1,2,3,4,5,6,7,8,9,10,11,12,13,14,15,16,17,18,19,20,21,22,23,24,25,26,27,28,29,30,31,32,33,34,35,36,37,38,39,40,41,42,43,44,45,46,47,48,49,50,51,52,53,54,55,56,57,58,59,60,61,62,63,64,65,66,67,68,69,70,71,72,0,1,2,3,4,5,6,7,8,9,10,11,12,13,14,15,16,17,18,19,20,21,22,23,24,25,26,27,28,29,30,31,32,33,34,35,36,37,38,39,40,41,42,43,44,45,46,47,48,49,50,51,52,53,54,55,56,57,58,59,60,61,62,63,64,65,66,67,68,69,70,71,72,0,1,2,3,4,5,6,7,8,9,10,11,12,13,14,15,16,17,18,19,20,21,22,23,24,25,26,27,28,29,30,31,32,33,34,35,36,37,38,39,40,41,42,43,44,45,46,47,48,49,50,51,52,53,54,55,56,57,58,59,60,61,62,63,64,65,66,67,68,69,70,71,72,0,1,2,3,4,5,6,7,8,9,10,11,12,13,14,15,16,17,18,19,20,21,22,23,24,25,26,27,28,29,30,31,32,33,34,35,36,37,38,39,40,41,42,43,44,45,46,47,48,49,50,51,52,53,54,55,56,57,58,59,60,61,62,63,64,65,66,67,68,69,70,71,72,0,1,2,3,4,5,6,7,8,9,10,11,12,13,14,15,16,17,18,19,20,21,22,23,24,25,26,27,28,29,30,31,32,33,34,35,36,37,38,39,40,41,42,43,44,45,46,47,48,49,50,51,52,53,54,55,56,57,58,59,60,61,62,63,64,65,66,67,68,69,70,71,72,0,1,2,3,4,5,6,7,8,9,10,11,12,13,14,15,16,17,18,19,20,21,22,23,24,25,26,27,28,29,30,31,32,33,34,35,36,37,38,39,40,41,42,43,44,45,46,47,48,49,50,51,52,53,54,55,56,57,58,59,60,61,62,63,64,65,66,67,68,69,70,71,72,0,1,2,3,4,5,6,7,8,9,10,11,12,13,14,15,16,17,18,19,20,21,22,23,24,25,26,27,28,29,30,31,32,33,34,35,36,37,38,39,40,41,42,43,44,45,46,47,48,49,50,51,52,53,54,55,56,57,58,59,60,61,62,63,64,65,66,67,68,69,70,71,72,0,1,2,3,4,5,6,7,8,9,10,11,12,13,14,15,16,17,18,19,20,21,22,23,24,25,26,27,28,29,30,31,32,33,34,35,36,37,38,39,40,41,42,43,44,45,46,47,48,49,50,51,52,53,54,55,56,57,58,59,60,61,62,63,64,65,66,67,68,69,70,71,72,0,1,2,3,4,5,6,7,8,9,10,11,12,13,14,15,16,17,18,19,20,21,22,23,24,25,26,27,28,29,30,31,32,33,34,35,36,37,38,39,40,41,42,43,44,45,46,47,48,49,50,51,52,53,54,55,56,57,58,59,60,61,62,63,64,65,66,67,68,69,70,71,72,0,1,2,3,4,5,6,7,8,9,10,11,12,13,14,15,16,17,18,19,20,21,22,23,24,25,26,27,28,29,30,31,32,33,34,35,36,37,38,39,40,41,42,43,44,45,46,47,48,49,50,51,52,53,54,55,56,57,58,59,60,61,62,63,64,65,66,67,68,69,70,71,72],"trees":[{"base_weights":[3.1965145E-1,1.2233126E0,-3.4930268E-1],"categories":[],"categories_nodes":[],"categories_segments":[],"categories_sizes":[],"default_left":[1,0,0],"id":0,"left_children":[1,-1,-1],"loss_changes":[2.9920125E0,0E0,0E0],"parents":[2147483647,0,0],"right_children":[2,-1,-1],"split_conditions":[7.85E1,3.6699378E-1,-1.0479081E-1],"split_indices":[0,0,0],"split_type":[0,0,0],"sum_hessian":[3.2426348E0,1.0268344E0,2.2158003E0],"tree_param":{"num_deleted":"0","num_feature":"160","num_nodes":"3","size_leaf_vector":"0"}},{"base_weights":[-1.5175372E-1,2.3655216E-1,-3.4930268E-1],"categories":[],"categories_nodes":[],"categories_segments":[],"categories_sizes":[],"default_left":[1,0,0],"id":1,"left_children":[1,-1,-1],"loss_changes":[4.080784E-1,0E0,0E0],"parents":[2147483647,0,0],"right_children":[2,-1,-1],"split_conditions":[7.85E1,7.0965655E-2,-1.0479081E-1],"split_indices":[0,0,0],"split_type":[0,0,0],"sum_hessian":[3.2426348E0,1.0268344E0,2.2158003E0],"tree_param":{"num_deleted":"0","num_feature":"160","num_nodes":"3","size_leaf_vector":"0"}},{"base_weights":[8.3948866E-2,7.299324E-1,-3.4930268E-1],"categories":[],"categories_nodes":[],"categories_segments":[],"categories_sizes":[],"default_left":[1,0,0],"id":2,"left_children":[1,-1,-1],"loss_changes":[1.4423678E0,0E0,0E0],"parents":[2147483647,0,0],"right_children":[2,-1,-1],"split_conditions":[7.85E1,2.1897973E-1,-1.0479081E-1],"split_indices":[0,0,0],"split_type":[0,0,0],"sum_hessian":[3.2426348E0,1.0268344E0,2.2158003E0],"tree_param":{"num_deleted":"0","num_feature":"160","num_nodes":"3","size_leaf_vector":"0"}},{"base_weights":[8.3948866E-2,7.299324E-1,-3.4930268E-1],"categories":[],"categories_nodes":[],"categories_segments":[],"categories_sizes":[],"default_left":[1,0,0],"id":3,"left_children":[1,-1,-1],"loss_changes":[1.4423678E0,0E0,0E0],"parents":[2147483647,0,0],"right_children":[2,-1,-1],"split_conditions":[7.85E1,2.1897973E-1,-1.0479081E-1],"split_indices":[0,0,0],"split_type":[0,0,0],"sum_hessian":[3.2426348E0,1.0268344E0,2.2158003E0],"tree_param":{"num_deleted":"0","num_feature":"160","num_nodes":"3","size_leaf_vector":"0"}},{"base_weights":[1.0267593E0,2.7034533E0,-3.4930268E-1],"categories":[],"categories_nodes":[],"categories_segments":[],"categories_sizes":[],"default_left":[1,0,0],"id":4,"left_children":[1,-1,-1],"loss_changes":[1.073308E1,0E0,0E0],"parents":[2147483647,0,0],"right_children":[2,-1,-1],"split_conditions":[7.85E1,8.1103605E-1,-1.0479081E-1],"split_indices":[0,0,0],"split_type":[0,0,0],"sum_hessian":[3.2426348E0,1.0268344E0,2.2158003E0],"tree_param":{"num_deleted":"0","num_feature":"160","num_nodes":"3","size_leaf_vector":"0"}},{"base_weights":[8.3948866E-2,7.299324E-1,-3.4930268E-1],"categories":[],"categories_nodes":[],"categories_segments":[],"categories_sizes":[],"default_left":[1,0,0],"id":5,"left_children":[1,-1,-1],"loss_changes":[1.4423678E0,0E0,0E0],"parents":[2147483647,0,0],"right_children":[2,-1,-1],"split_conditions":[7.85E1,2.1897973E-1,-1.0479081E-1],"split_indices":[0,0,0],"split_type":[0,0,0],"sum_hessian":[3.2426348E0,1.0268344E0,2.2158003E0],"tree_param":{"num_deleted":"0","num_feature":"160","num_nodes":"3","size_leaf_vector":"0"}},{"base_weights":[3.1965145E-1,1.2233126E0,-3.4930268E-1],"categories":[],"categories_nodes":[],"categories_segments":[],"categories_sizes":[],"default_left":[1,0,0],"id":6,"left_children":[1,-1,-1],"loss_changes":[2.9920125E0,0E0,0E0],"parents":[2147483647,0,0],"right_children":[2,-1,-1],"split_conditions":[7.85E1,3.6699378E-1,-1.0479081E-1],"split_indices":[0,0,0],"split_type":[0,0,0],"sum_hessian":[3.2426348E0,1.0268344E0,2.2158003E0],"tree_param":{"num_deleted":"0","num_feature":"160","num_nodes":"3","size_leaf_vector":"0"}},{"base_weights":[-1.5175372E-1,2.3655216E-1,-3.4930268E-1],"categories":[],"categories_nodes":[],"categories_segments":[],"categories_sizes":[],"default_left":[1,0,0],"id":7,"left_children":[1,-1,-1],"loss_changes":[4.080784E-1,0E0,0E0],"parents":[2147483647,0,0],"right_children":[2,-1,-1],"split_conditions":[7.85E1,7.0965655E-2,-1.0479081E-1],"split_indices":[0,0,0],"split_type":[0,0,0],"sum_hessian":[3.2426348E0,1.0268344E0,2.2158003E0],"tree_param":{"num_deleted":"0","num_feature":"160","num_nodes":"3","size_leaf_vector":"0"}},{"base_weights":[-1.5175372E-1,2.3655216E-1,-3.4930268E-1],"categories":[],"categories_nodes":[],"categories_segments":[],"categories_sizes":[],"default_left":[1,0,0],"id":8,"left_children":[1,-1,-1],"loss_changes":[4.080784E-1,0E0,0E0],"parents":[2147483647,0,0],"right_children":[2,-1,-1],"split_conditions":[7.85E1,7.0965655E-2,-1.0479081E-1],"split_indices":[0,0,0],"split_type":[0,0,0],"sum_hessian":[3.2426348E0,1.0268344E0,2.2158003E0],"tree_param":{"num_deleted":"0","num_feature":"160","num_nodes":"3","size_leaf_vector":"0"}},{"base_weights":[8.3948866E-2,7.299324E-1,-3.4930268E-1],"categories":[],"categories_nodes":[],"categories_segments":[],"categories_sizes":[],"default_left":[1,0,0],"id":9,"left_children":[1,-1,-1],"loss_changes":[1.4423678E0,0E0,0E0],"parents":[2147483647,0,0],"right_children":[2,-1,-1],"split_conditions":[7.85E1,2.1897973E-1,-1.0479081E-1],"split_indices":[0,0,0],"split_type":[0,0,0],"sum_hessian":[3.2426348E0,1.0268344E0,2.2158003E0],"tree_param":{"num_deleted":"0","num_feature":"160","num_nodes":"3","size_leaf_vector":"0"}},{"base_weights":[-1.5175372E-1,2.3655216E-1,-3.4930268E-1],"categories":[],"categories_nodes":[],"categories_segments":[],"categories_sizes":[],"default_left":[1,0,0],"id":10,"left_children":[1,-1,-1],"loss_changes":[4.080784E-1,0E0,0E0],"parents":[2147483647,0,0],"right_children":[2,-1,-1],"split_conditions":[7.85E1,7.0965655E-2,-1.0479081E-1],"split_indices":[0,0,0],"split_type":[0,0,0],"sum_hessian":[3.2426348E0,1.0268344E0,2.2158003E0],"tree_param":{"num_deleted":"0","num_feature":"160","num_nodes":"3","size_leaf_vector":"0"}},{"base_weights":[-1.5175372E-1,2.3655216E-1,-3.4930268E-1],"categories":[],"categories_nodes":[],"categories_segments":[],"categories_sizes":[],"default_left":[1,0,0],"id":11,"left_children":[1,-1,-1],"loss_changes":[4.080784E-1,0E0,0E0],"parents":[2147483647,0,0],"right_children":[2,-1,-1],"split_conditions":[1E2,7.0965655E-2,-1.0479081E-1],"split_indices":[1,0,0],"split_type":[0,0,0],"sum_hessian":[3.2426348E0,1.0268344E0,2.2158003E0],"tree_param":{"num_deleted":"0","num_feature":"160","num_nodes":"3","size_leaf_vector":"0"}},{"base_weights":[-1.5175372E-1,2.3655216E-1,-3.4930268E-1],"categories":[],"categories_nodes":[],"categories_segments":[],"categories_sizes":[],"default_left":[1,0,0],"id":12,"left_children":[1,-1,-1],"loss_changes":[4.080784E-1,0E0,0E0],"parents":[2147483647,0,0],"right_children":[2,-1,-1],"split_conditions":[1E2,7.0965655E-2,-1.0479081E-1],"split_indices":[1,0,0],"split_type":[0,0,0],"sum_hessian":[3.2426348E0,1.0268344E0,2.2158003E0],"tree_param":{"num_deleted":"0","num_feature":"160","num_nodes":"3","size_leaf_vector":"0"}},{"base_weights":[-1.5175372E-1,2.3655216E-1,-3.4930268E-1],"categories":[],"categories_nodes":[],"categories_segments":[],"categories_sizes":[],"default_left":[1,0,0],"id":13,"left_children":[1,-1,-1],"loss_changes":[4.080784E-1,0E0,0E0],"parents":[2147483647,0,0],"right_children":[2,-1,-1],"split_conditions":[7.85E1,7.0965655E-2,-1.0479081E-1],"split_indices":[0,0,0],"split_type":[0,0,0],"sum_hessian":[3.2426348E0,1.0268344E0,2.2158003E0],"tree_param":{"num_deleted":"0","num_feature":"160","num_nodes":"3","size_leaf_vector":"0"}},{"base_weights":[5.5535406E-1,1.7166929E0,-3.4930268E-1],"categories":[],"categories_nodes":[],"categories_segments":[],"categories_sizes":[],"default_left":[1,0,0],"id":14,"left_children":[1,-1,-1],"loss_changes":[5.0570126E0,0E0,0E0],"parents":[2147483647,0,0],"right_children":[2,-1,-1],"split_conditions":[7.85E1,5.150079E-1,-1.0479081E-1],"split_indices":[0,0,0],"split_type":[0,0,0],"sum_hessian":[3.2426348E0,1.0268344E0,2.2158003E0],"tree_param":{"num_deleted":"0","num_feature":"160","num_nodes":"3","size_leaf_vector":"0"}},{"base_weights":[3.1965145E-1,1.2233126E0,-3.4930268E-1],"categories":[],"categories_nodes":[],"categories_segments":[],"categories_sizes":[],"default_left":[1,0,0],"id":15,"left_children":[1,-1,-1],"loss_changes":[2.9920125E0,0E0,0E0],"parents":[2147483647,0,0],"right_children":[2,-1,-1],"split_conditions":[7.85E1,3.6699378E-1,-1.0479081E-1],"split_indices":[0,0,0],"split_type":[0,0,0],"sum_hessian":[3.2426348E0,1.0268344E0,2.2158003E0],"tree_param":{"num_deleted":"0","num_feature":"160","num_nodes":"3","size_leaf_vector":"0"}},{"base_weights":[-1.5175372E-1,2.3655216E-1,-3.4930268E-1],"categories":[],"categories_nodes":[],"categories_segments":[],"categories_sizes":[],"default_left":[1,0,0],"id":16,"left_children":[1,-1,-1],"loss_changes":[4.080784E-1,0E0,0E0],"parents":[2147483647,0,0],"right_children":[2,-1,-1],"split_conditions":[7.85E1,7.0965655E-2,-1.0479081E-1],"split_indices":[0,0,0],"split_type":[0,0,0],"sum_hessian":[3.2426348E0,1.0268344E0,2.2158003E0],"tree_param":{"num_deleted":"0","num_feature":"160","num_nodes":"3","size_leaf_vector":"0"}},{"base_weights":[5.5535406E-1,1.7166929E0,-3.4930268E-1],"categories":[],"categories_nodes":[],"categories_segments":[],"categories_sizes":[],"default_left":[1,0,0],"id":17,"left_children":[1,-1,-1],"loss_changes":[5.0570126E0,0E0,0E0],"parents":[2147483647,0,0],"right_children":[2,-1,-1],"split_conditions":[7.85E1,5.150079E-1,-1.0479081E-1],"split_indices":[0,0,0],"split_type":[0,0,0],"sum_hessian":[3.2426348E0,1.0268344E0,2.2158003E0],"tree_param":{"num_deleted":"0","num_feature":"160","num_nodes":"3","size_leaf_vector":"0"}},{"base_weights":[-1.5175372E-1,2.3655216E-1,-3.4930268E-1],"categories":[],"categories_nodes":[],"categories_segments":[],"categories_sizes":[],"default_left":[1,0,0],"id":18,"left_children":[1,-1,-1],"loss_changes":[4.080784E-1,0E0,0E0],"parents":[2147483647,0,0],"right_children":[2,-1,-1],"split_conditions":[7.85E1,7.0965655E-2,-1.0479081E-1],"split_indices":[0,0,0],"split_type":[0,0,0],"sum_hessian":[3.2426348E0,1.0268344E0,2.2158003E0],"tree_param":{"num_deleted":"0","num_feature":"160","num_nodes":"3","size_leaf_vector":"0"}},{"base_weights":[-1.5175372E-1,2.3655216E-1,-3.4930268E-1],"categories":[],"categories_nodes":[],"categories_segments":[],"categories_sizes":[],"default_left":[1,0,0],"id":19,"left_children":[1,-1,-1],"loss_changes":[4.080784E-1,0E0,0E0],"parents":[2147483647,0,0],"right_children":[2,-1,-1],"split_conditions":[2.46E2,7.0965655E-2,-1.0479081E-1],"split_indices":[29,0,0],"split_type":[0,0,0],"sum_hessian":[3.2426348E0,1.0268344E0,2.2158003E0],"tree_param":{"num_deleted":"0","num_feature":"160","num_nodes":"3","size_leaf_vector":"0"}},{"base_weights":[8.3948866E-2,6.978086E-1,-3.466081E-1],"categories":[],"categories_nodes":[],"categories_segments":[],"categories_sizes":[],"default_left":[1,0,0],"id":20,"left_children":[1,-1,-1],"loss_changes":[1.3632011E0,0E0,0E0],"parents":[2147483647,0,0],"right_children":[2,-1,-1],"split_conditions":[6.85E1,2.093426E-1,-1.0398243E-1],"split_indices":[85,0,0],"split_type":[0,0,0],"sum_hessian":[3.2426348E0,1.0808783E0,2.1617565E0],"tree_param":{"num_deleted":"0","num_feature":"160","num_nodes":"3","size_leaf_vector":"0"}},{"base_weights":[-1.5175372E-1,-3.4930268E-1,2.3655216E-1],"categories":[],"categories_nodes":[],"categories_segments":[],"categories_sizes":[],"default_left":[1,0,0],"id":21,"left_children":[1,-1,-1],"loss_changes":[4.080784E-1,0E0,0E0],"parents":[2147483647,0,0],"right_children":[2,-1,-1],"split_conditions":[2.51E2,-1.0479081E-1,7.0965655E-2],"split_indices":[17,0,0],"split_type":[0,0,0],"sum_hessian":[3.2426348E0,2.2158003E0,1.0268344E0],"tree_param":{"num_deleted":"0","num_feature":"160","num_nodes":"3","size_leaf_vector":"0"}},{"base_weights":[-1.5175372E-1,-3.4930268E-1,2.3655216E-1],"categories":[],"categories_nodes":[],"categories_segments":[],"categories_sizes":[],"default_left":[1,0,0],"id":22,"left_children":[1,-1,-1],"loss_changes":[4.080784E-1,0E0,0E0],"parents":[2147483647,0,0],"right_children":[2,-1,-1],"split_conditions":[2.51E2,-1.0479081E-1,7.0965655E-2],"split_indices":[17,0,0],"split_type":[0,0,0],"sum_hessian":[3.2426348E0,2.2158003E0,1.0268344E0],"tree_param":{"num_deleted":"0","num_feature":"160","num_nodes":"3","size_leaf_vector":"0"}},{"base_weights":[-1.5175372E-1,-3.466081E-1,2.1724232E-1],"categories":[],"categories_nodes":[],"categories_segments":[],"categories_sizes":[],"default_left":[1,0,0],"id":23,"left_children":[1,-1,-1],"loss_changes":[3.803455E-1,0E0,0E0],"parents":[2147483647,0,0],"right_children":[2,-1,-1],"split_conditions":[5.15E1,-1.0398243E-1,6.5172695E-2],"split_indices":[47,0,0],"split_type":[0,0,0],"sum_hessian":[3.2426348E0,2.1617565E0,1.0808783E0],"tree_param":{"num_deleted":"0","num_feature":"160","num_nodes":"3","size_leaf_vector":"0"}},{"base_weights":[8.3948866E-2,7.299324E-1,-3.4930268E-1],"categories":[],"categories_nodes":[],"categories_segments":[],"categories_sizes":[],"default_left":[1,0,0],"id":24,"left_children":[1,-1,-1],"loss_changes":[1.4423678E0,0E0,0E0],"parents":[2147483647,0,0],"right_children":[2,-1,-1],"split_conditions":[1.405E2,2.1897973E-1,-1.0479081E-1],"split_indices":[155,0,0],"split_type":[0,0,0],"sum_hessian":[3.2426348E0,1.0268344E0,2.2158003E0],"tree_param":{"num_deleted":"0","num_feature":"160","num_nodes":"3","size_leaf_vector":"0"}},{"base_weights":[8.3948866E-2,7.299324E-1,-3.4930268E-1],"categories":[],"categories_nodes":[],"categories_segments":[],"categories_sizes":[],"default_left":[1,0,0],"id":25,"left_children":[1,-1,-1],"loss_changes":[1.4423678E0,0E0,0E0],"parents":[2147483647,0,0],"right_children":[2,-1,-1],"split_conditions":[9.3E1,2.1897973E-1,-1.0479081E-1],"split_indices":[150,0,0],"split_type":[0,0,0],"sum_hessian":[3.2426348E0,1.0268344E0,2.2158003E0],"tree_param":{"num_deleted":"0","num_feature":"160","num_nodes":"3","size_leaf_vector":"0"}},{"base_weights":[-1.5175372E-1,-3.4930268E-1,2.3655216E-1],"categories":[],"categories_nodes":[],"categories_segments":[],"categories_sizes":[],"default_left":[1,0,0],"id":26,"left_children":[1,-1,-1],"loss_changes":[4.080784E-1,0E0,0E0],"parents":[2147483647,0,0],"right_children":[2,-1,-1],"split_conditions":[1.455E2,-1.0479081E-1,7.0965655E-2],"split_indices":[120,0,0],"split_type":[0,0,0],"sum_hessian":[3.2426348E0,2.2158003E0,1.0268344E0],"tree_param":{"num_deleted":"0","num_feature":"160","num_nodes":"3","size_leaf_vector":"0"}},{"base_weights":[3.1965145E-1,1.0565548E0,-3.3794183E-1],"categories":[],"categories_nodes":[],"categories_segments":[],"categories_sizes":[],"default_left":[1,0,0],"id":27,"left_children":[1,-1,-1],"loss_changes":[2.4129615E0,0E0,0E0],"parents":[2147483647,0,0],"right_children":[2,-1,-1],"split_conditions":[7.3E1,3.1696644E-1,-1.0138255E-1],"split_indices":[39,0,0],"split_type":[0,0,0],"sum_hessian":[3.2426348E0,1.2430099E0,1.9996247E0],"tree_param":{"num_deleted":"0","num_feature":"160","num_nodes":"3","size_leaf_vector":"0"}},{"base_weights":[-1.5175372E-1,-3.4930268E-1,2.3655216E-1],"categories":[],"categories_nodes":[],"categories_segments":[],"categories_sizes":[],"default_left":[1,0,0],"id":28,"left_children":[1,-1,-1],"loss_changes":[4.080784E-1,0E0,0E0],"parents":[2147483647,0,0],"right_children":[2,-1,-1],"split_conditions":[1.455E2,-1.0479081E-1,7.0965655E-2],"split_indices":[120,0,0],"split_type":[0,0,0],"sum_hessian":[3.2426348E0,2.2158003E0,1.0268344E0],"tree_param":{"num_deleted":"0","num_feature":"160","num_nodes":"3","size_leaf_vector":"0"}},{"base_weights":[8.3948866E-2,-3.4930268E-1,7.299324E-1],"categories":[],"categories_nodes":[],"categories_segments":[],"categories_sizes":[],"default_left":[1,0,0],"id":29,"left_children":[1,-1,-1],"loss_changes":[1.4423678E0,0E0,0E0],"parents":[2147483647,0,0],"right_children":[2,-1,-1],"split_conditions":[1.455E2,-1.0479081E-1,2.1897973E-1],"split_indices":[120,0,0],"split_type":[0,0,0],"sum_hessian":[3.2426348E0,2.2158003E0,1.0268344E0],"tree_param":{"num_deleted":"0","num_feature":"160","num_nodes":"3","size_leaf_vector":"0"}},{"base_weights":[3.1965145E-1,-3.42389E-1,1.115181E0],"categories":[],"categories_nodes":[],"categories_segments":[],"categories_sizes":[],"default_left":[1,0,0],"id":30,"left_children":[1,-1,-1],"loss_changes":[2.6163056E0,0E0,0E0],"parents":[2147483647,0,0],"right_children":[2,-1,-1],"split_conditions":[1.855E2,-1.027167E-1,3.345543E-1],"split_indices":[155,0,0],"split_type":[0,0,0],"sum_hessian":[3.2426348E0,2.0806906E0,1.1619442E0],"tree_param":{"num_deleted":"0","num_feature":"160","num_nodes":"3","size_leaf_vector":"0"}},{"base_weights":[-1.5175372E-1,-3.4930268E-1,2.3655216E-1],"categories":[],"categories_nodes":[],"categories_segments":[],"categories_sizes":[],"default_left":[1,0,0],"id":31,"left_children":[1,-1,-1],"loss_changes":[4.080784E-1,0E0,0E0],"parents":[2147483647,0,0],"right_children":[2,-1,-1],"split_conditions":[1.035E2,-1.0479081E-1,7.0965655E-2],"split_indices":[0,0,0],"split_type":[0,0,0],"sum_hessian":[3.2426348E0,2.2158003E0,1.0268344E0],"tree_param":{"num_deleted":"0","num_feature":"160","num_nodes":"3","size_leaf_vector":"0"}},{"base_weights":[-1.5175372E-1,-3.4930268E-1,2.3655216E-1],"categories":[],"categories_nodes":[],"categories_segments":[],"categories_sizes":[],"default_left":[1,0,0],"id":32,"left_children":[1,-1,-1],"loss_changes":[4.080784E-1,0E0,0E0],"parents":[2147483647,0,0],"right_children":[2,-1,-1],"split_conditions":[1.82E2,-1.0479081E-1,7.0965655E-2],"split_indices":[5,0,0],"split_type":[0,0,0],"sum_hessian":[3.2426348E0,2.2158003E0,1.0268344E0],"tree_param":{"num_deleted":"0","num_feature":"160","num_nodes":"3","size_leaf_vector":"0"}},{"base_weights":[-1.5175372E-1,-3.4930268E-1,2.3655216E-1],"categories":[],"categories_nodes":[],"categories_segments":[],"categories_sizes":[],"default_left":[1,0,0],"id":33,"left_children":[1,-1,-1],"loss_changes":[4.080784E-1,0E0,0E0],"parents":[2147483647,0,0],"right_children":[2,-1,-1],"split_conditions":[1.035E2,-1.0479081E-1,7.0965655E-2],"split_indices":[0,0,0],"split_type":[0,0,0],"sum_hessian":[3.2426348E0,2.2158003E0,1.0268344E0],"tree_param":{"num_deleted":"0","num_feature":"160","num_nodes":"3","size_leaf_vector":"0"}},{"base_weights":[-1.5175372E-1,-3.4930268E-1,2.3655216E-1],"categories":[],"categories_nodes":[],"categories_segments":[],"categories_sizes":[],"default_left":[1,0,0],"id":34,"left_children":[1,-1,-1],"loss_changes":[4.080784E-1,0E0,0E0],"parents":[2147483647,0,0],"right_children":[2,-1,-1],"split_conditions":[1.035E2,-1.0479081E-1,7.0965655E-2],"split_indices":[0,0,0],"split_type":[0,0,0],"sum_hessian":[3.2426348E0,2.2158003E0,1.0268344E0],"tree_param":{"num_deleted":"0","num_feature":"160","num_nodes":"3","size_leaf_vector":"0"}},{"base_weights":[8.3948866E-2,7.1365917E-1,-3.479668E-1],"categories":[],"categories_nodes":[],"categories_segments":[],"categories_sizes":[],"default_left":[1,0,0],"id":35,"left_children":[1,-1,-1],"loss_changes":[1.4022489E0,0E0,0E0],"parents":[2147483647,0,0],"right_children":[2,-1,-1],"split_conditions":[1.485E2,2.1409775E-1,-1.0439004E-1],"split_indices":[130,0,0],"split_type":[0,0,0],"sum_hessian":[3.2426348E0,1.0538563E0,2.1887784E0],"tree_param":{"num_deleted":"0","num_feature":"160","num_nodes":"3","size_leaf_vector":"0"}},{"base_weights":[8.3948866E-2,-3.479668E-1,7.1365917E-1],"categories":[],"categories_nodes":[],"categories_segments":[],"categories_sizes":[],"default_left":[1,0,0],"id":36,"left_children":[1,-1,-1],"loss_changes":[1.4022489E0,0E0,0E0],"parents":[2147483647,0,0],"right_children":[2,-1,-1],"split_conditions":[1.745E2,-1.0439004E-1,2.1409775E-1],"split_indices":[79,0,0],"split_type":[0,0,0],"sum_hessian":[3.2426348E0,2.1887784E0,1.0538563E0],"tree_param":{"num_deleted":"0","num_feature":"160","num_nodes":"3","size_leaf_vector":"0"}},{"base_weights":[8.3948866E-2,-3.479668E-1,7.1365917E-1],"categories":[],"categories_nodes":[],"categories_segments":[],"categories_sizes":[],"default_left":[1,0,0],"id":37,"left_children":[1,-1,-1],"loss_changes":[1.4022489E0,0E0,0E0],"parents":[2147483647,0,0],"right_children":[2,-1,-1],"split_conditions":[1.345E2,-1.0439004E-1,2.1409775E-1],"split_indices":[1,0,0],"split_type":[0,0,0],"sum_hessian":[3.2426348E0,2.1887784E0,1.0538563E0],"tree_param":{"num_deleted":"0","num_feature":"160","num_nodes":"3","size_leaf_vector":"0"}},{"base_weights":[-1.5175372E-1,-3.4930268E-1,2.3655216E-1],"categories":[],"categories_nodes":[],"categories_segments":[],"categories_sizes":[],"default_left":[1,0,0],"id":38,"left_children":[1,-1,-1],"loss_changes":[4.080784E-1,0E0,0E0],"parents":[2147483647,0,0],"right_children":[2,-1,-1],"split_conditions":[9.45E1,-1.0479081E-1,7.0965655E-2],"split_indices":[21,0,0],"split_type":[0,0,0],"sum_hessian":[3.2426348E0,2.2158003E0,1.0268344E0],"tree_param":{"num_deleted":"0","num_feature":"160","num_nodes":"3","size_leaf_vector":"0"}},{"base_weights":[5.5535406E-1,-3.4930268E-1,1.7166929E0],"categories":[],"categories_nodes":[],"categories_segments":[],"categories_sizes":[],"default_left":[1,0,0],"id":39,"left_children":[1,-1,-1],"loss_changes":[5.0570126E0,0E0,0E0],"parents":[2147483647,0,0],"right_children":[2,-1,-1],"split_conditions":[9.45E1,-1.0479081E-1,5.150079E-1],"split_indices":[21,0,0],"split_type":[0,0,0],"sum_hessian":[3.2426348E0,2.2158003E0,1.0268344E0],"tree_param":{"num_deleted":"0","num_feature":"160","num_nodes":"3","size_leaf_vector":"0"}},{"base_weights":[3.1965145E-1,-3.479668E-1,1.2005482E0],"categories":[],"categories_nodes":[],"categories_segments":[],"categories_sizes":[],"default_left":[1,0,0],"id":40,"left_children":[1,-1,-1],"loss_changes":[2.9128559E0,0E0,0E0],"parents":[2147483647,0,0],"right_children":[2,-1,-1],"split_conditions":[1.015E2,-1.0439004E-1,3.6016446E-1],"split_indices":[69,0,0],"split_type":[0,0,0],"sum_hessian":[3.2426348E0,2.1887784E0,1.0538563E0],"tree_param":{"num_deleted":"0","num_feature":"160","num_nodes":"3","size_leaf_vector":"0"}},{"base_weights":[-1.5175372E-1,-3.4930268E-1,2.3655216E-1],"categories":[],"categories_nodes":[],"categories_segments":[],"categories_sizes":[],"default_left":[1,0,0],"id":41,"left_children":[1,-1,-1],"loss_changes":[4.080784E-1,0E0,0E0],"parents":[2147483647,0,0],"right_children":[2,-1,-1],"split_conditions":[1.035E2,-1.0479081E-1,7.0965655E-2],"split_indices":[0,0,0],"split_type":[0,0,0],"sum_hessian":[3.2426348E0,2.2158003E0,1.0268344E0],"tree_param":{"num_deleted":"0","num_feature":"160","num_nodes":"3","size_leaf_vector":"0"}},{"base_weights":[8.3948866E-2,-3.4930268E-1,7.299324E-1],"categories":[],"categories_nodes":[],"categories_segments":[],"categories_sizes":[],"default_left":[1,0,0],"id":42,"left_children":[1,-1,-1],"loss_changes":[1.4423678E0,0E0,0E0],"parents":[2147483647,0,0],"right_children":[2,-1,-1],"split_conditions":[6.25E1,-1.0479081E-1,2.1897973E-1],"split_indices":[62,0,0],"split_type":[0,0,0],"sum_hessian":[3.2426348E0,2.2158003E0,1.0268344E0],"tree_param":{"num_deleted":"0","num_feature":"160","num_nodes":"3","size_leaf_vector":"0"}},{"base_weights":[8.3948866E-2,-3.4930268E-1,7.299324E-1],"categories":[],"categories_nodes":[],"categories_segments":[],"categories_sizes":[],"default_left":[1,0,0],"id":43,"left_children":[1,-1,-1],"loss_changes":[1.4423678E0,0E0,0E0],"parents":[2147483647,0,0],"right_children":[2,-1,-1],"split_conditions":[6.25E1,-1.0479081E-1,2.1897973E-1],"split_indices":[62,0,0],"split_type":[0,0,0],"sum_hessian":[3.2426348E0,2.2158003E0,1.0268344E0],"tree_param":{"num_deleted":"0","num_feature":"160","num_nodes":"3","size_leaf_vector":"0"}},{"base_weights":[-1.5175372E-1,-3.4930268E-1,2.3655216E-1],"categories":[],"categories_nodes":[],"categories_segments":[],"categories_sizes":[],"default_left":[1,0,0],"id":44,"left_children":[1,-1,-1],"loss_changes":[4.080784E-1,0E0,0E0],"parents":[2147483647,0,0],"right_children":[2,-1,-1],"split_conditions":[1.035E2,-1.0479081E-1,7.0965655E-2],"split_indices":[0,0,0],"split_type":[0,0,0],"sum_hessian":[3.2426348E0,2.2158003E0,1.0268344E0],"tree_param":{"num_deleted":"0","num_feature":"160","num_nodes":"3","size_leaf_vector":"0"}},{"base_weights":[-1.5175372E-1,-3.4930268E-1,2.3655216E-1],"categories":[],"categories_nodes":[],"categories_segments":[],"categories_sizes":[],"default_left":[1,0,0],"id":45,"left_children":[1,-1,-1],"loss_changes":[4.080784E-1,0E0,0E0],"parents":[2147483647,0,0],"right_children":[2,-1,-1],"split_conditions":[1.82E2,-1.0479081E-1,7.0965655E-2],"split_indices":[5,0,0],"split_type":[0,0,0],"sum_hessian":[3.2426348E0,2.2158003E0,1.0268344E0],"tree_param":{"num_deleted":"0","num_feature":"160","num_nodes":"3","size_leaf_vector":"0"}},{"base_weights":[8.3948866E-2,-3.4930268E-1,7.299324E-1],"categories":[],"categories_nodes":[],"categories_segments":[],"categories_sizes":[],"default_left":[1,0,0],"id":46,"left_children":[1,-1,-1],"loss_changes":[1.4423678E0,0E0,0E0],"parents":[2147483647,0,0],"right_children":[2,-1,-1],"split_conditions":[1.035E2,-1.0479081E-1,2.1897973E-1],"split_indices":[0,0,0],"split_type":[0,0,0],"sum_hessian":[3.2426348E0,2.2158003E0,1.0268344E0],"tree_param":{"num_deleted":"0","num_feature":"160","num_nodes":"3","size_leaf_vector":"0"}},{"base_weights":[8.3948866E-2,-3.4930268E-1,7.299324E-1],"categories":[],"categories_nodes":[],"categories_segments":[],"categories_sizes":[],"default_left":[1,0,0],"id":47,"left_children":[1,-1,-1],"loss_changes":[1.4423678E0,0E0,0E0],"parents":[2147483647,0,0],"right_children":[2,-1,-1],"split_conditions":[1.035E2,-1.0479081E-1,2.1897973E-1],"split_indices":[0,0,0],"split_type":[0,0,0],"sum_hessian":[3.2426348E0,2.2158003E0,1.0268344E0],"tree_param":{"num_deleted":"0","num_feature":"160","num_nodes":"3","size_leaf_vector":"0"}},{"base_weights":[-1.5175372E-1,-3.4930268E-1,2.3655216E-1],"categories":[],"categories_nodes":[],"categories_segments":[],"categories_sizes":[],"default_left":[1,0,0],"id":48,"left_children":[1,-1,-1],"loss_changes":[4.080784E-1,0E0,0E0],"parents":[2147483647,0,0],"right_children":[2,-1,-1],"split_conditions":[2.13E2,-1.0479081E-1,7.0965655E-2],"split_indices":[9,0,0],"split_type":[0,0,0],"sum_hessian":[3.2426348E0,2.2158003E0,1.0268344E0],"tree_param":{"num_deleted":"0","num_feature":"160","num_nodes":"3","size_leaf_vector":"0"}},{"base_weights":[3.1965145E-1,-3.4930268E-1,1.2233126E0],"categories":[],"categories_nodes":[],"categories_segments":[],"categories_sizes":[],"default_left":[1,0,0],"id":49,"left_children":[1,-1,-1],"loss_changes":[2.9920125E0,0E0,0E0],"parents":[2147483647,0,0],"right_children":[2,-1,-1],"split_conditions":[2.265E2,-1.0479081E-1,3.6699378E-1],"split_indices":[28,0,0],"split_type":[0,0,0],"sum_hessian":[3.2426348E0,2.2158003E0,1.0268344E0],"tree_param":{"num_deleted":"0","num_feature":"160","num_nodes":"3","size_leaf_vector":"0"}},{"base_weights":[-1.5175372E-1,-3.4930268E-1,2.3655216E-1],"categories":[],"categories_nodes":[],"categories_segments":[],"categories_sizes":[],"default_left":[1,0,0],"id":50,"left_children":[1,-1,-1],"loss_changes":[4.080784E-1,0E0,0E0],"parents":[2147483647,0,0],"right_children":[2,-1,-1],"split_conditions":[1.82E2,-1.0479081E-1,7.0965655E-2],"split_indices":[5,0,0],"split_type":[0,0,0],"sum_hessian":[3.2426348E0,2.2158003E0,1.0268344E0],"tree_param":{"num_deleted":"0","num_feature":"160","num_nodes":"3","size_leaf_vector":"0"}},{"base_weights":[-1.5175372E-1,-3.4930268E-1,2.3655216E-1],"categories":[],"categories_nodes":[],"categories_segments":[],"categories_sizes":[],"default_left":[1,0,0],"id":51,"left_children":[1,-1,-1],"loss_changes":[4.080784E-1,0E0,0E0],"parents":[2147483647,0,0],"right_children":[2,-1,-1],"split_conditions":[1.365E2,-1.0479081E-1,7.0965655E-2],"split_indices":[7,0,0],"split_type":[0,0,0],"sum_hessian":[3.2426348E0,2.2158003E0,1.0268344E0],"tree_param":{"num_deleted":"0","num_feature":"160","num_nodes":"3","size_leaf_vector":"0"}},{"base_weights":[8.3948866E-2,-3.4930268E-1,7.299324E-1],"categories":[],"categories_nodes":[],"categories_segments":[],"categories_sizes":[],"default_left":[1,0,0],"id":52,"left_children":[1,-1,-1],"loss_changes":[1.4423678E0,0E0,0E0],"parents":[2147483647,0,0],"right_children":[2,-1,-1],"split_conditions":[2.13E2,-1.0479081E-1,2.1897973E-1],"split_indices":[9,0,0],"split_type":[0,0,0],"sum_hessian":[3.2426348E0,2.2158003E0,1.0268344E0],"tree_param":{"num_deleted":"0","num_feature":"160","num_nodes":"3","size_leaf_vector":"0"}},{"base_weights":[-1.5175372E-1,-3.4930268E-1,2.3655216E-1],"categories":[],"categories_nodes":[],"categories_segments":[],"categories_sizes":[],"default_left":[1,0,0],"id":53,"left_children":[1,-1,-1],"loss_changes":[4.080784E-1,0E0,0E0],"parents":[2147483647,0,0],"right_children":[2,-1,-1],"split_conditions":[1.82E2,-1.0479081E-1,7.0965655E-2],"split_indices":[5,0,0],"split_type":[0,0,0],"sum_hessian":[3.2426348E0,2.2158003E0,1.0268344E0],"tree_param":{"num_deleted":"0","num_feature":"160","num_nodes":"3","size_leaf_vector":"0"}},{"base_weights":[-1.5175372E-1,-3.4930268E-1,2.3655216E-1],"categories":[],"categories_nodes":[],"categories_segments":[],"categories_sizes":[],"default_left":[1,0,0],"id":54,"left_children":[1,-1,-1],"loss_changes":[4.080784E-1,0E0,0E0],"parents":[2147483647,0,0],"right_children":[2,-1,-1],"split_conditions":[1.035E2,-1.0479081E-1,7.0965655E-2],"split_indices":[0,0,0],"split_type":[0,0,0],"sum_hessian":[3.2426348E0,2.2158003E0,1.0268344E0],"tree_param":{"num_deleted":"0","num_feature":"160","num_nodes":"3","size_leaf_vector":"0"}},{"base_weights":[-1.5175372E-1,-3.4930268E-1,2.3655216E-1],"categories":[],"categories_nodes":[],"categories_segments":[],"categories_sizes":[],"default_left":[1,0,0],"id":55,"left_children":[1,-1,-1],"loss_changes":[4.080784E-1,0E0,0E0],"parents":[2147483647,0,0],"right_children":[2,-1,-1],"split_conditions":[1.82E2,-1.0479081E-1,7.0965655E-2],"split_indices":[5,0,0],"split_type":[0,0,0],"sum_hessian":[3.2426348E0,2.2158003E0,1.0268344E0],"tree_param":{"num_deleted":"0","num_feature":"160","num_nodes":"3","size_leaf_vector":"0"}},{"base_weights":[-1.5175372E-1,-3.4930268E-1,2.3655216E-1],"categories":[],"categories_nodes":[],"categories_segments":[],"categories_sizes":[],"default_left":[1,0,0],"id":56,"left_children":[1,-1,-1],"loss_changes":[4.080784E-1,0E0,0E0],"parents":[2147483647,0,0],"right_children":[2,-1,-1],"split_conditions":[1.035E2,-1.0479081E-1,7.0965655E-2],"split_indices":[0,0,0],"split_type":[0,0,0],"sum_hessian":[3.2426348E0,2.2158003E0,1.0268344E0],"tree_param":{"num_deleted":"0","num_feature":"160","num_nodes":"3","size_leaf_vector":"0"}},{"base_weights":[-1.5175372E-1,-3.4930268E-1,2.3655216E-1],"categories":[],"categories_nodes":[],"categories_segments":[],"categories_sizes":[],"default_left":[1,0,0],"id":57,"left_children":[1,-1,-1],"loss_changes":[4.080784E-1,0E0,0E0],"parents":[2147483647,0,0],"right_children":[2,-1,-1],"split_conditions":[1.035E2,-1.0479081E-1,7.0965655E-2],"split_indices":[0,0,0],"split_type":[0,0,0],"sum_hessian":[3.2426348E0,2.2158003E0,1.0268344E0],"tree_param":{"num_deleted":"0","num_feature":"160","num_nodes":"3","size_leaf_vector":"0"}},{"base_weights":[-1.5175372E-1,-3.4930268E-1,2.3655216E-1],"categories":[],"categories_nodes":[],"categories_segments":[],"categories_sizes":[],"default_left":[1,0,0],"id":58,"left_children":[1,-1,-1],"loss_changes":[4.080784E-1,0E0,0E0],"parents":[2147483647,0,0],"right_children":[2,-1,-1],"split_conditions":[1.035E2,-1.0479081E-1,7.0965655E-2],"split_indices":[0,0,0],"split_type":[0,0,0],"sum_hessian":[3.2426348E0,2.2158003E0,1.0268344E0],"tree_param":{"num_deleted":"0","num_feature":"160","num_nodes":"3","size_leaf_vector":"0"}},{"base_weights":[-1.5175372E-1,-3.4930268E-1,2.3655216E-1],"categories":[],"categories_nodes":[],"categories_segments":[],"categories_sizes":[],"default_left":[1,0,0],"id":59,"left_children":[1,-1,-1],"loss_changes":[4.080784E-1,0E0,0E0],"parents":[2147483647,0,0],"right_children":[2,-1,-1],"split_conditions":[1.035E2,-1.0479081E-1,7.0965655E-2],"split_indices":[0,0,0],"split_type":[0,0,0],"sum_hessian":[3.2426348E0,2.2158003E0,1.0268344E0],"tree_param":{"num_deleted":"0","num_feature":"160","num_nodes":"3","size_leaf_vector":"0"}},{"base_weights":[-1.5175372E-1,-3.4930268E-1,2.3655216E-1],"categories":[],"categories_nodes":[],"categories_segments":[],"categories_sizes":[],"default_left":[1,0,0],"id":60,"left_children":[1,-1,-1],"loss_changes":[4.080784E-1,0E0,0E0],"parents":[2147483647,0,0],"right_children":[2,-1,-1],"split_conditions":[1.035E2,-1.0479081E-1,7.0965655E-2],"split_indices":[0,0,0],"split_type":[0,0,0],"sum_hessian":[3.2426348E0,2.2158003E0,1.0268344E0],"tree_param":{"num_deleted":"0","num_feature":"160","num_nodes":"3","size_leaf_vector":"0"}},{"base_weights":[-1.5175372E-1,-3.4930268E-1,2.3655216E-1],"categories":[],"categories_nodes":[],"categories_segments":[],"categories_sizes":[],"default_left":[1,0,0],"id":61,"left_children":[1,-1,-1],"loss_changes":[4.080784E-1,0E0,0E0],"parents":[2147483647,0,0],"right_children":[2,-1,-1],"split_conditions":[1.035E2,-1.0479081E-1,7.0965655E-2],"split_indices":[0,0,0],"split_type":[0,0,0],"sum_hessian":[3.2426348E0,2.2158003E0,1.0268344E0],"tree_param":{"num_deleted":"0","num_feature":"160","num_nodes":"3","size_leaf_vector":"0"}},{"base_weights":[-1.5175372E-1,-3.4930268E-1,2.3655216E-1],"categories":[],"categories_nodes":[],"categories_segments":[],"categories_sizes":[],"default_left":[1,0,0],"id":62,"left_children":[1,-1,-1],"loss_changes":[4.080784E-1,0E0,0E0],"parents":[2147483647,0,0],"right_children":[2,-1,-1],"split_conditions":[1.035E2,-1.0479081E-1,7.0965655E-2],"split_indices":[0,0,0],"split_type":[0,0,0],"sum_hessian":[3.2426348E0,2.2158003E0,1.0268344E0],"tree_param":{"num_deleted":"0","num_feature":"160","num_nodes":"3","size_leaf_vector":"0"}},{"base_weights":[8.3948866E-2,-3.4930268E-1,7.299324E-1],"categories":[],"categories_nodes":[],"categories_segments":[],"categories_sizes":[],"default_left":[1,0,0],"id":63,"left_children":[1,-1,-1],"loss_changes":[1.4423678E0,0E0,0E0],"parents":[2147483647,0,0],"right_children":[2,-1,-1],"split_conditions":[1.035E2,-1.0479081E-1,2.1897973E-1],"split_indices":[0,0,0],"split_type":[0,0,0],"sum_hessian":[3.2426348E0,2.2158003E0,1.0268344E0],"tree_param":{"num_deleted":"0","num_feature":"160","num_nodes":"3","size_leaf_vector":"0"}},{"base_weights":[-1.5175372E-1,-3.4930268E-1,2.3655216E-1],"categories":[],"categories_nodes":[],"categories_segments":[],"categories_sizes":[],"default_left":[1,0,0],"id":64,"left_children":[1,-1,-1],"loss_changes":[4.080784E-1,0E0,0E0],"parents":[2147483647,0,0],"right_children":[2,-1,-1],"split_conditions":[1.035E2,-1.0479081E-1,7.0965655E-2],"split_indices":[0,0,0],"split_type":[0,0,0],"sum_hessian":[3.2426348E0,2.2158003E0,1.0268344E0],"tree_param":{"num_deleted":"0","num_feature":"160","num_nodes":"3","size_leaf_vector":"0"}},{"base_weights":[-1.5175372E-1,-3.4930268E-1,2.3655216E-1],"categories":[],"categories_nodes":[],"categories_segments":[],"categories_sizes":[],"default_left":[1,0,0],"id":65,"left_children":[1,-1,-1],"loss_changes":[4.080784E-1,0E0,0E0],"parents":[2147483647,0,0],"right_children":[2,-1,-1],"split_conditions":[1.035E2,-1.0479081E-1,7.0965655E-2],"split_indices":[0,0,0],"split_type":[0,0,0],"sum_hessian":[3.2426348E0,2.2158003E0,1.0268344E0],"tree_param":{"num_deleted":"0","num_feature":"160","num_nodes":"3","size_leaf_vector":"0"}},{"base_weights":[3.1965145E-1,-3.4930268E-1,1.2233126E0],"categories":[],"categories_nodes":[],"categories_segments":[],"categories_sizes":[],"default_left":[1,0,0],"id":66,"left_children":[1,-1,-1],"loss_changes":[2.9920125E0,0E0,0E0],"parents":[2147483647,0,0],"right_children":[2,-1,-1],"split_conditions":[1.035E2,-1.0479081E-1,3.6699378E-1],"split_indices":[0,0,0],"split_type":[0,0,0],"sum_hessian":[3.2426348E0,2.2158003E0,1.0268344E0],"tree_param":{"num_deleted":"0","num_feature":"160","num_nodes":"3","size_leaf_vector":"0"}},{"base_weights":[-1.5175372E-1,-3.4930268E-1,2.3655216E-1],"categories":[],"categories_nodes":[],"categories_segments":[],"categories_sizes":[],"default_left":[1,0,0],"id":67,"left_children":[1,-1,-1],"loss_changes":[4.080784E-1,0E0,0E0],"parents":[2147483647,0,0],"right_children":[2,-1,-1],"split_conditions":[1.035E2,-1.0479081E-1,7.0965655E-2],"split_indices":[0,0,0],"split_type":[0,0,0],"sum_hessian":[3.2426348E0,2.2158003E0,1.0268344E0],"tree_param":{"num_deleted":"0","num_feature":"160","num_nodes":"3","size_leaf_vector":"0"}},{"base_weights":[-1.5175372E-1,-3.4930268E-1,2.3655216E-1],"categories":[],"categories_nodes":[],"categories_segments":[],"categories_sizes":[],"default_left":[1,0,0],"id":68,"left_children":[1,-1,-1],"loss_changes":[4.080784E-1,0E0,0E0],"parents":[2147483647,0,0],"right_children":[2,-1,-1],"split_conditions":[1.035E2,-1.0479081E-1,7.0965655E-2],"split_indices":[0,0,0],"split_type":[0,0,0],"sum_hessian":[3.2426348E0,2.2158003E0,1.0268344E0],"tree_param":{"num_deleted":"0","num_feature":"160","num_nodes":"3","size_leaf_vector":"0"}},{"base_weights":[-1.5175372E-1,-3.4930268E-1,2.3655216E-1],"categories":[],"categories_nodes":[],"categories_segments":[],"categories_sizes":[],"default_left":[1,0,0],"id":69,"left_children":[1,-1,-1],"loss_changes":[4.080784E-1,0E0,0E0],"parents":[2147483647,0,0],"right_children":[2,-1,-1],"split_conditions":[1.035E2,-1.0479081E-1,7.0965655E-2],"split_indices":[0,0,0],"split_type":[0,0,0],"sum_hessian":[3.2426348E0,2.2158003E0,1.0268344E0],"tree_param":{"num_deleted":"0","num_feature":"160","num_nodes":"3","size_leaf_vector":"0"}},{"base_weights":[-1.5175372E-1,-3.4930268E-1,2.3655216E-1],"categories":[],"categories_nodes":[],"categories_segments":[],"categories_sizes":[],"default_left":[1,0,0],"id":70,"left_children":[1,-1,-1],"loss_changes":[4.080784E-1,0E0,0E0],"parents":[2147483647,0,0],"right_children":[2,-1,-1],"split_conditions":[1.035E2,-1.0479081E-1,7.0965655E-2],"split_indices":[0,0,0],"split_type":[0,0,0],"sum_hessian":[3.2426348E0,2.2158003E0,1.0268344E0],"tree_param":{"num_deleted":"0","num_feature":"160","num_nodes":"3","size_leaf_vector":"0"}},{"base_weights":[-1.5175372E-1,-3.4930268E-1,2.3655216E-1],"categories":[],"categories_nodes":[],"categories_segments":[],"categories_sizes":[],"default_left":[1,0,0],"id":71,"left_children":[1,-1,-1],"loss_changes":[4.080784E-1,0E0,0E0],"parents":[2147483647,0,0],"right_children":[2,-1,-1],"split_conditions":[1.035E2,-1.0479081E-1,7.0965655E-2],"split_indices":[0,0,0],"split_type":[0,0,0],"sum_hessian":[3.2426348E0,2.2158003E0,1.0268344E0],"tree_param":{"num_deleted":"0","num_feature":"160","num_nodes":"3","size_leaf_vector":"0"}},{"base_weights":[-1.5175372E-1,-3.4930268E-1,2.3655216E-1],"categories":[],"categories_nodes":[],"categories_segments":[],"categories_sizes":[],"default_left":[1,0,0],"id":72,"left_children":[1,-1,-1],"loss_changes":[4.080784E-1,0E0,0E0],"parents":[2147483647,0,0],"right_children":[2,-1,-1],"split_conditions":[1.035E2,-1.0479081E-1,7.0965655E-2],"split_indices":[0,0,0],"split_type":[0,0,0],"sum_hessian":[3.2426348E0,2.2158003E0,1.0268344E0],"tree_param":{"num_deleted":"0","num_feature":"160","num_nodes":"3","size_leaf_vector":"0"}},{"base_weights":[2.747648E-1,1.2403518E0,-3.6121595E-1],"categories":[],"categories_nodes":[],"categories_segments":[],"categories_sizes":[],"default_left":[1,0,0],"id":73,"left_children":[1,-1,-1],"loss_changes":[3.200627E0,0E0,0E0],"parents":[2147483647,0,0],"right_children":[2,-1,-1],"split_conditions":[3.25E1,3.7210554E-1,-1.0836479E-1],"split_indices":[26,0,0],"split_type":[0,0,0],"sum_hessian":[3.4823575E0,1.0054783E0,2.4768794E0],"tree_param":{"num_deleted":"0","num_feature":"160","num_nodes":"3","size_leaf_vector":"0"}},{"base_weights":[-1.4105123E-1,2.4520385E-1,-3.440166E-1],"categories":[],"categories_nodes":[],"categories_segments":[],"categories_sizes":[],"default_left":[1,0,0],"id":74,"left_children":[1,-1,-1],"loss_changes":[4.0738678E-1,0E0,0E0],"parents":[2147483647,0,0],"right_children":[2,-1,-1],"split_conditions":[9E1,7.356116E-2,-1.0320499E-1],"split_indices":[150,0,0],"split_type":[0,0,0],"sum_hessian":[3.1205022E0,1.0032161E0,2.117286E0],"tree_param":{"num_deleted":"0","num_feature":"160","num_nodes":"3","size_leaf_vector":"0"}},{"base_weights":[7.744172E-2,7.4350685E-1,-3.5241863E-1],"categories":[],"categories_nodes":[],"categories_segments":[],"categories_sizes":[],"default_left":[1,0,0],"id":75,"left_children":[1,-1,-1],"loss_changes":[1.489894E0,0E0,0E0],"parents":[2147483647,0,0],"right_children":[2,-1,-1],"split_conditions":[6.75E1,2.2305207E-1,-1.05725594E-1],"split_indices":[31,0,0],"split_type":[0,0,0],"sum_hessian":[3.288523E0,1.0036806E0,2.2848425E0],"tree_param":{"num_deleted":"0","num_feature":"160","num_nodes":"3","size_leaf_vector":"0"}},{"base_weights":[7.744172E-2,7.4350685E-1,-3.5241863E-1],"categories":[],"categories_nodes":[],"categories_segments":[],"categories_sizes":[],"default_left":[1,0,0],"id":76,"left_children":[1,-1,-1],"loss_changes":[1.489894E0,0E0,0E0],"parents":[2147483647,0,0],"right_children":[2,-1,-1],"split_conditions":[6.75E1,2.2305207E-1,-1.05725594E-1],"split_indices":[31,0,0],"split_type":[0,0,0],"sum_hessian":[3.288523E0,1.0036806E0,2.2848425E0],"tree_param":{"num_deleted":"0","num_feature":"160","num_nodes":"3","size_leaf_vector":"0"}},{"base_weights":[7.2698414E-1,2.670694E0,-3.8875398E-1],"categories":[],"categories_nodes":[],"categories_segments":[],"categories_sizes":[],"default_left":[1,0,0],"id":77,"left_children":[1,-1,-1],"loss_changes":[1.2443232E1,0E0,0E0],"parents":[2147483647,0,0],"right_children":[2,-1,-1],"split_conditions":[7.15E1,8.0120826E-1,-1.16626196E-1],"split_indices":[10,0,0],"split_type":[0,0,0],"sum_hessian":[4.258975E0,1.0449417E0,3.2140334E0],"tree_param":{"num_deleted":"0","num_feature":"160","num_nodes":"3","size_leaf_vector":"0"}},{"base_weights":[7.744172E-2,7.4350685E-1,-3.5241863E-1],"categories":[],"categories_nodes":[],"categories_segments":[],"categories_sizes":[],"default_left":[1,0,0],"id":78,"left_children":[1,-1,-1],"loss_changes":[1.489894E0,0E0,0E0],"parents":[2147483647,0,0],"right_children":[2,-1,-1],"split_conditions":[6.75E1,2.2305207E-1,-1.05725594E-1],"split_indices":[31,0,0],"split_type":[0,0,0],"sum_hessian":[3.288523E0,1.0036806E0,2.2848425E0],"tree_param":{"num_deleted":"0","num_feature":"160","num_nodes":"3","size_leaf_vector":"0"}},{"base_weights":[2.747648E-1,1.2403518E0,-3.6121595E-1],"categories":[],"categories_nodes":[],"categories_segments":[],"categories_sizes":[],"default_left":[1,0,0],"id":79,"left_children":[1,-1,-1],"loss_changes":[3.200627E0,0E0,0E0],"parents":[2147483647,0,0],"right_children":[2,-1,-1],"split_conditions":[3.25E1,3.7210554E-1,-1.0836479E-1],"split_indices":[26,0,0],"split_type":[0,0,0],"sum_hessian":[3.4823575E0,1.0054783E0,2.4768794E0],"tree_param":{"num_deleted":"0","num_feature":"160","num_nodes":"3","size_leaf_vector":"0"}},{"base_weights":[-1.4105122E-1,2.4520387E-1,-3.440166E-1],"categories":[],"categories_nodes":[],"categories_segments":[],"categories_sizes":[],"default_left":[1,0,0],"id":80,"left_children":[1,-1,-1],"loss_changes":[4.073868E-1,0E0,0E0],"parents":[2147483647,0,0],"right_children":[2,-1,-1],"split_conditions":[9E1,7.356116E-2,-1.0320499E-1],"split_indices":[150,0,0],"split_type":[0,0,0],"sum_hessian":[3.1205022E0,1.0032161E0,2.117286E0],"tree_param":{"num_deleted":"0","num_feature":"160","num_nodes":"3","size_leaf_vector":"0"}},{"base_weights":[-1.4105122E-1,2.437448E-1,-3.4380573E-1],"categories":[],"categories_nodes":[],"categories_segments":[],"categories_sizes":[],"default_left":[1,0,0],"id":81,"left_children":[1,-1,-1],"loss_changes":[4.052789E-1,0E0,0E0],"parents":[2147483647,0,0],"right_children":[2,-1,-1],"split_conditions":[1.3E2,7.312345E-2,-1.03141725E-1],"split_indices":[5,0,0],"split_type":[0,0,0],"sum_hessian":[3.1205022E0,1.0070719E0,2.1134303E0],"tree_param":{"num_deleted":"0","num_feature":"160","num_nodes":"3","size_leaf_vector":"0"}},{"base_weights":[7.744173E-2,7.4350685E-1,-3.5241863E-1],"categories":[],"categories_nodes":[],"categories_segments":[],"categories_sizes":[],"default_left":[1,0,0],"id":82,"left_children":[1,-1,-1],"loss_changes":[1.489894E0,0E0,0E0],"parents":[2147483647,0,0],"right_children":[2,-1,-1],"split_conditions":[6.75E1,2.2305207E-1,-1.05725594E-1],"split_indices":[31,0,0],"split_type":[0,0,0],"sum_hessian":[3.288523E0,1.0036806E0,2.2848425E0],"tree_param":{"num_deleted":"0","num_feature":"160","num_nodes":"3","size_leaf_vector":"0"}},{"base_weights":[-1.4105123E-1,2.4520385E-1,-3.440166E-1],"categories":[],"categories_nodes":[],"categories_segments":[],"categories_sizes":[],"default_left":[1,0,0],"id":83,"left_children":[1,-1,-1],"loss_changes":[4.0738678E-1,0E0,0E0],"parents":[2147483647,0,0],"right_children":[2,-1,-1],"split_conditions":[9E1,7.356116E-2,-1.0320499E-1],"split_indices":[150,0,0],"split_type":[0,0,0],"sum_hessian":[3.1205022E0,1.0032161E0,2.117286E0],"tree_param":{"num_deleted":"0","num_feature":"160","num_nodes":"3","size_leaf_vector":"0"}},{"base_weights":[-1.4121218E-1,2.4610104E-1,-3.4424222E-1],"categories":[],"categories_nodes":[],"categories_segments":[],"categories_sizes":[],"default_left":[1,0,0],"id":84,"left_children":[1,-1,-1],"loss_changes":[4.0887338E-1,0E0,0E0],"parents":[2147483647,0,0],"right_children":[2,-1,-1],"split_conditions":[1.365E2,7.3830314E-2,-1.0327267E-1],"split_indices":[155,0,0],"split_type":[0,0,0],"sum_hessian":[3.122211E0,1.0008272E0,2.121384E0],"tree_param":{"num_deleted":"0","num_feature":"160","num_nodes":"3","size_leaf_vector":"0"}},{"base_weights":[-1.4121218E-1,2.4610104E-1,-3.4424222E-1],"categories":[],"categories_nodes":[],"categories_segments":[],"categories_sizes":[],"default_left":[1,0,0],"id":85,"left_children":[1,-1,-1],"loss_changes":[4.0887338E-1,0E0,0E0],"parents":[2147483647,0,0],"right_children":[2,-1,-1],"split_conditions":[1.365E2,7.3830314E-2,-1.0327267E-1],"split_indices":[155,0,0],"split_type":[0,0,0],"sum_hessian":[3.122211E0,1.0008272E0,2.121384E0],"tree_param":{"num_deleted":"0","num_feature":"160","num_nodes":"3","size_leaf_vector":"0"}},{"base_weights":[-1.4105123E-1,2.4520385E-1,-3.440166E-1],"categories":[],"categories_nodes":[],"categories_segments":[],"categories_sizes":[],"default_left":[1,0,0],"id":86,"left_children":[1,-1,-1],"loss_changes":[4.0738678E-1,0E0,0E0],"parents":[2147483647,0,0],"right_children":[2,-1,-1],"split_conditions":[9E1,7.356116E-2,-1.0320499E-1],"split_indices":[150,0,0],"split_type":[0,0,0],"sum_hessian":[3.1205022E0,1.0032161E0,2.117286E0],"tree_param":{"num_deleted":"0","num_feature":"160","num_nodes":"3","size_leaf_vector":"0"}},{"base_weights":[4.4945592E-1,1.6942068E0,-3.689081E-1],"categories":[],"categories_nodes":[],"categories_segments":[],"categories_sizes":[],"default_left":[1,0,0],"id":87,"left_children":[1,-1,-1],"loss_changes":[5.4185967E0,0E0,0E0],"parents":[2147483647,0,0],"right_children":[2,-1,-1],"split_conditions":[1.145E2,5.082621E-1,-1.1067244E-1],"split_indices":[155,0,0],"split_type":[0,0,0],"sum_hessian":[3.7057831E0,1.0454273E0,2.6603558E0],"tree_param":{"num_deleted":"0","num_feature":"160","num_nodes":"3","size_leaf_vector":"0"}},{"base_weights":[2.747648E-1,1.2297016E0,-3.6066633E-1],"categories":[],"categories_nodes":[],"categories_segments":[],"categories_sizes":[],"default_left":[1,0,0],"id":88,"left_children":[1,-1,-1],"loss_changes":[3.1633914E0,0E0,0E0],"parents":[2147483647,0,0],"right_children":[2,-1,-1],"split_conditions":[1.295E2,3.689105E-1,-1.081999E-1],"split_indices":[49,0,0],"split_type":[0,0,0],"sum_hessian":[3.4823575E0,1.0177066E0,2.4646509E0],"tree_param":{"num_deleted":"0","num_feature":"160","num_nodes":"3","size_leaf_vector":"0"}},{"base_weights":[-1.4105123E-1,2.4520385E-1,-3.440166E-1],"categories":[],"categories_nodes":[],"categories_segments":[],"categories_sizes":[],"default_left":[1,0,0],"id":89,"left_children":[1,-1,-1],"loss_changes":[4.0738678E-1,0E0,0E0],"parents":[2147483647,0,0],"right_children":[2,-1,-1],"split_conditions":[9E1,7.356116E-2,-1.0320499E-1],"split_indices":[150,0,0],"split_type":[0,0,0],"sum_hessian":[3.1205022E0,1.0032161E0,2.117286E0],"tree_param":{"num_deleted":"0","num_feature":"160","num_nodes":"3","size_leaf_vector":"0"}},{"base_weights":[4.4945595E-1,1.694552E0,-3.6892152E-1],"categories":[],"categories_nodes":[],"categories_segments":[],"categories_sizes":[],"default_left":[1,0,0],"id":90,"left_children":[1,-1,-1],"loss_changes":[5.4201546E0,0E0,0E0],"parents":[2147483647,0,0],"right_children":[2,-1,-1],"split_conditions":[1.105E2,5.0836563E-1,-1.1067646E-1],"split_indices":[86,0,0],"split_type":[0,0,0],"sum_hessian":[3.7057831E0,1.045109E0,2.660674E0],"tree_param":{"num_deleted":"0","num_feature":"160","num_nodes":"3","size_leaf_vector":"0"}},{"base_weights":[-1.4105122E-1,2.4426751E-1,-3.438811E-1],"categories":[],"categories_nodes":[],"categories_segments":[],"categories_sizes":[],"default_left":[1,0,0],"id":91,"left_children":[1,-1,-1],"loss_changes":[4.060333E-1,0E0,0E0],"parents":[2147483647,0,0],"right_children":[2,-1,-1],"split_conditions":[6.35E1,7.328025E-2,-1.0316434E-1],"split_indices":[146,0,0],"split_type":[0,0,0],"sum_hessian":[3.1205022E0,1.005687E0,2.1148152E0],"tree_param":{"num_deleted":"0","num_feature":"160","num_nodes":"3","size_leaf_vector":"0"}},{"base_weights":[-1.4119023E-1,2.444502E-1,-3.439909E-1],"categories":[],"categories_nodes":[],"categories_segments":[],"categories_sizes":[],"default_left":[1,0,0],"id":92,"left_children":[1,-1,-1],"loss_changes":[4.0646082E-1,0E0,0E0],"parents":[2147483647,0,0],"right_children":[2,-1,-1],"split_conditions":[1.525E2,7.333506E-2,-1.0319727E-1],"split_indices":[158,0,0],"split_type":[0,0,0],"sum_hessian":[3.1219776E0,1.0051806E0,2.116797E0],"tree_param":{"num_deleted":"0","num_feature":"160","num_nodes":"3","size_leaf_vector":"0"}},{"base_weights":[7.578728E-2,-3.5091546E-1,7.098174E-1],"categories":[],"categories_nodes":[],"categories_segments":[],"categories_sizes":[],"default_left":[1,0,0],"id":93,"left_children":[1,-1,-1],"loss_changes":[1.41254E0,0E0,0E0],"parents":[2147483647,0,0],"right_children":[2,-1,-1],"split_conditions":[1.175E2,-1.0527464E-1,2.1294524E-1],"split_indices":[27,0,0],"split_type":[0,0,0],"sum_hessian":[3.30045E0,2.2396774E0,1.0607727E0],"tree_param":{"num_deleted":"0","num_feature":"160","num_nodes":"3","size_leaf_vector":"0"}},{"base_weights":[-1.4109969E-1,2.4555418E-1,-3.4431553E-1],"categories":[],"categories_nodes":[],"categories_segments":[],"categories_sizes":[],"default_left":[1,0,0],"id":94,"left_children":[1,-1,-1],"loss_changes":[4.0835276E-1,0E0,0E0],"parents":[2147483647,0,0],"right_children":[2,-1,-1],"split_conditions":[1.035E2,7.366626E-2,-1.0329466E-1],"split_indices":[120,0,0],"split_type":[0,0,0],"sum_hessian":[3.1210053E0,1.0034409E0,2.1175644E0],"tree_param":{"num_deleted":"0","num_feature":"160","num_nodes":"3","size_leaf_vector":"0"}},{"base_weights":[-1.4109968E-1,-3.4351677E-1,2.415644E-1],"categories":[],"categories_nodes":[],"categories_segments":[],"categories_sizes":[],"default_left":[1,0,0],"id":95,"left_children":[1,-1,-1],"loss_changes":[4.0218523E-1,0E0,0E0],"parents":[2147483647,0,0],"right_children":[2,-1,-1],"split_conditions":[2.555E2,-1.0305504E-1,7.2469324E-2],"split_indices":[17,0,0],"split_type":[0,0,0],"sum_hessian":[3.1210053E0,2.1081586E0,1.0128467E0],"tree_param":{"num_deleted":"0","num_feature":"160","num_nodes":"3","size_leaf_vector":"0"}},{"base_weights":[-1.415734E-1,2.4676198E-1,-3.4477353E-1],"categories":[],"categories_nodes":[],"categories_segments":[],"categories_sizes":[],"default_left":[1,0,0],"id":96,"left_children":[1,-1,-1],"loss_changes":[4.1067702E-1,0E0,0E0],"parents":[2147483647,0,0],"right_children":[2,-1,-1],"split_conditions":[1.455E2,7.40286E-2,-1.0343207E-1],"split_indices":[155,0,0],"split_type":[0,0,0],"sum_hessian":[3.1262312E0,1.0002589E0,2.1259723E0],"tree_param":{"num_deleted":"0","num_feature":"160","num_nodes":"3","size_leaf_vector":"0"}},{"base_weights":[7.673984E-2,-3.5051903E-1,7.092055E-1],"categories":[],"categories_nodes":[],"categories_segments":[],"categories_sizes":[],"default_left":[1,0,0],"id":97,"left_children":[1,-1,-1],"loss_changes":[1.4087985E0,0E0,0E0],"parents":[2147483647,0,0],"right_children":[2,-1,-1],"split_conditions":[1.465E2,-1.05155714E-1,2.1276166E-1],"split_indices":[51,0,0],"split_type":[0,0,0],"sum_hessian":[3.2934656E0,2.2316654E0,1.0618002E0],"tree_param":{"num_deleted":"0","num_feature":"160","num_nodes":"3","size_leaf_vector":"0"}},{"base_weights":[7.632223E-2,7.305012E-1,-3.518E-1],"categories":[],"categories_nodes":[],"categories_segments":[],"categories_sizes":[],"default_left":[1,0,0],"id":98,"left_children":[1,-1,-1],"loss_changes":[1.4602801E0,0E0,0E0],"parents":[2147483647,0,0],"right_children":[2,-1,-1],"split_conditions":[8.45E1,2.1915036E-1,-1.0554E-1],"split_indices":[150,0,0],"split_type":[0,0,0],"sum_hessian":[3.2964118E0,1.0245652E0,2.2718465E0],"tree_param":{"num_deleted":"0","num_feature":"160","num_nodes":"3","size_leaf_vector":"0"}},{"base_weights":[-1.4143658E-1,-3.443369E-1,2.457865E-1],"categories":[],"categories_nodes":[],"categories_segments":[],"categories_sizes":[],"default_left":[1,0,0],"id":99,"left_children":[1,-1,-1],"loss_changes":[4.086924E-1,0E0,0E0],"parents":[2147483647,0,0],"right_children":[2,-1,-1],"split_conditions":[1.865E2,-1.0330107E-1,7.373595E-2],"split_indices":[130,0,0],"split_type":[0,0,0],"sum_hessian":[3.1245844E0,2.1229415E0,1.001643E0],"tree_param":{"num_deleted":"0","num_feature":"160","num_nodes":"3","size_leaf_vector":"0"}},{"base_weights":[2.6668382E-1,-3.5353816E-1,1.0534263E0],"categories":[],"categories_nodes":[],"categories_segments":[],"categories_sizes":[],"default_left":[1,0,0],"id":100,"left_children":[1,-1,-1],"loss_changes":[2.582254E0,0E0,0E0],"parents":[2147483647,0,0],"right_children":[2,-1,-1],"split_conditions":[9.85E1,-1.0606145E-1,3.1602788E-1],"split_indices":[96,0,0],"split_type":[0,0,0],"sum_hessian":[3.528753E0,2.2810984E0,1.2476548E0],"tree_param":{"num_deleted":"0","num_feature":"160","num_nodes":"3","size_leaf_vector":"0"}},{"base_weights":[-1.4143658E-1,-3.443369E-1,2.4578652E-1],"categories":[],"categories_nodes":[],"categories_segments":[],"categories_sizes":[],"default_left":[1,0,0],"id":101,"left_children":[1,-1,-1],"loss_changes":[4.0869242E-1,0E0,0E0],"parents":[2147483647,0,0],"right_children":[2,-1,-1],"split_conditions":[1.865E2,-1.0330107E-1,7.373596E-2],"split_indices":[130,0,0],"split_type":[0,0,0],"sum_hessian":[3.1245844E0,2.1229415E0,1.001643E0],"tree_param":{"num_deleted":"0","num_feature":"160","num_nodes":"3","size_leaf_vector":"0"}},{"base_weights":[7.629339E-2,7.333357E-1,-3.525287E-1],"categories":[],"categories_nodes":[],"categories_segments":[],"categories_sizes":[],"default_left":[1,0,0],"id":102,"left_children":[1,-1,-1],"loss_changes":[1.4691079E0,0E0,0E0],"parents":[2147483647,0,0],"right_children":[2,-1,-1],"split_conditions":[5.45E1,2.2000071E-1,-1.05758615E-1],"split_indices":[2,0,0],"split_type":[0,0,0],"sum_hessian":[3.2966027E0,1.0214374E0,2.2751653E0],"tree_param":{"num_deleted":"0","num_feature":"160","num_nodes":"3","size_leaf_vector":"0"}},{"base_weights":[2.6918477E-1,9.933106E-1,-3.4845918E-1],"categories":[],"categories_nodes":[],"categories_segments":[],"categories_sizes":[],"default_left":[1,0,0],"id":103,"left_children":[1,-1,-1],"loss_changes":[2.3651288E0,0E0,0E0],"parents":[2147483647,0,0],"right_children":[2,-1,-1],"split_conditions":[7.05E1,2.9799318E-1,-1.0453776E-1],"split_indices":[151,0,0],"split_type":[0,0,0],"sum_hessian":[3.5142355E0,1.3376957E0,2.1765397E0],"tree_param":{"num_deleted":"0","num_feature":"160","num_nodes":"3","size_leaf_vector":"0"}},{"base_weights":[-1.4097838E-1,-3.4396145E-1,2.451448E-1],"categories":[],"categories_nodes":[],"categories_segments":[],"categories_sizes":[],"default_left":[1,0,0],"id":104,"left_children":[1,-1,-1],"loss_changes":[4.0720946E-1,0E0,0E0],"parents":[2147483647,0,0],"right_children":[2,-1,-1],"split_conditions":[1.305E2,-1.0318844E-1,7.3543444E-2],"split_indices":[6,0,0],"split_type":[0,0,0],"sum_hessian":[3.11972E0,2.116355E0,1.0033649E0],"tree_param":{"num_deleted":"0","num_feature":"160","num_nodes":"3","size_leaf_vector":"0"}},{"base_weights":[-1.4130424E-1,-3.4425673E-1,2.4583472E-1],"categories":[],"categories_nodes":[],"categories_segments":[],"categories_sizes":[],"default_left":[1,0,0],"id":105,"left_children":[1,-1,-1],"loss_changes":[4.0859178E-1,0E0,0E0],"parents":[2147483647,0,0],"right_children":[2,-1,-1],"split_conditions":[1.35E2,-1.0327702E-1,7.375042E-2],"split_indices":[150,0,0],"split_type":[0,0,0],"sum_hessian":[3.1231785E0,2.1216817E0,1.0014967E0],"tree_param":{"num_deleted":"0","num_feature":"160","num_nodes":"3","size_leaf_vector":"0"}},{"base_weights":[-1.4097838E-1,-3.4396145E-1,2.451448E-1],"categories":[],"categories_nodes":[],"categories_segments":[],"categories_sizes":[],"default_left":[1,0,0],"id":106,"left_children":[1,-1,-1],"loss_changes":[4.0720946E-1,0E0,0E0],"parents":[2147483647,0,0],"right_children":[2,-1,-1],"split_conditions":[1.305E2,-1.0318844E-1,7.3543444E-2],"split_indices":[6,0,0],"split_type":[0,0,0],"sum_hessian":[3.11972E0,2.116355E0,1.0033649E0],"tree_param":{"num_deleted":"0","num_feature":"160","num_nodes":"3","size_leaf_vector":"0"}},{"base_weights":[-1.4097838E-1,-3.4396145E-1,2.451448E-1],"categories":[],"categories_nodes":[],"categories_segments":[],"categories_sizes":[],"default_left":[1,0,0],"id":107,"left_children":[1,-1,-1],"loss_changes":[4.0720946E-1,0E0,0E0],"parents":[2147483647,0,0],"right_children":[2,-1,-1],"split_conditions":[1.305E2,-1.0318844E-1,7.3543444E-2],"split_indices":[6,0,0],"split_type":[0,0,0],"sum_hessian":[3.11972E0,2.116355E0,1.0033649E0],"tree_param":{"num_deleted":"0","num_feature":"160","num_nodes":"3","size_leaf_vector":"0"}},{"base_weights":[7.643621E-2,-3.406558E-1,6.042471E-1],"categories":[],"categories_nodes":[],"categories_segments":[],"categories_sizes":[],"default_left":[1,0,0],"id":108,"left_children":[1,-1,-1],"loss_changes":[1.1515291E0,0E0,0E0],"parents":[2147483647,0,0],"right_children":[2,-1,-1],"split_conditions":[1.235E2,-1.02196746E-1,1.8127413E-1],"split_indices":[13,0,0],"split_type":[0,0,0],"sum_hessian":[3.2957404E0,2.0390275E0,1.2567132E0],"tree_param":{"num_deleted":"0","num_feature":"160","num_nodes":"3","size_leaf_vector":"0"}},{"base_weights":[7.665361E-2,6.588136E-1,-3.460975E-1],"categories":[],"categories_nodes":[],"categories_segments":[],"categories_sizes":[],"default_left":[1,0,0],"id":109,"left_children":[1,-1,-1],"loss_changes":[1.2848518E0,0E0,0E0],"parents":[2147483647,0,0],"right_children":[2,-1,-1],"split_conditions":[5.75E1,1.9764408E-1,-1.0382926E-1],"split_indices":[136,0,0],"split_type":[0,0,0],"sum_hessian":[3.2941911E0,1.1509082E0,2.143283E0],"tree_param":{"num_deleted":"0","num_feature":"160","num_nodes":"3","size_leaf_vector":"0"}},{"base_weights":[7.637147E-2,6.433477E-1,-3.446511E-1],"categories":[],"categories_nodes":[],"categories_segments":[],"categories_sizes":[],"default_left":[1,0,0],"id":110,"left_children":[1,-1,-1],"loss_changes":[1.2472705E0,0E0,0E0],"parents":[2147483647,0,0],"right_children":[2,-1,-1],"split_conditions":[5.75E1,1.9300431E-1,-1.03395335E-1],"split_indices":[136,0,0],"split_type":[0,0,0],"sum_hessian":[3.2961793E0,1.1795974E0,2.116582E0],"tree_param":{"num_deleted":"0","num_feature":"160","num_nodes":"3","size_leaf_vector":"0"}},{"base_weights":[-1.413314E-1,-3.4427115E-1,2.4577996E-1],"categories":[],"categories_nodes":[],"categories_segments":[],"categories_sizes":[],"default_left":[1,0,0],"id":111,"left_children":[1,-1,-1],"loss_changes":[4.0855566E-1,0E0,0E0],"parents":[2147483647,0,0],"right_children":[2,-1,-1],"split_conditions":[5.05E1,-1.0328135E-1,7.373399E-2],"split_indices":[60,0,0],"split_type":[0,0,0],"sum_hessian":[3.1234663E0,2.1217983E0,1.001668E0],"tree_param":{"num_deleted":"0","num_feature":"160","num_nodes":"3","size_leaf_vector":"0"}},{"base_weights":[4.4672823E-1,1.3532054E0,-3.550483E-1],"categories":[],"categories_nodes":[],"categories_segments":[],"categories_sizes":[],"default_left":[1,0,0],"id":112,"left_children":[1,-1,-1],"loss_changes":[3.9100254E0,0E0,0E0],"parents":[2147483647,0,0],"right_children":[2,-1,-1],"split_conditions":[1.785E2,4.0596166E-1,-1.0651449E-1],"split_indices":[135,0,0],"split_type":[0,0,0],"sum_hessian":[3.7187788E0,1.4226228E0,2.2961562E0],"tree_param":{"num_deleted":"0","num_feature":"160","num_nodes":"3","size_leaf_vector":"0"}},{"base_weights":[2.7365783E-1,-3.3896035E-1,9.1430455E-1],"categories":[],"categories_nodes":[],"categories_segments":[],"categories_sizes":[],"default_left":[1,0,0],"id":113,"left_children":[1,-1,-1],"loss_changes":[2.0715783E0,0E0,0E0],"parents":[2147483647,0,0],"right_children":[2,-1,-1],"split_conditions":[1.015E2,-1.0168811E-1,2.7429137E-1],"split_indices":[69,0,0],"split_type":[0,0,0],"sum_hessian":[3.4886413E0,2.024052E0,1.4645896E0],"tree_param":{"num_deleted":"0","num_feature":"160","num_nodes":"3","size_leaf_vector":"0"}},{"base_weights":[-1.4097838E-1,-3.440852E-1,2.4566321E-1],"categories":[],"categories_nodes":[],"categories_segments":[],"categories_sizes":[],"default_left":[1,0,0],"id":114,"left_children":[1,-1,-1],"loss_changes":[4.0804872E-1,0E0,0E0],"parents":[2147483647,0,0],"right_children":[2,-1,-1],"split_conditions":[8.05E1,-1.0322556E-1,7.369897E-2],"split_indices":[24,0,0],"split_type":[0,0,0],"sum_hessian":[3.11972E0,2.1174622E0,1.0022578E0],"tree_param":{"num_deleted":"0","num_feature":"160","num_nodes":"3","size_leaf_vector":"0"}},{"base_weights":[7.698087E-2,-3.484239E-1,6.9196665E-1],"categories":[],"categories_nodes":[],"categories_segments":[],"categories_sizes":[],"default_left":[1,0,0],"id":115,"left_children":[1,-1,-1],"loss_changes":[1.3638971E0,0E0,0E0],"parents":[2147483647,0,0],"right_children":[2,-1,-1],"split_conditions":[1.96E2,-1.04527175E-1,2.0759E-1],"split_indices":[155,0,0],"split_type":[0,0,0],"sum_hessian":[3.2917535E0,2.2020035E0,1.08975E0],"tree_param":{"num_deleted":"0","num_feature":"160","num_nodes":"3","size_leaf_vector":"0"}},{"base_weights":[7.698087E-2,-3.5225168E-1,7.3920786E-1],"categories":[],"categories_nodes":[],"categories_segments":[],"categories_sizes":[],"default_left":[1,0,0],"id":116,"left_children":[1,-1,-1],"loss_changes":[1.4803156E0,0E0,0E0],"parents":[2147483647,0,0],"right_children":[2,-1,-1],"split_conditions":[6.45E1,-1.0567551E-1,2.2176237E-1],"split_indices":[62,0,0],"split_type":[0,0,0],"sum_hessian":[3.2917535E0,2.2812238E0,1.0105298E0],"tree_param":{"num_deleted":"0","num_feature":"160","num_nodes":"3","size_leaf_vector":"0"}},{"base_weights":[-1.4097838E-1,-3.441508E-1,2.4611872E-1],"categories":[],"categories_nodes":[],"categories_segments":[],"categories_sizes":[],"default_left":[1,0,0],"id":117,"left_children":[1,-1,-1],"loss_changes":[4.0870747E-1,0E0,0E0],"parents":[2147483647,0,0],"right_children":[2,-1,-1],"split_conditions":[2.145E2,-1.0324525E-1,7.383562E-2],"split_indices":[9,0,0],"split_type":[0,0,0],"sum_hessian":[3.11972E0,2.1186607E0,1.0010593E0],"tree_param":{"num_deleted":"0","num_feature":"160","num_nodes":"3","size_leaf_vector":"0"}},{"base_weights":[-1.4130422E-1,-3.4425673E-1,2.4583474E-1],"categories":[],"categories_nodes":[],"categories_segments":[],"categories_sizes":[],"default_left":[1,0,0],"id":118,"left_children":[1,-1,-1],"loss_changes":[4.085918E-1,0E0,0E0],"parents":[2147483647,0,0],"right_children":[2,-1,-1],"split_conditions":[1.35E2,-1.0327702E-1,7.375042E-2],"split_indices":[150,0,0],"split_type":[0,0,0],"sum_hessian":[3.1231785E0,2.1216817E0,1.0014967E0],"tree_param":{"num_deleted":"0","num_feature":"160","num_nodes":"3","size_leaf_vector":"0"}},{"base_weights":[7.766023E-2,-3.5233948E-1,7.435375E-1],"categories":[],"categories_nodes":[],"categories_segments":[],"categories_sizes":[],"default_left":[1,0,0],"id":119,"left_children":[1,-1,-1],"loss_changes":[1.4894538E0,0E0,0E0],"parents":[2147483647,0,0],"right_children":[2,-1,-1],"split_conditions":[7.75E1,-1.0570185E-1,2.2306125E-1],"split_indices":[2,0,0],"split_type":[0,0,0],"sum_hessian":[3.286973E0,2.2833388E0,1.0036342E0],"tree_param":{"num_deleted":"0","num_feature":"160","num_nodes":"3","size_leaf_vector":"0"}},{"base_weights":[7.766023E-2,-3.5253122E-1,7.443797E-1],"categories":[],"categories_nodes":[],"categories_segments":[],"categories_sizes":[],"default_left":[1,0,0],"id":120,"left_children":[1,-1,-1],"loss_changes":[1.4919939E0,0E0,0E0],"parents":[2147483647,0,0],"right_children":[2,-1,-1],"split_conditions":[2.135E2,-1.05759375E-1,2.2331391E-1],"split_indices":[158,0,0],"split_type":[0,0,0],"sum_hessian":[3.286973E0,2.2843032E0,1.0026698E0],"tree_param":{"num_deleted":"0","num_feature":"160","num_nodes":"3","size_leaf_vector":"0"}},{"base_weights":[-1.4107506E-1,-3.441755E-1,2.4621972E-1],"categories":[],"categories_nodes":[],"categories_segments":[],"categories_sizes":[],"default_left":[1,0,0],"id":121,"left_children":[1,-1,-1],"loss_changes":[4.0887958E-1,0E0,0E0],"parents":[2147483647,0,0],"right_children":[2,-1,-1],"split_conditions":[1.865E2,-1.0325265E-1,7.386592E-2],"split_indices":[130,0,0],"split_type":[0,0,0],"sum_hessian":[3.1207457E0,2.1202202E0,1.0005256E0],"tree_param":{"num_deleted":"0","num_feature":"160","num_nodes":"3","size_leaf_vector":"0"}},{"base_weights":[2.7310476E-1,-3.6097926E-1,1.2255143E0],"categories":[],"categories_nodes":[],"categories_segments":[],"categories_sizes":[],"default_left":[1,0,0],"id":122,"left_children":[1,-1,-1],"loss_changes":[3.1548638E0,0E0,0E0],"parents":[2147483647,0,0],"right_children":[2,-1,-1],"split_conditions":[1.57E2,-1.0829378E-1,3.676543E-1],"split_indices":[46,0,0],"split_type":[0,0,0],"sum_hessian":[3.4915452E0,2.468848E0,1.0226974E0],"tree_param":{"num_deleted":"0","num_feature":"160","num_nodes":"3","size_leaf_vector":"0"}},{"base_weights":[-1.4130424E-1,-3.444157E-1,2.462432E-1],"categories":[],"categories_nodes":[],"categories_segments":[],"categories_sizes":[],"default_left":[1,0,0],"id":123,"left_children":[1,-1,-1],"loss_changes":[4.093673E-1,0E0,0E0],"parents":[2147483647,0,0],"right_children":[2,-1,-1],"split_conditions":[1.685E2,-1.0332471E-1,7.387296E-2],"split_indices":[86,0,0],"split_type":[0,0,0],"sum_hessian":[3.1231785E0,2.1222258E0,1.0009526E0],"tree_param":{"num_deleted":"0","num_feature":"160","num_nodes":"3","size_leaf_vector":"0"}},{"base_weights":[-1.4104225E-1,-3.4417325E-1,2.463386E-1],"categories":[],"categories_nodes":[],"categories_segments":[],"categories_sizes":[],"default_left":[1,0,0],"id":124,"left_children":[1,-1,-1],"loss_changes":[4.0901333E-1,0E0,0E0],"parents":[2147483647,0,0],"right_children":[2,-1,-1],"split_conditions":[6.35E1,-1.0325198E-1,7.3901586E-2],"split_indices":[74,0,0],"split_type":[0,0,0],"sum_hessian":[3.120397E0,2.120177E0,1.0002201E0],"tree_param":{"num_deleted":"0","num_feature":"160","num_nodes":"3","size_leaf_vector":"0"}},{"base_weights":[7.737154E-2,-3.5262594E-1,7.458071E-1],"categories":[],"categories_nodes":[],"categories_segments":[],"categories_sizes":[],"default_left":[1,0,0],"id":125,"left_children":[1,-1,-1],"loss_changes":[1.4957604E0,0E0,0E0],"parents":[2147483647,0,0],"right_children":[2,-1,-1],"split_conditions":[1.075E2,-1.05787784E-1,2.2374214E-1],"split_indices":[52,0,0],"split_type":[0,0,0],"sum_hessian":[3.2890038E0,2.288985E0,1.0000188E0],"tree_param":{"num_deleted":"0","num_feature":"160","num_nodes":"3","size_leaf_vector":"0"}},{"base_weights":[-1.4130424E-1,-3.4437245E-1,2.4594203E-1],"categories":[],"categories_nodes":[],"categories_segments":[],"categories_sizes":[],"default_left":[1,0,0],"id":126,"left_children":[1,-1,-1],"loss_changes":[4.0893176E-1,0E0,0E0],"parents":[2147483647,0,0],"right_children":[2,-1,-1],"split_conditions":[9.85E1,-1.0331174E-1,7.378261E-2],"split_indices":[100,0,0],"split_type":[0,0,0],"sum_hessian":[3.1231785E0,2.1214337E0,1.0017447E0],"tree_param":{"num_deleted":"0","num_feature":"160","num_nodes":"3","size_leaf_vector":"0"}},{"base_weights":[-1.4097838E-1,-3.441508E-1,2.4611872E-1],"categories":[],"categories_nodes":[],"categories_segments":[],"categories_sizes":[],"default_left":[1,0,0],"id":127,"left_children":[1,-1,-1],"loss_changes":[4.0870747E-1,0E0,0E0],"parents":[2147483647,0,0],"right_children":[2,-1,-1],"split_conditions":[2.145E2,-1.0324525E-1,7.383562E-2],"split_indices":[9,0,0],"split_type":[0,0,0],"sum_hessian":[3.11972E0,2.1186607E0,1.0010593E0],"tree_param":{"num_deleted":"0","num_feature":"160","num_nodes":"3","size_leaf_vector":"0"}},{"base_weights":[-1.4130424E-1,-3.444291E-1,2.4634323E-1],"categories":[],"categories_nodes":[],"categories_segments":[],"categories_sizes":[],"default_left":[1,0,0],"id":128,"left_children":[1,-1,-1],"loss_changes":[4.0951025E-1,0E0,0E0],"parents":[2147483647,0,0],"right_children":[2,-1,-1],"split_conditions":[1.285E2,-1.03328735E-1,7.390297E-2],"split_indices":[6,0,0],"split_type":[0,0,0],"sum_hessian":[3.1231785E0,2.1224937E0,1.0006846E0],"tree_param":{"num_deleted":"0","num_feature":"160","num_nodes":"3","size_leaf_vector":"0"}},{"base_weights":[-1.4097838E-1,-3.441508E-1,2.4611874E-1],"categories":[],"categories_nodes":[],"categories_segments":[],"categories_sizes":[],"default_left":[1,0,0],"id":129,"left_children":[1,-1,-1],"loss_changes":[4.087075E-1,0E0,0E0],"parents":[2147483647,0,0],"right_children":[2,-1,-1],"split_conditions":[2.145E2,-1.0324525E-1,7.3835626E-2],"split_indices":[9,0,0],"split_type":[0,0,0],"sum_hessian":[3.11972E0,2.1186607E0,1.0010593E0],"tree_param":{"num_deleted":"0","num_feature":"160","num_nodes":"3","size_leaf_vector":"0"}},{"base_weights":[-1.4097838E-1,-3.441508E-1,2.4611874E-1],"categories":[],"categories_nodes":[],"categories_segments":[],"categories_sizes":[],"default_left":[1,0,0],"id":130,"left_children":[1,-1,-1],"loss_changes":[4.087075E-1,0E0,0E0],"parents":[2147483647,0,0],"right_children":[2,-1,-1],"split_conditions":[2.145E2,-1.0324525E-1,7.3835626E-2],"split_indices":[9,0,0],"split_type":[0,0,0],"sum_hessian":[3.11972E0,2.1186607E0,1.0010593E0],"tree_param":{"num_deleted":"0","num_feature":"160","num_nodes":"3","size_leaf_vector":"0"}},{"base_weights":[-1.4097838E-1,-3.441508E-1,2.4611874E-1],"categories":[],"categories_nodes":[],"categories_segments":[],"categories_sizes":[],"default_left":[1,0,0],"id":131,"left_children":[1,-1,-1],"loss_changes":[4.087075E-1,0E0,0E0],"parents":[2147483647,0,0],"right_children":[2,-1,-1],"split_conditions":[2.145E2,-1.0324525E-1,7.3835626E-2],"split_indices":[9,0,0],"split_type":[0,0,0],"sum_hessian":[3.11972E0,2.1186607E0,1.0010593E0],"tree_param":{"num_deleted":"0","num_feature":"160","num_nodes":"3","size_leaf_vector":"0"}},{"base_weights":[-1.4097838E-1,-3.441508E-1,2.4611874E-1],"categories":[],"categories_nodes":[],"categories_segments":[],"categories_sizes":[],"default_left":[1,0,0],"id":132,"left_children":[1,-1,-1],"loss_changes":[4.087075E-1,0E0,0E0],"parents":[2147483647,0,0],"right_children":[2,-1,-1],"split_conditions":[2.145E2,-1.0324525E-1,7.3835626E-2],"split_indices":[9,0,0],"split_type":[0,0,0],"sum_hessian":[3.11972E0,2.1186607E0,1.0010593E0],"tree_param":{"num_deleted":"0","num_feature":"160","num_nodes":"3","size_leaf_vector":"0"}},{"base_weights":[-1.4097838E-1,-3.441508E-1,2.4611874E-1],"categories":[],"categories_nodes":[],"categories_segments":[],"categories_sizes":[],"default_left":[1,0,0],"id":133,"left_children":[1,-1,-1],"loss_changes":[4.087075E-1,0E0,0E0],"parents":[2147483647,0,0],"right_children":[2,-1,-1],"split_conditions":[2.145E2,-1.0324525E-1,7.3835626E-2],"split_indices":[9,0,0],"split_type":[0,0,0],"sum_hessian":[3.11972E0,2.1186607E0,1.0010593E0],"tree_param":{"num_deleted":"0","num_feature":"160","num_nodes":"3","size_leaf_vector":"0"}},{"base_weights":[-1.4097838E-1,-3.441508E-1,2.4611874E-1],"categories":[],"categories_nodes":[],"categories_segments":[],"categories_sizes":[],"default_left":[1,0,0],"id":134,"left_children":[1,-1,-1],"loss_changes":[4.087075E-1,0E0,0E0],"parents":[2147483647,0,0],"right_children":[2,-1,-1],"split_conditions":[2.145E2,-1.0324525E-1,7.3835626E-2],"split_indices":[9,0,0],"split_type":[0,0,0],"sum_hessian":[3.11972E0,2.1186607E0,1.0010593E0],"tree_param":{"num_deleted":"0","num_feature":"160","num_nodes":"3","size_leaf_vector":"0"}},{"base_weights":[-1.4097838E-1,-3.441508E-1,2.4611874E-1],"categories":[],"categories_nodes":[],"categories_segments":[],"categories_sizes":[],"default_left":[1,0,0],"id":135,"left_children":[1,-1,-1],"loss_changes":[4.087075E-1,0E0,0E0],"parents":[2147483647,0,0],"right_children":[2,-1,-1],"split_conditions":[2.145E2,-1.0324525E-1,7.3835626E-2],"split_indices":[9,0,0],"split_type":[0,0,0],"sum_hessian":[3.11972E0,2.1186607E0,1.0010593E0],"tree_param":{"num_deleted":"0","num_feature":"160","num_nodes":"3","size_leaf_vector":"0"}},{"base_weights":[7.766025E-2,-3.5265583E-1,7.460013E-1],"categories":[],"categories_nodes":[],"categories_segments":[],"categories_sizes":[],"default_left":[1,0,0],"id":136,"left_children":[1,-1,-1],"loss_changes":[1.4960063E0,0E0,0E0],"parents":[2147483647,0,0],"right_children":[2,-1,-1],"split_conditions":[9.65E1,-1.05796754E-1,2.238004E-1],"split_indices":[84,0,0],"split_type":[0,0,0],"sum_hessian":[3.286973E0,2.2868867E0,1.0000863E0],"tree_param":{"num_deleted":"0","num_feature":"160","num_nodes":"3","size_leaf_vector":"0"}},{"base_weights":[-1.4097838E-1,-3.441508E-1,2.4611874E-1],"categories":[],"categories_nodes":[],"categories_segments":[],"categories_sizes":[],"default_left":[1,0,0],"id":137,"left_children":[1,-1,-1],"loss_changes":[4.087075E-1,0E0,0E0],"parents":[2147483647,0,0],"right_children":[2,-1,-1],"split_conditions":[2.145E2,-1.0324525E-1,7.3835626E-2],"split_indices":[9,0,0],"split_type":[0,0,0],"sum_hessian":[3.11972E0,2.1186607E0,1.0010593E0],"tree_param":{"num_deleted":"0","num_feature":"160","num_nodes":"3","size_leaf_vector":"0"}},{"base_weights":[-1.4097838E-1,-3.441508E-1,2.4611874E-1],"categories":[],"categories_nodes":[],"categories_segments":[],"categories_sizes":[],"default_left":[1,0,0],"id":138,"left_children":[1,-1,-1],"loss_changes":[4.087075E-1,0E0,0E0],"parents":[2147483647,0,0],"right_children":[2,-1,-1],"split_conditions":[2.145E2,-1.0324525E-1,7.3835626E-2],"split_indices":[9,0,0],"split_type":[0,0,0],"sum_hessian":[3.11972E0,2.1186607E0,1.0010593E0],"tree_param":{"num_deleted":"0","num_feature":"160","num_nodes":"3","size_leaf_vector":"0"}},{"base_weights":[2.7520138E-1,-3.6152703E-1,1.244427E0],"categories":[],"categories_nodes":[],"categories_segments":[],"categories_sizes":[],"default_left":[1,0,0],"id":139,"left_children":[1,-1,-1],"loss_changes":[3.214606E0,0E0,0E0],"parents":[2147483647,0,0],"right_children":[2,-1,-1],"split_conditions":[3.55E1,-1.0845811E-1,3.733281E-1],"split_indices":[59,0,0],"split_type":[0,0,0],"sum_hessian":[3.4799256E0,2.4786086E0,1.0013169E0],"tree_param":{"num_deleted":"0","num_feature":"160","num_nodes":"3","size_leaf_vector":"0"}},{"base_weights":[-1.4097838E-1,-3.441508E-1,2.4611872E-1],"categories":[],"categories_nodes":[],"categories_segments":[],"categories_sizes":[],"default_left":[1,0,0],"id":140,"left_children":[1,-1,-1],"loss_changes":[4.0870747E-1,0E0,0E0],"parents":[2147483647,0,0],"right_children":[2,-1,-1],"split_conditions":[2.145E2,-1.0324525E-1,7.383562E-2],"split_indices":[9,0,0],"split_type":[0,0,0],"sum_hessian":[3.11972E0,2.1186607E0,1.0010593E0],"tree_param":{"num_deleted":"0","num_feature":"160","num_nodes":"3","size_leaf_vector":"0"}},{"base_weights":[-1.4097838E-1,-3.441508E-1,2.4611874E-1],"categories":[],"categories_nodes":[],"categories_segments":[],"categories_sizes":[],"default_left":[1,0,0],"id":141,"left_children":[1,-1,-1],"loss_changes":[4.087075E-1,0E0,0E0],"parents":[2147483647,0,0],"right_children":[2,-1,-1],"split_conditions":[2.145E2,-1.0324525E-1,7.3835626E-2],"split_indices":[9,0,0],"split_type":[0,0,0],"sum_hessian":[3.11972E0,2.1186607E0,1.0010593E0],"tree_param":{"num_deleted":"0","num_feature":"160","num_nodes":"3","size_leaf_vector":"0"}},{"base_weights":[-1.4097838E-1,-3.441508E-1,2.4611874E-1],"categories":[],"categories_nodes":[],"categories_segments":[],"categories_sizes":[],"default_left":[1,0,0],"id":142,"left_children":[1,-1,-1],"loss_changes":[4.087075E-1,0E0,0E0],"parents":[2147483647,0,0],"right_children":[2,-1,-1],"split_conditions":[2.145E2,-1.0324525E-1,7.3835626E-2],"split_indices":[9,0,0],"split_type":[0,0,0],"sum_hessian":[3.11972E0,2.1186607E0,1.0010593E0],"tree_param":{"num_deleted":"0","num_feature":"160","num_nodes":"3","size_leaf_vector":"0"}},{"base_weights":[-1.4097838E-1,-3.441508E-1,2.4611874E-1],"categories":[],"categories_nodes":[],"categories_segments":[],"categories_sizes":[],"default_left":[1,0,0],"id":143,"left_children":[1,-1,-1],"loss_changes":[4.087075E-1,0E0,0E0],"parents":[2147483647,0,0],"right_children":[2,-1,-1],"split_conditions":[2.145E2,-1.0324525E-1,7.3835626E-2],"split_indices":[9,0,0],"split_type":[0,0,0],"sum_hessian":[3.11972E0,2.1186607E0,1.0010593E0],"tree_param":{"num_deleted":"0","num_feature":"160","num_nodes":"3","size_leaf_vector":"0"}},{"base_weights":[-1.4097838E-1,-3.441508E-1,2.4611874E-1],"categories":[],"categories_nodes":[],"categories_segments":[],"categories_sizes":[],"default_left":[1,0,0],"id":144,"left_children":[1,-1,-1],"loss_changes":[4.087075E-1,0E0,0E0],