{"learner":{"attributes":{"best_iteration":"99","best_ntree_limit":"100","scikit_learn":"{\"use_label_encoder\": null, \"n_estimators\": 100, \"objective\": \"multi:softprob\", \"max_depth\": null, \"max_leaves\": null, \"max_bin\": null, \"grow_policy\": null, \"learning_rate\": null, \"verbosity\": null, \"booster\": null, \"tree_method\": null, \"gamma\": null, \"min_child_weight\": null, \"max_delta_step\": null, \"subsample\": null, \"sampling_method\": null, \"colsample_bytree\": null, \"colsample_bylevel\": null, \"colsample_bynode\": null, \"reg_alpha\": null, \"reg_lambda\": null, \"scale_pos_weight\": null, \"base_score\": null, \"missing\": NaN, \"num_parallel_tree\": null, \"random_state\": null, \"n_jobs\": null, \"monotone_constraints\": null, \"interaction_constraints\": null, \"importance_type\": null, \"gpu_id\": null, \"validate_parameters\": null, \"predictor\": null, \"enable_categorical\": false, \"feature_types\": null, \"max_cat_to_onehot\": null, \"max_cat_threshold\": null, \"eval_metric\": null, \"early_stopping_rounds\": null, \"callbacks\": null, \"classes_\": [0, 1, 2, 3, 4, 5, 6, 7, 8, 9, 10, 11, 12, 13, 14, 15, 16, 17, 18, 19, 20, 21, 22, 23, 24, 25, 26, 27, 28, 29, 30, 31, 32, 33, 34, 35, 36, 37, 38, 39, 40, 41, 42, 43, 44, 45, 46, 47, 48, 49, 50, 51, 52, 53, 54, 55, 56, 57, 58, 59], \"n_classes_\": 60, \"_estimator_type\": \"classifier\"}"},"feature_names":[],"feature_types":[],"gradient_booster":{"model":{"gbtree_model_param":{"num_parallel_tree":"1","num_trees":"6000","size_leaf_vector":"0"},"tree_info":[0,1,2,3,4,5,6,7,8,9,10,11,12,13,14,15,16,17,18,19,20,21,22,23,24,25,26,27,28,29,30,31,32,33,34,35,36,37,38,39,40,41,42,43,44,45,46,47,48,49,50,51,52,53,54,55,56,57,58,59,0,1,2,3,4,5,6,7,8,9,10,11,12,13,14,15,16,17,18,19,20,21,22,23,24,25,26,27,28,29,30,31,32,33,34,35,36,37,38,39,40,41,42,43,44,45,46,47,48,49,50,51,52,53,54,55,56,57,58,59,0,1,2,3,4,5,6,7,8,9,10,11,12,13,14,15,16,17,18,19,20,21,22,23,24,25,26,27,28,29,30,31,32,33,34,35,36,37,38,39,40,41,42,43,44,45,46,47,48,49,50,51,52,53,54,55,56,57,58,59,0,1,2,3,4,5,6,7,8,9,10,11,12,13,14,15,16,17,18,19,20,21,22,23,24,25,26,27,28,29,30,31,32,33,34,35,36,37,38,39,40,41,42,43,44,45,46,47,48,49,50,51,52,53,54,55,56,57,58,59,0,1,2,3,4,5,6,7,8,9,10,11,12,13,14,15,16,17,18,19,20,21,22,23,24,25,26,27,28,29,30,31,32,33,34,35,36,37,38,39,40,41,42,43,44,45,46,47,48,49,50,51,52,53,54,55,56,57,58,59,0,1,2,3,4,5,6,7,8,9,10,11,12,13,14,15,16,17,18,19,20,21,22,23,24,25,26,27,28,29,30,31,32,33,34,35,36,37,38,39,40,41,42,43,44,45,46,47,48,49,50,51,52,53,54,55,56,57,58,59,0,1,2,3,4,5,6,7,8,9,10,11,12,13,14,15,16,17,18,19,20,21,22,23,24,25,26,27,28,29,30,31,32,33,34,35,36,37,38,39,40,41,42,43,44,45,46,47,48,49,50,51,52,53,54,55,56,57,58,59,0,1,2,3,4,5,6,7,8,9,10,11,12,13,14,15,16,17,18,19,20,21,22,23,24,25,26,27,28,29,30,31,32,33,34,35,36,37,38,39,40,41,42,43,44,45,46,47,48,49,50,51,52,53,54,55,56,57,58,59,0,1,2,3,4,5,6,7,8,9,10,11,12,13,14,15,16,17,18,19,20,21,22,23,24,25,26,27,28,29,30,31,32,33,34,35,36,37,38,39,40,41,42,43,44,45,46,47,48,49,50,51,52,53,54,55,56,57,58,59,0,1,2,3,4,5,6,7,8,9,10,11,12,13,14,15,16,17,18,19,20,21,22,23,24,25,26,27,28,29,30,31,32,33,34,35,36,37,38,39,40,41,42,43,44,45,46,47,48,49,50,51,52,53,54,55,56,57,58,59,0,1,2,3,4,5,6,7,8,9,10,11,12,13,14,15,16,17,18,19,20,21,22,23,24,25,26,27,28,29,30,31,32,33,34,35,36,37,38,39,40,41,42,43,44,45,46,47,48,49,50,51,52,53,54,55,56,57,58,59,0,1,2,3,4,5,6,7,8,9,10,11,12,13,14,15,16,17,18,19,20,21,22,23,24,25,26,27,28,29,30,31,32,33,34,35,36,37,38,39,40,41,42,43,44,45,46,47,48,49,50,51,52,53,54,55,56,57,58,59,0,1,2,3,4,5,6,7,8,9,10,11,12,13,14,15,16,17,18,19,20,21,22,23,24,25,26,27,28,29,30,31,32,33,34,35,36,37,38,39,40,41,42,43,44,45,46,47,48,49,50,51,52,53,54,55,56,57,58,59,0,1,2,3,4,5,6,7,8,9,10,11,12,13,14,15,16,17,18,19,20,21,22,23,24,25,26,27,28,29,30,31,32,33,34,35,36,37,38,39,40,41,42,43,44,45,46,47,48,49,50,51,52,53,54,55,56,57,58,59,0,1,2,3,4,5,6,7,8,9,10,11,12,13,14,15,16,17,18,19,20,21,22,23,24,25,26,27,28,29,30,31,32,33,34,35,36,37,38,39,40,41,42,43,44,45,46,47,48,49,50,51,52,53,54,55,56,57,58,59,0,1,2,3,4,5,6,7,8,9,10,11,12,13,14,15,16,17,18,19,20,21,22,23,24,25,26,27,28,29,30,31,32,33,34,35,36,37,38,39,40,41,42,43,44,45,46,47,48,49,50,51,52,53,54,55,56,57,58,59,0,1,2,3,4,5,6,7,8,9,10,11,12,13,14,15,16,17,18,19,20,21,22,23,24,25,26,27,28,29,30,31,32,33,34,35,36,37,38,39,40,41,42,43,44,45,46,47,48,49,50,51,52,53,54,55,56,57,58,59,0,1,2,3,4,5,6,7,8,9,10,11,12,13,14,15,16,17,18,19,20,21,22,23,24,25,26,27,28,29,30,31,32,33,34,35,36,37,38,39,40,41,42,43,44,45,46,47,48,49,50,51,52,53,54,55,56,57,58,59,0,1,2,3,4,5,6,7,8,9,10,11,12,13,14,15,16,17,18,19,20,21,22,23,24,25,26,27,28,29,30,31,32,33,34,35,36,37,38,39,40,41,42,43,44,45,46,47,48,49,50,51,52,53,54,55,56,57,58,59,0,1,2,3,4,5,6,7,8,9,10,11,12,13,14,15,16,17,18,19,20,21,22,23,24,25,26,27,28,29,30,31,32,33,34,35,36,37,38,39,40,41,42,43,44,45,46,47,48,49,50,51,52,53,54,55,56,57,58,59,0,1,2,3,4,5,6,7,8,9,10,11,12,13,14,15,16,17,18,19,20,21,22,23,24,25,26,27,28,29,30,31,32,33,34,35,36,37,38,39,40,41,42,43,44,45,46,47,48,49,50,51,52,53,54,55,56,57,58,59,0,1,2,3,4,5,6,7,8,9,10,11,12,13,14,15,16,17,18,19,20,21,22,23,24,25,26,27,28,29,30,31,32,33,34,35,36,37,38,39,40,41,42,43,44,45,46,47,48,49,50,51,52,53,54,55,56,57,58,59,0,1,2,3,4,5,6,7,8,9,10,11,12,13,14,15,16,17,18,19,20,21,22,23,24,25,26,27,28,29,30,31,32,33,34,35,36,37,38,39,40,41,42,43,44,45,46,47,48,49,50,51,52,53,54,55,56,57,58,59,0,1,2,3,4,5,6,7,8,9,10,11,12,13,14,15,16,17,18,19,20,21,22,23,24,25,26,27,28,29,30,31,32,33,34,35,36,37,38,39,40,41,42,43,44,45,46,47,48,49,50,51,52,53,54,55,56,57,58,59,0,1,2,3,4,5,6,7,8,9,10,11,12,13,14,15,16,17,18,19,20,21,22,23,24,25,26,27,28,29,30,31,32,33,34,35,36,37,38,39,40,41,42,43,44,45,46,47,48,49,50,51,52,53,54,55,56,57,58,59,0,1,2,3,4,5,6,7,8,9,10,11,12,13,14,15,16,17,18,19,20,21,22,23,24,25,26,27,28,29,30,31,32,33,34,35,36,37,38,39,40,41,42,43,44,45,46,47,48,49,50,51,52,53,54,55,56,57,58,59,0,1,2,3,4,5,6,7,8,9,10,11,12,13,14,15,16,17,18,19,20,21,22,23,24,25,26,27,28,29,30,31,32,33,34,35,36,37,38,39,40,41,42,43,44,45,46,47,48,49,50,51,52,53,54,55,56,57,58,59,0,1,2,3,4,5,6,7,8,9,10,11,12,13,14,15,16,17,18,19,20,21,22,23,24,25,26,27,28,29,30,31,32,33,34,35,36,37,38,39,40,41,42,43,44,45,46,47,48,49,50,51,52,53,54,55,56,57,58,59,0,1,2,3,4,5,6,7,8,9,10,11,12,13,14,15,16,17,18,19,20,21,22,23,24,25,26,27,28,29,30,31,32,33,34,35,36,37,38,39,40,41,42,43,44,45,46,47,48,49,50,51,52,53,54,55,56,57,58,59,0,1,2,3,4,5,6,7,8,9,10,11,12,13,14,15,16,17,18,19,20,21,22,23,24,25,26,27,28,29,30,31,32,33,34,35,36,37,38,39,40,41,42,43,44,45,46,47,48,49,50,51,52,53,54,55,56,57,58,59,0,1,2,3,4,5,6,7,8,9,10,11,12,13,14,15,16,17,18,19,20,21,22,23,24,25,26,27,28,29,30,31,32,33,34,35,36,37,38,39,40,41,42,43,44,45,46,47,48,49,50,51,52,53,54,55,56,57,58,59,0,1,2,3,4,5,6,7,8,9,10,11,12,13,14,15,16,17,18,19,20,21,22,23,24,25,26,27,28,29,30,31,32,33,34,35,36,37,38,39,40,41,42,43,44,45,46,47,48,49,50,51,52,53,54,55,56,57,58,59,0,1,2,3,4,5,6,7,8,9,10,11,12,13,14,15,16,17,18,19,20,21,22,23,24,25,26,27,28,29,30,31,32,33,34,35,36,37,38,39,40,41,42,43,44,45,46,47,48,49,50,51,52,53,54,55,56,57,58,59,0,1,2,3,4,5,6,7,8,9,10,11,12,13,14,15,16,17,18,19,20,21,22,23,24,25,26,27,28,29,30,31,32,33,34,35,36,37,38,39,40,41,42,43,44,45,46,47,48,49,50,51,52,53,54,55,56,57,58,59,0,1,2,3,4,5,6,7,8,9,10,11,12,13,14,15,16,17,18,19,20,21,22,23,24,25,26,27,28,29,30,31,32,33,34,35,36,37,38,39,40,41,42,43,44,45,46,47,48,49,50,51,52,53,54,55,56,57,58,59,0,1,2,3,4,5,6,7,8,9,10,11,12,13,14,15,16,17,18,19,20,21,22,23,24,25,26,27,28,29,30,31,32,33,34,35,36,37,38,39,40,41,42,43,44,45,46,47,48,49,50,51,52,53,54,55,56,57,58,59,0,1,2,3,4,5,6,7,8,9,10,11,12,13,14,15,16,17,18,19,20,21,22,23,24,25,26,27,28,29,30,31,32,33,34,35,36,37,38,39,40,41,42,43,44,45,46,47,48,49,50,51,52,53,54,55,56,57,58,59,0,1,2,3,4,5,6,7,8,9,10,11,12,13,14,15,16,17,18,19,20,21,22,23,24,25,26,27,28,29,30,31,32,33,34,35,36,37,38,39,40,41,42,43,44,45,46,47,48,49,50,51,52,53,54,55,56,57,58,59,0,1,2,3,4,5,6,7,8,9,10,11,12,13,14,15,16,17,18,19,20,21,22,23,24,25,26,27,28,29,30,31,32,33,34,35,36,37,38,39,40,41,42,43,44,45,46,47,48,49,50,51,52,53,54,55,56,57,58,59,0,1,2,3,4,5,6,7,8,9,10,11,12,13,14,15,16,17,18,19,20,21,22,23,24,25,26,27,28,29,30,31,32,33,34,35,36,37,38,39,40,41,42,43,44,45,46,47,48,49,50,51,52,53,54,55,56,57,58,59,0,1,2,3,4,5,6,7,8,9,10,11,12,13,14,15,16,17,18,19,20,21,22,23,24,25,26,27,28,29,30,31,32,33,34,35,36,37,38,39,40,41,42,43,44,45,46,47,48,49,50,51,52,53,54,55,56,57,58,59,0,1,2,3,4,5,6,7,8,9,10,11,12,13,14,15,16,17,18,19,20,21,22,23,24,25,26,27,28,29,30,31,32,33,34,35,36,37,38,39,40,41,42,43,44,45,46,47,48,49,50,51,52,53,54,55,56,57,58,59,0,1,2,3,4,5,6,7,8,9,10,11,12,13,14,15,16,17,18,19,20,21,22,23,24,25,26,27,28,29,30,31,32,33,34,35,36,37,38,39,40,41,42,43,44,45,46,47,48,49,50,51,52,53,54,55,56,57,58,59,0,1,2,3,4,5,6,7,8,9,10,11,12,13,14,15,16,17,18,19,20,21,22,23,24,25,26,27,28,29,30,31,32,33,34,35,36,37,38,39,40,41,42,43,44,45,46,47,48,49,50,51,52,53,54,55,56,57,58,59,0,1,2,3,4,5,6,7,8,9,10,11,12,13,14,15,16,17,18,19,20,21,22,23,24,25,26,27,28,29,30,31,32,33,34,35,36,37,38,39,40,41,42,43,44,45,46,47,48,49,50,51,52,53,54,55,56,57,58,59,0,1,2,3,4,5,6,7,8,9,10,11,12,13,14,15,16,17,18,19,20,21,22,23,24,25,26,27,28,29,30,31,32,33,34,35,36,37,38,39,40,41,42,43,44,45,46,47,48,49,50,51,52,53,54,55,56,57,58,59,0,1,2,3,4,5,6,7,8,9,10,11,12,13,14,15,16,17,18,19,20,21,22,23,24,25,26,27,28,29,30,31,32,33,34,35,36,37,38,39,40,41,42,43,44,45,46,47,48,49,50,51,52,53,54,55,56,57,58,59,0,1,2,3,4,5,6,7,8,9,10,11,12,13,14,15,16,17,18,19,20,21,22,23,24,25,26,27,28,29,30,31,32,33,34,35,36,37,38,39,40,41,42,43,44,45,46,47,48,49,50,51,52,53,54,55,56,57,58,59,0,1,2,3,4,5,6,7,8,9,10,11,12,13,14,15,16,17,18,19,20,21,22,23,24,25,26,27,28,29,30,31,32,33,34,35,36,37,38,39,40,41,42,43,44,45,46,47,48,49,50,51,52,53,54,55,56,57,58,59,0,1,2,3,4,5,6,7,8,9,10,11,12,13,14,15,16,17,18,19,20,21,22,23,24,25,26,27,28,29,30,31,32,33,34,35,36,37,38,39,40,41,42,43,44,45,46,47,48,49,50,51,52,53,54,55,56,57,58,59,0,1,2,3,4,5,6,7,8,9,10,11,12,13,14,15,16,17,18,19,20,21,22,23,24,25,26,27,28,29,30,31,32,33,34,35,36,37,38,39,40,41,42,43,44,45,46,47,48,49,50,51,52,53,54,55,56,57,58,59,0,1,2,3,4,5,6,7,8,9,10,11,12,13,14,15,16,17,18,19,20,21,22,23,24,25,26,27,28,29,30,31,32,33,34,35,36,37,38,39,40,41,42,43,44,45,46,47,48,49,50,51,52,53,54,55,56,57,58,59,0,1,2,3,4,5,6,7,8,9,10,11,12,13,14,15,16,17,18,19,20,21,22,23,24,25,26,27,28,29,30,31,32,33,34,35,36,37,38,39,40,41,42,43,44,45,46,47,48,49,50,51,52,53,54,55,56,57,58,59,0,1,2,3,4,5,6,7,8,9,10,11,12,13,14,15,16,17,18,19,20,21,22,23,24,25,26,27,28,29,30,31,32,33,34,35,36,37,38,39,40,41,42,43,44,45,46,47,48,49,50,51,52,53,54,55,56,57,58,59,0,1,2,3,4,5,6,7,8,9,10,11,12,13,14,15,16,17,18,19,20,21,22,23,24,25,26,27,28,29,30,31,32,33,34,35,36,37,38,39,40,41,42,43,44,45,46,47,48,49,50,51,52,53,54,55,56,57,58,59,0,1,2,3,4,5,6,7,8,9,10,11,12,13,14,15,16,17,18,19,20,21,22,23,24,25,26,27,28,29,30,31,32,33,34,35,36,37,38,39,40,41,42,43,44,45,46,47,48,49,50,51,52,53,54,55,56,57,58,59,0,1,2,3,4,5,6,7,8,9,10,11,12,13,14,15,16,17,18,19,20,21,22,23,24,25,26,27,28,29,30,31,32,33,34,35,36,37,38,39,40,41,42,43,44,45,46,47,48,49,50,51,52,53,54,55,56,57,58,59,0,1,2,3,4,5,6,7,8,9,10,11,12,13,14,15,16,17,18,19,20,21,22,23,24,25,26,27,28,29,30,31,32,33,34,35,36,37,38,39,40,41,42,43,44,45,46,47,48,49,50,51,52,53,54,55,56,57,58,59,0,1,2,3,4,5,6,7,8,9,10,11,12,13,14,15,16,17,18,19,20,21,22,23,24,25,26,27,28,29,30,31,32,33,34,35,36,37,38,39,40,41,42,43,44,45,46,47,48,49,50,51,52,53,54,55,56,57,58,59,0,1,2,3,4,5,6,7,8,9,10,11,12,13,14,15,16,17,18,19,20,21,22,23,24,25,26,27,28,29,30,31,32,33,34,35,36,37,38,39,40,41,42,43,44,45,46,47,48,49,50,51,52,53,54,55,56,57,58,59,0,1,2,3,4,5,6,7,8,9,10,11,12,13,14,15,16,17,18,19,20,21,22,23,24,25,26,27,28,29,30,31,32,33,34,35,36,37,38,39,40,41,42,43,44,45,46,47,48,49,50,51,52,53,54,55,56,57,58,59,0,1,2,3,4,5,6,7,8,9,10,11,12,13,14,15,16,17,18,19,20,21,22,23,24,25,26,27,28,29,30,31,32,33,34,35,36,37,38,39,40,41,42,43,44,45,46,47,48,49,50,51,52,53,54,55,56,57,58,59,0,1,2,3,4,5,6,7,8,9,10,11,12,13,14,15,16,17,18,19,20,21,22,23,24,25,26,27,28,29,30,31,32,33,34,35,36,37,38,39,40,41,42,43,44,45,46,47,48,49,50,51,52,53,54,55,56,57,58,59,0,1,2,3,4,5,6,7,8,9,10,11,12,13,14,15,16,17,18,19,20,21,22,23,24,25,26,27,28,29,30,31,32,33,34,35,36,37,38,39,40,41,42,43,44,45,46,47,48,49,50,51,52,53,54,55,56,57,58,59,0,1,2,3,4,5,6,7,8,9,10,11,12,13,14,15,16,17,18,19,20,21,22,23,24,25,26,27,28,29,30,31,32,33,34,35,36,37,38,39,40,41,42,43,44,45,46,47,48,49,50,51,52,53,54,55,56,57,58,59,0,1,2,3,4,5,6,7,8,9,10,11,12,13,14,15,16,17,18,19,20,21,22,23,24,25,26,27,28,29,30,31,32,33,34,35,36,37,38,39,40,41,42,43,44,45,46,47,48,49,50,51,52,53,54,55,56,57,58,59,0,1,2,3,4,5,6,7,8,9,10,11,12,13,14,15,16,17,18,19,20,21,22,23,24,25,26,27,28,29,30,31,32,33,34,35,36,37,38,39,40,41,42,43,44,45,46,47,48,49,50,51,52,53,54,55,56,57,58,59,0,1,2,3,4,5,6,7,8,9,10,11,12,13,14,15,16,17,18,19,20,21,22,23,24,25,26,27,28,29,30,31,32,33,34,35,36,37,38,39,40,41,42,43,44,45,46,47,48,49,50,51,52,53,54,55,56,57,58,59,0,1,2,3,4,5,6,7,8,9,10,11,12,13,14,15,16,17,18,19,20,21,22,23,24,25,26,27,28,29,30,31,32,33,34,35,36,37,38,39,40,41,42,43,44,45,46,47,48,49,50,51,52,53,54,55,56,57,58,59,0,1,2,3,4,5,6,7,8,9,10,11,12,13,14,15,16,17,18,19,20,21,22,23,24,25,26,27,28,29,30,31,32,33,34,35,36,37,38,39,40,41,42,43,44,45,46,47,48,49,50,51,52,53,54,55,56,57,58,59,0,1,2,3,4,5,6,7,8,9,10,11,12,13,14,15,16,17,18,19,20,21,22,23,24,25,26,27,28,29,30,31,32,33,34,35,36,37,38,39,40,41,42,43,44,45,46,47,48,49,50,51,52,53,54,55,56,57,58,59,0,1,2,3,4,5,6,7,8,9,10,11,12,13,14,15,16,17,18,19,20,21,22,23,24,25,26,27,28,29,30,31,32,33,34,35,36,37,38,39,40,41,42,43,44,45,46,47,48,49,50,51,52,53,54,55,56,57,58,59,0,1,2,3,4,5,6,7,8,9,10,11,12,13,14,15,16,17,18,19,20,21,22,23,24,25,26,27,28,29,30,31,32,33,34,35,36,37,38,39,40,41,42,43,44,45,46,47,48,49,50,51,52,53,54,55,56,57,58,59,0,1,2,3,4,5,6,7,8,9,10,11,12,13,14,15,16,17,18,19,20,21,22,23,24,25,26,27,28,29,30,31,32,33,34,35,36,37,38,39,40,41,42,43,44,45,46,47,48,49,50,51,52,53,54,55,56,57,58,59,0,1,2,3,4,5,6,7,8,9,10,11,12,13,14,15,16,17,18,19,20,21,22,23,24,25,26,27,28,29,30,31,32,33,34,35,36,37,38,39,40,41,42,43,44,45,46,47,48,49,50,51,52,53,54,55,56,57,58,59,0,1,2,3,4,5,6,7,8,9,10,11,12,13,14,15,16,17,18,19,20,21,22,23,24,25,26,27,28,29,30,31,32,33,34,35,36,37,38,39,40,41,42,43,44,45,46,47,48,49,50,51,52,53,54,55,56,57,58,59,0,1,2,3,4,5,6,7,8,9,10,11,12,13,14,15,16,17,18,19,20,21,22,23,24,25,26,27,28,29,30,31,32,33,34,35,36,37,38,39,40,41,42,43,44,45,46,47,48,49,50,51,52,53,54,55,56,57,58,59,0,1,2,3,4,5,6,7,8,9,10,11,12,13,14,15,16,17,18,19,20,21,22,23,24,25,26,27,28,29,30,31,32,33,34,35,36,37,38,39,40,41,42,43,44,45,46,47,48,49,50,51,52,53,54,55,56,57,58,59,0,1,2,3,4,5,6,7,8,9,10,11,12,13,14,15,16,17,18,19,20,21,22,23,24,25,26,27,28,29,30,31,32,33,34,35,36,37,38,39,40,41,42,43,44,45,46,47,48,49,50,51,52,53,54,55,56,57,58,59,0,1,2,3,4,5,6,7,8,9,10,11,12,13,14,15,16,17,18,19,20,21,22,23,24,25,26,27,28,29,30,31,32,33,34,35,36,37,38,39,40,41,42,43,44,45,46,47,48,49,50,51,52,53,54,55,56,57,58,59,0,1,2,3,4,5,6,7,8,9,10,11,12,13,14,15,16,17,18,19,20,21,22,23,24,25,26,27,28,29,30,31,32,33,34,35,36,37,38,39,40,41,42,43,44,45,46,47,48,49,50,51,52,53,54,55,56,57,58,59,0,1,2,3,4,5,6,7,8,9,10,11,12,13,14,15,16,17,18,19,20,21,22,23,24,25,26,27,28,29,30,31,32,33,34,35,36,37,38,39,40,41,42,43,44,45,46,47,48,49,50,51,52,53,54,55,56,57,58,59,0,1,2,3,4,5,6,7,8,9,10,11,12,13,14,15,16,17,18,19,20,21,22,23,24,25,26,27,28,29,30,31,32,33,34,35,36,37,38,39,40,41,42,43,44,45,46,47,48,49,50,51,52,53,54,55,56,57,58,59,0,1,2,3,4,5,6,7,8,9,10,11,12,13,14,15,16,17,18,19,20,21,22,23,24,25,26,27,28,29,30,31,32,33,34,35,36,37,38,39,40,41,42,43,44,45,46,47,48,49,50,51,52,53,54,55,56,57,58,59,0,1,2,3,4,5,6,7,8,9,10,11,12,13,14,15,16,17,18,19,20,21,22,23,24,25,26,27,28,29,30,31,32,33,34,35,36,37,38,39,40,41,42,43,44,45,46,47,48,49,50,51,52,53,54,55,56,57,58,59,0,1,2,3,4,5,6,7,8,9,10,11,12,13,14,15,16,17,18,19,20,21,22,23,24,25,26,27,28,29,30,31,32,33,34,35,36,37,38,39,40,41,42,43,44,45,46,47,48,49,50,51,52,53,54,55,56,57,58,59,0,1,2,3,4,5,6,7,8,9,10,11,12,13,14,15,16,17,18,19,20,21,22,23,24,25,26,27,28,29,30,31,32,33,34,35,36,37,38,39,40,41,42,43,44,45,46,47,48,49,50,51,52,53,54,55,56,57,58,59,0,1,2,3,4,5,6,7,8,9,10,11,12,13,14,15,16,17,18,19,20,21,22,23,24,25,26,27,28,29,30,31,32,33,34,35,36,37,38,39,40,41,42,43,44,45,46,47,48,49,50,51,52,53,54,55,56,57,58,59,0,1,2,3,4,5,6,7,8,9,10,11,12,13,14,15,16,17,18,19,20,21,22,23,24,25,26,27,28,29,30,31,32,33,34,35,36,37,38,39,40,41,42,43,44,45,46,47,48,49,50,51,52,53,54,55,56,57,58,59,0,1,2,3,4,5,6,7,8,9,10,11,12,13,14,15,16,17,18,19,20,21,22,23,24,25,26,27,28,29,30,31,32,33,34,35,36,37,38,39,40,41,42,43,44,45,46,47,48,49,50,51,52,53,54,55,56,57,58,59,0,1,2,3,4,5,6,7,8,9,10,11,12,13,14,15,16,17,18,19,20,21,22,23,24,25,26,27,28,29,30,31,32,33,34,35,36,37,38,39,40,41,42,43,44,45,46,47,48,49,50,51,52,53,54,55,56,57,58,59,0,1,2,3,4,5,6,7,8,9,10,11,12,13,14,15,16,17,18,19,20,21,22,23,24,25,26,27,28,29,30,31,32,33,34,35,36,37,38,39,40,41,42,43,44,45,46,47,48,49,50,51,52,53,54,55,56,57,58,59,0,1,2,3,4,5,6,7,8,9,10,11,12,13,14,15,16,17,18,19,20,21,22,23,24,25,26,27,28,29,30,31,32,33,34,35,36,37,38,39,40,41,42,43,44,45,46,47,48,49,50,51,52,53,54,55,56,57,58,59,0,1,2,3,4,5,6,7,8,9,10,11,12,13,14,15,16,17,18,19,20,21,22,23,24,25,26,27,28,29,30,31,32,33,34,35,36,37,38,39,40,41,42,43,44,45,46,47,48,49,50,51,52,53,54,55,56,57,58,59,0,1,2,3,4,5,6,7,8,9,10,11,12,13,14,15,16,17,18,19,20,21,22,23,24,25,26,27,28,29,30,31,32,33,34,35,36,37,38,39,40,41,42,43,44,45,46,47,48,49,50,51,52,53,54,55,56,57,58,59,0,1,2,3,4,5,6,7,8,9,10,11,12,13,14,15,16,17,18,19,20,21,22,23,24,25,26,27,28,29,30,31,32,33,34,35,36,37,38,39,40,41,42,43,44,45,46,47,48,49,50,51,52,53,54,55,56,57,58,59,0,1,2,3,4,5,6,7,8,9,10,11,12,13,14,15,16,17,18,19,20,21,22,23,24,25,26,27,28,29,30,31,32,33,34,35,36,37,38,39,40,41,42,43,44,45,46,47,48,49,50,51,52,53,54,55,56,57,58,59,0,1,2,3,4,5,6,7,8,9,10,11,12,13,14,15,16,17,18,19,20,21,22,23,24,25,26,27,28,29,30,31,32,33,34,35,36,37,38,39,40,41,42,43,44,45,46,47,48,49,50,51,52,53,54,55,56,57,58,59,0,1,2,3,4,5,6,7,8,9,10,11,12,13,14,15,16,17,18,19,20,21,22,23,24,25,26,27,28,29,30,31,32,33,34,35,36,37,38,39,40,41,42,43,44,45,46,47,48,49,50,51,52,53,54,55,56,57,58,59,0,1,2,3,4,5,6,7,8,9,10,11,12,13,14,15,16,17,18,19,20,21,22,23,24,25,26,27,28,29,30,31,32,33,34,35,36,37,38,39,40,41,42,43,44,45,46,47,48,49,50,51,52,53,54,55,56,57,58,59],"trees":[{"base_weights":[-2.0270272E-1,2.3973545E-1,-3.786697E-1],"categories":[],"categories_nodes":[],"categories_segments":[],"categories_sizes":[],"default_left":[1,0,0],"id":0,"left_children":[1,-1,-1],"loss_changes":[4.7486284E-1,0E0,0E0],"parents":[2147483647,0,0],"right_children":[2,-1,-1],"split_conditions":[3.25E1,7.192064E-2,-1.1360092E-1],"split_indices":[0,0,0],"split_type":[0,0,0],"sum_hessian":[3.9333334E0,1.0161111E0,2.9172223E0],"tree_param":{"num_deleted":"0","num_feature":"155","num_nodes":"3","size_leaf_vector":"0"}},{"base_weights":[-2.0270272E-1,2.3973545E-1,-3.786697E-1],"categories":[],"categories_nodes":[],"categories_segments":[],"categories_sizes":[],"default_left":[1,0,0],"id":1,"left_children":[1,-1,-1],"loss_changes":[4.7486284E-1,0E0,0E0],"parents":[2147483647,0,0],"right_children":[2,-1,-1],"split_conditions":[3.25E1,7.192064E-2,-1.1360092E-1],"split_indices":[0,0,0],"split_type":[0,0,0],"sum_hessian":[3.9333334E0,1.0161111E0,2.9172223E0],"tree_param":{"num_deleted":"0","num_feature":"155","num_nodes":"3","size_leaf_vector":"0"}},{"base_weights":[2.0270269E-1,1.2317443E0,-3.786697E-1],"categories":[],"categories_nodes":[],"categories_segments":[],"categories_sizes":[],"default_left":[1,0,0],"id":2,"left_children":[1,-1,-1],"loss_changes":[3.4178224E0,0E0,0E0],"parents":[2147483647,0,0],"right_children":[2,-1,-1],"split_conditions":[5.15E1,3.695233E-1,-1.1360092E-1],"split_indices":[15,0,0],"split_type":[0,0,0],"sum_hessian":[3.9333334E0,1.0161111E0,2.9172223E0],"tree_param":{"num_deleted":"0","num_feature":"155","num_nodes":"3","size_leaf_vector":"0"}},{"base_weights":[-2.0270272E-1,2.3973545E-1,-3.786697E-1],"categories":[],"categories_nodes":[],"categories_segments":[],"categories_sizes":[],"default_left":[1,0,0],"id":3,"left_children":[1,-1,-1],"loss_changes":[4.7486284E-1,0E0,0E0],"parents":[2147483647,0,0],"right_children":[2,-1,-1],"split_conditions":[3.25E1,7.192064E-2,-1.1360092E-1],"split_indices":[0,0,0],"split_type":[0,0,0],"sum_hessian":[3.9333334E0,1.0161111E0,2.9172223E0],"tree_param":{"num_deleted":"0","num_feature":"155","num_nodes":"3","size_leaf_vector":"0"}},{"base_weights":[8.108108E-1,2.7197576E0,-3.786697E-1],"categories":[],"categories_nodes":[],"categories_segments":[],"categories_sizes":[],"default_left":[1,0,0],"id":4,"left_children":[1,-1,-1],"loss_changes":[1.2231788E1,0E0,0E0],"parents":[2147483647,0,0],"right_children":[2,-1,-1],"split_conditions":[5.15E1,8.159273E-1,-1.1360092E-1],"split_indices":[15,0,0],"split_type":[0,0,0],"sum_hessian":[3.9333334E0,1.0161111E0,2.9172223E0],"tree_param":{"num_deleted":"0","num_feature":"155","num_nodes":"3","size_leaf_vector":"0"}},{"base_weights":[1.0135134E0,3.215762E0,-3.786697E-1],"categories":[],"categories_nodes":[],"categories_segments":[],"categories_sizes":[],"default_left":[1,0,0],"id":5,"left_children":[1,-1,-1],"loss_changes":[1.6342981E1,0E0,0E0],"parents":[2147483647,0,0],"right_children":[2,-1,-1],"split_conditions":[5.15E1,9.647286E-1,-1.1360092E-1],"split_indices":[15,0,0],"split_type":[0,0,0],"sum_hessian":[3.9333334E0,1.0161111E0,2.9172223E0],"tree_param":{"num_deleted":"0","num_feature":"155","num_nodes":"3","size_leaf_vector":"0"}},{"base_weights":[4.054054E-1,1.7277486E0,-3.786697E-1],"categories":[],"categories_nodes":[],"categories_segments":[],"categories_sizes":[],"default_left":[1,0,0],"id":6,"left_children":[1,-1,-1],"loss_changes":[5.7692075E0,0E0,0E0],"parents":[2147483647,0,0],"right_children":[2,-1,-1],"split_conditions":[5.15E1,5.183246E-1,-1.1360092E-1],"split_indices":[15,0,0],"split_type":[0,0,0],"sum_hessian":[3.9333334E0,1.0161111E0,2.9172223E0],"tree_param":{"num_deleted":"0","num_feature":"155","num_nodes":"3","size_leaf_vector":"0"}},{"base_weights":[4.054054E-1,1.7277486E0,-3.786697E-1],"categories":[],"categories_nodes":[],"categories_segments":[],"categories_sizes":[],"default_left":[1,0,0],"id":7,"left_children":[1,-1,-1],"loss_changes":[5.7692075E0,0E0,0E0],"parents":[2147483647,0,0],"right_children":[2,-1,-1],"split_conditions":[3.25E1,5.183246E-1,-1.1360092E-1],"split_indices":[0,0,0],"split_type":[0,0,0],"sum_hessian":[3.9333334E0,1.0161111E0,2.9172223E0],"tree_param":{"num_deleted":"0","num_feature":"155","num_nodes":"3","size_leaf_vector":"0"}},{"base_weights":[1.6216216E0,4.6203904E0,-3.7757438E-1],"categories":[],"categories_nodes":[],"categories_segments":[],"categories_sizes":[],"default_left":[1,0,0],"id":8,"left_children":[1,-1,-1],"loss_changes":[3.13205E1,0E0,0E0],"parents":[2147483647,0,0],"right_children":[2,-1,-1],"split_conditions":[2.15E1,1.3861172E0,-1.1327232E-1],"split_indices":[21,0,0],"split_type":[0,0,0],"sum_hessian":[3.9333334E0,1.0488889E0,2.8844445E0],"tree_param":{"num_deleted":"0","num_feature":"155","num_nodes":"3","size_leaf_vector":"0"}},{"base_weights":[-2.0270272E-1,2.3973545E-1,-3.786697E-1],"categories":[],"categories_nodes":[],"categories_segments":[],"categories_sizes":[],"default_left":[1,0,0],"id":9,"left_children":[1,-1,-1],"loss_changes":[4.7486284E-1,0E0,0E0],"parents":[2147483647,0,0],"right_children":[2,-1,-1],"split_conditions":[3.25E1,7.192064E-2,-1.1360092E-1],"split_indices":[0,0,0],"split_type":[0,0,0],"sum_hessian":[3.9333334E0,1.0161111E0,2.9172223E0],"tree_param":{"num_deleted":"0","num_feature":"155","num_nodes":"3","size_leaf_vector":"0"}},{"base_weights":[-1.43474015E-8,7.357399E-1,-3.786697E-1],"categories":[],"categories_nodes":[],"categories_segments":[],"categories_sizes":[],"default_left":[1,0,0],"id":10,"left_children":[1,-1,-1],"loss_changes":[1.6530409E0,0E0,0E0],"parents":[2147483647,0,0],"right_children":[2,-1,-1],"split_conditions":[3.25E1,2.2072197E-1,-1.1360092E-1],"split_indices":[0,0,0],"split_type":[0,0,0],"sum_hessian":[3.9333334E0,1.0161111E0,2.9172223E0],"tree_param":{"num_deleted":"0","num_feature":"155","num_nodes":"3","size_leaf_vector":"0"}},{"base_weights":[-2.0270272E-1,-3.7417462E-1,1.9404915E-1],"categories":[],"categories_nodes":[],"categories_segments":[],"categories_sizes":[],"default_left":[1,0,0],"id":11,"left_children":[1,-1,-1],"loss_changes":[4.0823182E-1,0E0,0E0],"parents":[2147483647,0,0],"right_children":[2,-1,-1],"split_conditions":[7.15E1,-1.1225239E-1,5.8214746E-2],"split_indices":[39,0,0],"split_type":[0,0,0],"sum_hessian":[3.9333334E0,2.786111E0,1.1472223E0],"tree_param":{"num_deleted":"0","num_feature":"155","num_nodes":"3","size_leaf_vector":"0"}},{"base_weights":[-1.43474015E-8,-3.786697E-1,7.357399E-1],"categories":[],"categories_nodes":[],"categories_segments":[],"categories_sizes":[],"default_left":[1,0,0],"id":12,"left_children":[1,-1,-1],"loss_changes":[1.6530409E0,0E0,0E0],"parents":[2147483647,0,0],"right_children":[2,-1,-1],"split_conditions":[6.75E1,-1.1360092E-1,2.2072197E-1],"split_indices":[21,0,0],"split_type":[0,0,0],"sum_hessian":[3.9333334E0,2.9172223E0,1.0161111E0],"tree_param":{"num_deleted":"0","num_feature":"155","num_nodes":"3","size_leaf_vector":"0"}},{"base_weights":[-2.0270272E-1,-3.786697E-1,2.3973545E-1],"categories":[],"categories_nodes":[],"categories_segments":[],"categories_sizes":[],"default_left":[1,0,0],"id":13,"left_children":[1,-1,-1],"loss_changes":[4.7486284E-1,0E0,0E0],"parents":[2147483647,0,0],"right_children":[2,-1,-1],"split_conditions":[6.75E1,-1.1360092E-1,7.192064E-2],"split_indices":[21,0,0],"split_type":[0,0,0],"sum_hessian":[3.9333334E0,2.9172223E0,1.0161111E0],"tree_param":{"num_deleted":"0","num_feature":"155","num_nodes":"3","size_leaf_vector":"0"}},{"base_weights":[-2.0270272E-1,-3.786697E-1,2.3973545E-1],"categories":[],"categories_nodes":[],"categories_segments":[],"categories_sizes":[],"default_left":[1,0,0],"id":14,"left_children":[1,-1,-1],"loss_changes":[4.7486284E-1,0E0,0E0],"parents":[2147483647,0,0],"right_children":[2,-1,-1],"split_conditions":[3.05E1,-1.1360092E-1,7.192064E-2],"split_indices":[27,0,0],"split_type":[0,0,0],"sum_hessian":[3.9333334E0,2.9172223E0,1.0161111E0],"tree_param":{"num_deleted":"0","num_feature":"155","num_nodes":"3","size_leaf_vector":"0"}},{"base_weights":[-2.0270272E-1,1.3510309E-1,-3.6681628E-1],"categories":[],"categories_nodes":[],"categories_segments":[],"categories_sizes":[],"default_left":[1,0,0],"id":15,"left_children":[1,-1,-1],"loss_changes":[3.230547E-1,0E0,0E0],"parents":[2147483647,0,0],"right_children":[2,-1,-1],"split_conditions":[6.9E1,4.0530927E-2,-1.1004489E-1],"split_indices":[0,0,0],"split_type":[0,0,0],"sum_hessian":[3.9333334E0,1.3438889E0,2.5894446E0],"tree_param":{"num_deleted":"0","num_feature":"155","num_nodes":"3","size_leaf_vector":"0"}},{"base_weights":[-2.0270272E-1,-3.7417462E-1,1.9404915E-1],"categories":[],"categories_nodes":[],"categories_segments":[],"categories_sizes":[],"default_left":[1,0,0],"id":16,"left_children":[1,-1,-1],"loss_changes":[4.0823182E-1,0E0,0E0],"parents":[2147483647,0,0],"right_children":[2,-1,-1],"split_conditions":[6.55E1,-1.1225239E-1,5.8214746E-2],"split_indices":[21,0,0],"split_type":[0,0,0],"sum_hessian":[3.9333334E0,2.786111E0,1.1472223E0],"tree_param":{"num_deleted":"0","num_feature":"155","num_nodes":"3","size_leaf_vector":"0"}},{"base_weights":[-2.0270272E-1,-3.7059358E-1,1.632855E-1],"categories":[],"categories_nodes":[],"categories_segments":[],"categories_sizes":[],"default_left":[1,0,0],"id":17,"left_children":[1,-1,-1],"loss_changes":[3.6364648E-1,0E0,0E0],"parents":[2147483647,0,0],"right_children":[2,-1,-1],"split_conditions":[7.05E1,-1.1117808E-1,4.898565E-2],"split_indices":[39,0,0],"split_type":[0,0,0],"sum_hessian":[3.9333334E0,2.6877778E0,1.2455556E0],"tree_param":{"num_deleted":"0","num_feature":"155","num_nodes":"3","size_leaf_vector":"0"}},{"base_weights":[-1.43474015E-8,5.050505E-1,-3.6144578E-1],"categories":[],"categories_nodes":[],"categories_segments":[],"categories_sizes":[],"default_left":[1,0,0],"id":18,"left_children":[1,-1,-1],"loss_changes":[1.0831203E0,0E0,0E0],"parents":[2147483647,0,0],"right_children":[2,-1,-1],"split_conditions":[5.05E1,1.5151516E-1,-1.0843374E-1],"split_indices":[76,0,0],"split_type":[0,0,0],"sum_hessian":[3.9333334E0,1.475E0,2.4583335E0],"tree_param":{"num_deleted":"0","num_feature":"155","num_nodes":"3","size_leaf_vector":"0"}},{"base_weights":[-2.0270272E-1,-3.786697E-1,2.3973545E-1],"categories":[],"categories_nodes":[],"categories_segments":[],"categories_sizes":[],"default_left":[1,0,0],"id":19,"left_children":[1,-1,-1],"loss_changes":[4.7486284E-1,0E0,0E0],"parents":[2147483647,0,0],"right_children":[2,-1,-1],"split_conditions":[6.75E1,-1.1360092E-1,7.192064E-2],"split_indices":[21,0,0],"split_type":[0,0,0],"sum_hessian":[3.9333334E0,2.9172223E0,1.0161111E0],"tree_param":{"num_deleted":"0","num_feature":"155","num_nodes":"3","size_leaf_vector":"0"}},{"base_weights":[4.054054E-1,1.0815047E0,-3.4433287E-1],"categories":[],"categories_nodes":[],"categories_segments":[],"categories_sizes":[],"default_left":[1,0,0],"id":20,"left_children":[1,-1,-1],"loss_changes":[2.8730922E0,0E0,0E0],"parents":[2147483647,0,0],"right_children":[2,-1,-1],"split_conditions":[7.25E1,3.2445142E-1,-1.0329986E-1],"split_indices":[34,0,0],"split_type":[0,0,0],"sum_hessian":[3.9333334E0,1.8355556E0,2.0977778E0],"tree_param":{"num_deleted":"0","num_feature":"155","num_nodes":"3","size_leaf_vector":"0"}},{"base_weights":[2.0270269E-1,8.9056265E-1,-3.6003894E-1],"categories":[],"categories_nodes":[],"categories_segments":[],"categories_sizes":[],"default_left":[1,0,0],"id":21,"left_children":[1,-1,-1],"loss_changes":[2.2302685E0,0E0,0E0],"parents":[2147483647,0,0],"right_children":[2,-1,-1],"split_conditions":[5.55E1,2.6716882E-1,-1.08011685E-1],"split_indices":[125,0,0],"split_type":[0,0,0],"sum_hessian":[3.9333334E0,1.5077778E0,2.4255557E0],"tree_param":{"num_deleted":"0","num_feature":"155","num_nodes":"3","size_leaf_vector":"0"}},{"base_weights":[-2.0270272E-1,-3.7757438E-1,2.2776572E-1],"categories":[],"categories_nodes":[],"categories_segments":[],"categories_sizes":[],"default_left":[1,0,0],"id":22,"left_children":[1,-1,-1],"loss_changes":[4.5736375E-1,0E0,0E0],"parents":[2147483647,0,0],"right_children":[2,-1,-1],"split_conditions":[2.05E1,-1.1327232E-1,6.832972E-2],"split_indices":[33,0,0],"split_type":[0,0,0],"sum_hessian":[3.9333334E0,2.8844445E0,1.0488889E0],"tree_param":{"num_deleted":"0","num_feature":"155","num_nodes":"3","size_leaf_vector":"0"}},{"base_weights":[-2.0270272E-1,-3.7757438E-1,2.2776572E-1],"categories":[],"categories_nodes":[],"categories_segments":[],"categories_sizes":[],"default_left":[1,0,0],"id":23,"left_children":[1,-1,-1],"loss_changes":[4.5736375E-1,0E0,0E0],"parents":[2147483647,0,0],"right_children":[2,-1,-1],"split_conditions":[2.05E1,-1.1327232E-1,6.832972E-2],"split_indices":[33,0,0],"split_type":[0,0,0],"sum_hessian":[3.9333334E0,2.8844445E0,1.0488889E0],"tree_param":{"num_deleted":"0","num_feature":"155","num_nodes":"3","size_leaf_vector":"0"}},{"base_weights":[6.081081E-1,-3.5860488E-1,1.659742E0],"categories":[],"categories_nodes":[],"categories_segments":[],"categories_sizes":[],"default_left":[1,0,0],"id":24,"left_children":[1,-1,-1],"loss_changes":[5.6105566E0,0E0,0E0],"parents":[2147483647,0,0],"right_children":[2,-1,-1],"split_conditions":[1.95E1,-1.0758147E-1,4.9792263E-1],"split_indices":[33,0,0],"split_type":[0,0,0],"sum_hessian":[3.9333334E0,2.392778E0,1.5405556E0],"tree_param":{"num_deleted":"0","num_feature":"155","num_nodes":"3","size_leaf_vector":"0"}},{"base_weights":[-2.0270272E-1,1.175928E-1,-3.64181E-1],"categories":[],"categories_nodes":[],"categories_segments":[],"categories_sizes":[],"default_left":[1,0,0],"id":25,"left_children":[1,-1,-1],"loss_changes":[2.9798082E-1,0E0,0E0],"parents":[2147483647,0,0],"right_children":[2,-1,-1],"split_conditions":[6.25E1,3.527784E-2,-1.0925431E-1],"split_indices":[89,0,0],"split_type":[0,0,0],"sum_hessian":[3.9333334E0,1.4094445E0,2.523889E0],"tree_param":{"num_deleted":"0","num_feature":"155","num_nodes":"3","size_leaf_vector":"0"}},{"base_weights":[-2.0270272E-1,-3.786697E-1,2.3973545E-1],"categories":[],"categories_nodes":[],"categories_segments":[],"categories_sizes":[],"default_left":[1,0,0],"id":26,"left_children":[1,-1,-1],"loss_changes":[4.7486284E-1,0E0,0E0],"parents":[2147483647,0,0],"right_children":[2,-1,-1],"split_conditions":[6.15E1,-1.1360092E-1,7.192064E-2],"split_indices":[8,0,0],"split_type":[0,0,0],"sum_hessian":[3.9333334E0,2.9172223E0,1.0161111E0],"tree_param":{"num_deleted":"0","num_feature":"155","num_nodes":"3","size_leaf_vector":"0"}},{"base_weights":[-2.0270272E-1,-3.786697E-1,2.3973545E-1],"categories":[],"categories_nodes":[],"categories_segments":[],"categories_sizes":[],"default_left":[1,0,0],"id":27,"left_children":[1,-1,-1],"loss_changes":[4.7486284E-1,0E0,0E0],"parents":[2147483647,0,0],"right_children":[2,-1,-1],"split_conditions":[6.75E1,-1.1360092E-1,7.192064E-2],"split_indices":[21,0,0],"split_type":[0,0,0],"sum_hessian":[3.9333334E0,2.9172223E0,1.0161111E0],"tree_param":{"num_deleted":"0","num_feature":"155","num_nodes":"3","size_leaf_vector":"0"}},{"base_weights":[-1.43474015E-8,-3.786697E-1,7.357399E-1],"categories":[],"categories_nodes":[],"categories_segments":[],"categories_sizes":[],"default_left":[1,0,0],"id":28,"left_children":[1,-1,-1],"loss_changes":[1.6530409E0,0E0,0E0],"parents":[2147483647,0,0],"right_children":[2,-1,-1],"split_conditions":[6.75E1,-1.1360092E-1,2.2072197E-1],"split_indices":[21,0,0],"split_type":[0,0,0],"sum_hessian":[3.9333334E0,2.9172223E0,1.0161111E0],"tree_param":{"num_deleted":"0","num_feature":"155","num_nodes":"3","size_leaf_vector":"0"}},{"base_weights":[-1.43474015E-8,-3.786697E-1,7.357399E-1],"categories":[],"categories_nodes":[],"categories_segments":[],"categories_sizes":[],"default_left":[1,0,0],"id":29,"left_children":[1,-1,-1],"loss_changes":[1.6530409E0,0E0,0E0],"parents":[2147483647,0,0],"right_children":[2,-1,-1],"split_conditions":[3.05E1,-1.1360092E-1,2.2072197E-1],"split_indices":[107,0,0],"split_type":[0,0,0],"sum_hessian":[3.9333334E0,2.9172223E0,1.0161111E0],"tree_param":{"num_deleted":"0","num_feature":"155","num_nodes":"3","size_leaf_vector":"0"}},{"base_weights":[2.0270269E-1,-3.764604E-1,1.1769415E0],"categories":[],"categories_nodes":[],"categories_segments":[],"categories_sizes":[],"default_left":[1,0,0],"id":30,"left_children":[1,-1,-1],"loss_changes":[3.2266717E0,0E0,0E0],"parents":[2147483647,0,0],"right_children":[2,-1,-1],"split_conditions":[1.825E2,-1.1293813E-1,3.5308248E-1],"split_indices":[90,0,0],"split_type":[0,0,0],"sum_hessian":[3.9333334E0,2.8516667E0,1.0816667E0],"tree_param":{"num_deleted":"0","num_feature":"155","num_nodes":"3","size_leaf_vector":"0"}},{"base_weights":[-2.0270272E-1,-3.786697E-1,2.3973545E-1],"categories":[],"categories_nodes":[],"categories_segments":[],"categories_sizes":[],"default_left":[1,0,0],"id":31,"left_children":[1,-1,-1],"loss_changes":[4.7486284E-1,0E0,0E0],"parents":[2147483647,0,0],"right_children":[2,-1,-1],"split_conditions":[6.75E1,-1.1360092E-1,7.192064E-2],"split_indices":[21,0,0],"split_type":[0,0,0],"sum_hessian":[3.9333334E0,2.9172223E0,1.0161111E0],"tree_param":{"num_deleted":"0","num_feature":"155","num_nodes":"3","size_leaf_vector":"0"}},{"base_weights":[2.0270269E-1,-3.786697E-1,1.2317443E0],"categories":[],"categories_nodes":[],"categories_segments":[],"categories_sizes":[],"default_left":[1,0,0],"id":32,"left_children":[1,-1,-1],"loss_changes":[3.4178224E0,0E0,0E0],"parents":[2147483647,0,0],"right_children":[2,-1,-1],"split_conditions":[1.685E2,-1.1360092E-1,3.695233E-1],"split_indices":[15,0,0],"split_type":[0,0,0],"sum_hessian":[3.9333334E0,2.9172223E0,1.0161111E0],"tree_param":{"num_deleted":"0","num_feature":"155","num_nodes":"3","size_leaf_vector":"0"}},{"base_weights":[-1.43474015E-8,-3.786697E-1,7.357399E-1],"categories":[],"categories_nodes":[],"categories_segments":[],"categories_sizes":[],"default_left":[1,0,0],"id":33,"left_children":[1,-1,-1],"loss_changes":[1.6530409E0,0E0,0E0],"parents":[2147483647,0,0],"right_children":[2,-1,-1],"split_conditions":[1.685E2,-1.1360092E-1,2.2072197E-1],"split_indices":[15,0,0],"split_type":[0,0,0],"sum_hessian":[3.9333334E0,2.9172223E0,1.0161111E0],"tree_param":{"num_deleted":"0","num_feature":"155","num_nodes":"3","size_leaf_vector":"0"}},{"base_weights":[2.0270269E-1,-3.7300178E-1,1.1009175E0],"categories":[],"categories_nodes":[],"categories_segments":[],"categories_sizes":[],"default_left":[1,0,0],"id":34,"left_children":[1,-1,-1],"loss_changes":[2.9617016E0,0E0,0E0],"parents":[2147483647,0,0],"right_children":[2,-1,-1],"split_conditions":[9.95E1,-1.1190054E-1,3.3027524E-1],"split_indices":[48,0,0],"split_type":[0,0,0],"sum_hessian":[3.9333334E0,2.7533333E0,1.1800001E0],"tree_param":{"num_deleted":"0","num_feature":"155","num_nodes":"3","size_leaf_vector":"0"}},{"base_weights":[2.0270269E-1,-3.7757438E-1,1.2039045E0],"categories":[],"categories_nodes":[],"categories_segments":[],"categories_sizes":[],"default_left":[1,0,0],"id":35,"left_children":[1,-1,-1],"loss_changes":[3.3207042E0,0E0,0E0],"parents":[2147483647,0,0],"right_children":[2,-1,-1],"split_conditions":[2.35E1,-1.1327232E-1,3.6117136E-1],"split_indices":[51,0,0],"split_type":[0,0,0],"sum_hessian":[3.9333334E0,2.8844445E0,1.0488889E0],"tree_param":{"num_deleted":"0","num_feature":"155","num_nodes":"3","size_leaf_vector":"0"}},{"base_weights":[-1.43474015E-8,-3.786697E-1,7.357399E-1],"categories":[],"categories_nodes":[],"categories_segments":[],"categories_sizes":[],"default_left":[1,0,0],"id":36,"left_children":[1,-1,-1],"loss_changes":[1.6530409E0,0E0,0E0],"parents":[2147483647,0,0],"right_children":[2,-1,-1],"split_conditions":[6.15E1,-1.1360092E-1,2.2072197E-1],"split_indices":[8,0,0],"split_type":[0,0,0],"sum_hessian":[3.9333334E0,2.9172223E0,1.0161111E0],"tree_param":{"num_deleted":"0","num_feature":"155","num_nodes":"3","size_leaf_vector":"0"}},{"base_weights":[-2.0270272E-1,-3.786697E-1,2.3973545E-1],"categories":[],"categories_nodes":[],"categories_segments":[],"categories_sizes":[],"default_left":[1,0,0],"id":37,"left_children":[1,-1,-1],"loss_changes":[4.7486284E-1,0E0,0E0],"parents":[2147483647,0,0],"right_children":[2,-1,-1],"split_conditions":[8.1E1,-1.1360092E-1,7.192064E-2],"split_indices":[1,0,0],"split_type":[0,0,0],"sum_hessian":[3.9333334E0,2.9172223E0,1.0161111E0],"tree_param":{"num_deleted":"0","num_feature":"155","num_nodes":"3","size_leaf_vector":"0"}},{"base_weights":[4.054054E-1,-3.786697E-1,1.7277486E0],"categories":[],"categories_nodes":[],"categories_segments":[],"categories_sizes":[],"default_left":[1,0,0],"id":38,"left_children":[1,-1,-1],"loss_changes":[5.7692075E0,0E0,0E0],"parents":[2147483647,0,0],"right_children":[2,-1,-1],"split_conditions":[1.685E2,-1.1360092E-1,5.183246E-1],"split_indices":[15,0,0],"split_type":[0,0,0],"sum_hessian":[3.9333334E0,2.9172223E0,1.0161111E0],"tree_param":{"num_deleted":"0","num_feature":"155","num_nodes":"3","size_leaf_vector":"0"}},{"base_weights":[-2.0270272E-1,-3.786697E-1,2.3973545E-1],"categories":[],"categories_nodes":[],"categories_segments":[],"categories_sizes":[],"default_left":[1,0,0],"id":39,"left_children":[1,-1,-1],"loss_changes":[4.7486284E-1,0E0,0E0],"parents":[2147483647,0,0],"right_children":[2,-1,-1],"split_conditions":[8.1E1,-1.1360092E-1,7.192064E-2],"split_indices":[1,0,0],"split_type":[0,0,0],"sum_hessian":[3.9333334E0,2.9172223E0,1.0161111E0],"tree_param":{"num_deleted":"0","num_feature":"155","num_nodes":"3","size_leaf_vector":"0"}},{"base_weights":[-2.0270272E-1,-3.786697E-1,2.3973545E-1],"categories":[],"categories_nodes":[],"categories_segments":[],"categories_sizes":[],"default_left":[1,0,0],"id":40,"left_children":[1,-1,-1],"loss_changes":[4.7486284E-1,0E0,0E0],"parents":[2147483647,0,0],"right_children":[2,-1,-1],"split_conditions":[8.1E1,-1.1360092E-1,7.192064E-2],"split_indices":[1,0,0],"split_type":[0,0,0],"sum_hessian":[3.9333334E0,2.9172223E0,1.0161111E0],"tree_param":{"num_deleted":"0","num_feature":"155","num_nodes":"3","size_leaf_vector":"0"}},{"base_weights":[-1.43474015E-8,-3.786697E-1,7.357399E-1],"categories":[],"categories_nodes":[],"categories_segments":[],"categories_sizes":[],"default_left":[1,0,0],"id":41,"left_children":[1,-1,-1],"loss_changes":[1.6530409E0,0E0,0E0],"parents":[2147483647,0,0],"right_children":[2,-1,-1],"split_conditions":[8.1E1,-1.1360092E-1,2.2072197E-1],"split_indices":[1,0,0],"split_type":[0,0,0],"sum_hessian":[3.9333334E0,2.9172223E0,1.0161111E0],"tree_param":{"num_deleted":"0","num_feature":"155","num_nodes":"3","size_leaf_vector":"0"}},{"base_weights":[-1.43474015E-8,-3.786697E-1,7.357399E-1],"categories":[],"categories_nodes":[],"categories_segments":[],"categories_sizes":[],"default_left":[1,0,0],"id":42,"left_children":[1,-1,-1],"loss_changes":[1.6530409E0,0E0,0E0],"parents":[2147483647,0,0],"right_children":[2,-1,-1],"split_conditions":[8.1E1,-1.1360092E-1,2.2072197E-1],"split_indices":[1,0,0],"split_type":[0,0,0],"sum_hessian":[3.9333334E0,2.9172223E0,1.0161111E0],"tree_param":{"num_deleted":"0","num_feature":"155","num_nodes":"3","size_leaf_vector":"0"}},{"base_weights":[-2.0270272E-1,-3.786697E-1,2.3973545E-1],"categories":[],"categories_nodes":[],"categories_segments":[],"categories_sizes":[],"default_left":[1,0,0],"id":43,"left_children":[1,-1,-1],"loss_changes":[4.7486284E-1,0E0,0E0],"parents":[2147483647,0,0],"right_children":[2,-1,-1],"split_conditions":[8.1E1,-1.1360092E-1,7.192064E-2],"split_indices":[1,0,0],"split_type":[0,0,0],"sum_hessian":[3.9333334E0,2.9172223E0,1.0161111E0],"tree_param":{"num_deleted":"0","num_feature":"155","num_nodes":"3","size_leaf_vector":"0"}},{"base_weights":[-2.0270272E-1,-3.786697E-1,2.3973545E-1],"categories":[],"categories_nodes":[],"categories_segments":[],"categories_sizes":[],"default_left":[1,0,0],"id":44,"left_children":[1,-1,-1],"loss_changes":[4.7486284E-1,0E0,0E0],"parents":[2147483647,0,0],"right_children":[2,-1,-1],"split_conditions":[8.1E1,-1.1360092E-1,7.192064E-2],"split_indices":[1,0,0],"split_type":[0,0,0],"sum_hessian":[3.9333334E0,2.9172223E0,1.0161111E0],"tree_param":{"num_deleted":"0","num_feature":"155","num_nodes":"3","size_leaf_vector":"0"}},{"base_weights":[-2.0270272E-1,-3.786697E-1,2.3973545E-1],"categories":[],"categories_nodes":[],"categories_segments":[],"categories_sizes":[],"default_left":[1,0,0],"id":45,"left_children":[1,-1,-1],"loss_changes":[4.7486284E-1,0E0,0E0],"parents":[2147483647,0,0],"right_children":[2,-1,-1],"split_conditions":[8.1E1,-1.1360092E-1,7.192064E-2],"split_indices":[1,0,0],"split_type":[0,0,0],"sum_hessian":[3.9333334E0,2.9172223E0,1.0161111E0],"tree_param":{"num_deleted":"0","num_feature":"155","num_nodes":"3","size_leaf_vector":"0"}},{"base_weights":[2.0270269E-1,-3.786697E-1,1.2317443E0],"categories":[],"categories_nodes":[],"categories_segments":[],"categories_sizes":[],"default_left":[1,0,0],"id":46,"left_children":[1,-1,-1],"loss_changes":[3.4178224E0,0E0,0E0],"parents":[2147483647,0,0],"right_children":[2,-1,-1],"split_conditions":[8.1E1,-1.1360092E-1,3.695233E-1],"split_indices":[1,0,0],"split_type":[0,0,0],"sum_hessian":[3.9333334E0,2.9172223E0,1.0161111E0],"tree_param":{"num_deleted":"0","num_feature":"155","num_nodes":"3","size_leaf_vector":"0"}},{"base_weights":[-1.43474015E-8,-3.786697E-1,7.357399E-1],"categories":[],"categories_nodes":[],"categories_segments":[],"categories_sizes":[],"default_left":[1,0,0],"id":47,"left_children":[1,-1,-1],"loss_changes":[1.6530409E0,0E0,0E0],"parents":[2147483647,0,0],"right_children":[2,-1,-1],"split_conditions":[8.1E1,-1.1360092E-1,2.2072197E-1],"split_indices":[1,0,0],"split_type":[0,0,0],"sum_hessian":[3.9333334E0,2.9172223E0,1.0161111E0],"tree_param":{"num_deleted":"0","num_feature":"155","num_nodes":"3","size_leaf_vector":"0"}},{"base_weights":[-2.0270272E-1,-3.786697E-1,2.3973545E-1],"categories":[],"categories_nodes":[],"categories_segments":[],"categories_sizes":[],"default_left":[1,0,0],"id":48,"left_children":[1,-1,-1],"loss_changes":[4.7486284E-1,0E0,0E0],"parents":[2147483647,0,0],"right_children":[2,-1,-1],"split_conditions":[8.1E1,-1.1360092E-1,7.192064E-2],"split_indices":[1,0,0],"split_type":[0,0,0],"sum_hessian":[3.9333334E0,2.9172223E0,1.0161111E0],"tree_param":{"num_deleted":"0","num_feature":"155","num_nodes":"3","size_leaf_vector":"0"}},{"base_weights":[-2.0270272E-1,-3.786697E-1,2.3973545E-1],"categories":[],"categories_nodes":[],"categories_segments":[],"categories_sizes":[],"default_left":[1,0,0],"id":49,"left_children":[1,-1,-1],"loss_changes":[4.7486284E-1,0E0,0E0],"parents":[2147483647,0,0],"right_children":[2,-1,-1],"split_conditions":[8.1E1,-1.1360092E-1,7.192064E-2],"split_indices":[1,0,0],"split_type":[0,0,0],"sum_hessian":[3.9333334E0,2.9172223E0,1.0161111E0],"tree_param":{"num_deleted":"0","num_feature":"155","num_nodes":"3","size_leaf_vector":"0"}},{"base_weights":[-2.0270272E-1,-3.786697E-1,2.3973545E-1],"categories":[],"categories_nodes":[],"categories_segments":[],"categories_sizes":[],"default_left":[1,0,0],"id":50,"left_children":[1,-1,-1],"loss_changes":[4.7486284E-1,0E0,0E0],"parents":[2147483647,0,0],"right_children":[2,-1,-1],"split_conditions":[8.1E1,-1.1360092E-1,7.192064E-2],"split_indices":[1,0,0],"split_type":[0,0,0],"sum_hessian":[3.9333334E0,2.9172223E0,1.0161111E0],"tree_param":{"num_deleted":"0","num_feature":"155","num_nodes":"3","size_leaf_vector":"0"}},{"base_weights":[-2.0270272E-1,-3.786697E-1,2.3973545E-1],"categories":[],"categories_nodes":[],"categories_segments":[],"categories_sizes":[],"default_left":[1,0,0],"id":51,"left_children":[1,-1,-1],"loss_changes":[4.7486284E-1,0E0,0E0],"parents":[2147483647,0,0],"right_children":[2,-1,-1],"split_conditions":[8.1E1,-1.1360092E-1,7.192064E-2],"split_indices":[1,0,0],"split_type":[0,0,0],"sum_hessian":[3.9333334E0,2.9172223E0,1.0161111E0],"tree_param":{"num_deleted":"0","num_feature":"155","num_nodes":"3","size_leaf_vector":"0"}},{"base_weights":[-2.0270272E-1,-3.786697E-1,2.3973545E-1],"categories":[],"categories_nodes":[],"categories_segments":[],"categories_sizes":[],"default_left":[1,0,0],"id":52,"left_children":[1,-1,-1],"loss_changes":[4.7486284E-1,0E0,0E0],"parents":[2147483647,0,0],"right_children":[2,-1,-1],"split_conditions":[8.1E1,-1.1360092E-1,7.192064E-2],"split_indices":[1,0,0],"split_type":[0,0,0],"sum_hessian":[3.9333334E0,2.9172223E0,1.0161111E0],"tree_param":{"num_deleted":"0","num_feature":"155","num_nodes":"3","size_leaf_vector":"0"}},{"base_weights":[-2.0270272E-1,-3.786697E-1,2.3973545E-1],"categories":[],"categories_nodes":[],"categories_segments":[],"categories_sizes":[],"default_left":[1,0,0],"id":53,"left_children":[1,-1,-1],"loss_changes":[4.7486284E-1,0E0,0E0],"parents":[2147483647,0,0],"right_children":[2,-1,-1],"split_conditions":[8.1E1,-1.1360092E-1,7.192064E-2],"split_indices":[1,0,0],"split_type":[0,0,0],"sum_hessian":[3.9333334E0,2.9172223E0,1.0161111E0],"tree_param":{"num_deleted":"0","num_feature":"155","num_nodes":"3","size_leaf_vector":"0"}},{"base_weights":[-2.0270272E-1,-3.786697E-1,2.3973545E-1],"categories":[],"categories_nodes":[],"categories_segments":[],"categories_sizes":[],"default_left":[1,0,0],"id":54,"left_children":[1,-1,-1],"loss_changes":[4.7486284E-1,0E0,0E0],"parents":[2147483647,0,0],"right_children":[2,-1,-1],"split_conditions":[8.1E1,-1.1360092E-1,7.192064E-2],"split_indices":[1,0,0],"split_type":[0,0,0],"sum_hessian":[3.9333334E0,2.9172223E0,1.0161111E0],"tree_param":{"num_deleted":"0","num_feature":"155","num_nodes":"3","size_leaf_vector":"0"}},{"base_weights":[-2.0270272E-1,-3.786697E-1,2.3973545E-1],"categories":[],"categories_nodes":[],"categories_segments":[],"categories_sizes":[],"default_left":[1,0,0],"id":55,"left_children":[1,-1,-1],"loss_changes":[4.7486284E-1,0E0,0E0],"parents":[2147483647,0,0],"right_children":[2,-1,-1],"split_conditions":[8.1E1,-1.1360092E-1,7.192064E-2],"split_indices":[1,0,0],"split_type":[0,0,0],"sum_hessian":[3.9333334E0,2.9172223E0,1.0161111E0],"tree_param":{"num_deleted":"0","num_feature":"155","num_nodes":"3","size_leaf_vector":"0"}},{"base_weights":[-2.0270272E-1,-3.786697E-1,2.3973545E-1],"categories":[],"categories_nodes":[],"categories_segments":[],"categories_sizes":[],"default_left":[1,0,0],"id":56,"left_children":[1,-1,-1],"loss_changes":[4.7486284E-1,0E0,0E0],"parents":[2147483647,0,0],"right_children":[2,-1,-1],"split_conditions":[8.1E1,-1.1360092E-1,7.192064E-2],"split_indices":[1,0,0],"split_type":[0,0,0],"sum_hessian":[3.9333334E0,2.9172223E0,1.0161111E0],"tree_param":{"num_deleted":"0","num_feature":"155","num_nodes":"3","size_leaf_vector":"0"}},{"base_weights":[-2.0270272E-1,-3.786697E-1,2.3973545E-1],"categories":[],"categories_nodes":[],"categories_segments":[],"categories_sizes":[],"default_left":[1,0,0],"id":57,"left_children":[1,-1,-1],"loss_changes":[4.7486284E-1,0E0,0E0],"parents":[2147483647,0,0],"right_children":[2,-1,-1],"split_conditions":[8.1E1,-1.1360092E-1,7.192064E-2],"split_indices":[1,0,0],"split_type":[0,0,0],"sum_hessian":[3.9333334E0,2.9172223E0,1.0161111E0],"tree_param":{"num_deleted":"0","num_feature":"155","num_nodes":"3","size_leaf_vector":"0"}},{"base_weights":[-2.0270272E-1,-3.786697E-1,2.3973545E-1],"categories":[],"categories_nodes":[],"categories_segments":[],"categories_sizes":[],"default_left":[1,0,0],"id":58,"left_children":[1,-1,-1],"loss_changes":[4.7486284E-1,0E0,0E0],"parents":[2147483647,0,0],"right_children":[2,-1,-1],"split_conditions":[8.1E1,-1.1360092E-1,7.192064E-2],"split_indices":[1,0,0],"split_type":[0,0,0],"sum_hessian":[3.9333334E0,2.9172223E0,1.0161111E0],"tree_param":{"num_deleted":"0","num_feature":"155","num_nodes":"3","size_leaf_vector":"0"}},{"base_weights":[-2.0270272E-1,-3.786697E-1,2.3973545E-1],"categories":[],"categories_nodes":[],"categories_segments":[],"categories_sizes":[],"default_left":[1,0,0],"id":59,"left_children":[1,-1,-1],"loss_changes":[4.7486284E-1,0E0,0E0],"parents":[2147483647,0,0],"right_children":[2,-1,-1],"split_conditions":[8.1E1,-1.1360092E-1,7.192064E-2],"split_indices":[1,0,0],"split_type":[0,0,0],"sum_hessian":[3.9333334E0,2.9172223E0,1.0161111E0],"tree_param":{"num_deleted":"0","num_feature":"155","num_nodes":"3","size_leaf_vector":"0"}},{"base_weights":[-1.8794645E-1,2.4405591E-1,-3.708709E-1],"categories":[],"categories_nodes":[],"categories_segments":[],"categories_sizes":[],"default_left":[1,0,0],"id":60,"left_children":[1,-1,-1],"loss_changes":[4.6281576E-1,0E0,0E0],"parents":[2147483647,0,0],"right_children":[2,-1,-1],"split_conditions":[1.65E1,7.321677E-2,-1.1126127E-1],"split_indices":[141,0,0],"split_type":[0,0,0],"sum_hessian":[3.7112713E0,1.0045923E0,2.7066789E0],"tree_param":{"num_deleted":"0","num_feature":"155","num_nodes":"3","size_leaf_vector":"0"}},{"base_weights":[-1.8794645E-1,2.4357265E-1,-3.7076408E-1],"categories":[],"categories_nodes":[],"categories_segments":[],"categories_sizes":[],"default_left":[1,0,0],"id":61,"left_children":[1,-1,-1],"loss_changes":[4.6197683E-1,0E0,0E0],"parents":[2147483647,0,0],"right_children":[2,-1,-1],"split_conditions":[2.05E1,7.30718E-2,-1.11229226E-1],"split_indices":[8,0,0],"split_type":[0,0,0],"sum_hessian":[3.7112713E0,1.0055246E0,2.7057467E0],"tree_param":{"num_deleted":"0","num_feature":"155","num_nodes":"3","size_leaf_vector":"0"}},{"base_weights":[1.8419838E-1,1.2443792E0,-3.8327292E-1],"categories":[],"categories_nodes":[],"categories_segments":[],"categories_sizes":[],"default_left":[1,0,0],"id":62,"left_children":[1,-1,-1],"loss_changes":[3.521895E0,0E0,0E0],"parents":[2147483647,0,0],"right_children":[2,-1,-1],"split_conditions":[1.95E1,3.7331375E-1,-1.1498188E-1],"split_indices":[127,0,0],"split_type":[0,0,0],"sum_hessian":[4.061247E0,1.00005E0,3.061197E0],"tree_param":{"num_deleted":"0","num_feature":"155","num_nodes":"3","size_leaf_vector":"0"}},{"base_weights":[-1.8794644E-1,2.4405594E-1,-3.708709E-1],"categories":[],"categories_nodes":[],"categories_segments":[],"categories_sizes":[],"default_left":[1,0,0],"id":63,"left_children":[1,-1,-1],"loss_changes":[4.628158E-1,0E0,0E0],"parents":[2147483647,0,0],"right_children":[2,-1,-1],"split_conditions":[1.65E1,7.321679E-2,-1.1126127E-1],"split_indices":[141,0,0],"split_type":[0,0,0],"sum_hessian":[3.7112713E0,1.0045923E0,2.7066789E0],"tree_param":{"num_deleted":"0","num_feature":"155","num_nodes":"3","size_leaf_vector":"0"}},{"base_weights":[6.0745126E-1,2.272501E0,-3.9664713E-1],"categories":[],"categories_nodes":[],"categories_segments":[],"categories_sizes":[],"default_left":[1,0,0],"id":64,"left_children":[1,-1,-1],"loss_changes":[1.0622605E1,0E0,0E0],"parents":[2147483647,0,0],"right_children":[2,-1,-1],"split_conditions":[7.5E0,6.817503E-1,-1.1899414E-1],"split_indices":[51,0,0],"split_type":[0,0,0],"sum_hessian":[4.8145685E0,1.3359684E0,3.4786E0],"tree_param":{"num_deleted":"0","num_feature":"155","num_nodes":"3","size_leaf_vector":"0"}},{"base_weights":[7.086661E-1,2.0457118E0,-3.899526E-1],"categories":[],"categories_nodes":[],"categories_segments":[],"categories_sizes":[],"default_left":[1,0,0],"id":65,"left_children":[1,-1,-1],"loss_changes":[9.822048E0,0E0,0E0],"parents":[2147483647,0,0],"right_children":[2,-1,-1],"split_conditions":[2.05E1,6.1371356E-1,-1.1698578E-1],"split_indices":[8,0,0],"split_type":[0,0,0],"sum_hessian":[5.1435738E0,1.931191E0,3.212383E0],"tree_param":{"num_deleted":"0","num_feature":"155","num_nodes":"3","size_leaf_vector":"0"}},{"base_weights":[3.4446868E-1,1.7069435E0,-3.890873E-1],"categories":[],"categories_nodes":[],"categories_segments":[],"categories_sizes":[],"default_left":[1,0,0],"id":66,"left_children":[1,-1,-1],"loss_changes":[5.93941E0,0E0,0E0],"parents":[2147483647,0,0],"right_children":[2,-1,-1],"split_conditions":[1.85E1,5.1208305E-1,-1.1672619E-1],"split_indices":[135,0,0],"split_type":[0,0,0],"sum_hessian":[4.2781553E0,1.0328469E0,3.2453086E0],"tree_param":{"num_deleted":"0","num_feature":"155","num_nodes":"3","size_leaf_vector":"0"}},{"base_weights":[3.4337732E-1,1.6051743E0,-3.8647756E-1],"categories":[],"categories_nodes":[],"categories_segments":[],"categories_sizes":[],"default_left":[1,0,0],"id":67,"left_children":[1,-1,-1],"loss_changes":[5.487135E0,0E0,0E0],"parents":[2147483647,0,0],"right_children":[2,-1,-1],"split_conditions":[1.75E1,4.815523E-1,-1.15943275E-1],"split_indices":[122,0,0],"split_type":[0,0,0],"sum_hessian":[4.2846346E0,1.1306404E0,3.153994E0],"tree_param":{"num_deleted":"0","num_feature":"155","num_nodes":"3","size_leaf_vector":"0"}},{"base_weights":[8.874715E-1,2.485959E0,-4.130053E-1,3.0380936E0,6.728293E-1],"categories":[],"categories_nodes":[],"categories_segments":[],"categories_sizes":[],"default_left":[1,1,0,0,0],"id":68,"left_children":[1,3,-1,-1,-1],"loss_changes":[1.6532719E1,1.4483261E0,0E0,0E0,0E0],"parents":[2147483647,0,0,1,1],"right_children":[2,4,-1,-1,-1],"split_conditions":[3.15E1,2.25E1,-1.2390159E-1,9.114281E-1,2.0184879E-1],"split_indices":[119,39,0,0,0],"split_type":[0,0,0,0,0],"sum_hessian":[6.4591284E0,2.4886353E0,3.9704933E0,1.3898044E0,1.0988309E0],"tree_param":{"num_deleted":"0","num_feature":"155","num_nodes":"5","size_leaf_vector":"0"}},{"base_weights":[-1.8794645E-1,2.4405591E-1,-3.708709E-1],"categories":[],"categories_nodes":[],"categories_segments":[],"categories_sizes":[],"default_left":[1,0,0],"id":69,"left_children":[1,-1,-1],"loss_changes":[4.6281576E-1,0E0,0E0],"parents":[2147483647,0,0],"right_children":[2,-1,-1],"split_conditions":[1.65E1,7.321677E-2,-1.1126127E-1],"split_indices":[141,0,0],"split_type":[0,0,0],"sum_hessian":[3.7112713E0,1.0045923E0,2.7066789E0],"tree_param":{"num_deleted":"0","num_feature":"155","num_nodes":"3","size_leaf_vector":"0"}},{"base_weights":[5.951157E-3,7.447734E-1,-3.7698063E-1],"categories":[],"categories_nodes":[],"categories_segments":[],"categories_sizes":[],"default_left":[1,0,0],"id":70,"left_children":[1,-1,-1],"loss_changes":[1.6602596E0,0E0,0E0],"parents":[2147483647,0,0],"right_children":[2,-1,-1],"split_conditions":[3.35E1,2.2343202E-1,-1.13094196E-1],"split_indices":[123,0,0],"split_type":[0,0,0],"sum_hessian":[3.8759432E0,1.0005583E0,2.8753848E0],"tree_param":{"num_deleted":"0","num_feature":"155","num_nodes":"3","size_leaf_vector":"0"}},{"base_weights":[-1.8872884E-1,1.8781286E-1,-3.6534715E-1],"categories":[],"categories_nodes":[],"categories_segments":[],"categories_sizes":[],"default_left":[1,0,0],"id":71,"left_children":[1,-1,-1],"loss_changes":[3.826828E-1,0E0,0E0],"parents":[2147483647,0,0],"right_children":[2,-1,-1],"split_conditions":[2.05E1,5.634386E-2,-1.0960415E-1],"split_indices":[107,0,0],"split_type":[0,0,0],"sum_hessian":[3.722501E0,1.1683187E0,2.5541823E0],"tree_param":{"num_deleted":"0","num_feature":"155","num_nodes":"3","size_leaf_vector":"0"}},{"base_weights":[5.7037105E-3,-3.7104192E-1,6.4561415E-1],"categories":[],"categories_nodes":[],"categories_segments":[],"categories_sizes":[],"default_left":[1,0,0],"id":72,"left_children":[1,-1,-1],"loss_changes":[1.4155809E0,0E0,0E0],"parents":[2147483647,0,0],"right_children":[2,-1,-1],"split_conditions":[3.95E1,-1.1131258E-1,1.9368425E-1],"split_indices":[79,0,0],"split_type":[0,0,0],"sum_hessian":[3.8781066E0,2.7054472E0,1.1726594E0],"tree_param":{"num_deleted":"0","num_feature":"155","num_nodes":"3","size_leaf_vector":"0"}},{"base_weights":[-1.8803188E-1,-3.6892238E-1,2.255375E-1],"categories":[],"categories_nodes":[],"categories_segments":[],"categories_sizes":[],"default_left":[1,0,0],"id":73,"left_children":[1,-1,-1],"loss_changes":[4.357435E-1,0E0,0E0],"parents":[2147483647,0,0],"right_children":[2,-1,-1],"split_conditions":[6.75E1,-1.1067672E-1,6.766125E-2],"split_indices":[21,0,0],"split_type":[0,0,0],"sum_hessian":[3.7123914E0,2.6578386E0,1.0545527E0],"tree_param":{"num_deleted":"0","num_feature":"155","num_nodes":"3","size_leaf_vector":"0"}},{"base_weights":[-1.8798657E-1,-3.7075526E-1,2.432934E-1],"categories":[],"categories_nodes":[],"categories_segments":[],"categories_sizes":[],"default_left":[1,0,0],"id":74,"left_children":[1,-1,-1],"loss_changes":[4.616057E-1,0E0,0E0],"parents":[2147483647,0,0],"right_children":[2,-1,-1],"split_conditions":[3.85E1,-1.1122658E-1,7.2988026E-2],"split_indices":[11,0,0],"split_type":[0,0,0],"sum_hessian":[3.7117772E0,2.705551E0,1.0062263E0],"tree_param":{"num_deleted":"0","num_feature":"155","num_nodes":"3","size_leaf_vector":"0"}},{"base_weights":[-1.8958147E-1,-3.6307585E-1,1.6697451E-1],"categories":[],"categories_nodes":[],"categories_segments":[],"categories_sizes":[],"default_left":[1,0,0],"id":75,"left_children":[1,-1,-1],"loss_changes":[3.5353154E-1,0E0,0E0],"parents":[2147483647,0,0],"right_children":[2,-1,-1],"split_conditions":[6.45E1,-1.0892276E-1,5.009236E-2],"split_indices":[21,0,0],"split_type":[0,0,0],"sum_hessian":[3.7349665E0,2.5001488E0,1.2348177E0],"tree_param":{"num_deleted":"0","num_feature":"155","num_nodes":"3","size_leaf_vector":"0"}},{"base_weights":[-1.8889782E-1,1.8794337E-1,-3.6547476E-1],"categories":[],"categories_nodes":[],"categories_segments":[],"categories_sizes":[],"default_left":[1,0,0],"id":76,"left_children":[1,-1,-1],"loss_changes":[3.830837E-1,0E0,0E0],"parents":[2147483647,0,0],"right_children":[2,-1,-1],"split_conditions":[6.2E1,5.6383014E-2,-1.0964243E-1],"split_indices":[3,0,0],"split_type":[0,0,0],"sum_hessian":[3.7248015E0,1.167919E0,2.5568824E0],"tree_param":{"num_deleted":"0","num_feature":"155","num_nodes":"3","size_leaf_vector":"0"}},{"base_weights":[-1.8927728E-1,1.7735067E-1,-3.6434567E-1],"categories":[],"categories_nodes":[],"categories_segments":[],"categories_sizes":[],"default_left":[1,0,0],"id":77,"left_children":[1,-1,-1],"loss_changes":[3.6823767E-1,0E0,0E0],"parents":[2147483647,0,0],"right_children":[2,-1,-1],"split_conditions":[6.95E1,5.3205203E-2,-1.09303705E-1],"split_indices":[14,0,0],"split_type":[0,0,0],"sum_hessian":[3.7304025E0,1.2013987E0,2.5290036E0],"tree_param":{"num_deleted":"0","num_feature":"155","num_nodes":"3","size_leaf_vector":"0"}},{"base_weights":[1.1986401E-4,-3.6427534E-1,5.309666E-1],"categories":[],"categories_nodes":[],"categories_segments":[],"categories_sizes":[],"default_left":[1,0,0],"id":78,"left_children":[1,-1,-1],"loss_changes":[1.1472977E0,0E0,0E0],"parents":[2147483647,0,0],"right_children":[2,-1,-1],"split_conditions":[1.95E1,-1.09282605E-1,1.5928999E-1],"split_indices":[33,0,0],"split_type":[0,0,0],"sum_hessian":[3.9311905E0,2.5171196E0,1.4140708E0],"tree_param":{"num_deleted":"0","num_feature":"155","num_nodes":"3","size_leaf_vector":"0"}},{"base_weights":[-1.880319E-1,-3.7100264E-1,2.4417786E-1],"categories":[],"categories_nodes":[],"categories_segments":[],"categories_sizes":[],"default_left":[1,0,0],"id":79,"left_children":[1,-1,-1],"loss_changes":[4.632548E-1,0E0,0E0],"parents":[2147483647,0,0],"right_children":[2,-1,-1],"split_conditions":[1.005E2,-1.11300796E-1,7.325336E-2],"split_indices":[128,0,0],"split_type":[0,0,0],"sum_hessian":[3.7123914E0,2.7077236E0,1.0046676E0],"tree_param":{"num_deleted":"0","num_feature":"155","num_nodes":"3","size_leaf_vector":"0"}},{"base_weights":[3.1988713E-1,-3.6441985E-1,1.0180454E0],"categories":[],"categories_nodes":[],"categories_segments":[],"categories_sizes":[],"default_left":[1,0,0],"id":80,"left_children":[1,-1,-1],"loss_changes":[2.967183E0,0E0,0E0],"parents":[2147483647,0,0],"right_children":[2,-1,-1],"split_conditions":[3.45E1,-1.0932596E-1,3.0541363E-1],"split_indices":[79,0,0],"split_type":[0,0,0],"sum_hessian":[4.434144E0,2.4806938E0,1.9534504E0],"tree_param":{"num_deleted":"0","num_feature":"155","num_nodes":"3","size_leaf_vector":"0"}},{"base_weights":[1.724708E-1,-3.6331677E-1,8.0593276E-1],"categories":[],"categories_nodes":[],"categories_segments":[],"categories_sizes":[],"default_left":[1,0,0],"id":81,"left_children":[1,-1,-1],"loss_changes":[2.0399218E0,0E0,0E0],"parents":[2147483647,0,0],"right_children":[2,-1,-1],"split_conditions":[1.85E1,-1.08995035E-1,2.4177983E-1],"split_indices":[33,0,0],"split_type":[0,0,0],"sum_hessian":[4.147635E0,2.4780972E0,1.6695377E0],"tree_param":{"num_deleted":"0","num_feature":"155","num_nodes":"3","size_leaf_vector":"0"}},{"base_weights":[-1.8807633E-1,-3.6828345E-1,2.1915185E-1],"categories":[],"categories_nodes":[],"categories_segments":[],"categories_sizes":[],"default_left":[1,0,0],"id":82,"left_children":[1,-1,-1],"loss_changes":[4.265874E-1,0E0,0E0],"parents":[2147483647,0,0],"right_children":[2,-1,-1],"split_conditions":[2.05E1,-1.1048504E-1,6.574556E-2],"split_indices":[33,0,0],"split_type":[0,0,0],"sum_hessian":[3.7131631E0,2.640375E0,1.0727882E0],"tree_param":{"num_deleted":"0","num_feature":"155","num_nodes":"3","size_leaf_vector":"0"}},{"base_weights":[-1.8807633E-1,-3.6828345E-1,2.1915185E-1],"categories":[],"categories_nodes":[],"categories_segments":[],"categories_sizes":[],"default_left":[1,0,0],"id":83,"left_children":[1,-1,-1],"loss_changes":[4.265874E-1,0E0,0E0],"parents":[2147483647,0,0],"right_children":[2,-1,-1],"split_conditions":[2.05E1,-1.1048504E-1,6.574556E-2],"split_indices":[33,0,0],"split_type":[0,0,0],"sum_hessian":[3.7131631E0,2.640375E0,1.0727882E0],"tree_param":{"num_deleted":"0","num_feature":"155","num_nodes":"3","size_leaf_vector":"0"}},{"base_weights":[4.6041086E-1,1.0944206E0,-3.5356706E-1,-2.9957092E-1,2.242568E0],"categories":[],"categories_nodes":[],"categories_segments":[],"categories_sizes":[],"default_left":[1,1,0,0,0],"id":84,"left_children":[1,3,-1,-1,-1],"loss_changes":[3.314384E0,6.1663036E0,0E0,0E0,0E0],"parents":[2147483647,0,0,1,1],"right_children":[2,4,-1,-1,-1],"split_conditions":[7.55E1,5.55E1,-1.0607012E-1,-8.987128E-2,6.7277044E-1],"split_indices":[23,125,0,0,0],"split_type":[0,0,0,0,0],"sum_hessian":[4.672551E0,2.4329703E0,2.2395809E0,1.432646E0,1.0003242E0],"tree_param":{"num_deleted":"0","num_feature":"155","num_nodes":"5","size_leaf_vector":"0"}},{"base_weights":[-1.8990579E-1,-3.5824993E-1,1.3314372E-1],"categories":[],"categories_nodes":[],"categories_segments":[],"categories_sizes":[],"default_left":[1,0,0],"id":85,"left_children":[1,-1,-1],"loss_changes":[3.0545688E-1,0E0,0E0],"parents":[2147483647,0,0],"right_children":[2,-1,-1],"split_conditions":[8.4E1,-1.0747498E-1,3.9943118E-2],"split_indices":[5,0,0],"split_type":[0,0,0],"sum_hessian":[3.7396388E0,2.3868604E0,1.3527783E0],"tree_param":{"num_deleted":"0","num_feature":"155","num_nodes":"3","size_leaf_vector":"0"}},{"base_weights":[-1.8805763E-1,-3.705715E-1,2.404852E-1],"categories":[],"categories_nodes":[],"categories_segments":[],"categories_sizes":[],"default_left":[1,0,0],"id":86,"left_children":[1,-1,-1],"loss_changes":[4.5772383E-1,0E0,0E0],"parents":[2147483647,0,0],"right_children":[2,-1,-1],"split_conditions":[3.375E2,-1.11171454E-1,7.214557E-2],"split_indices":[26,0,0],"split_type":[0,0,0],"sum_hessian":[3.7127383E0,2.6986673E0,1.014071E0],"tree_param":{"num_deleted":"0","num_feature":"155","num_nodes":"3","size_leaf_vector":"0"}},{"base_weights":[-1.8803188E-1,-3.7078977E-1,2.4335533E-1],"categories":[],"categories_nodes":[],"categories_segments":[],"categories_sizes":[],"default_left":[1,0,0],"id":87,"left_children":[1,-1,-1],"loss_changes":[4.6175587E-1,0E0,0E0],"parents":[2147483647,0,0],"right_children":[2,-1,-1],"split_conditions":[3.85E1,-1.1123694E-1,7.30066E-2],"split_indices":[11,0,0],"split_type":[0,0,0],"sum_hessian":[3.7123914E0,2.706324E0,1.0060674E0],"tree_param":{"num_deleted":"0","num_feature":"155","num_nodes":"3","size_leaf_vector":"0"}},{"base_weights":[5.703708E-3,-3.7624007E-1,7.303916E-1],"categories":[],"categories_nodes":[],"categories_segments":[],"categories_sizes":[],"default_left":[1,0,0],"id":88,"left_children":[1,-1,-1],"loss_changes":[1.625014E0,0E0,0E0],"parents":[2147483647,0,0],"right_children":[2,-1,-1],"split_conditions":[2.65E1,-1.1287203E-1,2.1911749E-1],"split_indices":[72,0,0],"split_type":[0,0,0],"sum_hessian":[3.8781066E0,2.8544862E0,1.0236205E0],"tree_param":{"num_deleted":"0","num_feature":"155","num_nodes":"3","size_leaf_vector":"0"}},{"base_weights":[6.185225E-3,-3.765959E-1,7.3801184E-1],"categories":[],"categories_nodes":[],"categories_segments":[],"categories_sizes":[],"default_left":[1,0,0],"id":89,"left_children":[1,-1,-1],"loss_changes":[1.6432278E0,0E0,0E0],"parents":[2147483647,0,0],"right_children":[2,-1,-1],"split_conditions":[5.55E1,-1.1297878E-1,2.2140355E-1],"split_indices":[18,0,0],"split_type":[0,0,0],"sum_hessian":[3.8738031E0,2.8621576E0,1.0116457E0],"tree_param":{"num_deleted":"0","num_feature":"155","num_nodes":"3","size_leaf_vector":"0"}},{"base_weights":[1.8068899E-1,-3.7228242E-1,9.789285E-1],"categories":[],"categories_nodes":[],"categories_segments":[],"categories_sizes":[],"default_left":[1,0,0],"id":90,"left_children":[1,-1,-1],"loss_changes":[2.6095457E0,0E0,0E0],"parents":[2147483647,0,0],"right_children":[2,-1,-1],"split_conditions":[6.95E1,-1.1168473E-1,2.9367855E-1],"split_indices":[94,0,0],"split_type":[0,0,0],"sum_hessian":[4.0862927E0,2.7292538E0,1.357039E0],"tree_param":{"num_deleted":"0","num_feature":"155","num_nodes":"3","size_leaf_vector":"0"}},{"base_weights":[-1.880319E-1,-3.7078977E-1,2.4335532E-1],"categories":[],"categories_nodes":[],"categories_segments":[],"categories_sizes":[],"default_left":[1,0,0],"id":91,"left_children":[1,-1,-1],"loss_changes":[4.617558E-1,0E0,0E0],"parents":[2147483647,0,0],"right_children":[2,-1,-1],"split_conditions":[3.85E1,-1.1123694E-1,7.30066E-2],"split_indices":[11,0,0],"split_type":[0,0,0],"sum_hessian":[3.7123914E0,2.706324E0,1.0060674E0],"tree_param":{"num_deleted":"0","num_feature":"155","num_nodes":"3","size_leaf_vector":"0"}},{"base_weights":[1.8335924E-1,-3.727369E-1,1.0087024E0],"categories":[],"categories_nodes":[],"categories_segments":[],"categories_sizes":[],"default_left":[1,0,0],"id":92,"left_children":[1,-1,-1],"loss_changes":[2.7015994E0,0E0,0E0],"parents":[2147483647,0,0],"right_children":[2,-1,-1],"split_conditions":[1.695E2,-1.1182108E-1,3.0261073E-1],"split_indices":[15,0,0],"split_type":[0,0,0],"sum_hessian":[4.0670376E0,2.757492E0,1.3095454E0],"tree_param":{"num_deleted":"0","num_feature":"155","num_nodes":"3","size_leaf_vector":"0"}},{"base_weights":[5.859365E-3,-3.694571E-1,6.236541E-1],"categories":[],"categories_nodes":[],"categories_segments":[],"categories_sizes":[],"default_left":[1,0,0],"id":93,"left_children":[1,-1,-1],"loss_changes":[1.3611696E0,0E0,0E0],"parents":[2147483647,0,0],"right_children":[2,-1,-1],"split_conditions":[6.55E1,-1.1083713E-1,1.8709624E-1],"split_indices":[76,0,0],"split_type":[0,0,0],"sum_hessian":[3.8767123E0,2.661686E0,1.2150263E0],"tree_param":{"num_deleted":"0","num_feature":"155","num_nodes":"3","size_leaf_vector":"0"}},{"base_weights":[1.7803402E-1,-3.6834365E-1,9.065626E-1],"categories":[],"categories_nodes":[],"categories_segments":[],"categories_sizes":[],"default_left":[1,0,0],"id":94,"left_children":[1,-1,-1],"loss_changes":[2.3663003E0,0E0,0E0],"parents":[2147483647,0,0],"right_children":[2,-1,-1],"split_conditions":[2.15E1,-1.105031E-1,2.719688E-1],"split_indices":[51,0,0],"split_type":[0,0,0],"sum_hessian":[4.1058025E0,2.628726E0,1.4770764E0],"tree_param":{"num_deleted":"0","num_feature":"155","num_nodes":"3","size_leaf_vector":"0"}},{"base_weights":[1.8326133E-1,-3.6911482E-1,9.4271797E-1],"categories":[],"categories_nodes":[],"categories_segments":[],"categories_sizes":[],"default_left":[1,0,0],"id":95,"left_children":[1,-1,-1],"loss_changes":[2.4740303E0,0E0,0E0],"parents":[2147483647,0,0],"right_children":[2,-1,-1],"split_conditions":[9.75E1,-1.1073445E-1,2.828154E-1],"split_indices":[0,0,0],"split_type":[0,0,0],"sum_hessian":[4.0680094E0,2.652639E0,1.4153706E0],"tree_param":{"num_deleted":"0","num_feature":"155","num_nodes":"3","size_leaf_vector":"0"}},{"base_weights":[5.62846E-3,-3.769976E-1,7.414506E-1],"categories":[],"categories_nodes":[],"categories_segments":[],"categories_sizes":[],"default_left":[1,0,0],"id":96,"left_children":[1,-1,-1],"loss_changes":[1.6531192E0,0E0,0E0],"parents":[2147483647,0,0],"right_children":[2,-1,-1],"split_conditions":[3.85E1,-1.13099284E-1,2.2243519E-1],"split_indices":[19,0,0],"split_type":[0,0,0],"sum_hessian":[3.8787775E0,2.8726542E0,1.0061232E0],"tree_param":{"num_deleted":"0","num_feature":"155","num_nodes":"3","size_leaf_vector":"0"}},{"base_weights":[-1.8769044E-1,-3.707892E-1,2.4463719E-1],"categories":[],"categories_nodes":[],"categories_segments":[],"categories_sizes":[],"default_left":[1,0,0],"id":97,"left_children":[1,-1,-1],"loss_changes":[4.633699E-1,0E0,0E0],"parents":[2147483647,0,0],"right_children":[2,-1,-1],"split_conditions":[9.85E1,-1.11236766E-1,7.339116E-2],"split_indices":[5,0,0],"split_type":[0,0,0],"sum_hessian":[3.7077746E0,2.704648E0,1.0031265E0],"tree_param":{"num_deleted":"0","num_feature":"155","num_nodes":"3","size_leaf_vector":"0"}},{"base_weights":[3.4308374E-1,-3.796461E-1,1.4160272E0],"categories":[],"categories_nodes":[],"categories_segments":[],"categories_sizes":[],"default_left":[1,0,0],"id":98,"left_children":[1,-1,-1],"loss_changes":[4.6368327E0,0E0,0E0],"parents":[2147483647,0,0],"right_children":[2,-1,-1],"split_conditions":[1.745E2,-1.1389383E-1,4.2480817E-1],"split_indices":[15,0,0],"split_type":[0,0,0],"sum_hessian":[4.286289E0,2.9472194E0,1.3390696E0],"tree_param":{"num_deleted":"0","num_feature":"155","num_nodes":"3","size_leaf_vector":"0"}},{"base_weights":[-1.8769044E-1,-3.6986178E-1,2.3588659E-1],"categories":[],"categories_nodes":[],"categories_segments":[],"categories_sizes":[],"default_left":[1,0,0],"id":99,"left_children":[1,-1,-1],"loss_changes":[4.5051426E-1,0E0,0E0],"parents":[2147483647,0,0],"right_children":[2,-1,-1],"split_conditions":[8.1E1,-1.1095854E-1,7.076598E-2],"split_indices":[1,0,0],"split_type":[0,0,0],"sum_hessian":[3.7077746E0,2.681383E0,1.0263916E0],"tree_param":{"num_deleted":"0","num_feature":"155","num_nodes":"3","size_leaf_vector":"0"}},{"base_weights":[-1.8769044E-1,-3.707892E-1,2.4463719E-1],"categories":[],"categories_nodes":[],"categories_segments":[],"categories_sizes":[],"default_left":[1,0,0],"id":100,"left_children":[1,-1,-1],"loss_changes":[4.633699E-1,0E0,0E0],"parents":[2147483647,0,0],"right_children":[2,-1,-1],"split_conditions":[9.85E1,-1.11236766E-1,7.339116E-2],"split_indices":[5,0,0],"split_type":[0,0,0],"sum_hessian":[3.7077746E0,2.704648E0,1.0031265E0],"tree_param":{"num_deleted":"0","num_feature":"155","num_nodes":"3","size_leaf_vector":"0"}},{"base_weights":[6.7043295E-3,-3.7648392E-1,7.406703E-1],"categories":[],"categories_nodes":[],"categories_segments":[],"categories_sizes":[],"default_left":[1,0,0],"id":101,"left_children":[1,-1,-1],"loss_changes":[1.6482913E0,0E0,0E0],"parents":[2147483647,0,0],"right_children":[2,-1,-1],"split_conditions":[8.05E1,-1.1294518E-1,2.2220111E-1],"split_indices":[23,0,0],"split_type":[0,0,0],"sum_hessian":[3.8691726E0,2.8620248E0,1.0071477E0],"tree_param":{"num_deleted":"0","num_feature":"155","num_nodes":"3","size_leaf_vector":"0"}},{"base_weights":[6.704333E-3,-3.7648392E-1,7.406703E-1],"categories":[],"categories_nodes":[],"categories_segments":[],"categories_sizes":[],"default_left":[1,0,0],"id":102,"left_children":[1,-1,-1],"loss_changes":[1.6482913E0,0E0,0E0],"parents":[2147483647,0,0],"right_children":[2,-1,-1],"split_conditions":[8.05E1,-1.1294518E-1,2.2220111E-1],"split_indices":[23,0,0],"split_type":[0,0,0],"sum_hessian":[3.8691726E0,2.8620248E0,1.0071477E0],"tree_param":{"num_deleted":"0","num_feature":"155","num_nodes":"3","size_leaf_vector":"0"}},{"base_weights":[-1.8769044E-1,-3.707892E-1,2.4463718E-1],"categories":[],"categories_nodes":[],"categories_segments":[],"categories_sizes":[],"default_left":[1,0,0],"id":103,"left_children":[1,-1,-1],"loss_changes":[4.633699E-1,0E0,0E0],"parents":[2147483647,0,0],"right_children":[2,-1,-1],"split_conditions":[9.85E1,-1.11236766E-1,7.3391154E-2],"split_indices":[5,0,0],"split_type":[0,0,0],"sum_hessian":[3.7077746E0,2.704648E0,1.0031265E0],"tree_param":{"num_deleted":"0","num_feature":"155","num_nodes":"3","size_leaf_vector":"0"}},{"base_weights":[-1.8769044E-1,-3.707892E-1,2.4463718E-1],"categories":[],"categories_nodes":[],"categories_segments":[],"categories_sizes":[],"default_left":[1,0,0],"id":104,"left_children":[1,-1,-1],"loss_changes":[4.633699E-1,0E0,0E0],"parents":[2147483647,0,0],"right_children":[2,-1,-1],"split_conditions":[9.85E1,-1.11236766E-1,7.3391154E-2],"split_indices":[5,0,0],"split_type":[0,0,0],"sum_hessian":[3.7077746E0,2.704648E0,1.0031265E0],"tree_param":{"num_deleted":"0","num_feature":"155","num_nodes":"3","size_leaf_vector":"0"}},{"base_weights":[-1.8769044E-1,-3.707892E-1,2.4463718E-1],"categories":[],"categories_nodes":[],"categories_segments":[],"categories_sizes":[],"default_left":[1,0,0],"id":105,"left_children":[1,-1,-1],"loss_changes":[4.633699E-1,0E0,0E0],"parents":[2147483647,0,0],"right_children":[2,-1,-1],"split_conditions":[9.85E1,-1.11236766E-1,7.3391154E-2],"split_indices":[5,0,0],"split_type":[0,0,0],"sum_hessian":[3.7077746E0,2.704648E0,1.0031265E0],"tree_param":{"num_deleted":"0","num_feature":"155","num_nodes":"3","size_leaf_vector":"0"}},{"base_weights":[1.850436E-1,-3.8308334E-1,1.2443099E0],"categories":[],"categories_nodes":[],"categories_segments":[],"categories_sizes":[],"default_left":[1,0,0],"id":106,"left_children":[1,-1,-1],"loss_changes":[3.5189598E0,0E0,0E0],"parents":[2147483647,0,0],"right_children":[2,-1,-1],"split_conditions":[1.795E2,-1.14925005E-1,3.7329298E-1],"split_indices":[15,0,0],"split_type":[0,0,0],"sum_hessian":[4.055329E0,3.0551045E0,1.0002245E0],"tree_param":{"num_deleted":"0","num_feature":"155","num_nodes":"3","size_leaf_vector":"0"}},{"base_weights":[6.7043356E-3,-3.7672406E-1,7.43443E-1],"categories":[],"categories_nodes":[],"categories_segments":[],"categories_sizes":[],"default_left":[1,0,0],"id":107,"left_children":[1,-1,-1],"loss_changes":[1.6555483E0,0E0,0E0],"parents":[2147483647,0,0],"right_children":[2,-1,-1],"split_conditions":[2.75E1,-1.13017224E-1,2.230329E-1],"split_indices":[24,0,0],"split_type":[0,0,0],"sum_hessian":[3.8691726E0,2.866165E0,1.0030075E0],"tree_param":{"num_deleted":"0","num_feature":"155","num_nodes":"3","size_leaf_vector":"0"}},{"base_weights":[-1.8769044E-1,-3.707892E-1,2.4463718E-1],"categories":[],"categories_nodes":[],"categories_segments":[],"categories_sizes":[],"default_left":[1,0,0],"id":108,"left_children":[1,-1,-1],"loss_changes":[4.633699E-1,0E0,0E0],"parents":[2147483647,0,0],"right_children":[2,-1,-1],"split_conditions":[9.85E1,-1.11236766E-1,7.3391154E-2],"split_indices":[5,0,0],"split_type":[0,0,0],"sum_hessian":[3.7077746E0,2.704648E0,1.0031265E0],"tree_param":{"num_deleted":"0","num_feature":"155","num_nodes":"3","size_leaf_vector":"0"}},{"base_weights":[-1.8769044E-1,-3.707892E-1,2.4463718E-1],"categories":[],"categories_nodes":[],"categories_segments":[],"categories_sizes":[],"default_left":[1,0,0],"id":109,"left_children":[1,-1,-1],"loss_changes":[4.633699E-1,0E0,0E0],"parents":[2147483647,0,0],"right_children":[2,-1,-1],"split_conditions":[9.85E1,-1.11236766E-1,7.3391154E-2],"split_indices":[5,0,0],"split_type":[0,0,0],"sum_hessian":[3.7077746E0,2.704648E0,1.0031265E0],"tree_param":{"num_deleted":"0","num_feature":"155","num_nodes":"3","size_leaf_vector":"0"}},{"base_weights":[-1.8769044E-1,-3.707892E-1,2.4463718E-1],"categories":[],"categories_nodes":[],"categories_segments":[],"categories_sizes":[],"default_left":[1,0,0],"id":110,"left_children":[1,-1,-1],"loss_changes":[4.633699E-1,0E0,0E0],"parents":[2147483647,0,0],"right_children":[2,-1,-1],"split_conditions":[9.85E1,-1.11236766E-1,7.3391154E-2],"split_indices":[5,0,0],"split_type":[0,0,0],"sum_hessian":[3.7077746E0,2.704648E0,1.0031265E0],"tree_param":{"num_deleted":"0","num_feature":"155","num_nodes":"3","size_leaf_vector":"0"}},{"base_weights":[-1.8769044E-1,-3.707892E-1,2.4463718E-1],"categories":[],"categories_nodes":[],"categories_segments":[],"categories_sizes":[],"default_left":[1,0,0],"id":111,"left_children":[1,-1,-1],"loss_changes":[4.633699E-1,0E0,0E0],"parents":[2147483647,0,0],"right_children":[2,-1,-1],"split_conditions":[9.85E1,-1.11236766E-1,7.3391154E-2],"split_indices":[5,0,0],"split_type":[0,0,0],"sum_hessian":[3.7077746E0,2.704648E0,1.0031265E0],"tree_param":{"num_deleted":"0","num_feature":"155","num_nodes":"3","size_leaf_vector":"0"}},{"base_weights":[-1.8769044E-1,-3.707892E-1,2.4463718E-1],"categories":[],"categories_nodes":[],"categories_segments":[],"categories_sizes":[],"default_left":[1,0,0],"id":112,"left_children":[1,-1,-1],"loss_changes":[4.633699E-1,0E0,0E0],"parents":[2147483647,0,0],"right_children":[2,-1,-1],"split_conditions":[9.85E1,-1.11236766E-1,7.3391154E-2],"split_indices":[5,0,0],"split_type":[0,0,0],"sum_hessian":[3.7077746E0,2.704648E0,1.0031265E0],"tree_param":{"num_deleted":"0","num_feature":"155","num_nodes":"3","size_leaf_vector":"0"}},{"base_weights":[-1.8769044E-1,-3.707892E-1,2.4463718E-1],"categories":[],"categories_nodes":[],"categories_segments":[],"categories_sizes":[],"default_left":[1,0,0],"id":113,"left_children":[1,-1,-1],"loss_changes":[4.633699E-1,0E0,0E0],"parents":[2147483647,0,0],"right_children":[2,-1,-1],"split_conditions":[9.85E1,-1.11236766E-1,7.3391154E-2],"split_indices":[5,0,0],"split_type":[0,0,0],"sum_hessian":[3.7077746E0,2.704648E0,1.0031265E0],"tree_param":{"num_deleted":"0","num_feature":"155","num_nodes":"3","size_leaf_vector":"0"}},{"base_weights":[-1.8769044E-1,-3.707892E-1,2.4463718E-1],"categories":[],"categories_nodes":[],"categories_segments":[],"categories_sizes":[],"default_left":[1,0,0],"id":114,"left_children":[1,-1,-1],"loss_changes":[4.633699E-1,0E0,0E0],"parents":[2147483647,0,0],"right_children":[2,-1,-1],"split_conditions":[9.85E1,-1.11236766E-1,7.3391154E-2],"split_indices":[5,0,0],"split_type":[0,0,0],"sum_hessian":[3.7077746E0,2.704648E0,1.0031265E0],"tree_param":{"num_deleted":"0","num_feature":"155","num_nodes":"3","size_leaf_vector":"0"}},{"base_weights":[-1.8769044E-1,-3.707892E-1,2.4463718E-1],"categories":[],"categories_nodes":[],"categories_segments":[],"categories_sizes":[],"default_left":[1,0,0],"id":115,"left_children":[1,-1,-1],"loss_changes":[4.633699E-1,0E0,0E0],"parents":[2147483647,0,0],"right_children":[2,-1,-1],"split_conditions":[9.85E1,-1.11236766E-1,7.3391154E-2],"split_indices":[5,0,0],"split_type":[0,0,0],"sum_hessian":[3.7077746E0,2.704648E0,1.0031265E0],"tree_param":{"num_deleted":"0","num_feature":"155","num_nodes":"3","size_leaf_vector":"0"}},{"base_weights":[-1.8769044E-1,-3.707892E-1,2.4463718E-1],"categories":[],"categories_nodes":[],"categories_segments":[],"categories_sizes":[],"default_left":[1,0,0],"id":116,"left_children":[1,-1,-1],"loss_changes":[4.633699E-1,0E0,0E0],"parents":[2147483647,0,0],"right_children":[2,-1,-1],"split_conditions":[9.85E1,-1.11236766E-1,7.3391154E-2],"split_indices":[5,0,0],"split_type":[0,0,0],"sum_hessian":[3.7077746E0,2.704648E0,1.0031265E0],"tree_param":{"num_deleted":"0","num_feature":"155","num_nodes":"3","size_leaf_vector":"0"}},{"base_weights":[-1.8769044E-1,-3.707892E-1,2.4463718E-1],"categories":[],"categories_nodes":[],"categories_segments":[],"categories_sizes":[],"default_left":[1,0,0],"id":117,"left_children":[1,-1,-1],"loss_changes":[4.633699E-1,0E0,0E0],"parents":[2147483647,0,0],"right_children":[2,-1,-1],"split_conditions":[9.85E1,-1.11236766E-1,7.3391154E-2],"split_indices":[5,0,0],"split_type":[0,0,0],"sum_hessian":[3.7077746E0,2.704648E0,1.0031265E0],"tree_param":{"num_deleted":"0","num_feature":"155","num_nodes":"3","size_leaf_vector":"0"}},{"base_weights":[-1.8769044E-1,-3.707892E-1,2.4463718E-1],"categories":[],"categories_nodes":[],"categories_segments":[],"categories_sizes":[],"default_left":[1,0,0],"id":118,"left_children":[1,-1,-1],"loss_changes":[4.633699E-1,0E0,0E0],"parents":[2147483647,0,0],"right_children":[2,-1,-1],"split_conditions":[9.85E1,-1.11236766E-1,7.3391154E-2],"split_indices":[5,0,0],"split_type":[0,0,0],"sum_hessian":[3.7077746E0,2.704648E0,1.0031265E0],"tree_param":{"num_deleted":"0","num_feature":"155","num_nodes":"3","size_leaf_vector":"0"}},{"base_weights":[-1.8769044E-1,-3.707892E-1,2.4463718E-1],"categories":[],"categories_nodes":[],"categories_segments":[],"categories_sizes":[],"default_left":[1,0,0],"id":119,"left_children":[1,-1,-1],"loss_changes":[4.633699E-1,0E0,0E0],"parents":[2147483647,0,0],"right_children":[2,-1,-1],"split_conditions":[9.85E1,-1.11236766E-1,7.3391154E-2],"split_indices":[5,0,0],"split_type":[0,0,0],"sum_hessian":[3.7077746E0,2.704648E0,1.0031265E0],"tree_param":{"num_deleted":"0","num_feature":"155","num_nodes":"3","size_leaf_vector":"0"}},{"base_weights":[-1.7450973E-1,2.4136549E-1,-3.6292258E-1],"categories":[],"categories_nodes":[],"categories_segments":[],"categories_sizes":[],"default_left":[1,0,0],"id":120,"left_children":[1,-1,-1],"loss_changes":[4.4212165E-1,0E0,0E0],"parents":[2147483647,0,0],"right_children":[2,-1,-1],"split_conditions":[1.55E1,7.240965E-2,-1.0887678E-1],"split_indices":[35,0,0],"split_type":[0,0,0],"sum_hessian":[3.5245242E0,1.0112941E0,2.51323E0],"tree_param":{"num_deleted":"0","num_feature":"155","num_nodes":"3","size_leaf_vector":"0"}},{"base_weights":[-1.7449681E-1,2.4419951E-1,-3.6323708E-1],"categories":[],"categories_nodes":[],"categories_segments":[],"categories_sizes":[],"default_left":[1,0,0],"id":121,"left_children":[1,-1,-1],"loss_changes":[4.4621775E-1,0E0,0E0],"parents":[2147483647,0,0],"right_children":[2,-1,-1],"split_conditions":[4.45E1,7.325986E-2,-1.0897113E-1],"split_indices":[83,0,0],"split_type":[0,0,0],"sum_hessian":[3.5240881E0,1.0036901E0,2.5203981E0],"tree_param":{"num_deleted":"0","num_feature":"155","num_nodes":"3","size_leaf_vector":"0"}},{"base_weights":[1.6743857E-1,1.231618E0,-3.8676223E-1],"categories":[],"categories_nodes":[],"categories_segments":[],"categories_sizes":[],"default_left":[1,0,0],"id":122,"left_children":[1,-1,-1],"loss_changes":[3.5302565E0,0E0,0E0],"parents":[2147483647,0,0],"right_children":[2,-1,-1],"split_conditions":[1.55E1,3.6948544E-1,-1.16028674E-1],"split_indices":[116,0,0],"split_type":[0,0,0],"sum_hessian":[4.17815E0,1.0121952E0,3.1659548E0],"tree_param":{"num_deleted":"0","num_feature":"155","num_nodes":"3","size_leaf_vector":"0"}},{"base_weights":[-1.7450975E-1,2.4558969E-1,-3.634746E-1],"categories":[],"categories_nodes":[],"categories_segments":[],"categories_sizes":[],"default_left":[1,0,0],"id":123,"left_children":[1,-1,-1],"loss_changes":[4.484406E-1,0E0,0E0],"parents":[2147483647,0,0],"right_children":[2,-1,-1],"split_conditions":[5.15E1,7.367691E-2,-1.09042384E-1],"split_indices":[15,0,0],"split_type":[0,0,0],"sum_hessian":[3.5245242E0,1.0005288E0,2.5239954E0],"tree_param":{"num_deleted":"0","num_feature":"155","num_nodes":"3","size_leaf_vector":"0"}},{"base_weights":[4.6295142E-1,1.7771738E0,-2.2705184E-1,2.2568135E-1,-3.9136538E-1],"categories":[],"categories_nodes":[],"categories_segments":[],"categories_sizes":[],"default_left":[1,0,1,0,0],"id":124,"left_children":[1,-1,3,-1,-1],"loss_changes":[6.41323E0,0E0,4.7756162E-1,0E0,0E0],"parents":[2147483647,0,0,2,2],"right_children":[2,-1,4,-1,-1],"split_conditions":[1.05E1,5.3315216E-1,2.25E1,6.770441E-2,-1.1740962E-1],"split_indices":[2,0,97,0,0],"split_type":[0,0,0,0,0],"sum_hessian":[5.627264E0,1.3948829E0,4.232381E0,1.0275879E0,3.204793E0],"tree_param":{"num_deleted":"0","num_feature":"155","num_nodes":"5","size_leaf_vector":"0"}},{"base_weights":[5.113693E-1,1.4582351E0,-2.1288209E-1,1.7008927E-1,2.1006453E0,2.1541217E-1,-3.8306656E-1],"categories":[],"categories_nodes":[],"categories_segments":[],"categories_sizes":[],"default_left":[1,1,1,0,0,0,0],"id":125,"left_children":[1,3,5,-1,-1,-1,-1],"loss_changes":[5.2929583E0,2.3538632E0,4.4618613E-1,0E0,0E0,0E0,0E0],"parents":[2147483647,0,0,1,1,2,2],"right_children":[2,4,6,-1,-1,-1,-1],"split_conditions":[1.75E1,2.35E1,1.05E1,5.1026784E-2,6.301936E-1,6.4623654E-2,-1.14919975E-1],"split_indices":[18,126,41,0,0,0,0],"split_type":[0,0,0,0,0,0,0],"sum_hessian":[6.265606E0,2.2762556E0,3.98935E0,1.1783078E0,1.0979478E0,1.0588477E0,2.9305024E0],"tree_param":{"num_deleted":"0","num_feature":"155","num_nodes":"7","size_leaf_vector":"0"}},{"base_weights":[2.966054E-1,1.3307105E0,-3.8698965E-1],"categories":[],"categories_nodes":[],"categories_segments":[],"categories_sizes":[],"default_left":[1,0,0],"id":126,"left_children":[1,-1,-1],"loss_changes":[4.455607E0,0E0,0E0],"parents":[2147483647,0,0],"right_children":[2,-1,-1],"split_conditions":[2.05E1,3.9921317E-1,-1.160969E-1],"split_indices":[12,0,0],"split_type":[0,0,0],"sum_hessian":[4.574459E0,1.443769E0,3.13069E0],"tree_param":{"num_deleted":"0","num_feature":"155","num_nodes":"3","size_leaf_vector":"0"}},{"base_weights":[2.9136544E-1,1.2029227E0,-3.8198733E-1],"categories":[],"categories_nodes":[],"categories_segments":[],"categories_sizes":[],"default_left":[1,0,0],"id":127,"left_children":[1,-1,-1],"loss_changes":[3.9034016E0,0E0,0E0],"parents":[2147483647,0,0],"right_children":[2,-1,-1],"split_conditions":[2.85E1,3.6087683E-1,-1.145962E-1],"split_indices":[154,0,0],"split_type":[0,0,0],"sum_hessian":[4.61079E0,1.6247724E0,2.9860175E0],"tree_param":{"num_deleted":"0","num_feature":"155","num_nodes":"3","size_leaf_vector":"0"}},{"base_weights":[6.4237E-1,1.6680893E0,-2.5321302E-1,2.0939438E-1,-4.0313435E-1],"categories":[],"categories_nodes":[],"categories_segments":[],"categories_sizes":[],"default_left":[1,0,1,0,0],"id":128,"left_children":[1,-1,3,-1,-1],"loss_changes":[8.577759E0,0E0,4.7334248E-1,0E0,0E0],"parents":[2147483647,0,0,2,2],"right_children":[2,-1,4,-1,-1],"split_conditions":[4.25E1,5.004268E-1,8.85E1,6.281832E-2,-1.20940305E-1],"split_indices":[83,0,26,0,0],"split_type":[0,0,0,0,0],"sum_hessian":[7.877887E0,3.270071E0,4.6078157E0,1.0307056E0,3.57711E0],"tree_param":{"num_deleted":"0","num_feature":"155","num_nodes":"5","size_leaf_vector":"0"}},{"base_weights":[-1.7450973E-1,2.4136549E-1,-3.6292258E-1],"categories":[],"categories_nodes":[],"categories_segments":[],"categories_sizes":[],"default_left":[1,0,0],"id":129,"left_children":[1,-1,-1],"loss_changes":[4.4212165E-1,0E0,0E0],"parents":[2147483647,0,0],"right_children":[2,-1,-1],"split_conditions":[1.55E1,7.240965E-2,-1.0887678E-1],"split_indices":[35,0,0],"split_type":[0,0,0],"sum_hessian":[3.5245242E0,1.0112941E0,2.51323E0],"tree_param":{"num_deleted":"0","num_feature":"155","num_nodes":"3","size_leaf_vector":"0"}},{"base_weights":[1.0868717E-2,7.4434894E-1,-3.7526527E-1],"categories":[],"categories_nodes":[],"categories_segments":[],"categories_sizes":[],"default_left":[1,0,0],"id":130,"left_children":[1,-1,-1],"loss_changes":[1.6465616E0,0E0,0E0],"parents":[2147483647,0,0],"right_children":[2,-1,-1],"split_conditions":[2.25E1,2.2330469E-1,-1.12579584E-1],"split_indices":[95,0,0],"split_type":[0,0,0],"sum_hessian":[3.8274333E0,1.0000651E0,2.8273683E0],"tree_param":{"num_deleted":"0","num_feature":"155","num_nodes":"3","size_leaf_vector":"0"}},{"base_weights":[-1.7602114E-1,-3.6349377E-1,2.3699059E-1],"categories":[],"categories_nodes":[],"categories_segments":[],"categories_sizes":[],"default_left":[1,0,0],"id":131,"left_children":[1,-1,-1],"loss_changes":[4.3811935E-1,0E0,0E0],"parents":[2147483647,0,0],"right_children":[2,-1,-1],"split_conditions":[7.15E1,-1.09048136E-1,7.109718E-2],"split_indices":[39,0,0],"split_type":[0,0,0],"sum_hessian":[3.5458093E0,2.5212626E0,1.0245466E0],"tree_param":{"num_deleted":"0","num_feature":"155","num_nodes":"3","size_leaf_vector":"0"}},{"base_weights":[9.592016E-3,6.8368757E-1,-3.729617E-1],"categories":[],"categories_nodes":[],"categories_segments":[],"categories_sizes":[],"default_left":[1,0,0],"id":132,"left_children":[1,-1,-1],"loss_changes":[1.5031328E0,0E0,0E0],"parents":[2147483647,0,0],"right_children":[2,-1,-1],"split_conditions":[1.155E2,2.0510627E-1,-1.1188851E-1],"split_indices":[28,0,0],"split_type":[0,0,0],"sum_hessian":[3.8400595E0,1.1052818E0,2.7347777E0],"tree_param":{"num_deleted":"0","num_feature":"155","num_nodes":"3","size_leaf_vector":"0"}},{"base_weights":[-1.7447157E-1,2.3330775E-1,-3.6254156E-1],"categories":[],"categories_nodes":[],"categories_segments":[],"categories_sizes":[],"default_left":[1,0,0],"id":133,"left_children":[1,-1,-1],"loss_changes":[4.31499E-1,0E0,0E0],"parents":[2147483647,0,0],"right_children":[2,-1,-1],"split_conditions":[6.1E1,6.9992326E-2,-1.0876247E-1],"split_indices":[1,0,0],"split_type":[0,0,0],"sum_hessian":[3.5235438E0,1.0362269E0,2.487317E0],"tree_param":{"num_deleted":"0","num_feature":"155","num_nodes":"3","size_leaf_vector":"0"}},{"base_weights":[-1.7403533E-1,-3.6293277E-1,2.4393429E-1],"categories":[],"categories_nodes":[],"categories_segments":[],"categories_sizes":[],"default_left":[1,0,0],"id":134,"left_children":[1,-1,-1],"loss_changes":[4.4524276E-1,0E0,0E0],"parents":[2147483647,0,0],"right_children":[2,-1,-1],"split_conditions":[6.6E1,-1.08879834E-1,7.318029E-2],"split_indices":[47,0,0],"split_type":[0,0,0],"sum_hessian":[3.5179949E0,2.5136507E0,1.0043442E0],"tree_param":{"num_deleted":"0","num_feature":"155","num_nodes":"3","size_leaf_vector":"0"}},{"base_weights":[-1.7745656E-1,1.7704137E-1,-3.5681608E-1],"categories":[],"categories_nodes":[],"categories_segments":[],"categories_sizes":[],"default_left":[1,0,0],"id":135,"left_children":[1,-1,-1],"loss_changes":[3.534115E-1,0E0,0E0],"parents":[2147483647,0,0],"right_children":[2,-1,-1],"split_conditions":[6.9E1,5.3112414E-2,-1.0704483E-1],"split_indices":[0,0,0],"split_type":[0,0,0],"sum_hessian":[3.5647757E0,1.2019963E0,2.3627794E0],"tree_param":{"num_deleted":"0","num_feature":"155","num_nodes":"3","size_leaf_vector":"0"}},{"base_weights":[-1.7626393E-1,-3.6324394E-1,2.3312835E-1],"categories":[],"categories_nodes":[],"categories_segments":[],"categories_sizes":[],"default_left":[1,0,0],"id":136,"left_children":[1,-1,-1],"loss_changes":[4.3289265E-1,0E0,0E0],"parents":[2147483647,0,0],"right_children":[2,-1,-1],"split_conditions":[4.15E1,-1.0897318E-1,6.993851E-2],"split_indices":[59,0,0],"split_type":[0,0,0],"sum_hessian":[3.5489028E0,2.5136006E0,1.0353022E0],"tree_param":{"num_deleted":"0","num_feature":"155","num_nodes":"3","size_leaf_vector":"0"}},{"base_weights":[-1.7685087E-1,-3.5997167E-1,2.0346764E-1],"categories":[],"categories_nodes":[],"categories_segments":[],"categories_sizes":[],"default_left":[1,0,0],"id":137,"left_children":[1,-1,-1],"loss_changes":[3.906001E-1,0E0,0E0],"parents":[2147483647,0,0],"right_children":[2,-1,-1],"split_conditions":[7.05E1,-1.0799151E-1,6.1040293E-2],"split_indices":[39,0,0],"split_type":[0,0,0],"sum_hessian":[3.556838E0,2.4369583E0,1.1198796E0],"tree_param":{"num_deleted":"0","num_feature":"155","num_nodes":"3","size_leaf_vector":"0"}},{"base_weights":[-3.9594786E-4,4.8010212E-1,-3.5884455E-1],"categories":[],"categories_nodes":[],"categories_segments":[],"categories_sizes":[],"default_left":[1,0,0],"id":138,"left_children":[1,-1,-1],"loss_changes":[1.0223476E0,0E0,0E0],"parents":[2147483647,0,0],"right_children":[2,-1,-1],"split_conditions":[5.05E1,1.4403065E-1,-1.0765337E-1],"split_indices":[76,0,0],"split_type":[0,0,0],"sum_hessian":[3.9355304E0,1.5364884E0,2.3990421E0],"tree_param":{"num_deleted":"0","num_feature":"155","num_nodes":"3","size_leaf_vector":"0"}},{"base_weights":[-1.7391998E-1,-3.6307198E-1,2.4521281E-1],"categories":[],"categories_nodes":[],"categories_segments":[],"categories_sizes":[],"default_left":[1,0,0],"id":139,"left_children":[1,-1,-1],"loss_changes":[4.4715363E-1,0E0,0E0],"parents":[2147483647,0,0],"right_children":[2,-1,-1],"split_conditions":[5.85E1,-1.08921595E-1,7.3563844E-2],"split_indices":[38,0,0],"split_type":[0,0,0],"sum_hessian":[3.5172133E0,2.5156643E0,1.0015491E0],"tree_param":{"num_deleted":"0","num_feature":"155","num_nodes":"3","size_leaf_vector":"0"}},{"base_weights":[2.529323E-1,8.128025E-1,-3.6459738E-1,-2.9616302E-1,1.7189703E0],"categories":[],"categories_nodes":[],"categories_segments":[],"categories_sizes":[],"default_left":[1,1,0,0,0],"id":140,"left_children":[1,3,-1,-1,-1],"loss_changes":[2.3375611E0,3.9320247E0,0E0,0E0,0E0],"parents":[2147483647,0,0,1,1],"right_children":[2,4,-1,-1,-1],"split_conditions":[4.45E1,1.05E1,-1.0937922E-1,-8.884891E-2,5.156911E-1],"split_indices":[53,133,0,0,0],"split_type":[0,0,0,0,0],"sum_hessian":[4.903963E0,2.4062088E0,2.4977543E0,1.384739E0,1.0214698E0],"tree_param":{"num_deleted":"0","num_feature":"155","num_nodes":"5","size_leaf_vector":"0"}},{"base_weights":[1.4348157E-1,7.3619956E-1,-3.660307E-1],"categories":[],"categories_nodes":[],"categories_segments":[],"categories_sizes":[],"default_left":[1,0,0],"id":141,"left_children":[1,-1,-1],"loss_changes":[1.8917947E0,0E0,0E0],"parents":[2147483647,0,0],"right_children":[2,-1,-1],"split_conditions":[5.55E1,2.2085987E-1,-1.0980921E-1],"split_indices":[125,0,0],"split_type":[0,0,0],"sum_hessian":[4.3719826E0,1.8153118E0,2.556671E0],"tree_param":{"num_deleted":"0","num_feature":"155","num_nodes":"3","size_leaf_vector":"0"}},{"base_weights":[-1.7446868E-1,2.3287712E-1,-3.62466E-1],"categories":[],"categories_nodes":[],"categories_segments":[],"categories_sizes":[],"default_left":[1,0,0],"id":142,"left_children":[1,-1,-1],"loss_changes":[4.308505E-1,0E0,0E0],"parents":[2147483647,0,0],"right_children":[2,-1,-1],"split_conditions":[4.2E1,6.986314E-2,-1.0873981E-1],"split_indices":[105,0,0],"split_type":[0,0,0],"sum_hessian":[3.5239074E0,1.0373939E0,2.4865136E0],"tree_param":{"num_deleted":"0","num_feature":"155","num_nodes":"3","size_leaf_vector":"0"}},{"base_weights":[-1.7446868E-1,-3.5927182E-1,2.113258E-1],"categories":[],"categories_nodes":[],"categories_segments":[],"categories_sizes":[],"default_left":[1,0,0],"id":143,"left_children":[1,-1,-1],"loss_changes":[3.984601E-1,0E0,0E0],"parents":[2147483647,0,0],"right_children":[2,-1,-1],"split_conditions":[2.05E1,-1.0778155E-1,6.339774E-2],"split_indices":[33,0,0],"split_type":[0,0,0],"sum_hessian":[3.5239074E0,2.429079E0,1.0948285E0],"tree_param":{"num_deleted":"0","num_feature":"155","num_nodes":"3","size_leaf_vector":"0"}},{"base_weights":[3.5770258E-1,-3.7603146E-1,9.9547505E-1,2.2041101E0,-3.157899E-1],"categories":[],"categories_nodes":[],"categories_segments":[],"categories_sizes":[],"default_left":[1,0,1,0,0],"id":144,"left_children":[1,-1,3,-1,-1],"loss_changes":[3.3258443E0,0E0,6.478256E0,0E0,0E0],"parents":[2147483647,0,0,2,2],"right_children":[2,-1,4,-1,-1],"split_conditions":[7.35E1,-1.1280944E-1,3.75E1,6.6123307E-1,-9.473698E-2],"split_indices":[1,0,36,0,0],"split_type":[0,0,0,0,0],"sum_hessian":[5.307256E0,2.6588008E0,2.6484551E0,1.0238427E0,1.6246125E0],"tree_param":{"num_deleted":"0","num_feature":"155","num_nodes":"5","size_leaf_vector":"0"}},{"base_weights":[-1.7826945E-1,1.5962513E-1,-3.547313E-1],"categories":[],"categories_nodes":[],"categories_segments":[],"categories_sizes":[],"default_left":[1,0,0],"id":145,"left_children":[1,-1,-1],"loss_changes":[3.2945952E-1,0E0,0E0],"parents":[2147483647,0,0],"right_children":[2,-1,-1],"split_conditions":[6E1,4.788754E-2,-1.0641939E-1],"split_indices":[153,0,0],"split_type":[0,0,0],"sum_hessian":[3.5758193E0,1.2595007E0,2.3163183E0],"tree_param":{"num_deleted":"0","num_feature":"155","num_nodes":"3","size_leaf_vector":"0"}},{"base_weights":[-1.7423129E-1,-3.63171E-1,2.450426E-1],"categories":[],"categories_nodes":[],"categories_segments":[],"categories_sizes":[],"default_left":[1,0,0],"id":146,"left_children":[1,-1,-1],"loss_changes":[4.4711447E-1,0E0,0E0],"parents":[2147483647,0,0],"right_children":[2,-1,-1],"split_conditions":[1.75E1,-1.0895131E-1,7.3512785E-2],"split_indices":[80,0,0],"split_type":[0,0,0],"sum_hessian":[3.5207455E0,2.5192788E0,1.0014668E0],"tree_param":{"num_deleted":"0","num_feature":"155","num_nodes":"3","size_leaf_vector":"0"}},{"base_weights":[-1.7409028E-1,-3.6320996E-1,2.4532537E-1],"categories":[],"categories_nodes":[],"categories_segments":[],"categories_sizes":[],"default_left":[1,0,0],"id":147,"left_children":[1,-1,-1],"loss_changes":[4.4752622E-1,0E0,0E0],"parents":[2147483647,0,0],"right_children":[2,-1,-1],"split_conditions":[1.445E2,-1.0896299E-1,7.359762E-2],"split_indices":[28,0,0],"split_type":[0,0,0],"sum_hessian":[3.5186927E0,2.5175211E0,1.0011717E0],"tree_param":{"num_deleted":"0","num_feature":"155","num_nodes":"3","size_leaf_vector":"0"}},{"base_weights":[1.207032E-2,-3.6737567E-1,6.331797E-1],"categories":[],"categories_nodes":[],"categories_segments":[],"categories_sizes":[],"default_left":[1,0,0],"id":148,"left_children":[1,-1,-1],"loss_changes":[1.3677719E0,0E0,0E0],"parents":[2147483647,0,0],"right_children":[2,-1,-1],"split_conditions":[2.65E1,-1.10212706E-1,1.8995392E-1],"split_indices":[72,0,0],"split_type":[0,0,0],"sum_hessian":[3.8165703E0,2.6227846E0,1.1937854E0],"tree_param":{"num_deleted":"0","num_feature":"155","num_nodes":"3","size_leaf_vector":"0"}},{"base_weights":[1.3144005E-2,-3.6842832E-1,6.5103513E-1],"categories":[],"categories_nodes":[],"categories_segments":[],"categories_sizes":[],"default_left":[1,0,0],"id":149,"left_children":[1,-1,-1],"loss_changes":[1.4100975E0,0E0,0E0],"parents":[2147483647,0,0],"right_children":[2,-1,-1],"split_conditions":[2.75E1,-1.105285E-1,1.9531055E-1],"split_indices":[24,0,0],"split_type":[0,0,0],"sum_hessian":[3.8078475E0,2.6469364E0,1.1609111E0],"tree_param":{"num_deleted":"0","num_feature":"155","num_nodes":"3","size_leaf_vector":"0"}},{"base_weights":[1.6002779E-1,-3.6549318E-1,8.002904E-1],"categories":[],"categories_nodes":[],"categories_segments":[],"categories_sizes":[],"default_left":[1,