{"learner":{"attributes":{"best_iteration":"99","best_ntree_limit":"100","scikit_learn":"{\"use_label_encoder\": null, \"n_estimators\": 100, \"objective\": \"multi:softprob\", \"max_depth\": null, \"max_leaves\": null, \"max_bin\": null, \"grow_policy\": null, \"learning_rate\": null, \"verbosity\": null, \"booster\": null, \"tree_method\": null, \"gamma\": null, \"min_child_weight\": null, \"max_delta_step\": null, \"subsample\": null, \"sampling_method\": null, \"colsample_bytree\": null, \"colsample_bylevel\": null, \"colsample_bynode\": null, \"reg_alpha\": null, \"reg_lambda\": null, \"scale_pos_weight\": null, \"base_score\": null, \"missing\": NaN, \"num_parallel_tree\": null, \"random_state\": null, \"n_jobs\": null, \"monotone_constraints\": null, \"interaction_constraints\": null, \"importance_type\": null, \"gpu_id\": null, \"validate_parameters\": null, \"predictor\": null, \"enable_categorical\": false, \"feature_types\": null, \"max_cat_to_onehot\": null, \"max_cat_threshold\": null, \"eval_metric\": null, \"early_stopping_rounds\": null, \"callbacks\": null, \"classes_\": [0, 1, 2, 3, 4, 5, 6, 7, 8, 9, 10, 11, 12, 13, 14, 15, 16, 17, 18, 19, 20, 21, 22, 23, 24, 25, 26, 27, 28, 29], \"n_classes_\": 30, \"_estimator_type\": \"classifier\"}"},"feature_names":[],"feature_types":[],"gradient_booster":{"model":{"gbtree_model_param":{"num_parallel_tree":"1","num_trees":"3000","size_leaf_vector":"0"},"tree_info":[0,1,2,3,4,5,6,7,8,9,10,11,12,13,14,15,16,17,18,19,20,21,22,23,24,25,26,27,28,29,0,1,2,3,4,5,6,7,8,9,10,11,12,13,14,15,16,17,18,19,20,21,22,23,24,25,26,27,28,29,0,1,2,3,4,5,6,7,8,9,10,11,12,13,14,15,16,17,18,19,20,21,22,23,24,25,26,27,28,29,0,1,2,3,4,5,6,7,8,9,10,11,12,13,14,15,16,17,18,19,20,21,22,23,24,25,26,27,28,29,0,1,2,3,4,5,6,7,8,9,10,11,12,13,14,15,16,17,18,19,20,21,22,23,24,25,26,27,28,29,0,1,2,3,4,5,6,7,8,9,10,11,12,13,14,15,16,17,18,19,20,21,22,23,24,25,26,27,28,29,0,1,2,3,4,5,6,7,8,9,10,11,12,13,14,15,16,17,18,19,20,21,22,23,24,25,26,27,28,29,0,1,2,3,4,5,6,7,8,9,10,11,12,13,14,15,16,17,18,19,20,21,22,23,24,25,26,27,28,29,0,1,2,3,4,5,6,7,8,9,10,11,12,13,14,15,16,17,18,19,20,21,22,23,24,25,26,27,28,29,0,1,2,3,4,5,6,7,8,9,10,11,12,13,14,15,16,17,18,19,20,21,22,23,24,25,26,27,28,29,0,1,2,3,4,5,6,7,8,9,10,11,12,13,14,15,16,17,18,19,20,21,22,23,24,25,26,27,28,29,0,1,2,3,4,5,6,7,8,9,10,11,12,13,14,15,16,17,18,19,20,21,22,23,24,25,26,27,28,29,0,1,2,3,4,5,6,7,8,9,10,11,12,13,14,15,16,17,18,19,20,21,22,23,24,25,26,27,28,29,0,1,2,3,4,5,6,7,8,9,10,11,12,13,14,15,16,17,18,19,20,21,22,23,24,25,26,27,28,29,0,1,2,3,4,5,6,7,8,9,10,11,12,13,14,15,16,17,18,19,20,21,22,23,24,25,26,27,28,29,0,1,2,3,4,5,6,7,8,9,10,11,12,13,14,15,16,17,18,19,20,21,22,23,24,25,26,27,28,29,0,1,2,3,4,5,6,7,8,9,10,11,12,13,14,15,16,17,18,19,20,21,22,23,24,25,26,27,28,29,0,1,2,3,4,5,6,7,8,9,10,11,12,13,14,15,16,17,18,19,20,21,22,23,24,25,26,27,28,29,0,1,2,3,4,5,6,7,8,9,10,11,12,13,14,15,16,17,18,19,20,21,22,23,24,25,26,27,28,29,0,1,2,3,4,5,6,7,8,9,10,11,12,13,14,15,16,17,18,19,20,21,22,23,24,25,26,27,28,29,0,1,2,3,4,5,6,7,8,9,10,11,12,13,14,15,16,17,18,19,20,21,22,23,24,25,26,27,28,29,0,1,2,3,4,5,6,7,8,9,10,11,12,13,14,15,16,17,18,19,20,21,22,23,24,25,26,27,28,29,0,1,2,3,4,5,6,7,8,9,10,11,12,13,14,15,16,17,18,19,20,21,22,23,24,25,26,27,28,29,0,1,2,3,4,5,6,7,8,9,10,11,12,13,14,15,16,17,18,19,20,21,22,23,24,25,26,27,28,29,0,1,2,3,4,5,6,7,8,9,10,11,12,13,14,15,16,17,18,19,20,21,22,23,24,25,26,27,28,29,0,1,2,3,4,5,6,7,8,9,10,11,12,13,14,15,16,17,18,19,20,21,22,23,24,25,26,27,28,29,0,1,2,3,4,5,6,7,8,9,10,11,12,13,14,15,16,17,18,19,20,21,22,23,24,25,26,27,28,29,0,1,2,3,4,5,6,7,8,9,10,11,12,13,14,15,16,17,18,19,20,21,22,23,24,25,26,27,28,29,0,1,2,3,4,5,6,7,8,9,10,11,12,13,14,15,16,17,18,19,20,21,22,23,24,25,26,27,28,29,0,1,2,3,4,5,6,7,8,9,10,11,12,13,14,15,16,17,18,19,20,21,22,23,24,25,26,27,28,29,0,1,2,3,4,5,6,7,8,9,10,11,12,13,14,15,16,17,18,19,20,21,22,23,24,25,26,27,28,29,0,1,2,3,4,5,6,7,8,9,10,11,12,13,14,15,16,17,18,19,20,21,22,23,24,25,26,27,28,29,0,1,2,3,4,5,6,7,8,9,10,11,12,13,14,15,16,17,18,19,20,21,22,23,24,25,26,27,28,29,0,1,2,3,4,5,6,7,8,9,10,11,12,13,14,15,16,17,18,19,20,21,22,23,24,25,26,27,28,29,0,1,2,3,4,5,6,7,8,9,10,11,12,13,14,15,16,17,18,19,20,21,22,23,24,25,26,27,28,29,0,1,2,3,4,5,6,7,8,9,10,11,12,13,14,15,16,17,18,19,20,21,22,23,24,25,26,27,28,29,0,1,2,3,4,5,6,7,8,9,10,11,12,13,14,15,16,17,18,19,20,21,22,23,24,25,26,27,28,29,0,1,2,3,4,5,6,7,8,9,10,11,12,13,14,15,16,17,18,19,20,21,22,23,24,25,26,27,28,29,0,1,2,3,4,5,6,7,8,9,10,11,12,13,14,15,16,17,18,19,20,21,22,23,24,25,26,27,28,29,0,1,2,3,4,5,6,7,8,9,10,11,12,13,14,15,16,17,18,19,20,21,22,23,24,25,26,27,28,29,0,1,2,3,4,5,6,7,8,9,10,11,12,13,14,15,16,17,18,19,20,21,22,23,24,25,26,27,28,29,0,1,2,3,4,5,6,7,8,9,10,11,12,13,14,15,16,17,18,19,20,21,22,23,24,25,26,27,28,29,0,1,2,3,4,5,6,7,8,9,10,11,12,13,14,15,16,17,18,19,20,21,22,23,24,25,26,27,28,29,0,1,2,3,4,5,6,7,8,9,10,11,12,13,14,15,16,17,18,19,20,21,22,23,24,25,26,27,28,29,0,1,2,3,4,5,6,7,8,9,10,11,12,13,14,15,16,17,18,19,20,21,22,23,24,25,26,27,28,29,0,1,2,3,4,5,6,7,8,9,10,11,12,13,14,15,16,17,18,19,20,21,22,23,24,25,26,27,28,29,0,1,2,3,4,5,6,7,8,9,10,11,12,13,14,15,16,17,18,19,20,21,22,23,24,25,26,27,28,29,0,1,2,3,4,5,6,7,8,9,10,11,12,13,14,15,16,17,18,19,20,21,22,23,24,25,26,27,28,29,0,1,2,3,4,5,6,7,8,9,10,11,12,13,14,15,16,17,18,19,20,21,22,23,24,25,26,27,28,29,0,1,2,3,4,5,6,7,8,9,10,11,12,13,14,15,16,17,18,19,20,21,22,23,24,25,26,27,28,29,0,1,2,3,4,5,6,7,8,9,10,11,12,13,14,15,16,17,18,19,20,21,22,23,24,25,26,27,28,29,0,1,2,3,4,5,6,7,8,9,10,11,12,13,14,15,16,17,18,19,20,21,22,23,24,25,26,27,28,29,0,1,2,3,4,5,6,7,8,9,10,11,12,13,14,15,16,17,18,19,20,21,22,23,24,25,26,27,28,29,0,1,2,3,4,5,6,7,8,9,10,11,12,13,14,15,16,17,18,19,20,21,22,23,24,25,26,27,28,29,0,1,2,3,4,5,6,7,8,9,10,11,12,13,14,15,16,17,18,19,20,21,22,23,24,25,26,27,28,29,0,1,2,3,4,5,6,7,8,9,10,11,12,13,14,15,16,17,18,19,20,21,22,23,24,25,26,27,28,29,0,1,2,3,4,5,6,7,8,9,10,11,12,13,14,15,16,17,18,19,20,21,22,23,24,25,26,27,28,29,0,1,2,3,4,5,6,7,8,9,10,11,12,13,14,15,16,17,18,19,20,21,22,23,24,25,26,27,28,29,0,1,2,3,4,5,6,7,8,9,10,11,12,13,14,15,16,17,18,19,20,21,22,23,24,25,26,27,28,29,0,1,2,3,4,5,6,7,8,9,10,11,12,13,14,15,16,17,18,19,20,21,22,23,24,25,26,27,28,29,0,1,2,3,4,5,6,7,8,9,10,11,12,13,14,15,16,17,18,19,20,21,22,23,24,25,26,27,28,29,0,1,2,3,4,5,6,7,8,9,10,11,12,13,14,15,16,17,18,19,20,21,22,23,24,25,26,27,28,29,0,1,2,3,4,5,6,7,8,9,10,11,12,13,14,15,16,17,18,19,20,21,22,23,24,25,26,27,28,29,0,1,2,3,4,5,6,7,8,9,10,11,12,13,14,15,16,17,18,19,20,21,22,23,24,25,26,27,28,29,0,1,2,3,4,5,6,7,8,9,10,11,12,13,14,15,16,17,18,19,20,21,22,23,24,25,26,27,28,29,0,1,2,3,4,5,6,7,8,9,10,11,12,13,14,15,16,17,18,19,20,21,22,23,24,25,26,27,28,29,0,1,2,3,4,5,6,7,8,9,10,11,12,13,14,15,16,17,18,19,20,21,22,23,24,25,26,27,28,29,0,1,2,3,4,5,6,7,8,9,10,11,12,13,14,15,16,17,18,19,20,21,22,23,24,25,26,27,28,29,0,1,2,3,4,5,6,7,8,9,10,11,12,13,14,15,16,17,18,19,20,21,22,23,24,25,26,27,28,29,0,1,2,3,4,5,6,7,8,9,10,11,12,13,14,15,16,17,18,19,20,21,22,23,24,25,26,27,28,29,0,1,2,3,4,5,6,7,8,9,10,11,12,13,14,15,16,17,18,19,20,21,22,23,24,25,26,27,28,29,0,1,2,3,4,5,6,7,8,9,10,11,12,13,14,15,16,17,18,19,20,21,22,23,24,25,26,27,28,29,0,1,2,3,4,5,6,7,8,9,10,11,12,13,14,15,16,17,18,19,20,21,22,23,24,25,26,27,28,29,0,1,2,3,4,5,6,7,8,9,10,11,12,13,14,15,16,17,18,19,20,21,22,23,24,25,26,27,28,29,0,1,2,3,4,5,6,7,8,9,10,11,12,13,14,15,16,17,18,19,20,21,22,23,24,25,26,27,28,29,0,1,2,3,4,5,6,7,8,9,10,11,12,13,14,15,16,17,18,19,20,21,22,23,24,25,26,27,28,29,0,1,2,3,4,5,6,7,8,9,10,11,12,13,14,15,16,17,18,19,20,21,22,23,24,25,26,27,28,29,0,1,2,3,4,5,6,7,8,9,10,11,12,13,14,15,16,17,18,19,20,21,22,23,24,25,26,27,28,29,0,1,2,3,4,5,6,7,8,9,10,11,12,13,14,15,16,17,18,19,20,21,22,23,24,25,26,27,28,29,0,1,2,3,4,5,6,7,8,9,10,11,12,13,14,15,16,17,18,19,20,21,22,23,24,25,26,27,28,29,0,1,2,3,4,5,6,7,8,9,10,11,12,13,14,15,16,17,18,19,20,21,22,23,24,25,26,27,28,29,0,1,2,3,4,5,6,7,8,9,10,11,12,13,14,15,16,17,18,19,20,21,22,23,24,25,26,27,28,29,0,1,2,3,4,5,6,7,8,9,10,11,12,13,14,15,16,17,18,19,20,21,22,23,24,25,26,27,28,29,0,1,2,3,4,5,6,7,8,9,10,11,12,13,14,15,16,17,18,19,20,21,22,23,24,25,26,27,28,29,0,1,2,3,4,5,6,7,8,9,10,11,12,13,14,15,16,17,18,19,20,21,22,23,24,25,26,27,28,29,0,1,2,3,4,5,6,7,8,9,10,11,12,13,14,15,16,17,18,19,20,21,22,23,24,25,26,27,28,29,0,1,2,3,4,5,6,7,8,9,10,11,12,13,14,15,16,17,18,19,20,21,22,23,24,25,26,27,28,29,0,1,2,3,4,5,6,7,8,9,10,11,12,13,14,15,16,17,18,19,20,21,22,23,24,25,26,27,28,29,0,1,2,3,4,5,6,7,8,9,10,11,12,13,14,15,16,17,18,19,20,21,22,23,24,25,26,27,28,29,0,1,2,3,4,5,6,7,8,9,10,11,12,13,14,15,16,17,18,19,20,21,22,23,24,25,26,27,28,29,0,1,2,3,4,5,6,7,8,9,10,11,12,13,14,15,16,17,18,19,20,21,22,23,24,25,26,27,28,29,0,1,2,3,4,5,6,7,8,9,10,11,12,13,14,15,16,17,18,19,20,21,22,23,24,25,26,27,28,29,0,1,2,3,4,5,6,7,8,9,10,11,12,13,14,15,16,17,18,19,20,21,22,23,24,25,26,27,28,29,0,1,2,3,4,5,6,7,8,9,10,11,12,13,14,15,16,17,18,19,20,21,22,23,24,25,26,27,28,29,0,1,2,3,4,5,6,7,8,9,10,11,12,13,14,15,16,17,18,19,20,21,22,23,24,25,26,27,28,29,0,1,2,3,4,5,6,7,8,9,10,11,12,13,14,15,16,17,18,19,20,21,22,23,24,25,26,27,28,29,0,1,2,3,4,5,6,7,8,9,10,11,12,13,14,15,16,17,18,19,20,21,22,23,24,25,26,27,28,29,0,1,2,3,4,5,6,7,8,9,10,11,12,13,14,15,16,17,18,19,20,21,22,23,24,25,26,27,28,29,0,1,2,3,4,5,6,7,8,9,10,11,12,13,14,15,16,17,18,19,20,21,22,23,24,25,26,27,28,29,0,1,2,3,4,5,6,7,8,9,10,11,12,13,14,15,16,17,18,19,20,21,22,23,24,25,26,27,28,29],"trees":[{"base_weights":[-1.4251785E-1,8.148043E-1,-4.9280992E-1,-4.404487E-1,4.3518515E0],"categories":[],"categories_nodes":[],"categories_segments":[],"categories_sizes":[],"default_left":[1,1,0,0,0],"id":0,"left_children":[1,3,-1,-1,-1],"loss_changes":[9.813487E0,3.6972157E1,0E0,0E0,0E0],"parents":[2147483647,0,0,1,1],"right_children":[2,4,-1,-1,-1],"split_conditions":[4.75E1,4.75E1,-1.4784299E-1,-1.3213462E-1,1.3055555E0],"split_indices":[158,247,0,0,0],"split_type":[0,0,0,0,0],"sum_hessian":[2.7066668E1,6.8955555E0,2.0171112E1,5.7355556E0,1.16E0],"tree_param":{"num_deleted":"0","num_feature":"250","num_nodes":"5","size_leaf_vector":"0"}},{"base_weights":[-1.4251785E-1,1.9381005E-1,-4.8100874E-1,-4.7799698E-1,3.5106382E0],"categories":[],"categories_nodes":[],"categories_segments":[],"categories_sizes":[],"default_left":[1,1,0,0,0],"id":1,"left_children":[1,3,-1,-1,-1],"loss_changes":[3.288444E0,3.463664E1,0E0,0E0,0E0],"parents":[2147483647,0,0,1,1],"right_children":[2,4,-1,-1,-1],"split_conditions":[7.25E1,6.65E1,-1.4430262E-1,-1.433991E-1,1.0531915E0],"split_indices":[173,51,0,0,0],"split_type":[0,0,0,0,0],"sum_hessian":[2.7066668E1,1.3791111E1,1.3275556E1,1.218E1,1.6111112E0],"tree_param":{"num_deleted":"0","num_feature":"250","num_nodes":"5","size_leaf_vector":"0"}},{"base_weights":[-1.4251785E-1,1.0903531E0,-4.9427783E-1,-3.328051E-1,1.7026266E0,5.524079E-1,1.9993433E0],"categories":[],"categories_nodes":[],"categories_segments":[],"categories_sizes":[],"default_left":[1,1,0,0,1,0,0],"id":2,"left_children":[1,3,-1,-1,5,-1,-1],"loss_changes":[1.2710741E1,6.2672873E0,0E0,0E0,5.124979E-1,0E0,0E0],"parents":[2147483647,0,0,1,1,4,4],"right_children":[2,4,-1,-1,6,-1,-1],"split_conditions":[4.25E1,2.75E1,-1.4828336E-1,-9.9841535E-2,3.05E1,1.6572239E-1,5.9980303E-1],"split_indices":[160,171,0,0,199,0,0],"split_type":[0,0,0,0,0,0,0],"sum_hessian":[2.7066668E1,5.5422225E0,2.1524445E1,1.8044444E0,3.7377777E0,1.3533334E0,2.3844445E0],"tree_param":{"num_deleted":"0","num_feature":"250","num_nodes":"7","size_leaf_vector":"0"}},{"base_weights":[5.700712E-1,2.4529232E-1,4.3518515E0,9.26505E-1,-4.794743E-1,2.8072834E-1,4.6608315E0,1.4605098E0,-4.5887664E-1,-3.9657855E-1,4.6608315E0],"categories":[],"categories_nodes":[],"categories_segments":[],"categories_sizes":[],"default_left":[1,1,0,1,0,1,0,1,0,0,0],"id":3,"left_children":[1,3,-1,5,-1,7,-1,9,-1,-1,-1],"loss_changes":[3.340519E1,1.37286005E1,0E0,3.296225E1,0E0,1.2170696E1,0E0,3.3453426E1,0E0,0E0,0E0],"parents":[2147483647,0,0,1,1,3,3,5,5,7,7],"right_children":[2,4,-1,6,-1,8,-1,10,-1,-1,-1],"split_conditions":[2.895E2,6.85E1,1.3055555E0,6.65E1,-1.438423E-1,4.25E1,1.3982495E0,3.35E1,-1.3766299E-1,-1.1897357E-1,1.3982495E0],"split_indices":[37,128,0,2,0,203,0,0,0,0,0],"split_type":[0,0,0,0,0,0,0,0,0,0,0],"sum_hessian":[2.7066668E1,2.5906668E1,1.16E0,1.3211111E1,1.2695556E1,1.218E1,1.0311111E0,4.3177776E0,7.862222E0,3.2866666E0,1.0311111E0],"tree_param":{"num_deleted":"0","num_feature":"250","num_nodes":"11","size_leaf_vector":"0"}},{"base_weights":[-1.4251785E-1,4.994629E-1,-4.8961428E-1,-4.613167E-1,4.5015907E0],"categories":[],"categories_nodes":[],"categories_segments":[],"categories_sizes":[],"default_left":[1,1,0,0,0],"id":4,"left_children":[1,3,-1,-1,-1],"loss_changes":[6.4986167E0,4.1852726E1,0E0,0E0,0E0],"parents":[2147483647,0,0,1,1],"right_children":[2,4,-1,-1,-1],"split_conditions":[5.65E1,5.75E1,-1.4688429E-1,-1.3839501E-1,1.3504772E0],"split_indices":[103,138,0,0,0],"split_type":[0,0,0,0,0],"sum_hessian":[2.7066668E1,9.344444E0,1.7722223E1,8.248889E0,1.0955555E0],"tree_param":{"num_deleted":"0","num_feature":"250","num_nodes":"5","size_leaf_vector":"0"}},{"base_weights":[9.2636573E-1,2.734684E-1,2.18522E0,6.375061E-1,-4.4526905E-1,4.0593863E0,-4.1095892E-1,-7.0219696E-2,4.5015907E0,2.4572127E0,5.645514E0,1.0248446E0,-4.642695E-1,4.5015907E0,5.0257725E-1,-3.1413615E-1,2.1991246E0,-3.0330884E-1,1.2144419E0],"categories":[],"categories_nodes":[],"categories_segments":[],"categories_sizes":[],"default_left":[1,1,1,1,0,1,0,1,0,1,0,1,0,0,1,0,0,0,0],"id":5,"left_children":[1,3,5,7,-1,9,-1,11,-1,13,-1,15,-1,-1,17,-1,-1,-1,-1],"loss_changes":[2.2470474E1,5.4185495E0,4.761098E1,3.7064552E1,0E0,2.9666138E-1,0E0,5.8015943E0,0E0,1.5897263E1,0E0,6.316301E0,0E0,0E0,2.346916E0,0E0,0E0,0E0,0E0],"parents":[2147483647,0,0,1,1,2,2,3,3,5,5,7,7,9,9,11,11,14,14],"right_children":[2,4,6,8,-1,10,-1,12,-1,14,-1,16,-1,-1,18,-1,-1,-1,-1],"split_conditions":[9.15E1,6.7E1,1.53E2,6.15E1,-1.3358071E-1,1.305E2,-1.2328768E-1,3.05E1,1.3504772E0,9.65E1,1.6936543E0,2.85E1,-1.3928086E-1,1.3504772E0,1.195E2,-9.424085E-2,6.597374E-1,-9.099266E-2,3.643326E-1],"split_indices":[63,121,0,94,0,126,0,38,0,238,0,0,0,0,12,0,0,0,0],"split_type":[0,0,0,0,0,0,0,0,0,0,0,0,0,0,0,0,0,0,0],"sum_hessian":[2.7066668E1,1.8624445E1,8.442223E0,1.24377775E1,6.1866665E0,4.575556E0,3.8666668E0,1.1342222E1,1.0955555E0,3.5444446E0,1.0311111E0,2.5777779E0,8.764444E0,1.0955555E0,2.448889E0,1.5466666E0,1.0311111E0,1.4177778E0,1.0311111E0],"tree_param":{"num_deleted":"0","num_feature":"250","num_nodes":"19","size_leaf_vector":"0"}},{"base_weights":[2.1377668E-1,-4.7628533E-2,1.0592937E0,6.524962E-1,-4.8133293E-1,4.6608315E0,-4.2553192E-1,-4.5226133E-1,4.6608315E0],"categories":[],"categories_nodes":[],"categories_segments":[],"categories_sizes":[],"default_left":[1,1,1,1,0,0,0,0,0],"id":6,"left_children":[1,3,5,7,-1,-1,-1,-1,-1],"loss_changes":[6.2538195E0,7.1144156E0,3.765814E1,4.19227E1,0E0,0E0,0E0,0E0,0E0],"parents":[2147483647,0,0,1,1,2,2,3,3],"right_children":[2,4,6,8,-1,-1,-1,-1,-1],"split_conditions":[1.205E2,5.25E1,1.345E2,5.05E1,-1.4439988E-1,1.3982495E0,-1.2765959E-1,-1.3567841E-1,1.3982495E0],"split_indices":[88,105,0,11,0,0,0,0,0],"split_type":[0,0,0,0,0,0,0,0,0],"sum_hessian":[2.7066668E1,2.1395555E1,5.671111E0,7.9911113E0,1.3404445E1,1.0311111E0,4.64E0,6.96E0,1.0311111E0],"tree_param":{"num_deleted":"0","num_feature":"250","num_nodes":"9","size_leaf_vector":"0"}},{"base_weights":[-1.4251785E-1,3.6067888E-1,-2.750683E-1,-4.1878176E-1,2.1991246E0,-4.8507464E-1,1.990767E-1,2.1991246E0,-4.397069E-1],"categories":[],"categories_nodes":[],"categories_segments":[],"categories_sizes":[],"default_left":[1,1,1,0,0,0,1,0,0],"id":7,"left_children":[1,3,5,-1,-1,-1,7,-1,-1],"loss_changes":[1.9712288E0,9.9265375E0,2.3650723E0,0E0,0E0,0E0,1.0807312E1,0E0,0E0],"parents":[2147483647,0,0,1,1,2,2,6,6],"right_children":[2,4,6,-1,-1,-1,8,-1,-1],"split_conditions":[4.15E1,4.35E1,1.105E2,-1.2563454E-1,6.597374E-1,-1.455224E-1,1.205E2,6.597374E-1,-1.3191207E-1],"split_indices":[149,28,101,0,0,0,11,0,0],"split_type":[0,0,0,0,0,0,0,0,0],"sum_hessian":[2.7066668E1,5.2844443E0,2.1782223E1,4.2533336E0,1.0311111E0,1.508E1,6.7022223E0,1.0311111E0,5.671111E0],"tree_param":{"num_deleted":"0","num_feature":"250","num_nodes":"9","size_leaf_vector":"0"}},{"base_weights":[-1.4251785E-1,-4.934614E-1,9.204131E-1,4.6608315E0,-4.3493637E-1],"categories":[],"categories_nodes":[],"categories_segments":[],"categories_sizes":[],"default_left":[1,0,1,0,0],"id":8,"left_children":[1,-1,3,-1,-1],"loss_changes":[1.0923862E1,0E0,3.9113914E1,0E0,0E0],"parents":[2147483647,0,0,2,2],"right_children":[2,-1,4,-1,-1],"split_conditions":[1.185E2,-1.4803843E-1,1.245E2,1.3982495E0,-1.3048092E-1],"split_indices":[55,0,1,0,0],"split_type":[0,0,0,0,0],"sum_hessian":[2.7066668E1,2.0751112E1,6.3155556E0,1.0311111E0,5.2844443E0],"tree_param":{"num_deleted":"0","num_feature":"250","num_nodes":"5","size_leaf_vector":"0"}},{"base_weights":[2.1377668E-1,-4.8712644E-1,1.2081853E0,7.317073E-1,2.451588E0,1.5612648E0,-9.504289E-2,7.4534154E-1,2.1083257E0,-3.9473686E-1,4.014598E-1,1.7067833E0,-3.1413615E-1],"categories":[],"categories_nodes":[],"categories_segments":[],"categories_sizes":[],"default_left":[1,0,1,1,0,1,1,1,0,0,0,0,0],"id":9,"left_children":[1,-1,3,5,-1,7,9,11,-1,-1,-1,-1,-1],"loss_changes":[2.015056E1,0E0,5.251091E0,7.021996E0,0E0,6.871567E-1,1.0456429E0,4.1805797E0,0E0,0E0,0E0,0E0,0E0],"parents":[2147483647,0,0,2,2,3,3,5,5,6,6,7,7],"right_children":[2,-1,4,6,-1,8,10,12,-1,-1,-1,-1,-1],"split_conditions":[8.45E1,-1.4613794E-1,2.41E2,1.065E2,7.354764E-1,9.05E1,1.685E2,8.2E1,6.324977E-1,-1.1842106E-1,1.2043795E-1,5.12035E-1,-9.424085E-2],"split_indices":[80,0,0,89,0,234,201,1,0,0,0,0,0],"split_type":[0,0,0,0,0,0,0,0,0,0,0,0,0],"sum_hessian":[2.7066668E1,1.6175556E1,1.0891111E1,9.0222225E0,1.8688889E0,4.06E0,4.962222E0,2.5777779E0,1.4822222E0,3.2222223E0,1.74E0,1.0311111E0,1.5466666E0],"tree_param":{"num_deleted":"0","num_feature":"250","num_nodes":"13","size_leaf_vector":"0"}},{"base_weights":[-1.4251785E-1,-4.95981E-1,1.7026266E0,8.174655E-1,2.2521245E0,1.7067833E0,-2.9745045E-1],"categories":[],"categories_nodes":[],"categories_segments":[],"categories_sizes":[],"default_left":[1,0,1,1,0,0,0],"id":10,"left_children":[1,-1,3,5,-1,-1,-1],"loss_changes":[1.9149286E1,0E0,4.633932E-1,3.863409E0,0E0,0E0,0E0],"parents":[2147483647,0,0,2,2,3,3],"right_children":[2,-1,4,6,-1,-1,-1],"split_conditions":[1.645E2,-1.4879431E-1,2.86E2,1.94E2,6.7563736E-1,5.12035E-1,-8.923514E-2],"split_indices":[56,0,0,0,0,0,0],"split_type":[0,0,0,0,0,0,0],"sum_hessian":[2.7066668E1,2.332889E1,3.7377777E0,2.3844445E0,1.3533334E0,1.0311111E0,1.3533334E0],"tree_param":{"num_deleted":"0","num_feature":"250","num_nodes":"7","size_leaf_vector":"0"}},{"base_weights":[2.1377668E-1,-4.6961328E-1,6.096667E-1,3.6125653E0,1.14045575E-1,5.966109E-1,-4.5429963E-1,-4.357718E-1,2.052117E0,3.3116882E0,3.6018586E-1],"categories":[],"categories_nodes":[],"categories_segments":[],"categories_sizes":[],"default_left":[1,0,1,0,1,1,0,0,1,0,0],"id":11,"left_children":[1,-1,3,-1,5,7,-1,-1,9,-1,-1],"loss_changes":[7.879668E0,0E0,2.6684986E1,0E0,4.8402734E0,1.5082513E1,0E0,0E0,7.53051E0,0E0,0E0],"parents":[2147483647,0,0,2,2,4,4,5,5,8,8],"right_children":[2,-1,4,-1,6,8,-1,-1,10,-1,-1],"split_conditions":[5.85E1,-1.40884E-1,6.15E1,1.0837697E0,1.005E2,8.65E1,-1.362899E-1,-1.3073154E-1,9.05E1,9.935065E-1,1.0805576E-1],"split_indices":[128,0,240,0,1,110,0,0,124,0,0],"split_type":[0,0,0,0,0,0,0,0,0,0,0],"sum_hessian":[2.7066668E1,9.86E0,1.7206667E1,1.5466666E0,1.566E1,8.442223E0,7.2177777E0,5.348889E0,3.0933332E0,1.2244445E0,1.8688889E0],"tree_param":{"num_deleted":"0","num_feature":"250","num_nodes":"11","size_leaf_vector":"0"}},{"base_weights":[-1.4251785E-1,5.8906025E-1,-4.9079758E-1,-4.5621398E-1,4.6608315E0],"categories":[],"categories_nodes":[],"categories_segments":[],"categories_sizes":[],"default_left":[1,1,0,0,0],"id":12,"left_children":[1,3,-1,-1,-1],"loss_changes":[7.4403224E0,4.2587826E1,0E0,0E0,0E0],"parents":[2147483647,0,0,1,1],"right_children":[2,4,-1,-1,-1],"split_conditions":[5.3E1,5.25E1,-1.4723928E-1,-1.368642E-1,1.3982495E0],"split_indices":[169,25,0,0,0],"split_type":[0,0,0,0,0],"sum_hessian":[2.7066668E1,8.506667E0,1.856E1,7.4755554E0,1.0311111E0],"tree_param":{"num_deleted":"0","num_feature":"250","num_nodes":"5","size_leaf_vector":"0"}},{"base_weights":[-1.4251785E-1,5.2544606E-1,-4.899895E-1,-4.59298E-1,4.3518515E0],"categories":[],"categories_nodes":[],"categories_segments":[],"categories_sizes":[],"default_left":[1,1,0,0,0],"id":13,"left_children":[1,3,-1,-1,-1],"loss_changes":[6.7716947E0,4.000566E1,0E0,0E0,0E0],"parents":[2147483647,0,0,1,1],"right_children":[2,4,-1,-1,-1],"split_conditions":[5.55E1,5.95E1,-1.4699686E-1,-1.3778941E-1,1.3055555E0],"split_indices":[232,167,0,0,0],"split_type":[0,0,0,0,0],"sum_hessian":[2.7066668E1,9.086667E0,1.798E1,7.9266667E0,1.16E0],"tree_param":{"num_deleted":"0","num_feature":"250","num_nodes":"5","size_leaf_vector":"0"}},{"base_weights":[-1.4251785E-1,-4.96636E-1,2.1356502E0,4.6608315E0,-3.409091E-1],"categories":[],"categories_nodes":[],"categories_segments":[],"categories_sizes":[],"default_left":[1,0,1,0,0],"id":14,"left_children":[1,-1,3,-1,-1],"loss_changes":[2.3703163E1,0E0,2.6381605E1,0E0,0E0],"parents":[2147483647,0,0,2,2],"right_children":[2,-1,4,-1,-1],"split_conditions":[1.905E2,-1.4899081E-1,2.215E2,1.3982495E0,-1.02272734E-1],"split_indices":[59,0,0,0,0],"split_type":[0,0,0,0,0],"sum_hessian":[2.7066668E1,2.4102222E1,2.9644444E0,1.0311111E0,1.9333334E0],"tree_param":{"num_deleted":"0","num_feature":"250","num_nodes":"5","size_leaf_vector":"0"}},{"base_weights":[-1.4251785E-1,1.436829E0,-4.9540254E-1,-3.983657E-1,4.6608315E0],"categories":[],"categories_nodes":[],"categories_segments":[],"categories_sizes":[],"default_left":[1,1,0,0,0],"id":15,"left_children":[1,3,-1,-1,-1],"loss_changes":[1.6354128E1,3.370156E1,0E0,0E0,0E0],"parents":[2147483647,0,0,1,1],"right_children":[2,4,-1,-1,-1],"split_conditions":[3.85E1,3.65E1,-1.4862077E-1,-1.1950972E-1,1.3982495E0],"split_indices":[126,0,0,0,0],"split_type":[0,0,0,0,0],"sum_hessian":[2.7066668E1,4.382222E0,2.2684444E1,3.3511112E0,1.0311111E0],"tree_param":{"num_deleted":"0","num_feature":"250","num_nodes":"5","size_leaf_vector":"0"}},{"base_weights":[-1.4251785E-1,2.224797E0,-4.9674127E-1,-3.328051E-1,4.6608315E0],"categories":[],"categories_nodes":[],"categories_segments":[],"categories_sizes":[],"default_left":[1,1,0,0,0],"id":16,"left_children":[1,3,-1,-1,-1],"loss_changes":[2.4640686E1,2.5448221E1,0E0,0E0,0E0],"parents":[2147483647,0,0,1,1],"right_children":[2,4,-1,-1,-1],"split_conditions":[2.95E1,2.95E1,-1.4902239E-1,-9.9841535E-2,1.3982495E0],"split_indices":[140,36,0,0,0],"split_type":[0,0,0,0,0],"sum_hessian":[2.7066668E1,2.8355556E0,2.4231112E1,1.8044444E0,1.0311111E0],"tree_param":{"num_deleted":"0","num_feature":"250","num_nodes":"5","size_leaf_vector":"0"}},{"base_weights":[-1.4251785E-1,3.0484623E-1,-4.854568E-1,-4.732666E-1,4.6608315E0],"categories":[],"categories_nodes":[],"categories_segments":[],"categories_sizes":[],"default_left":[1,1,0,0,0],"id":17,"left_children":[1,3,-1,-1,-1],"loss_changes":[4.4539375E0,4.5568153E1,0E0,0E0,0E0],"parents":[2147483647,0,0,1,1],"right_children":[2,4,-1,-1,-1],"split_conditions":[6.35E1,6.15E1,-1.4563705E-1,-1.4197999E-1,1.3982495E0],"split_indices":[31,60,0,0,0],"split_type":[0,0,0,0,0],"sum_hessian":[2.7066668E1,1.1793333E1,1.5273334E1,1.0762222E1,1.0311111E0],"tree_param":{"num_deleted":"0","num_feature":"250","num_nodes":"5","size_leaf_vector":"0"}},{"base_weights":[2.1377668E-1,7.001582E-1,-4.7489086E-1,-1.6129035E-1,6.076487E0,2.1991246E0,-4.8149288E-1],"categories":[],"categories_nodes":[],"categories_segments":[],"categories_sizes":[],"default_left":[1,1,0,1,0,0,0],"id":18,"left_children":[1,3,-1,5,-1,-1,-1],"loss_changes":[9.733572E0,7.903513E1,0E0,1.2773931E1,0E0,0E0,0E0],"parents":[2147483647,0,0,1,1,3,3],"right_children":[2,4,-1,6,-1,-1,-1],"split_conditions":[8.35E1,7.85E1,-1.4246726E-1,2.45E1,1.8229462E0,6.597374E-1,-1.4444786E-1],"split_indices":[123,9,0,9,0,0,0],"split_type":[0,0,0,0,0,0,0],"sum_hessian":[2.7066668E1,1.5853333E1,1.1213333E1,1.45E1,1.3533334E0,1.0311111E0,1.3468889E1],"tree_param":{"num_deleted":"0","num_feature":"250","num_nodes":"7","size_leaf_vector":"0"}},{"base_weights":[2.1377668E-1,7.9687495E0,-4.978319E-1],"categories":[],"categories_nodes":[],"categories_segments":[],"categories_sizes":[],"default_left":[1,0,0],"id":19,"left_children":[1,-1,-1],"loss_changes":[1.5885316E2,0E0,0E0],"parents":[2147483647,0,0],"right_children":[2,-1,-1],"split_conditions":[2.45E1,2.390625E0,-1.4934959E-1],"split_indices":[148,0,0],"split_type":[0,0,0],"sum_hessian":[2.7066668E1,1.4177778E0,2.564889E1],"tree_param":{"num_deleted":"0","num_feature":"250","num_nodes":"3","size_leaf_vector":"0"}},{"base_weights":[5.700712E-1,-4.8272285E-1,1.6498342E0,6.4103923E0,7.546201E-1,-3.3404887E-1,2.2029605E0,2.2975928E-1,-4.459087E-1,4.6590066E0,-3.7769786E-1],"categories":[],"categories_nodes":[],"categories_segments":[],"categories_sizes":[],"default_left":[1,0,1,0,1,1,1,0,0,0,0],"id":20,"left_children":[1,-1,3,-1,5,7,9,-1,-1,-1,-1],"loss_changes":[3.2701702E1,0E0,5.517707E1,0E0,2.1212795E1,6.247908E-1,3.7915703E1,0E0,0E0,0E0,0E0],"parents":[2147483647,0,0,2,2,4,4,5,5,6,6],"right_children":[2,-1,4,-1,6,8,10,-1,-1,-1,-1],"split_conditions":[7.35E1,-1.4481686E-1,7.95E1,1.9231178E0,1.325E2,8.4E1,1.905E2,6.892779E-2,-1.3377261E-1,1.397702E0,-1.1330936E-1],"split_indices":[170,0,25,0,166,1,239,0,0,0,0],"split_type":[0,0,0,0,0,0,0,0,0,0,0],"sum_hessian":[2.7066668E1,1.3984445E1,1.3082222E1,1.0955555E0,1.1986667E1,7.2822223E0,4.7044444E0,1.0311111E0,6.251111E0,1.9977778E0,2.7066667E0],"tree_param":{"num_deleted":"0","num_feature":"250","num_nodes":"11","size_leaf_vector":"0"}},{"base_weights":[-1.4251785E-1,1.4137086E0,-4.9534294E-1,-4.0010068E-1,4.6608315E0],"categories":[],"categories_nodes":[],"categories_segments":[],"categories_sizes":[],"default_left":[1,1,0,0,0],"id":21,"left_children":[1,3,-1,-1,-1],"loss_changes":[1.6110996E1,3.3943825E1,0E0,0E0,0E0],"parents":[2147483647,0,0,1,1],"right_children":[2,4,-1,-1,-1],"split_conditions":[4.05E1,3.7E1,-1.4860289E-1,-1.2003021E-1,1.3982495E0],"split_indices":[96,0,0,0,0],"split_type":[0,0,0,0,0],"sum_hessian":[2.7066668E1,4.4466667E0,2.262E1,3.4155555E0,1.0311111E0],"tree_param":{"num_deleted":"0","num_feature":"250","num_nodes":"5","size_leaf_vector":"0"}},{"base_weights":[-1.4251785E-1,1.0006413E0,-4.9387676E-1,-4.2954034E-1,4.6608315E0],"categories":[],"categories_nodes":[],"categories_segments":[],"categories_sizes":[],"default_left":[1,1,0,0,0],"id":22,"left_children":[1,3,-1,-1,-1],"loss_changes":[1.1767428E1,3.8272926E1,0E0,0E0,0E0],"parents":[2147483647,0,0,1,1],"right_children":[2,4,-1,-1,-1],"split_conditions":[4.85E1,4.7E1,-1.4816304E-1,-1.2886211E-1,1.3982495E0],"split_indices":[243,1,0,0,0],"split_type":[0,0,0,0,0],"sum_hessian":[2.7066668E1,5.928889E0,2.1137777E1,4.897778E0,1.0311111E0],"tree_param":{"num_deleted":"0","num_feature":"250","num_nodes":"5","size_leaf_vector":"0"}},{"base_weights":[-1.4251785E-1,-3.1316787E-1,2.1991246E0,-4.9172243E-1,1.9313301E-1,2.1991246E0,-4.404487E-1],"categories":[],"categories_nodes":[],"categories_segments":[],"categories_sizes":[],"default_left":[1,1,0,0,1,0,0],"id":23,"left_children":[1,3,-1,-1,5,-1,-1],"loss_changes":[1.1904173E1,2.5390453E0,0E0,0E0,1.0839721E1,0E0,0E0],"parents":[2147483647,0,0,1,1,4,4],"right_children":[2,4,-1,-1,6,-1,-1],"split_conditions":[2.965E2,9.5E1,6.597374E-1,-1.4751674E-1,1.055E2,6.597374E-1,-1.3213462E-1],"split_indices":[0,128,0,0,0,0,0],"split_type":[0,0,0,0,0,0,0],"sum_hessian":[2.7066668E1,2.6035555E1,1.0311111E0,1.9268888E1,6.766667E0,1.0311111E0,5.7355556E0],"tree_param":{"num_deleted":"0","num_feature":"250","num_nodes":"7","size_leaf_vector":"0"}},{"base_weights":[-1.4251785E-1,-4.8989663E-1,5.1882654E-1,4.6608315E0,-4.6052635E-1],"categories":[],"categories_nodes":[],"categories_segments":[],"categories_sizes":[],"default_left":[1,0,1,0,0],"id":24,"left_children":[1,-1,3,-1,-1],"loss_changes":[6.702123E0,0E0,4.332426E1,0E0,0E0],"parents":[2147483647,0,0,2,2],"right_children":[2,-1,4,-1,-1],"split_conditions":[9.15E1,-1.4696899E-1,9.65E1,1.3982495E0,-1.381579E-1],"split_indices":[170,0,3,0,0],"split_type":[0,0,0,0,0],"sum_hessian":[2.7066668E1,1.7915556E1,9.151112E0,1.0311111E0,8.12E0],"tree_param":{"num_deleted":"0","num_feature":"250","num_nodes":"5","size_leaf_vector":"0"}},{"base_weights":[-1.4251785E-1,-4.908844E-1,5.966109E-1,4.6608315E0,-4.5574638E-1],"categories":[],"categories_nodes":[],"categories_segments":[],"categories_sizes":[],"default_left":[1,0,1,0,0],"id":25,"left_children":[1,-1,3,-1,-1],"loss_changes":[7.51969E0,0E0,4.2508656E1,0E0,0E0],"parents":[2147483647,0,0,2,2],"right_children":[2,-1,4,-1,-1],"split_conditions":[9.45E1,-1.4726533E-1,9.95E1,1.3982495E0,-1.3672392E-1],"split_indices":[192,0,3,0,0],"split_type":[0,0,0,0,0],"sum_hessian":[2.7066668E1,1.8624445E1,8.442223E0,1.0311111E0,7.4111114E0],"tree_param":{"num_deleted":"0","num_feature":"250","num_nodes":"5","size_leaf_vector":"0"}},{"base_weights":[-1.4251785E-1,1.3161498E-1,-4.770135E-1,-2.1316382E-1,2.2521245E0,-4.7374326E-1,6.221973E-1,1.7067833E0,-3.409091E-1],"categories":[],"categories_nodes":[],"categories_segments":[],"categories_sizes":[],"default_left":[1,1,0,1,0,0,1,0,0],"id":26,"left_children":[1,3,-1,5,-1,-1,7,-1,-1],"loss_changes":[2.6363902E0,1.2330501E1,0E0,3.5284882E0,0E0,0E0,4.723004E0,0E0,0E0],"parents":[2147483647,0,0,1,1,3,3,6,6],"right_children":[2,4,-1,6,-1,-1,8,-1,-1],"split_conditions":[7.95E1,6.85E1,-1.4310406E-1,6.05E1,6.7563736E-1,-1.4212298E-1,6.15E1,5.12035E-1,-1.02272734E-1],"split_indices":[112,93,0,135,0,0,0,0,0],"split_type":[0,0,0,0,0,0,0,0,0],"sum_hessian":[2.7066668E1,1.5208889E1,1.1857778E1,1.3855556E1,1.3533334E0,1.0891111E1,2.9644444E0,1.0311111E0,1.9333334E0],"tree_param":{"num_deleted":"0","num_feature":"250","num_nodes":"9","size_leaf_vector":"0"}},{"base_weights":[-1.4251785E-1,-4.8970902E-1,5.0583655E-1,2.1991246E0,7.9288766E-2,-4.4395468E-1,1.2116991E0,2.1991246E0,-2.777778E-1],"categories":[],"categories_nodes":[],"categories_segments":[],"categories_sizes":[],"default_left":[1,0,1,0,1,0,1,0,0],"id":27,"left_children":[1,-1,3,-1,5,-1,7,-1,-1],"loss_changes":[6.565602E0,0E0,7.250551E0,0E0,6.0181494E0,0E0,5.3041863E0,0E0,0E0],"parents":[2147483647,0,0,2,2,4,4,6,6],"right_children":[2,-1,4,-1,6,-1,8,-1,-1],"split_conditions":[9.15E1,-1.4691271E-1,9.55E1,6.597374E-1,2.055E2,-1.3318641E-1,2.905E2,6.597374E-1,-8.333334E-2],"split_indices":[172,0,4,0,0,0,22,0,0],"split_type":[0,0,0,0,0,0,0,0,0],"sum_hessian":[2.7066668E1,1.7786667E1,9.28E0,1.0311111E0,8.248889E0,6.057778E0,2.191111E0,1.0311111E0,1.16E0],"tree_param":{"num_deleted":"0","num_feature":"250","num_nodes":"9","size_leaf_vector":"0"}},{"base_weights":[-1.4251785E-1,4.5015907E0,-4.980638E-1],"categories":[],"categories_nodes":[],"categories_segments":[],"categories_sizes":[],"default_left":[1,0,0],"id":28,"left_children":[1,-1,-1],"loss_changes":[4.8585587E1,0E0,0E0],"parents":[2147483647,0,0],"right_children":[2,-1,-1],"split_conditions":[2.45E1,1.3504772E0,-1.4941914E-1],"split_indices":[71,0,0],"split_type":[0,0,0],"sum_hessian":[2.7066668E1,1.0955555E0,2.5971111E1],"tree_param":{"num_deleted":"0","num_feature":"250","num_nodes":"3","size_leaf_vector":"0"}},{"base_weights":[-1.4251785E-1,-4.7799698E-1,1.4477545E-1,1.9230769E0,-4.004107E-1,5.8252424E-1,2.361702E0,2.2975928E-1,-4.739777E-1],"categories":[],"categories_nodes":[],"categories_segments":[],"categories_sizes":[],"default_left":[1,0,1,1,1,0,0,0,0],"id":29,"left_children":[1,-1,3,5,7,-1,-1,-1,-1],"loss_changes":[2.774293E0,0E0,1.6172228E1,9.1745186E-1,7.1095896E-1,0E0,0E0,0E0,0E0],"parents":[2147483647,0,0,2,2,3,3,4,4],"right_children":[2,-1,4,6,8,-1,-1,-1,-1],"split_conditions":[6.45E1,-1.433991E-1,7.85E1,6.85E1,8.15E1,1.7475727E-1,7.0851064E-1,6.892779E-2,-1.4219332E-1],"split_indices":[206,0,180,208,140,0,0,0,0],"split_type":[0,0,0,0,0,0,0,0,0],"sum_hessian":[2.7066668E1,1.218E1,1.4886667E1,2.9E0,1.1986667E1,1.2888889E0,1.6111112E0,1.0311111E0,1.0955556E1],"tree_param":{"num_deleted":"0","num_feature":"250","num_nodes":"9","size_leaf_vector":"0"}},{"base_weights":[-1.2653369E-1,5.6662506E-1,-4.8596415E-1,-4.2666695E-1,1.6336207E0,5.0236756E-1,1.952253E0],"categories":[],"categories_nodes":[],"categories_segments":[],"categories_sizes":[],"default_left":[1,1,0,0,1,0,0],"id":30,"left_children":[1,3,-1,-1,5,-1,-1],"loss_changes":[6.897838E0,1.0806177E1,0E0,0E0,7.5147915E-1,0E0,0E0],"parents":[2147483647,0,0,1,1,4,4],"right_children":[2,4,-1,-1,6,-1,-1],"split_conditions":[4.85E1,4.65E1,-1.4578925E-1,-1.280001E-1,4.9E1,1.5071027E-1,5.856759E-1],"split_indices":[168,240,0,0,100,0,0],"split_type":[0,0,0,0,0,0,0],"sum_hessian":[2.5581102E1,8.538404E0,1.7042698E1,4.732722E0,3.8056822E0,1.4026027E0,2.4030795E0],"tree_param":{"num_deleted":"0","num_feature":"250","num_nodes":"7","size_leaf_vector":"0"}},{"base_weights":[-1.24372385E-1,1.6096671E-1,-4.7241578E-1,-4.686016E-1,1.5081553E0,2.4419336E0,2.3078811E-1,-2.9545042E-1,6.6030586E-1],"categories":[],"categories_nodes":[],"categories_segments":[],"categories_sizes":[],"default_left":[1,1,0,0,1,0,1,0,0],"id":31,"left_children":[1,3,-1,-1,5,-1,7,-1,-1],"loss_changes":[2.7154052E0,1.3725661E1,0E0,0E0,5.5503273E0,0E0,9.339782E-1,0E0,0E0],"parents":[2147483647,0,0,1,1,4,4,6,6],"right_children":[2,4,-1,-1,6,-1,8,-1,-1],"split_conditions":[7.25E1,6.65E1,-1.4172474E-1,-1.4058049E-1,6.7E1,7.325801E-1,6.85E1,-8.863513E-2,1.9809176E-1],"split_indices":[173,51,0,0,173,0,177,0,0],"split_type":[0,0,0,0,0,0,0,0,0],"sum_hessian":[2.5576899E1,1.4349855E1,1.1227042E1,1.0224094E1,4.125761E0,1.8567506E0,2.2690105E0,1.1599689E0,1.1090416E0],"tree_param":{"num_deleted":"0","num_feature":"250","num_nodes":"9","size_leaf_vector":"0"}},{"base_weights":[-1.17082246E-1,2.2373016E0,-2.9900438E-1,2.541067E-1,-4.876463E-1,-4.384668E-1,2.2103572E0],"categories":[],"categories_nodes":[],"categories_segments":[],"categories_sizes":[],"default_left":[1,0,1,1,0,0,0],"id":32,"left_children":[1,-1,3,5,-1,-1,-1],"loss_changes":[1.1917804E1,0E0,2.7596848E0,1.0564027E1,0E0,0E0,0E0],"parents":[2147483647,0,0,2,2,3,3],"right_children":[2,-1,4,6,-1,-1,-1],"split_conditions":[2.45E1,6.711905E-1,4.25E1,4.25E1,-1.462939E-1,-1.3154005E-1,6.6310716E-1],"split_indices":[247,0,160,121,0,0,0],"split_type":[0,0,0,0,0,0,0],"sum_hessian":[2.526304E1,1.0016639E0,2.4261375E1,6.0818744E0,1.8179502E1,5.064683E0,1.0171915E0],"tree_param":{"num_deleted":"0","num_feature":"250","num_nodes":"7","size_leaf_vector":"0"}},{"base_weights":[4.2491513E-1,1.9856434E-1,1.7068926E0,6.877177E-1,-4.7706565E-1,2.9176178E0,-3.4873742E-1,1.9370532E-1,2.6985343E0,9.4852835E-1,-4.566636E-1,-4.1480878E-1,2.6029186E0],"categories":[],"categories_nodes":[],"categories_segments":[],"categories_sizes":[],"default_left":[1,1,1,1,0,0,0,1,0,1,0,0,0],"id":33,"left_children":[1,3,5,7,-1,-1,-1,9,-1,11,-1,-1,-1],"loss_changes":[8.908653E0,9.653753E0,1.2592458E1,1.614337E1,0E0,0E0,0E0,7.5738816E0,0E0,1.6997286E1,0E0,0E0,0E0],"parents":[2147483647,0,0,1,1,2,2,3,3,7,7,9,9],"right_children":[2,4,6,8,-1,-1,-1,10,-1,12,-1,-1,-1],"split_conditions":[2.895E2,6.85E1,3.125E2,6.75E1,-1.4311971E-1,8.752854E-1,-1.0462123E-1,4.25E1,8.095603E-1,4.05E1,-1.3699909E-1,-1.2444264E-1,7.808756E-1],"split_indices":[37,2,59,2,0,0,0,208,0,5,0,0,0],"split_type":[0,0,0,0,0,0,0,0,0,0,0,0,0],"sum_hessian":[3.08688E1,2.721798E1,3.6508203E0,1.5777351E1,1.1440628E1,2.0336883E0,1.6171321E0,1.3545789E1,2.2315633E0,6.057251E0,7.4885373E0,3.731496E0,2.3257546E0],"tree_param":{"num_deleted":"0","num_feature":"250","num_nodes":"13","size_leaf_vector":"0"}},{"base_weights":[-1.24650076E-1,4.2002985E-1,-4.858136E-1,-4.5498544E-1,2.363031E0],"categories":[],"categories_nodes":[],"categories_segments":[],"categories_sizes":[],"default_left":[1,1,0,0,0],"id":34,"left_children":[1,3,-1,-1,-1],"loss_changes":[5.4120646E0,1.993288E1,0E0,0E0,0E0],"parents":[2147483647,0,0,1,1],"right_children":[2,4,-1,-1,-1],"split_conditions":[5.55E1,6.15E1,-1.4574409E-1,-1.3649563E-1,7.089093E-1],"split_indices":[246,16,0,0,0],"split_type":[0,0,0,0,0],"sum_hessian":[2.547442E1,1.0091771E1,1.5382649E1,7.4862366E0,2.6055343E0],"tree_param":{"num_deleted":"0","num_feature":"250","num_nodes":"5","size_leaf_vector":"0"}},{"base_weights":[6.333166E-1,-7.035038E-2,9.744561E-1,8.7885576E-1,-4.654028E-1,1.225718E0,-3.9717802E-1,-3.4394214E-1,2.2365348E0,8.9973867E-1,2.302238E0,2.3588824E0,5.144481E-1,-3.0151343E-1,1.1058077E0,2.1040772E-1,-4.2765358E-1,2.5080597E0,3.868756E-1],"categories":[],"categories_nodes":[],"categories_segments":[],"categories_sizes":[],"default_left":[1,1,1,1,0,1,0,0,0,1,0,0,1,1,1,0,0,0,0],"id":35,"left_children":[1,3,5,7,-1,9,-1,-1,-1,11,-1,-1,13,15,17,-1,-1,-1,-1],"loss_changes":[8.3722E0,4.994028E0,8.539112E0,7.3095345E0,0E0,4.9441643E0,0E0,0E0,0E0,8.336279E0,0E0,0E0,7.434843E0,5.400573E-1,7.8479843E0,0E0,0E0,0E0,0E0],"parents":[2147483647,0,0,1,1,2,2,3,3,5,5,9,9,12,12,13,13,14,14],"right_children":[2,4,6,8,-1,10,-1,-1,-1,12,-1,-1,14,16,18,-1,-1,-1,-1],"split_conditions":[6.15E1,3.05E1,1.53E2,2.95E1,-1.3962086E-1,1.345E2,-1.1915341E-1,-1.0318264E-1,6.709605E-1,6.55E1,6.9067144E-1,7.076647E-1,9.15E1,6.55E1,9.25E1,6.312232E-2,-1.2829608E-1,7.52418E-1,1.16062686E-1],"split_indices":[101,202,0,105,0,27,0,0,0,112,0,0,63,67,246,0,0,0,0],"split_type":[0,0,0,0,0,0,0,0,0,0,0,0,0,0,0,0,0,0,0],"sum_hessian":[3.3591515E1,1.1227134E1,2.236438E1,2.9395409E0,8.287593E0,1.8991766E1,3.3726141E0,1.9394438E0,1.000097E0,1.5986656E1,3.00511E0,2.2694848E0,1.3717172E1,5.9699426E0,7.7472286E0,1.0481465E0,4.921796E0,1.7823079E0,5.964921E0],"tree_param":{"num_deleted":"0","num_feature":"250","num_nodes":"19","size_leaf_vector":"0"}},{"base_weights":[1.7172597E-1,-4.5828882E-1,4.099994E-1,2.414447E0,1.9590136E-2,-4.7526115E-1,7.2272086E-1,2.4634638E0,-4.3551365E-1],"categories":[],"categories_nodes":[],"categories_segments":[],"categories_sizes":[],"default_left":[1,0,1,0,1,0,1,0,0],"id":36,"left_children":[1,-1,3,-1,5,-1,7,-1,-1],"loss_changes":[4.584264E0,0E0,1.6994852E1,0E0,7.036409E0,0E0,1.789267E1,0E0,0E0],"parents":[2147483647,0,0,2,2,4,4,6,6],"right_children":[2,-1,4,-1,6,-1,8,-1,-1],"split_conditions":[5.45E1,-1.3748665E-1,5.25E1,7.243341E-1,1.205E2,-1.4257835E-1,1.315E2,7.390392E-1,-1.306541E-1],"split_indices":[43,0,249,0,212,0,18,0,0],"split_type":[0,0,0,0,0,0,0,0,0],"sum_hessian":[2.8286499E1,7.508919E0,2.077758E1,2.5419981E0,1.8235582E1,1.08932085E1,7.342374E0,2.4832761E0,4.859098E0],"tree_param":{"num_deleted":"0","num_feature":"250","num_nodes":"9","size_leaf_vector":"0"}},{"base_weights":[-1.1143131E-1,3.473695E-1,-2.4802348E-1,-4.151108E-1,1.8944025E0,-4.772223E-1,1.9148827E-1,2.2258825E0,-4.4085872E-1],"categories":[],"categories_nodes":[],"categories_segments":[],"categories_sizes":[],"default_left":[1,1,1,0,0,0,1,0,0],"id":37,"left_children":[1,3,5,-1,-1,-1,7,-1,-1],"loss_changes":[1.7095664E0,8.287939E0,2.1610138E0,0E0,0E0,0E0,1.0958252E1,0E0,0E0],"parents":[2147483647,0,0,1,1,2,2,6,6],"right_children":[2,4,6,-1,-1,-1,8,-1,-1],"split_conditions":[4.15E1,4.25E1,1.105E2,-1.2453324E-1,5.6832075E-1,-1.4316669E-1,1.195E2,6.677648E-1,-1.3225763E-1],"split_indices":[149,129,101,0,0,0,152,0,0],"split_type":[0,0,0,0,0,0,0,0,0],"sum_hessian":[2.4904688E1,5.359499E0,1.9545189E1,4.080186E0,1.279313E0,1.2789734E1,6.755456E0,1.0043181E0,5.7511377E0],"tree_param":{"num_deleted":"0","num_feature":"250","num_nodes":"9","size_leaf_vector":"0"}},{"base_weights":[-1.2566301E-1,-4.875417E-1,6.434753E-1,2.6064212E0,-4.4435763E-1],"categories":[],"categories_nodes":[],"categories_segments":[],"categories_sizes":[],"default_left":[1,0,1,0,0],"id":38,"left_children":[1,-1,3,-1,-1],"loss_changes":[7.6883225E0,0E0,2.0181034E1,0E0,0E0],"parents":[2147483647,0,0,2,2],"right_children":[2,-1,4,-1,-1],"split_conditions":[1.175E2,-1.4626251E-1,1.205E2,7.819264E-1,-1.333073E-1],"split_indices":[77,0,88,0,0],"split_type":[0,0,0,0,0],"sum_hessian":[2.5495438E1,1.7586927E1,7.90851E0,2.32221E0,5.5863E0],"tree_param":{"num_deleted":"0","num_feature":"250","num_nodes":"5","size_leaf_vector":"0"}},{"base_weights":[1.9824919E-1,-4.7884104E-1,8.3681256E-1,2.1948252E0,5.806211E-1,-4.2176828E-1,1.0278461E0,1.318909E0,-3.2644266E-1,6.6921645E-1,2.2215374E0,2.1818335E0,-4.0835213E-2,2.6269982E0,7.135497E-1],"categories":[],"categories_nodes":[],"categories_segments":[],"categories_sizes":[],"default_left":[1,0,1,0,1,0,1,1,0,1,1,0,0,0,0],"id":39,"left_children":[1,-1,3,-1,5,-1,7,9,-1,11,13,-1,-1,-1,-1],"loss_changes":[1.2746685E1,0E0,3.964941E0,0E0,6.7225943E0,0E0,4.3691397E0,3.4526033E0,0E0,6.886261E0,1.7280579E-2,0E0,0E0,0E0,0E0],"parents":[2147483647,0,0,2,2,4,4,6,6,7,7,9,9,10,10],"right_children":[2,-1,4,-1,6,-1,8,10,-1,12,14,-1,-1,-1,-1],"split_conditions":[8.45E1,-1.4365232E-1,8.65E1,6.5844756E-1,1.025E2,-1.2653048E-1,3.095E2,2.41E2,-9.79328E-2,1.17E2,2.86E2,6.545501E-1,-1.2250564E-2,7.8809947E-1,2.1406491E-1],"split_indices":[80,0,105,0,74,0,224,0,0,13,0,0,0,0,0],"split_type":[0,0,0,0,0,0,0,0,0,0,0,0,0,0,0],"sum_hessian":[2.755454E1,1.3495225E1,1.4059315E1,1.0303788E0,1.3028936E1,4.037158E0,8.991778E0,7.422634E0,1.5691439E0,5.3286176E0,2.0940166E0,1.0401063E0,4.2885113E0,1.0654795E0,1.0285372E0],"tree_param":{"num_deleted":"0","num_feature":"250","num_nodes":"15","size_leaf_vector":"0"}},{"base_weights":[-1.10418126E-1,-4.8925632E-1,1.1294583E0,1.5862942E0,-3.0770782E-1,6.3797927E-1,2.5962858E0,1.7067847E0,-3.3880284E-1],"categories":[],"categories_nodes":[],"categories_segments":[],"categories_sizes":[],"default_left":[1,0,1,1,0,1,0,0,0],"id":40,"left_children":[1,-1,3,5,-1,7,-1,-1,-1],"loss_changes":[1.2695546E1,0E0,4.658862E0,3.1160583E0,0E0,4.645258E0,0E0,0E0,0E0],"parents":[2147483647,0,0,2,2,3,3,5,5],"right_children":[2,-1,4,6,-1,8,-1,-1,-1],"split_conditions":[1.645E2,-1.467769E-1,3.03E2,2.86E2,-9.231235E-2,1.915E2,7.788858E-1,5.120354E-1,-1.0164086E-1],"split_indices":[56,0,0,0,0,0,0,0,0],"split_type":[0,0,0,0,0,0,0,0,0],"sum_hessian":[2.4851877E1,1.9499346E1,5.352531E0,3.9827564E0,1.3697746E0,2.895625E0,1.0871311E0,1.0258139E0,1.8698113E0],"tree_param":{"num_deleted":"0","num_feature":"250","num_nodes":"9","size_leaf_vector":"0"}},{"base_weights":[1.7934355E-1,-4.6698892E-1,4.6639046E-1,1.817397E0,8.891062E-2,-2.7394646E-1,2.612167E0,4.2903218E-1,-4.4339523E-1,-4.385119E-1,1.3464293E0,1.8233746E0,3.2229063E-1],"categories":[],"categories_nodes":[],"categories_segments":[],"categories_sizes":[],"default_left":[1,0,1,1,1,0,0,1,0,0,1,0,0],"id":41,"left_children":[1,-1,3,5,7,-1,-1,9,-1,-1,11,-1,-1],"loss_changes":[5.630932E0,0E0,1.03971615E1,8.145558E0,3.3104606E0,0E0,0E0,9.363888E0,0E0,0E0,2.1494255E0,0E0,0E0],"parents":[2147483647,0,0,2,2,3,3,4,4,7,7,10,10],"right_children":[2,-1,4,6,8,-1,-1,10,-1,-1,12,-1,-1],"split_conditions":[5.45E1,-1.4009668E-1,6.05E1,5.85E1,1.015E2,-8.218394E-2,7.836501E-1,8.65E1,-1.3301857E-1,-1.3155358E-1,9.05E1,5.470124E-1,9.668719E-2],"split_indices":[230,0,49,128,112,0,0,119,0,0,124,0,0],"split_type":[0,0,0,0,0,0,0,0,0,0,0,0,0],"sum_hessian":[2.8176945E1,8.472613E0,1.970433E1,3.4701288E0,1.6234201E1,1.1360528E0,2.334076E0,1.0023566E1,6.210635E0,5.420053E0,4.6035132E0,2.6083815E0,1.9951316E0],"tree_param":{"num_deleted":"0","num_feature":"250","num_nodes":"13","size_leaf_vector":"0"}},{"base_weights":[-1.2720276E-1,4.656742E-1,-4.8772866E-1,-4.5230094E-1,2.431331E0],"categories":[],"categories_nodes":[],"categories_segments":[],"categories_sizes":[],"default_left":[1,1,0,0,0],"id":42,"left_children":[1,3,-1,-1,-1],"loss_changes":[5.905243E0,2.0148783E1,0E0,0E0,0E0],"parents":[2147483647,0,0,1,1],"right_children":[2,4,-1,-1,-1],"split_conditions":[5.55E1,5.65E1,-1.463186E-1,-1.3569029E-1,7.293993E-1],"split_indices":[204,80,0,0,0],"split_type":[0,0,0,0,0],"sum_hessian":[2.5564617E1,9.556882E0,1.6007734E1,7.039354E0,2.517528E0],"tree_param":{"num_deleted":"0","num_feature":"250","num_nodes":"5","size_leaf_vector":"0"}},{"base_weights":[-1.2545484E-1,4.2660764E-1,-4.8705634E-1,-4.5506412E-1,2.4437435E0],"categories":[],"categories_nodes":[],"categories_segments":[],"categories_sizes":[],"default_left":[1,1,0,0,0],"id":43,"left_children":[1,3,-1,-1,-1],"loss_changes":[5.5039873E0,2.0733894E1,0E0,0E0,0E0],"parents":[2147483647,0,0,1,1],"right_children":[2,4,-1,-1,-1],"split_conditions":[5.85E1,5.6E1,-1.4611691E-1,-1.3651924E-1,7.3312306E-1],"split_indices":[125,119,0,0,0],"split_type":[0,0,0,0,0],"sum_hessian":[2.5530558E1,1.00331E1,1.54974575E1,7.5204015E0,2.5126982E0],"tree_param":{"num_deleted":"0","num_feature":"250","num_nodes":"5","size_leaf_vector":"0"}},{"base_weights":[-1.2635958E-1,-4.9148753E-1,1.1923993E0,2.6313746E0,-3.9260876E-1],"categories":[],"categories_nodes":[],"categories_segments":[],"categories_sizes":[],"default_left":[1,0,1,0,0],"id":44,"left_children":[1,-1,3,-1,-1],"loss_changes":[1.3356393E1,0E0,1.4815042E1,0E0,0E0],"parents":[2147483647,0,0,2,2],"right_children":[2,-1,4,-1,-1],"split_conditions":[1.895E2,-1.4744626E-1,1.995E2,7.8941244E-1,-1.1778263E-1],"split_indices":[226,0,0,0,0],"split_type":[0,0,0,0,0],"sum_hessian":[2.5521133E1,2.047851E1,5.042624E0,2.2970474E0,2.7455769E0],"tree_param":{"num_deleted":"0","num_feature":"250","num_nodes":"5","size_leaf_vector":"0"}},{"base_weights":[-1.2481988E-1,9.5572543E-1,-4.9038276E-1,-4.1255558E-1,2.5383096E0],"categories":[],"categories_nodes":[],"categories_segments":[],"categories_sizes":[],"default_left":[1,1,0,0,0],"id":45,"left_children":[1,3,-1,-1,-1],"loss_changes":[1.0918283E1,1.6262499E1,0E0,0E0,0E0],"parents":[2147483647,0,0,1,1],"right_children":[2,4,-1,-1,-1],"split_conditions":[3.95E1,4.25E1,-1.4711483E-1,-1.23766676E-1,7.614929E-1],"split_indices":[135,41,0,0,0],"split_type":[0,0,0,0,0],"sum_hessian":[2.5454231E1,6.026492E0,1.942774E1,3.628583E0,2.397909E0],"tree_param":{"num_deleted":"0","num_feature":"250","num_nodes":"5","size_leaf_vector":"0"}},{"base_weights":[-1.23700604E-1,1.2603745E0,-4.9094644E-1,-3.777556E-1,2.5719132E0],"categories":[],"categories_nodes":[],"categories_segments":[],"categories_sizes":[],"default_left":[1,1,0,0,0],"id":46,"left_children":[1,3,-1,-1,-1],"loss_changes":[1.4034207E1,1.3464568E1,0E0,0E0,0E0],"parents":[2147483647,0,0,1,1],"right_children":[2,4,-1,-1,-1],"split_conditions":[3.15E1,3.15E1,-1.4728394E-1,-1.1332669E-1,7.71574E-1],"split_indices":[184,36,0,0,0],"split_type":[0,0,0,0,0],"sum_hessian":[2.5392958E1,4.8148394E0,2.0578117E1,2.457439E0,2.3574004E0],"tree_param":{"num_deleted":"0","num_feature":"250","num_nodes":"5","size_leaf_vector":"0"}},{"base_weights":[-1.2673816E-1,2.5480378E-1,-4.7999382E-1,-4.727802E-1,2.6296065E0],"categories":[],"categories_nodes":[],"categories_segments":[],"categories_sizes":[],"default_left":[1,1,0,0,0],"id":47,"left_children":[1,3,-1,-1,-1],"loss_changes":[3.700238E0,2.4423162E1,0E0,0E0,0E0],"parents":[2147483647,0,0,1,1],"right_children":[2,4,-1,-1,-1],"split_conditions":[6.45E1,6.55E1,-1.4399815E-1,-1.4183407E-1,7.8888196E-1],"split_indices":[38,101,0,0,0],"split_type":[0,0,0,0,0],"sum_hessian":[2.554611E1,1.2415338E1,1.3130773E1,1.0116727E1,2.2986102E0],"tree_param":{"num_deleted":"0","num_feature":"250","num_nodes":"5","size_leaf_vector":"0"}},{"base_weights":[1.4340998E-1,2.2312884E0,-5.1184786E-3,-4.7700977E-1,3.794959E-1,1.447079E0,-4.633404E-1,3.1611013E-1,1.7482053E0,1.9807451E0,5.295208E-1],"categories":[],"categories_nodes":[],"categories_segments":[],"categories_sizes":[],"default_left":[1,0,1,0,1,1,0,0,1,0,0],"id":48,"left_children":[1,-1,3,-1,5,7,-1,-1,9,-1,-1],"loss_changes":[9.348088E0,0E0,5.463615E0,0E0,1.5600609E1,2.0230312E0,0E0,0E0,5.8120537E-1,0E0,0E0],"parents":[2147483647,0,0,2,2,4,4,5,5,8,8],"right_children":[2,-1,4,-1,6,8,-1,-1,10,-1,-1],"split_conditions":[2.35E1,6.6938657E-1,7.95E1,-1.4310294E-1,8.35E1,8.25E1,-1.3900213E-1,9.4833046E-2,8.65E1,5.9422356E-1,1.5885624E-1],"split_indices":[190,0,18,0,93,0,0,0,1,0,0],"split_type":[0,0,0,0,0,0,0,0,0,0,0],"sum_hessian":[2.9107656E1,1.0018549E0,2.81058E1,1.2513052E1,1.559275E1,6.5629005E0,9.029849E0,1.8109822E0,4.7519183E0,3.4653702E0,1.2865485E0],"tree_param":{"num_deleted":"0","num_feature":"250","num_nodes":"11","size_leaf_vector":"0"}},{"base_weights":[8.0286734E-2,1.5280935E0,-4.986286E-1],"categories":[],"categories_nodes":[],"categories_segments":[],"categories_sizes":[],"default_left":[1,0,0],"id":49,"left_children":[1,-1,-1],"loss_changes":[2.7309826E1,0E0,0E0],"parents":[2147483647,0,0],"right_children":[2,-1,-1],"split_conditions":[2.45E1,4.5842806E-1,-1.4958858E-1],"split_indices":[155,0,0],"split_type":[0,0,0],"sum_hessian":[3.067409E1,8.293452E0,2.2380636E1],"tree_param":{"num_deleted":"0","num_feature":"250","num_nodes":"3","size_leaf_vector":"0"}},{"base_weights":[3.52348E-1,-4.801343E-1,8.389017E-1,1.8249917E0,4.40491E-1,-3.157808E-1,9.566885E-1,2.4004762E-1,-4.368974E-1,1.4020364E0,-3.6296654E-1,5.077165E-1,2.265252E0,2.123836E0,-4.328311E-1],"categories":[],"categories_nodes":[],"categories_segments":[],"categories_sizes":[],"default_left":[1,0,1,0,1,1,1,0,0,1,0,1,0,0,0],"id":50,"left_children":[1,-1,3,-1,5,7,9,-1,-1,11,-1,13,-1,-1,-1],"loss_changes":[1.4175367E1,0E0,7.7700434E0,0E0,6.8847547E0,6.1597955E-1,6.5444984E0,0E0,0E0,4.9363756E0,0E0,8.764456E0,0E0,0E0,0E0],"parents":[2147483647,0,0,2,2,4,4,5,5,6,6,9,9,11,11],"right_children":[2,-1,4,-1,6,8,10,-1,-1,12,-1,14,-1,-1,-1],"split_conditions":[7.35E1,-1.440403E-1,7.95E1,5.474975E-1,1.325E2,8.35E1,1.905E2,7.201429E-2,-1.3106923E-1,1.79E2,-1.0888997E-1,1.385E2,6.795757E-1,6.371508E-1,-1.2984934E-1],"split_indices":[173,0,25,0,166,24,239,0,0,0,0,1,0,0,0],"split_type":[0,0,0,0,0,0,0,0,0,0,0,0,0,0,0],"sum_hessian":[3.3002403E1,1.2178486E1,2.082392E1,4.961999E0,1.586192E1,6.5921435E0,9.269776E0,1.003755E0,5.5883884E0,6.884139E0,2.385637E0,4.1611843E0,2.7229552E0,1.0679933E0,3.093191E0],"tree_param":{"num_deleted":"0","num_feature":"250","num_nodes":"15","size_leaf_vector":"0"}},{"base_weights":[-1.2441633E-1,1.0096362E0,-4.9181342E-1,-4.0481365E-1,2.6602163E0],"categories":[],"categories_nodes":[],"categories_segments":[],"categories_sizes":[],"default_left":[1,1,0,0,0],"id":51,"left_children":[1,3,-1,-1,-1],"loss_changes":[1.151157E1,1.6944708E1,0E0,0E0,0E0],"parents":[2147483647,0,0,1,1],"right_children":[2,4,-1,-1,-1],"split_conditions":[4.05E1,4.25E1,-1.4754403E-1,-1.214441E-1,7.9806495E-1],"split_indices":[98,5,0,0,0],"split_type":[0,0,0,0,0],"sum_hessian":[2.543725E1,5.79662E0,1.9640629E1,3.5280411E0,2.2685785E0],"tree_param":{"num_deleted":"0","num_feature":"250","num_nodes":"5","size_leaf_vector":"0"}},{"base_weights":[-1.2573287E-1,7.4233323E-1,-4.8945272E-1,-4.3359756E-1,2.6168215E0],"categories":[],"categories_nodes":[],"categories_segments":[],"categories_sizes":[],"default_left":[1,1,0,0,0],"id":52,"left_children":[1,3,-1,-1,-1],"loss_changes":[8.729585E0,1.9257267E1,0E0,0E0,0E0],"parents":[2147483647,0,0,1,1],"right_children":[2,4,-1,-1,-1],"split_conditions":[4.75E1,4.85E1,-1.4683582E-1,-1.3007927E-1,7.850465E-1],"split_indices":[79,1,0,0,0],"split_type":[0,0,0,0,0],"sum_hessian":[2.5497868E1,7.221602E0,1.8276266E1,4.9100466E0,2.3115554E0],"tree_param":{"num_deleted":"0","num_feature":"250","num_nodes":"5","size_leaf_vector":"0"}},{"base_weights":[-1.09736666E-1,-2.9420486E-1,2.2173853E0,-4.8420143E-1,1.120211E-1,2.2249653E0,-4.5224264E-1],"categories":[],"categories_nodes":[],"categories_segments":[],"categories_sizes":[],"default_left":[1,1,0,0,1,0,0],"id":53,"left_children":[1,3,-1,-1,5,-1,-1],"loss_changes":[1.1728327E1,1.9675009E0,0E0,0E0,1.1392682E1,0E0,0E0],"parents":[2147483647,0,0,1,1,4,4],"right_children":[2,4,-1,-1,6,-1,-1],"split_conditions":[3.135E2,9.5E1,6.652156E-1,-1.4526044E-1,1.02E2,6.6748965E-1,-1.356728E-1],"split_indices":[66,128,0,0,19,0,0],"split_type":[0,0,0,0,0,0,0],"sum_hessian":[2.480125E1,2.3789093E1,1.0121574E0,1.6077507E1,7.7115865E0,1.0050273E0,6.706559E0],"tree_param":{"num_deleted":"0","num_feature":"250","num_nodes":"7","size_leaf_vector":"0"}},{"base_weights":[-1.2569438E-1,-4.8411518E-1,3.9324263E-1,2.3494341E0,-4.611378E-1],"categories":[],"categories_nodes":[],"categories_segments":[],"categories_sizes":[],"default_left":[1,0,1,0,0],"id":54,"left_children":[1,-1,3,-1,-1],"loss_changes":[5.1192603E0,0E0,2.0099024E1,0E0,0E0],"parents":[2147483647,0,0,2,2],"right_children":[2,-1,4,-1,-1],"split_conditions":[8.95E1,-1.4523456E-1,8.85E1,7.048303E-1,-1.3834135E-1],"split_indices":[149,0,78,0,0],"split_type":[0,0,0,0,0],"sum_hessian":[2.5499693E1,1.5122172E1,1.0377521E1,2.6227036E0,7.7548175E0],"tree_param":{"num_deleted":"0","num_feature":"250","num_nodes":"5","size_leaf_vector":"0"}},{"base_weights":[-1.2500215E-1,-4.8726872E-1,4.8258385E-1,2.3996272E0,-4.5175096E-1],"categories":[],"categories_nodes":[],"categories_segments":[],"categories_sizes":[],"default_left":[1,0,1,0,0],"id":55,"left_children":[1,-1,3,-1,-1],"loss_changes":[6.061196E0,0E0,1.9692984E1,0E0,0E0],"parents":[2147483647,0,0,2,2],"right_children":[2,-1,4,-1,-1],"split_conditions":[8.95E1,-1.4618061E-1,9.45E1,7.198882E-1,-1.355253E-1],"split_indices":[237,0,96,0,0],"split_type":[0,0,0,0,0],"sum_hessian":[2.5469032E1,1.6079706E1,9.389326E0,2.5627894E0,6.826537E0],"tree_param":{"num_deleted":"0","num_feature":"250","num_nodes":"5","size_leaf_vector":"0"}},{"base_weights":[-1.11583516E-1,1.4633498E-1,-4.6834567E-1,-1.3944739E-1,1.9524924E0,-4.62284E-1,4.249537E-1,2.2326632E0,-4.1369385E-1],"categories":[],"categories_nodes":[],"categories_segments":[],"categories_sizes":[],"default_left":[1,1,0,1,0,0,1,0,0],"id":56,"left_children":[1,3,-1,5,-1,-1,7,-1,-1],"loss_changes":[2.4546418E0,8.434263E0,0E0,2.8541229E0,0E0,0E0,9.759583E0,0E0,0E0],"parents":[2147483647,0,0,1,1,3,3,6,6],"right_children":[2,4,-1,6,-1,-1,8,-1,-1],"split_conditions":[7.95E1,7.8E1,-1.405037E-1,5.85E1,5.857477E-1,-1.3868521E-1,5.65E1,6.69799E-1,-1.2410816E-1],"split_indices":[112,9,0,123,0,0,178,0,0],"split_type":[0,0,0,0,0,0,0,0,0],"sum_hessian":[2.4931557E1,1.4812673E1,1.0118884E1,1.3585825E1,1.2268472E0,8.757485E0,4.8283396E0,1.003364E0,3.8249755E0],"tree_param":{"num_deleted":"0","num_feature":"250","num_nodes":"9","size_leaf_vector":"0"}},{"base_weights":[-1.11750774E-1,-4.8186404E-1,4.279155E-1,2.2095525E0,2.794849E-2,-4.4445863E-1,8.6231416E-1,2.0909321E0,-3.4140673E-1],"categories":[],"categories_nodes":[],"categories_segments":[],"categories_sizes":[],"default_left":[1,0,1,0,1,0,1,0,0],"id":57,"left_children":[1,-1,3,-1,5,-1,7,-1,-1],"loss_changes":[5.3827505E0,0E0,7.8288317E0,0E0,4.3468366E0,0E0,6.5930367E0,0E0,0E0],"parents":[2147483647,0,0,2,2,4,4,6,6],"right_children":[2,-1,4,-1,6,-1,8,-1,-1],"split_conditions":[9.15E1,-1.4455922E-1,8.75E1,6.6286576E-1,2.055E2,-1.333376E-1,2.755E2,6.2727964E-1,-1.0242202E-1],"split_indices":[172,0,63,0,0,0,184,0,0],"split_type":[0,0,0,0,0,0,0,0,0],"sum_hessian":[2.4916763E1,1.4843749E1,1.0073014E1,1.0172737E0,9.05574E0,6.080404E0,2.9753368E0,1.1076844E0,1.8676524E0],"tree_param":{"num_deleted":"0","num_feature":"250","num_nodes":"9","size_leaf_vector":"0"}},{"base_weights":[-1.23834044E-1,1.7470478E0,-4.9237207E-1,-3.106078E-1,2.6020975E0],"categories":[],"categories_nodes":[],"categories_segments":[],"categories_sizes":[],"default_left":[1,1,0,0,0],"id":58,"left_children":[1,3,-1,-1,-1],"loss_changes":[1.9063322E1,8.839196E0,0E0,0E0,0E0],"parents":[2147483647,0,0,1,1],"right_children":[2,4,-1,-1,-1],"split_conditions":[2.6E1,2.35E1,-1.4771162E-1,-9.318234E-2,7.806293E-1],"split_indices":[246,234,0,0,0],"split_type":[0,0,0,0,0],"sum_hessian":[2.5400812E1,3.5646088E0,2.1836203E1,1.2333413E0,2.3312676E0],"tree_param":{"num_deleted":"0","num_feature":"250","num_nodes":"5","size_leaf_vector":"0"}},{"base_weights":[-1.135561E-1,-4.6854043E-1,1.4498205E-1,2.205145E0,-1.461105E-1,4.772653E-1,-4.6473792E-1,-4.0454912E-1,2.0599372E0],"categories":[],"categories_nodes":[],"categories_segments":[],"categories_sizes":[],"default_left":[1,0,1,0,1,1,0,0,0],"id":59,"left_children":[1,-1,3,-1,5,7,-1,-1,-1],"loss_changes":[2.4586296E0,0E0,9.818807E0,0E0,3.164032E0,8.514533E0,0E0,0E0,0E0],"parents":[2147483647,0,0,2,2,4,4,5,5],"right_children":[2,-1,4,-1,6,8,-1,-1,-1],"split_conditions":[6.45E1,-1.4056213E-1,6.75E1,6.615435E-1,8.35E1,8.95E1,-1.3942139E-1,-1.2136474E-1,6.179812E-1],"split_indices":[206,0,2,0,166,112,0,0,0],"split_type":[0,0,0,0,0,0,0,0,0],"sum_hessian":[2.5049007E1,1.0213353E1,1.4835653E1,1.0226434E0,1.381301E1,4.50377E0,9.30924E0,3.3703222E0,1.1334478E0],"tree_param":{"num_deleted":"0","num_feature":"250","num_nodes":"9","size_leaf_vector":"0"}},{"base_weights":[-1.1265743E-1,4.447819E-1,-4.7935277E-1,-4.1620752E-1,1.0780926E0,1.7591557E-1,1.2298923E0,4.1538438E-1,1.4580636E0],"categories":[],"categories_nodes":[],"categories_segments":[],"categories_sizes":[],"default_left":[1,1,0,0,1,0,1,0,0],"id":60,"left_children":[1,3,-1,-1,5,-1,7,-1,-1],"loss_changes":[5.311956E0,6.128459E0,0E0,0E0,6.437211E-1,0E0,3.6238623E-1,0E0,0E0],"parents":[2147483647,0,0,1,1,4,4,6,6],"right_children":[2,4,-1,-1,6,-1,8,-1,-1],"split_conditions":[4.75E1,4.65E1,-1.4380583E-1,-1.2486226E-1,4.15E1,5.277467E-2,4.15E1,1.2461532E-1,4.374191E-1],"split_indices":[158,65,0,0,126,0,175,0,0],"split_type":[0,0,0,0,0,0,0,0,0],"sum_hessian":[2.3943682E1,9.416323E0,1.4527359E1,4.1360908E0,5.2802315E0,1.0714207E0,4.208811E0,1.5382351E0,2.6705759E0],"tree_param":{"num_deleted":"0","num_feature":"250","num_nodes":"9","size_leaf_vector":"0"}},{"base_weights":[-1.09531365E-1,1.4230989E-1,-4.6408877E-1,-1.9858438E-1,1.700496E0,-4.679922E-1,4.9739963E-1,1.4360523E0,-3.6941576E-1],"categories":[],"categories_nodes":[],"categories_segments":[],"categories_sizes":[],"default_left":[1,1,0,1,0,0,1,0,0],"id":61,"left_children":[1,3,-1,5,-1,-1,7,-1,-1],"loss_changes":[2.2966795E0,8.502795E0,0E0,2.7655501E0,0E0,0E0,3.9920034E0,0E0,0E0],"parents":[2147483647,0,0,1,1,3,3,6,6],"right_children":[2,4,-1,6,-1,-1,8,-1,-1],"split_conditions":[7.25E1,6.95E1,-1.3922663E-1,6.65E1,5.101488E-1,-1.4039767E-1,6.45E1,4.3081573E-1,-1.10824734E-1],"split_indices":[173,205,0,54,0,0,0,0,0],"split_type":[0,0,0,0,0,0,0,0,0],"sum_hessian":[2.39813E1,1.4371726E1,9.609574E0,1.2507856E1,1.8638691E0,9.253508E0,3.2543497E0,1.2471466E0,2.007203E0],"tree_param":{"num_deleted":"0","num_feature":"250","num_nodes":"9","size_leaf_vector":"0"}},{"base_weights":[-9.048186E-2,2.2042866E0,-2.8391832E-1,1.6281086E-1,-4.8284644E-1,-4.4635186E-1,1.9417268E0],"categories":[],"categories_nodes":[],"categories_segments":[],"categories_sizes":[],"default_left":[1,0,1,1,0,0,0],"id":62,"left_children":[1,-1,3,5,-1,-1,-1],"loss_changes":[1.1482398E1,0E0,2.1618495E0,9.503828E0,0E0,0E0,0E0],"parents":[2147483647,0,0,2,2,3,3],"right_children":[2,-1,4,6,-1,-1,-1],"split_conditions":[2.15E1,6.61286E-1,4.45E1,4.25E1,-1.4485393E-1,-1.3390556E-1,5.8251804E-1],"split_indices":[89,0,150,140,0,0,0],"split_type":[0,0,0,0,0,0,0],"sum_hessian":[2.345767E1,1.0154785E0,2.244219E1,6.9704165E0,1.5471775E1,5.7503753E0,1.2200409E0],"tree_param":{"num_deleted":"0","num_feature":"250","num_nodes":"7","size_leaf_vector":"0"}},{"base_weights":[3.2871893E-1,1.5636913E-1,1.0552465E0,5.110567E-1,-4.681897E-1,1.5765954E0,-3.3918965E-1,1.5165499E-1,1.4700215E0,6.640663E-1,-4.4467846E-1,-4.0021223E-1,1.4279877E0],"categories":[],"categories_nodes":[],"categories_segments":[],"categories_sizes":[],"default_left":[1,1,1,1,0,0,0,1,0,1,0,0,0],"id":63,"left_children":[1,3,5,7,-1,-1,-1,9,-1,11,-1,-1,-1],"loss_changes":[4.0549126E0,6.53343E0,5.105927E0,6.1875677E0,0E0,0E0,0E0,4.7701397E0,0E0,7.301282E0,0E0,0E0,0E0],"parents":[2147483647,0,0,1,1,2,2,3,3,7,7,9,9],"right_children":[2,4,6,8,-1,-1,-1,10,-1,12,-1,-1,-1],"split_conditions":[2.895E2,6.85E1,3.125E2,6.75E1,-1.4045691E-1,4.7297865E-1,-1.017569E-1,4.25E1,4.4100645E-1,4.05E1,-1.3340354E-1,-1.2006367E-1,4.283963E-1],"split_indices":[37,2,59,2,0,0,0,208,0,5,0,0,0],"split_type":[0,0,0,0,0,0,0,0,0,0,0,0,0],"sum_hessian":[3.2700893E1,2.7413082E1,5.2878127E0,1.7599844E1,9.813237E0,3.7537394E0,1.5340732E0,1.3644347E1,3.9554973E0,7.2774615E0,6.366885E0,3.2398632E0,4.0375986E0],"tree_param":{"num_deleted":"0","num_feature":"250","num_nodes":"13","size_leaf_vector":"0"}},{"base_weights":[-1.16972744E-1,3.2463068E-1,-4.79661E-1,-4.542227E-1,1.4110193E0],"categories":[],"categories_nodes":[],"categories_segments":[],"categories_sizes":[],"default_left":[1,1,0,0,0],"id":64,"left_children":[1,3,-1,-1,-1],"loss_changes":[4.1462874E0,1.0652248E1,0E0,0E0,0E0],"parents":[2147483647,0,0,1,1],"right_children":[2,4,-1,-1,-1],"split_conditions":[5.65E1,5.85E1,-1.4389831E-1,-1.3626681E-1,4.233058E-1],"split_indices":[99,148,0,0,0],"split_type":[0,0,0,0,0],"sum_hessian":[2.3915497E1,1.08318E1,1.3083695E1,6.647776E0,4.1840243E0],"tree_param":{"num_deleted":"0","num_feature":"250","num_nodes":"5","size_leaf_vector":"0"}},{"base_weights":[4.881981E-1,-5.0848093E-2,6.9908595E-1,6.7369604E-1,-4.5417744E-1,8.4618723E-1,-3.8389063E-1,-3.7008217E-1,2.036399E0,6.1258245E-1,1.2291619E0,1.3686279E0,2.527542E-1,1.9809111E0,8.24576E-1,1.783198E-1,1.6172333E0,-4.273966E-1,7.069694E-1,-3.721588E-1,1.3076644E0,1.4756579E0,-4.637777E-2],"categories":[],"categories_nodes":[],"categories_segments":[],"categories_sizes":[],"default_left":[1,1,1,1,0,1,0,0,0,1,1,1,1,0,1,0,0,0,1,0,0,0,0],"id":65,"left_children":[1,3,5,7,-1,9,-1,-1,-1,11,13,15,17,-1,19,-1,-1,-1,21,-1,-1,-1,-1],"loss_changes":[4.364914E0,3.7080736E0,4.69664E0,7.2478833E0,0E0,1.436491E0,0E0,0E0,0E0,4.331719E0,8.8449097E-1,1.285306E0,4.280083E0,0E0,4.588541E0,0E0,0E0,0E0,4.757447E0,0E0,0E0,0E0,0E0],"parents":[2147483647,0,0,1,1,2,2,3,3,5,5,9,9,10,10,11,11,12,12,14,14,18,18],"right_children":[2,4,6,8,-1,10,-1,-1,-1,12,14,16,18,-1,20,-1,-1,-1,22,-1,-1,-1,-1],"split_conditions":[6.15E1,3.05E1,1.53E2,3.25E1,-1.3625324E-1,1.205E2,-1.1516719E-1,-1.11024655E-1,6.109197E-1,6.75E1,1.28E2,6.05E1,9.15E1,5.942734E-1,1.375E2,5.349594E-2,4.8517E-1,-1.2821898E-1,9.25E1,-1.1164764E-1,3.9229932E-1,4.426974E-1,-1.3913332E-2],"split_indices":[101,202,0,98,0,211,0,0,0,150,66,146,63,0,6,0,0,0,246,0,0,0,0],"split_type":[0,0,0,0,0,0,0,0,0,0,0,0,0,0,0,0,0,0,0,0,0,0,0],"sum_hessian":[3.708438E1,1.0641848E1,2.6442532E1,3.565828E0,7.07602E0,2.3472847E1,2.9696836E0,2.431677E0,1.1341511E0,1.6194284E1,7.278564E0,4.318016E0,1.1876267E1,1.1834626E0,6.0951014E0,1.042736E0,3.27528E0,4.779057E0,7.097211E0,1.8188834E0,4.276218E0,3.038268E0,4.0589423E0],"tree_param":{"num_deleted":"0","num_feature":"250","num_nodes":"23","size_leaf_vector":"0"}},{"base_weights":[1.3278474E-1,-4.4678396E-1,3.1190038E-1,1.3963143E0,1.2683255E-3,-4.6789956E-1,5.2267337E-1,1.4198436E0,-4.3149132E-1],"categories":[],"categories_nodes":[],"categories_segments":[],"categories_sizes":[],"default_left":[1,0,1,0,1,0,1,0,0],"id":66,"left_children":[1,-1,3,-1,5,-1,7,-1,-1],"loss_changes":[3.2115414E0,0E0,7.8120346E0,0E0,4.9003496E0,0E0,8.733678E0,0E0,0E0],"parents":[2147483647,0,0,2,2,4,4,6,6],"right_children":[2,-1,4,-1,6,-1,8,-1,-1],"split_conditions":[5.45E1,-1.340352E-1,5.25E1,4.188943E-1,1.205E2,-1.4036988E-1,1.305E2,4.259531E-1,-1.294474E-1],"split_indices":[43,0,248,0,212,0,152,0,0],"split_type":[0,0,0,0,0,0,0,0,0],"sum_hessian":[2.8594402E1,6.397966E0,2.2196438E1,4.1641946E0,1.8032244E1,9.545594E0,8.486649E0,4.122421E0,4.364228E0],"tree_param":{"num_deleted":"0","num_feature":"250","num_nodes":"9","size_leaf_vector":"0"}},{"base_weights":[-8.779891E-2,3.1547564E-1,-2.2434083E-1,-4.0166032E-1,1.318453E0,-4.702756E-1,1.8468E-1,1.951606E0,-4.400589E-1],"categories":[],"categories_nodes":[],"categories_segments":[],"categories_sizes":[],"default_left":[1,1,1,0,0,0,1,0,0],"id":67,"left_children":[1,3,5,-1,-1,-1,7,-1,-1],"loss_changes":[1.404319E0,5.23458E0,1.9655943E0,0E0,0E0,0E0,9.392963E0,0E0,0E0],"parents":[2147483647,0,0,1,1,2,2,6,6],"right_children":[2,4,6,-1,-1,-1,8,-1,-1],"split_conditions":[4.15E1,4.7E1,1.105E2,-1.204981E-1,3.9553592E-1,-1.4108269E-1,1.185E2,5.854818E-1,-1.3201767E-1],"split_indices":[161,247,101,0,0,0,6,0,0],"split_type":[0,0,0,0,0,0,0,0,0],"sum_hessian":[2.3218142E1,5.541357E0,1.7676785E1,3.5806785E0,1.9606788E0,1.0945655E1,6.73113E0,1.2034844E0,5.5276456E0],"tree_param":{"num_deleted":"0","num_feature":"250","num_nodes":"9","size_leaf_vector":"0"}},{"base_weights":[-1.1753182E-1,-4.8084435E-1,4.8484096E-1,1.4586207E0,-4.3097982E-1],"categories":[],"categories_nodes":[],"categories_segments":[],"categories_sizes":[],"default_left":[1,0,1,0,0],"id":68,"left_children":[1,-1,3,-1,-1],"loss_changes":[5.643676E0,0E0,9.367594E0,0E0,0E0],"parents":[2147483647,0,0,2,2],"right_children":[2,-1,4,-1,-1],"split_conditions":[1.175E2,-1.4425331E-1,1.205E2,4.3758622E-1,-1.2929395E-1],"split_indices":[77,0,88,0,0],"split_type":[0,0,0,0,0],"sum_hessian":[2.3722656E1,1.4923506E1,8.79915E0,3.9773722E0,4.821778E0],"tree_param":{"num_deleted":"0","num_feature":"250","num_nodes":"5","size_leaf_vector":"0"}},{"base_weights":[1.8835251E-1,-4.7411406E-1,6.784997E-1,2.0801628E0,4.482291E-1,-4.1622302E-1,7.718296E-1,2.0203943E0,4.4818383E-1,-3.918928E-1,8.40635E-1,1.3679872E0,-1.1616767E-1],"categories":[],"categories_nodes":[],"categories_segments":[],"categories_sizes":[],"default_left":[1,0,1,0,1,0,1,0,1,0,1,0,0],"id":69,"left_children":[1,-1,3,-1,5,-1,7,-1,9,-1,11,-1,-1],"loss_changes":[9.6161E0,0E0,4.5103664E0,0E0,4.7294364E0,0E0,3.869419E0,0E0,3.8468995E0,0E0,3.9885364E0,0E0,0E0],"parents":[2147483647,0,0,2,2,4,4,6,6,8,8,10,10],"right_children":[2,-1,4,-1,6,-1,8,-1,10,-1,12,-1,-1],"split_conditions":[8.35E1,-1.4223422E-1,8.45E1,6.240488E-1,1.025E2,-1.2486691E-1,1.065E2,6.061183E-1,1.685E2,-1.17567845E-1,2.885E2,4.1039616E-1,-3.4850303E-2],"split_indices":[244,0,119,0,74,0,89,0,201,0,35,0,0],"split_type":[0,0,0,0,0,0,0,0,0,0,0,0,0],"sum_hessian":[2.7624077E1,1.1761005E1,1.5863071E1,1.1047673E0,1.4758304E1,3.9418895E0,1.0816414E1,1.1473898E0,9.669024E0,3.0791829E0,6.5898414E0,3.9712794E0,2.6185622E0],"tree_param":{"num_deleted":"0","num_feature":"250","num_nodes":"13","size_leaf_vector":"0"}},{"base_weights":[-8.664958E-2,-4.8281267E-1,8.2957387E-1,1.0962592E0,-2.9482862E-1,4.9903998E-1,1.5976233E0,1.706735E0,-3.7522197E-1],"categories":[],"categories_nodes":[],"categories_segments":[],"categories_sizes":[],"default_left":[1,0,1,1,0,1,0,0,0],"id":70,"left_children":[1,-1,3,5,-1,7,-1,-1,-1],"loss_changes":[9.167504E0,0E0,2.619814E0,1.1197977E0,0E0,5.2609844E0,0E0,0E0,0E0],"parents":[2147483647,0,0,2,2,3,3,5,5],"right_children":[2,-1,4,6,-1,8,-1,-1,-1],"split_conditions":[1.645E2,-1.448438E-1,3.03E2,2.845E2,-8.844859E-2,1.88E2,4.7928703E-1,5.120205E-1,-1.125666E-1],"split_indices":[56,0,0,112,0,39,0,0,0],"split_type":[0,0,0,0,0,0,0,0,0],"sum_hessian":[2.3153183E1,1.6494303E1,6.658881E0,5.4025383E0,1.2563428E0,3.376205E0,2.0263333E0,1.0178953E0,2.3583095E0],"tree_param":{"num_deleted":"0","num_feature":"250","num_nodes":"9","size_leaf_vector":"0"}},{"base_weights":[1.4504007E-1,-4.559006E-1,3.5655504E-1,1.2782867E0,8.391719E-2,-2.6860788E-1,1.7692728E0,3.2779655E-1,-4.3254325E-1,-3.129096E-1,8.894213E-1,2.2180797E-1,-4.4307464E-1,5.0849044E-1,1.5581433E0,9.2602295E-1,-3.3885288E-1],"categories":[],"categories_nodes":[],"categories_segments":[],"categories_sizes":[],"default_left":[1,0,1,1,1,0,0,1,0,1,1,0,0,1,0,0,0],"id":71,"left_children":[1,-1,3,5,7,-1,-1,9,-1,11,13,-1,-1,15,-1,-1,-1],"loss_changes":[3.9622903E0,0E0,5.590272E0,4.3526173E0,2.4804027E0,0E0,0E0,5.0211897E0,0E0,5.782919E-1,1.0632148E0,0E0,0E0,2.4807782E0,0E0,0E0,0E0],"parents":[2147483647,0,0,2,2,3,3,4,4,7,7,9,9,10,10,13,13],"right_children":[2,-1,4,6,8,-1,-1,10,-1,12,14,-1,-1,16,-1,-1,-1],"split_conditions":[5.45E1,-1.3677019E-1,5.95E1,5.85E1,1.015E2,-8.0582365E-2,5.3078187E-1,8.65E1,-1.2976298E-1,6.05E1,9.6E1,6.6542394E-2,-1.329224E-1,8.85E1,4.67443E-1,2.778069E-1,-1.0165587E-1],"split_indices":[230,0,249,128,2,0,0,119,0,161,12,0,0,3,0,0,0],"split_type":[0,0,0,0,0,0,0,0,0,0,0,0,0,0,0,0,0],"sum_hessian":[2.8893782E1,7.221418E0,2.1672365E1,4.105143E0,1.756722E1,1.0981736E0,3.0069697E0,1.2180657E1,5.386564E0,5.8966074E0,6.2840495E0,1.016554E0,4.8800535E0,5.125023E0,1.159027E0,3.3710616E0,1.7539613E0],"tree_param":{"num_deleted":"0","num_feature":"250","num_nodes":"17","size_leaf_vector":"0"}},{"base_weights":[-1.1938516E-1,3.6152914E-1,-4.8027357E-1,-4.413872E-1,1.3713444E0],"categories":[],"categories_nodes":[],"categories_segments":[],"categories_sizes":[],"default_left":[1,1,0,0,0],"id":72,"left_children":[1,3,-1,-1,-1],"loss_changes":[4.4912806E0,9.715195E0,0E0,0E0,0E0],"parents":[2147483647,0,0,1,1],"right_children":[2,4,-1,-1,-1],"split_conditions":[5.55E1,5.55E1,-1.4408208E-1,-1.3241617E-1,4.1140336E-1],"split_indices":[204,242,0,0,0],"split_type":[0,0,0,0,0],"sum_hessian":[2.387749E1,1.0235734E1,1.3641755E1,6.015578E0,4.2201557E0],"tree_param":{"num_deleted":"0","num_feature":"250","num_nodes":"5","size_leaf_vector":"0"}},{"base_weights":[-1.1870184E-1,3.4967345E-1,-4.808514E-1,-4.4460753E-1,1.443962E0],"categories":[],"categories_nodes":[],"categories_segments":[],"categories_sizes":[],"default_left":[1,1,0,0,0],"id":73,"left_children":[1,3,-1,-1,-1],"loss_changes":[4.4158235E0,1.0636211E1,0E0,0E0,0E0],"parents":[2147483647,0,0,1,1],"right_children":[2,4,-1,-1,-1],"split_conditions":[5.75E1,5.45E1,-1.4425543E-1,-1.3338226E-1,4.3318862E-1],"split_indices":[100,110,0,0,0],"split_type":[0,0,0,0,0],"sum_hessian":[2.404206E1,1.049854E1,1.3543522E1,6.427146E0,4.0713935E0],"tree_param":{"num_deleted":"0","num_feature":"250","num_nodes":"5","size_leaf_vector":"0"}},{"base_weights":[-1.17405124E-1,-4.850104E-1,8.0872005E-1,1.484296E0,-3.8032866E-1],"categories":[],"categories_nodes":[],"categories_segments":[],"categories_sizes":[],"default_left":[1,0,1,0,0],"id":74,"left_children":[1,-1,3,-1,-1],"loss_changes":[8.812138E0,0E0,6.5107136E0,0E0,0E0],"parents":[2147483647,0,0,2,2],"right_children":[2,-1,4,-1,-1],"split_conditions":[1.895E2,-1.4550312E-1,1.995E2,4.452888E-1,-1.140986E-1],"split_indices":[226,0,0,0,0],"split_type":[0,0,0,0,0],"sum_hessian":[2.3731792E1,1.7329517E1,6.4022737E0,3.9243116E0,2.477962E0],"tree_param":{"num_deleted":"0","num_feature":"250","num_nodes":"5","size_leaf_vector":"0"}},{"base_weights":[-1.18640676E-1,6.627064E-1,-4.8383996E-1,-3.970095E-1,1.3818992E0],"categories":[],"categories_nodes":[],"categories_segments":[],"categories_sizes":[],"default_left":[1,1,0,0,0],"id":75,"left_children":[1,3,-1,-1,-1],"loss_changes":[7.3999653E0,6.8929443E0,0E0,0E0,0E0],"parents":[2147483647,0,0,1,1],"right_children":[2,4,-1,-1,-1],"split_conditions":[3.95E1,4.25E1,-1.4515199E-1,-1.1910285E-1,4.145698E-1],"split_indices":[135,41,0,0,0],"split_type":[0,0,0,0,0],"sum_hessian":[2.3809488E1,7.3243446E0,1.6485144E1,3.1422637E0,4.182081E0],"tree_param":{"num_deleted":"0","num_feature":"250","num_nodes":"5","size_leaf_vector":"0"}},{"base_weights":[-1.16833E-1,8.453445E-1,-4.847832E-1,-3.594256E-1,1.4295051E0],"categories":[],"categories_nodes":[],"categories_segments":[],"categories_sizes":[],"default_left":[1,1,0,0,0],"id":76,"left_children":[1,3,-1,-1,-1],"loss_changes":[9.128935E0,5.564997E0,0E0,0E0,0E0],"parents":[2147483647,0,0,1,1],"right_children":[2,4,-1,-1,-1],"split_conditions":[3.15E1,3.15E1,-1.4543496E-1,-1.07827686E-1,4.2885154E-1],"split_indices":[184,36,0,0,0],"split_type":[0,0,0,0,0],"sum_hessian":[2.3627977E1,6.177245E0,1.7450731E1,2.142754E0,4.034491E0],"tree_param":{"num_deleted":"0","num_feature":"250","num_nodes":"5","size_leaf_vector":"0"}},{"base_weights":[-1.2065001E-1,2.0393442E-1,-4.7215965E-1,-4.6307024E-1,1.442491E0],"categories":[],"categories_nodes":[],"categories_segments":[],"categories_sizes":[],"default_left":[1,1,0,0,0],"id":77,"left_children":[1,3,-1,-1,-1],"loss_changes":[2.9294083E0,1.1910248E1,0E0,0E0,0E0],"parents":[2147483647,0,0,1,1],"right_children":[2,4,-1,-1,-1],"split_conditions":[6.45E1,6.55E1,-1.416479E-1,-1.3892108E-1,4.3274733E-1],"split_indices":[38,101,0,0,0],"split_type":[0,0,0,0,0],"sum_hessian":[2.383132E1,1.2608473E1,1.1222846E1,8.602082E0,4.006391E0],"tree_param":{"num_deleted":"0","num_feature":"250","num_nodes":"5","size_leaf_vector":"0"}},{"base_weights":[1.2849791E-1,1.434104E0,-7.6976423E-3,-4.6832198E-1,3.050948E-1,9.927259E-1,-4.5431176E-1,2.6686165E-1,1.1483519E0],"categories":[],"categories_nodes":[],"categories_segments":[],"categories_sizes":[],"default_left":[1,0,1,0,1,1,0,0,0],"id":78,"left_children":[1,-1,3,-1,5,7,-1,-1,-1],"loss_changes":[5.2389493E0,0E0,4.122053E0,0E0,9.356404E0,7.4002457E-1,0E0,0E0,0E0],"parents":[2147483647,0,0,2,2,4,4,5,5],"right_children":[2,-1,4,-1,6,8,-1,-1,-1],"split_conditions":[2.35E1,4.302312E-1,7.95E1,-1.404966E-1,8.35E1,8.25E1,-1.3629353E-1,8.00585E-2,3.4450558E-1],"split_indices":[190,0,18,0,107,0,0,0,0],"split_type":[0,0,0,0,0,0,0,0,0],"sum_hessian":[2.8400385E1,1.7825601E0,2.6617825E1,1.0563936E1,1.6053888E1,8.263855E0,7.7900343E0,1.9382615E0,6.3255935E0],"tree_param":{"num_deleted":"0","num_feature":"250","num_nodes":"9","size_leaf_vector":"0"}},{"base_weights":[5.8800653E-2,1.0685515E0,-4.9272794E-1],"categories":[],"categories_nodes":[],"categories_segments":[],"categories_sizes":[],"default_left":[1,0,0],"id":79,"left_children":[1,-1,-1],"loss_changes":[1.7178452E1,0E0,0E0],"parents":[2147483647,0,0],"right_children":[2,-1,-1],"split_conditions":[2.45E1,3.2056546E-1,-1.4781839E-1],"split_indices":[155,0,0],"split_type":[0,0,0],"sum_hessian":[2.8900793E1,9.878174E0,1.902262E1],"tree_param":{"num_deleted":"0","num_feature":"250","num_nodes":"3","size_leaf_vector":"0"}},{"base_weights":[2.778797E-1,-4.723785E-1,6.1081576E-1,1.1998732E0,3.7622774E-1,-1.3227911E-1,6.8662715E-1,5.893576E-1,-4.4598928E-1,9.408219E-1,-3.4824833E-1,4.851741E-1,1.4975712E0,1.4248983E0,-9.829221E-2],"categories":[],"categories_nodes":[],"categories_segments":[],"categories_sizes":[],"default_left":[1,0,1,0,1,1,1,0,0,1,0,1,0,0,0],"id":80,"left_children":[1,-1,3,-1,5,7,9,-1,-1,11,-1,13,-1,-1,-1],"loss_changes":[9.0649395E0,0E0,2.9717283E0,0E0,3.1171577E0,2.0979166E0,3.5020895E0,0E0,0E0,1.7995701E0,0E0,3.9537027E0,0E0,0E0,0E0],"parents":[2147483647,0,0,2,2,4,4,5,5,6,6,9,9,11,11],"right_children":[2,-1,4,-1,6,8,10,-1,-1,12,-1,14,-1,-1,-1],"split_conditions":[7.2E1,-1.4171356E-1,7.95E1,3.59962E-1,1.325E2,8.25E1,1.905E2,1.7680728E-1,-1.337968E-1,1.925E2,-1.0447451E-1,1.385E2,4.4927138E-1,4.274695E-1,-2.9487664E-2],"split_indices":[167,0,153,0,166,26,239,0,0,103,0,1,0,0,0],"split_type":[0,0,0,0,0,0,0,0,0,0,0,0,0,0,0],"sum_hessian":[3.4135406E1,1.0363299E1,2.3772108E1,5.5987277E0,1.8173382E1,7.105975E0,1.1067407E1,1.886874E0,5.219101E0,8.957961E0,2.1094449E0,5.955433E0,3.0025287E0,1.7288463E0,4.2265863E0],"tree_param":{"num_deleted":"0","num_feature":"250","num_nodes":"15","size_leaf_vector":"0"}},{"base_weights":[-1.1787351E-1,7.031868E-1,-4.85102E-1,-3.9020017E-1,1.4506819E0],"categories":[],"categories_nodes":[],"categories_segments":[],"categories_sizes":[],"default_left":[1,1,0,0,0],"id":81,"left_children":[1,3,-1,-1,-1],"loss_changes":[7.7954087E0,7.14412E0,0E0,0E0,0E0],"parents":[2147483647,0,0,1,1],"right_children":[2,4,-1,-1,-1],"split_conditions":[4.05E1,4.25E1,-1.4553061E-1,-1.1706006E-1,4.352046E-1],"split_indices":[98,5,0,0,0],"split_type":[0,0,0,0,0],"sum_hessian":[2.3722647E1,7.0485163E0,1.667413E1,3.056158E0,3.9923584E0],"tree_param":{"num_deleted":"0","num_feature":"250","num_nodes":"5","size_leaf_vector":"0"}},{"base_weights":[-1.1969872E-1,5.4688126E-1,-4.828738E-1,-4.1824803E-1,1.4307252E0],"categories":[],"categories_nodes":[],"categories_segments":[],"categories_sizes":[],"default_left":[1,1,0,0,0],"id":82,"left_children":[1,3,-1,-1,-1],"loss_changes":[6.260588E0,8.450413E0,0E0,0E0,0E0],"parents":[2147483647,0,0,1,1],"right_children":[2,4,-1,-1,-1],"split_conditions":[4.75E1,4.85E1,-1.4486215E-1,-1.2547441E-1,4.2921758E-1],"split_indices":[79,1,0,0,0],"split_type":[0,0,0,0,0],"sum_hessian":[2.3770256E1,8.20492E0,1.5565335E1,4.173919E0,4.031001E0],"tree_param":{"num_deleted":"0","num_feature":"250","num_nodes":"5","size_leaf_vector":"0"}},{"base_weights":[-8.586136E-2,-2.8050113E-1,2.1072547E0,-4.76865E-1,5.2457422E-2,1.9565824E0,-4.625147E-1],"categories":[],"categories_nodes":[],"categories_segments":[],"categories_sizes":[],"default_left":[1,1,0,0,1,0,0],"id":83,"left_children":[1,3,-1,-1,5,-1,-1],"loss_changes":[1.087009E1,1.5287585E0,0E0,0E0,1.0154817E1,0E0,0E0],"parents":[2147483647,0,0,1,1,4,4],"right_children":[2,4,-1,-1,6,-1,-1],"split_conditions":[3.69E2,9.5E1,6.3217646E-1,-1.430595E-1,9.9E1,5.8697474E-1,-1.3875441E-1],"split_indices":[0,128,0,0,21,0,0],"split_type":[0,0,0,0,0,0,0],"sum_hessian":[2.3080072E1,2.1999693E1,1.0803806E0,1.356655E1,8.433142E0,1.1992997E0,7.233842E0],"tree_param":{"num_deleted":"0","num_feature":"250","num_nodes":"7","size_leaf_vector":"0"}},{"base_weights":[-1.18436135E-1,-4.7688863E-1,3.1080645E-1,1.4366624E0,-4.5417932E-1],"categories":[],"categories_nodes":[],"categories_segments":[],"categories_sizes":[],"default_left":[1,0,1,0,0],"id":84,"left_children":[1,-1,3,-1,-1],"loss_changes":[3.9902022E0,0E0,1.0960502E1,0E0,0E0],"parents":[2147483647,0,0,2,2],"right_children":[2,-1,4,-1,-1],"split_conditions":[9.1E1,-1.430666E-1,9.65E1,4.3099874E-1,-1.362538E-1],"split_indices":[180,0,174,0,0],"split_type":[0,0,0,0,0],"sum_hessian":[2.3970135E1,1.3001677E1,1.0968458E1,4.082329E0,6.8861294E0],"tree_param":{"num_deleted":"0","num_feature":"250","num_nodes":"5","size_leaf_vector":"0"}},{"base_weights":[-1.1709665E-1,-4.802021E-1,3.8265243E-1,1.4902015E0,-4.447016E-1],"categories":[],"categories_nodes":[],"categories_segments":[],"categories_sizes":[],"default_left":[1,0,1,0,0],"id":85,"left_children":[1,-1,3,-1,-1],"loss_changes":[4.7076483E0,0E0,1.0786074E1,0E0,0E0],"parents":[2147483647,0,0,2,2],"right_children":[2,-1,4,-1,-1],"split_conditions":[9.45E1,-1.4406064E-1,9.75E1,4.4706047E-1,-1.3341048E-1],"split_indices":[171,0,169,0,0],"split_type":[0,0,0,0,0],"sum_hessian":[2.393033E1,1.388265E1,1.0047681E1,3.9537597E0,6.0939207E0],"tree_param":{"num_deleted":"0","num_feature":"250","num_nodes":"5","size_leaf_vector":"0"}},{"base_weights":[-8.852082E-2,1.4698449E-1,-4.5964545E-1,-4.5313868E-1,7.614642E-1,2.1482477E0,2.504611E-1,-4.1666386E-1,1.2518439E0],"categories":[],"categories_nodes":[],"categories_segments":[],"categories_sizes":[],"default_left":[1,1,0,0,1,0,1,0,0],"id":86,"left_children":[1,3,-1,-1,5,-1,7,-1,-1],"loss_changes":[2.1944294E0,6.1143575E0,0E0,0E0,5.2042284E0,0E0,5.2334886E0,0E0,0E0],"parents":[2147483647,0,0,1,1,4,4,6,6],"right_children":[2,4,-1,-1,6,-1,8,-1,-1],"split_conditions":[8.15E1,5.85E1,-1.3789365E-1,-1.3594161E-1,5.35E1,6.444743E-1,8.5E1,-1.2499916E-1,3.755532E-1],"split_indices":[123,122,0,0,188,0,59,0,0],"split_type":[0,0,0,0,0,0,0,0,0],"sum_hessian":[2.3334375E1,1.464501E1,8.689365E0,7.5418906E0,7.103119E0,1.0498918E0,6.0532274E0,3.9833896E0,2.0698376E0],"tree_param":{"num_deleted":"0","num_feature":"250","num_nodes":"9","size_leaf_vector":"0"}},{"base_weights":[-8.920783E-2,-4.767297E-1,3.7971744E-1,1.9069588E0,9.130638E-3,-4.376347E-1,6.469519E-1,2.0563521E0,-3.8497126E-1],"categories":[],"categories_nodes":[],"categories_segments":[],"categories_sizes":[],"default_left":[1,0,1,0,1,0,1,0,0],"id":87,"left_children":[1,-1,3,-1,5,-1,7,-1,-1],"loss_changes":[4.5892897E0,0E0,6.5100584E0,0E0,3.2141564E0,0E0,7.5407267E0,0E0,0E0],"parents":[2147483647,0,0,2,2,4,4,6,6],"right_children":[2,-1,4,-1,6,-1,8,-1,-1],"split_conditions":[8.85E1,-1.4301892E-1,8.85E1,5.7208765E-1,2.055E2,-1.3129042E-1,2.41E2,6.169057E-1,-1.1549138E-1],"split_indices":[152,0,124,0,0,0,0,0,0],"split_type":[0,0,0,0,0,0,0,0,0],"sum_hessian":[2.3258728E1,1.2725597E1,1.0533132E1,1.2472507E0,9.285881E0,5.645394E0,3.640487E0,1.1191772E0,2.5213096E0],"tree_param":{"num_deleted":"0","num_feature":"250","num_nodes":"9","size_leaf_vector":"0"}},{"base_weights":[-1.1582871E-1,1.0679461E0,-4.859963E-1,-3.1977513E-1,1.509013E0],"categories":[],"categories_nodes":[],"categories_segments":[],"categories_sizes":[],"default_left":[1,1,0,0,0],"id":88,"left_children":[1,3,-1,-1,-1],"loss_changes":[1.135184E1,4.2784677E0,0E0,0E0,0E0],"parents":[2147483647,0,0,1,1],"right_children":[2,4,-1,-1,-1],"split_conditions":[2.45E1,2.8E1,-1.4579889E-1,-9.593254E-2,4.5270392E-1],"split_indices":[71,162,0,0,0],"split_type":[0,0,0,0,0],"sum_hessian":[2.3721462E1,5.2016973E0,1.8519766E1,1.3208686E0,3.8808289E0],"tree_param":{"num_deleted":"0","num_feature":"250","num_nodes":"5","size_leaf_vector":"0"}},{"base_weights":[-8.879985E-2,-4.6056795E-1,1.4407042E-1,2.1917386E0,-1.4710492E-1,2.8844056E-1,-4.555797E-1,-4.1232067E-1,1.3200514E0],"categories":[],"categories_nodes":[],"categories_segments":[],"categories_sizes":[],"default_left":[1,0,1,0,1,1,0,0,0],"id":89,"left_children":[1,-1,3,-1,5,7,-1,-1,-1],"loss_changes":[2.1730297E0,0E0,9.697345E0,0E0,2.106859E0,5.393849E0,0E0,0E0,0E0],"parents":[2147483647,0,0,2,2,4,4,5,5],"right_children":[2,-1,4,-1,6,8,-1,-1,-1],"split_conditions":[6.35E1,-1.3817039E-1,5.55E1,6.575216E-1,8.35E1,8.95E1,-1.3667391E-1,-1.2369621E-1,3.9601544E-1],"split_indices":[198,0,108,0,166,112,0,0,0],"split_type":[0,0,0,0,0,0,0,0,0],"sum_hessian":[2.3333887E1,8.610223E0,1.4723665E1,1.0204209E0,1.3703244E1,5.7083654E0,7.994879E0,3.7567577E0,1.951608E0],"tree_param":{"num_deleted":"0","num_feature":"250","num_nodes":"9","size_leaf_vector":"0"}},{"base_weights":[-9.90727E-2,3.6526132E-1,-4.7295082E-1,-4.039802E-1,8.014896E-1,1.568417E-1,8.914294E-1],"categories":[],"categories_nodes":[],"categories_segments":[],"categories_sizes":[],"default_left":[1,1,0,0,1,0,0],"id":90,"left_children":[1,3,-1,-1,5,-1,-1],"loss_changes":[4.185436E0,3.972735E0,0E0,0E0,2.819376E-1,0E0,0E0],"parents":[2147483647,0,0,1,1,4,4],"right_children":[2,4,-1,-1,6,-1,-1],"split_conditions":[4.8E1,4.55E1,-1.4188525E-1,-1.21194065E-1,4.65E1,4.705251E-2,2.6742885E-1],"split_indices":[134,91,0,0,105,0,0],"split_type":[0,0,0,0,0,0,0],"sum_hessian":[2.2113972E1,9.874048E0,1.22399235E1,3.5999136E0,6.274134E0,1.1041242E0,5.17001E0],"tree_param":{"num_deleted":"0","num_feature":"250","num_nodes":"7","size_leaf_vector":"0"}},{"base_weights":[-9.357953E-2,1.3648635E-1,-4.5488596E-1,-4.5172456E-1,7.6593876E-1,3.2146335E-1,1.1475283E0,9.8347026E-1,-3.724923E-1],"categories":[],"categories_nodes":[],"categories_segments":[],"categories_sizes":[],"default_left":[1,1,0,0,1,1,0,0,0],"id":91,"left_children":[1,3,-1,-1,5,7,-1,-1,-1],"loss_changes":[1.972862E0,5.830663E0,0E0,0E0,9.0771294E-1,2.6018193E0,0E0,0E0,0E0],"parents":[2147483647,0,0,1,1,4,4,5,5],"right_children":[2,4,-1,-1,6,8,-1,-1,-1],"split_conditions":[7.25E1,6.45E1,-1.3646579E-1,-1.3551737E-1,6.85E1,6.35E1,3.442585E-1,2.9504108E-1,-1.117477E-1],"split_indices":[173,38,0,0,66,24,0,0,0],"split_type":[0,0,0,0,0,0,0,0,0],"sum_hessian":[2.198698E1,1.3813392E1,8.173588E0,7.2865796E0,6.526812E0,3.866059E0,2.6607528E0,1.7650628E0,2.1009965E0],"tree_param":{"num_deleted":"0","num_feature":"250","num_nodes":"9","size_leaf_vector":"0"}},{"base_weights":[-6.646488E-2,1.6011177E0,-2.6338083E-1,1.4031225E-1,-4.7549093E-1,-4.3508357E-1,1.3123902E0],"categories":[],"categories_nodes":[],"categories_segments":[],"categories_sizes":[],"default_left":[1,0,1,1,0,0,0],"id":92,"left_children":[1,-1,3,5,-1,-1,-1],"loss_changes":[7.8491936E0,0E0,1.8725034E0,5.9906173E0,0E0,0E0,0E0],"parents":[2147483647,0,0,2,2,3,3],"right_children":[2,-1,4,6,-1,-1,-1],"split_conditions":[2.25E1,4.8033533E-1,4.45E1,4.35E1,-1.4264728E-1,-1.3052508E-1,3.9371708E-1],"split_indices":[234,0,150,134,0,0,0],"split_type":[0,0,0,0,0,0,0],"sum_hessian":[2.161902E1,1.5301315E0,2.0088888E1,7.0361023E0,1.3052786E1,5.1410527E0,1.8950496E0],"tree_param":{"num_deleted":"0","num_feature":"250","num_nodes":"7","size_leaf_vector":"0"}},{"base_weights":[2.684676E-1,-4.064637E-1,3.6479664E-1,1.0162989E0,1.9689259E-1,-3.3138964E-2,7.7692235E-1,3.5402676E-1,-4.5856616E-1,1.1115857E0,-3.2584447E-1,-4.2056698E-1,1.0365088E0],"categories":[],"categories_nodes":[],"categories_segments":[],"categories_sizes":[],"default_left":[1,0,1,0,1,1,1,1,0,0,0,0,0],"id":93,"left_children":[1,-1,3,-1,5,7,9,11,-1,-1,-1,-1,-1],"loss_changes":[2.3097494E0,0E0,3.0400505E0,0E0,3.3334959E0,3.2441294E0,2.9754052E0,5.912673E0,0E0,0E0,0E0,0E0,0E0],"parents":[2147483647,0,0,2,2,4,4,5,5,6,6,7,7],"right_children":[2,-1,4,-1,6,8,10,12,-1,-1,-1,-1,-1],"split_conditions":[4.05E1,-1.21939115E-1,4.25E1,3.0488968E-1,2.895E2,6.85E1,3.125E2,6.75E1,-1.3756986E-1,3.3347574E-1,-9.7753346E-2,-1.261701E-1,3.1095266E-1],"split_indices":[142,0,23,0,37,2,59,2,0,0,0,0,0],"split_type":[0,0,0,0,0,0,0,0,0,0,0,0,0],"sum_hessian":[3.2245518E1,3.6252923E0,2.8620226E1,4.8291755E0,2.379105E1,1.7710274E1,6.080776E0,9.359954E0,8.35032E0,4.6589108E0,1.4218653E0,4.5638776E0,4.796077E0],"tree_param":{"num_deleted":"0","num_feature":"250","num_nodes":"13","size_leaf_vector":"0"}},{"base_weights":[-1.1148741E-1,2.745769E-1,-4.7256854E-1,-4.435812E-1,9.683547E-1,3.2431263E-1,1.1318278E0],"categories":[],"categories_nodes":[],"categories_segments":[],"categories_sizes":[],"default_left":[1,1,0,0,1,0,0],"id":94,"left_children":[1,3,-1,-1,5,-1,-1],"loss_changes":[3.3381484E0,6.2866373E0,0E0,0E0,2.9552746E-1,0E0,0E0],"parents":[2147483647,0,0,1,1,4,4],"right_children":[2,4,-1,-1,6,-1,-1],"split_conditions":[5.55E1,5.25E1,-1.4177057E-1,-1.3307436E-1,6.15E1,9.7293794E-2,3.3954835E-1],"split_indices":[246,248,0,0,181,0,0],"split_type":[0,0,0,0,0,0,0],"sum_hessian":[2.2015635E1,1.0755516E1,1.1260119E1,5.4620996E0,5.2934165E0,1.6756554E0,3.617761E0],"tree_param":{"num_deleted":"0","num_feature":"250","num_nodes":"7","size_leaf_vector":"0"}},{"base_weights":[4.0062314E-1,-3.453305E-2,5.492401E-1,5.510947E-1,-4.4196644E-1,6.5267533E-1,-3.693016E-1,-3.514069E-1,1.3485119E0,4.3632722E-1,8.652022E-1,7.1459275E-1,-4.1655988E-1,1.2966752E0,6.30724E-1,1.0043325E0,3.8958174E-1,-3.3882484E-1,8.774952E-1,9.723339E-2,1.2102473E0,-2.0452793E-1,9.677192E-1,2.9149812E-1,9.9961704E-1],"categories":[],"categories_nodes":[],"categories_segments":[],"categories_sizes":[],"default_left":[1,1,1,1,0,1,0,0,0,1,1,1,0,0,1,1,1,0,1,0,0,0,0,0,0],"id":95,"left_children":[1,3,5,7,-1,9,-1,-1,-1,11,13,15,-1,-1,17,19,21,-1,23,-1,-1,-1,-1,-1,-1],"loss_changes":[2.5490093E0,2.8444407E0,3.017311E0,4.012684E0,0E0,8.4669495E-1,0E0,0E0,0E0,3.9077342E0,4.3806076E-1,7.234516E-1,0E0,0E0,2.6874895E0,9.3291616E-1,2.675385E0,0E0,2.9841852E-1,0E0,0E0,0E0,0E0,0E0,0E0],"parents":[2147483647,0,0,1,1,2,2,3,3,5,5,9,9,10,10,11,11,14,14,15,15,16,16,18,18],"right_children":[2,4,6,8,-1,10,-1,-1,-1,12,14,16,-1,-1,18,20,22,-1,24,-1,-1,-1,-1,-1,-1],"split_conditions":[6.15E1,3.15E1,1.53E2,3.25E1,-1.3258994E-1,1E2,-1.1079048E-1,-1.0542207E-1,4.045536E-1,8.65E1,1.165E2,6.55E1,-1.2496797E-1,3.890026E-1,1.275E2,6.25E1,8.95E1,-1.0164746E-1,1.355E2,2.917002E-2,3.6307418E-1,-6.135838E-2,2.9031578E-1,8.744944E-2,2.9988512E-1],"split_indices":[101,191,0,98,0,82,0,0,0,119,109,119,0,0,159,108,60,0,206,0,0,0,0,0,0],"split_type":[0,0,0,0,0,0,0,0,0,0,0,0,0,0,0,0,0,0,0,0,0,0,0,0,0],"sum_hessian":[3.81214E1,9.900371E0,2.822103E1,3.9172618E0,5.983109E0,2.5624903E1,2.596126E0,2.0999253E0,1.8173364E0,1.4211216E1,1.1413687E1,1.0837491E1,3.3737245E0,2.4236965E0,8.98999E0,4.6246095E0,6.2128816E0,1.7482381E0,7.2417526E0,1.1279494E0,3.4966602E0,3.382827E0,2.8300548E0,1.8330197E0,5.408733E0],"tree_param":{"num_deleted":"0","num_feature":"250","num_nodes":"25","size_leaf_vector":"0"}},{"base_weights":[1.0604546E-1,-4.3381488E-1,2.5092363E-1,9.9598765E-1,-1.0382713E-2,-4.5940208E-1,4.1158128E-1,1.0291862E0,-4.1945684E-1],"categories":[],"categories_nodes":[],"categories_segments":[],"categories_sizes":[],"default_left":[1,0,1,0,1,0,1,0,0],"id":96,"left_children":[1,-1,3,-1,5,-1,7,-1,-1],"loss_changes":[2.3407087E0,0E0,4.513763E0,0E0,3.6213024E0,0E0,5.4955726E0,0E0,0E0],"parents":[2147483647,0,0,2,2,4,4,6,6],"right_children":[2,-1,4,-1,6,-1,8,-1,-1],"split_conditions":[5.45E1,-1.3014448E-1,5.45E1,2.987963E-1,1.205E2,-1.3782063E-1,1.305E2,3.0875587E-1,-1.2583706E-1],"split_indices":[43,0,226,0,88,0,158,0,0],"split_type":[0,0,0,0,0,0,0,0,0],"sum_hessian":[2.7535236E1,5.403986E0,2.2131248E1,5.016398E0,1.7114851E1,8.248623E0,8.866229E0,4.9494777E0,3.9167514E0],"tree_param":{"num_deleted":"0","num_feature":"250","num_nodes":"9","size_leaf_vector":"0"}},{"base_weights":[-6.977533E-2,2.7101207E-1,-2.0256628E-1,-3.8519722E-1,9.1156936E-1,-4.61244E-1,1.7373373E-1,1.3033314E0,-4.2598957E-1],"categories":[],"categories_nodes":[],"categories_segments":[],"categories_sizes":[],"default_left":[1,1,1,0,0,0,1,0,0],"id":97,"left_children":[1,3,5,-1,-1,-1,7,-1,-1],"loss_changes":[1.0774175E0,3.1940844E0,1.7185595E0,0E0,0E0,0E0,5.692545E0,0E0,0E0],"parents":[2147483647,0,0,1,1,2,2,6,6],"right_children":[2,4,6,-1,-1,-1,8,-1,-1],"split_conditions":[4.15E1,4.7E1,1.105E2,-1.1555917E-1,2.7347082E-1,-1.383732E-1,1.185E2,3.9099944E-1,-1.2779687E-1],"split_indices":[161,247,101,0,0,0,6,0,0],"split_type":[0,0,0,0,0,0,0,0,0],"sum_hessian":[2.1595377E1,5.7634597E0,1.5831918E1,3.043868E0,2.7195919E0,9.248525E0,6.5833936E0,1.8762314E0,4.707162E0],"tree_param":{"num_deleted":"0","num_feature":"250","num_nodes":"9","size_leaf_vector":"0"}},{"base_weights":[-1.1368386E-1,-4.7336638E-1,3.8884813E-1,1.0341527E0,-4.1639537E-1],"categories":[],"categories_nodes":[],"categories_segments":[],"categories_sizes":[],"default_left":[1,0,1,0,0],"id":98,"left_children":[1,-1,3,-1,-1],"loss_changes":[4.2487574E0,0E0,5.5905137E0,0E0,0E0],"parents":[2147483647,0,0,2,2],"right_children":[2,-1,4,-1,-1],"split_conditions":[1.175E2,-1.4200991E-1,1.205E2,3.1024584E-1,-1.2491862E-1],"split_indices":[77,0,88,0,0],"split_type":[0,0,0,0,0],"sum_hessian":[2.1487665E1,1.2557669E1,8.929996E0,4.799504E0,4.1304913E0],"tree_param":{"num_deleted":"0","num_feature":"250","num_nodes":"5","size_leaf_vector":"0"}},{"base_weights":[1.6803835E-1,-4.6505606E-1,5.2499175E-1,1.3729593E0,3.537368E-1,-4.0209484E-1,5.749843E-1,1.3420328E0,3.4101027E-1,-3.767223E-1,5.958601E-1,7.906633E-1,-3.0240217E-1],"categories":[],"categories_nodes":[],"categories_segments":[],"categories_sizes":[],"default_left":[1,0,1,0,1,0,1,0,1,0,1,0,0],"id":99,"left_children":[1,-1,3,-1,5,-1,7,-1,9,-1,11,-1,-1],"loss_changes":[6.7238727E0,0E0,2.2451792E0,0E0,3.072767E0,0E0,1.9752774E0,0E0,2.3697462E0,0E0,1.8213825E0,0E0,0E0],"parents":[2147483647,0,0,2,2,4,4,6,6,8,8,10,10],"right_children":[2,-1,4,-1,6,-1,8,-1,10,-1,12,-1,-1],"split_conditions":[8.35E1,-1.3951683E-1,8.45E1,4.118878E-1,1.025E2,-1.20628454E-1,1.065E2,4.0260985E-1,1.685E2,-1.13016695E-1,3.095E2,2.37199E-1,-9.072065E-2],"split_indices":[244,0,119,0,74,0,89,0,201,0,224,0,0],"split_type":[0,0,0,0,0,0,0,0,0,0,0,0,0],"sum_hessian":[2.7673212E1,9.868155E0,1.7805058E1,1.812657E0,1.5992399E1,3.436192E0,1.2556208E1,1.8278987E0,1.0728309E1,2.6858754E0,8.042434E0,6.7075706E0,1.334863E0],"tree_param":{"num_deleted":"0","num_feature":"250","num_nodes":"13","size_leaf_vector":"0"}},{"base_weights":[-6.738656E-2,-4.757593E-1,6.375847E-1,1.5328768E0,2.9739627E-1,-3.8036245E-1,7.122334E-1,1.0720391E0,-2.7948326E-1],"categories":[],"categories_nodes":[],"categories_segments":[],"categories_sizes":[],"default_left":[1,0,1,0,1,0,1,0,0],"id":100,"left_children":[1,-1,3,-1,5,-1,7,-1,-1],"loss_changes":[6.792711E0,0E0,2.1924548E0,0E0,2.3913581E0,0E0,2.0931852E0,0E0,0E0],"parents":[2147483647,0,0,2,2,4,4,6,6],"right_children":[2,-1,4,-1,6,-1,8,-1,-1],"split_conditions":[1.645E2,-1.4272779E-1,1.79E2,4.5986307E-1,2.845E2,-1.1410874E-1,3.03E2,3.2161176E-1,-8.384498E-2],"split_indices":[56,0,0,0,112,0,0,0,0],"split_type":[0,0,0,0,0,0,0,0,0],"sum_hessian":[2.1541077E1,1.3845723E1,7.6953545E0,1.1535448E0,6.5418096E0,2.5153494E0,4.02646E0,2.8950949E0,1.1313654E0],"tree_param":{"num_deleted":"0","num_feature":"250","num_nodes":"9","size_leaf_vector":"0"}},{"base_weights":[1.2729046E-1,-4.4362715E-1,2.9584345E-1,4.981282E-1,-4.213152E-1,3.4206694E-1,1.5438538E0,9.056571E-1,4.4249255E-2,7.095771E-2,1.1417148E0,-3.0425623E-1,3.8474846E-1,2.1882208E-1,-4.353185E-1,7.289469E-1,-3.4045172E-1],"categories":[],"categories_nodes":[],"categories_segments":[],"categories_sizes":[],"default_left":[1,0,1,1,0,1,0,1,1,0,0,1,1,0,0,0,0],"id":101,"left_children":[1,-1,3,5,-1,7,-1,9,11,-1,-1,13,15,-1,-1,-1,-1],"loss_changes":[2.9649248E0,0E0,3.5950625E0,2.517033E0,0E0,2.9007442E0,0E0,1.1024256E0,1.6021236E0,0E0,0E0,5.575312E-1,1.9384551E0,0E0,0E0,0E0,0E0],"parents":[2147483647,0,0,2,2,3,3,5,5,7,7,8,8,11,11,12,12],"right_children":[2,-1,4,6,-1,8,-1,10,12,-1,-1,14,16,-1,-1,-1,-1],"split_conditions":[5.45E1,-1.3308816E-1,1.005E2,9.75E1,-1.2639457E-1,5.95E1,4.6315613E-1,5.95E1,8.75E1,2.1287315E-2,3.4251446E-1,6.25E1,9.05E1,6.5646626E-2,-1.3059555E-1,2.1868409E-1,-1.0213552E-1],"split_indices":[230,0,1,169,0,249,0,137,115,0,0,116,124,0,0,0,0],"split_type":[0,0,0,0,0,0,0,0,0,0,0,0,0,0,0,0,0],"sum_hessian":[2.8447E1,6.1121464E0,2.2334854E1,1.7659231E1,4.6756225E0,1.6520819E1,1.1384128E0,5.006168E0,1.151465E1,1.3903805E0,3.6157873E0,5.7430267E0,5.771624E0,1.0165007E0,4.7265263E0,3.9104557E0,1.8611683E0],"tree_param":{"num_deleted":"0","num_feature":"250","num_nodes":"17","size_leaf_vector":"0"}},{"base_weights":[-1.14856645E-1,3.0155447E-1,-4.72067E-1,-4.3371078E-1,1.0544994E0],"categories":[],"categories_nodes":[],"categories_segments":[],"categories_sizes":[],"default_left":[1,1,0,0,0],"id":102,"left_children":[1,3,-1,-1,-1],"loss_changes":[3.5291998E0,6.615552E0,0E0,0E0,0E0],"parents":[2147483647,0,0,1,1],"right_children":[2,4,-1,-1,-1],"split_conditions":[5.65E1,5.75E1,-1.416201E-1,-1.3011324E-1,3.1634983E-1],"split_indices":[143,103,0,0,0],"split_type":[0,0,0,0,0],"sum_hessian":[2.1769268E1,1.0123638E1,1.164563E1,5.336461E0,4.787177E0],"tree_param":{"num_deleted":"0","num_feature":"250","num_nodes":"5","size_leaf_vector":"0"}},{"base_weights":[-1.1357843E-1,2.8756058E-1,-4.713961E-1,-4.3486172E-1,1.0181648E0],"categories":[],"categories_nodes":[],"categories_segments":[],"categories_sizes":[],"default_left":[1,1,0,0,0],"id":103,"left_children":[1,3,-1,-1,-1],"loss_changes":[3.4356432E0,6.491783E0,0E0,0E0,0E0],"parents":[2147483647,0,0,1,1],"right_children":[2,4,-1,-1,-1],"split_conditions":[5.55E1,5.45E1,-1.4141883E-1,-1.3045852E-1,3.0544943E-1],"split_indices":[74,88,0,0,0],"split_type":[0,0,0,0,0],"sum_hessian":[2.1991581E1,1.046072E1,1.1530861E1,5.463347E0,4.997373E0],"tree_param":{"num_deleted":"0","num_feature":"250","num_nodes":"5","size_leaf_vector":"0"}},{"base_weights":[-1.0963593E-1,-4.7799975E-1,6.278366E-1,1.068976E0,-3.6309865E-1],"categories":[],"categories_nodes":[],"categories_segments":[],"categories_sizes":[],"default_left":[1,0,1,0,0],"id":104,"left_children":[1,-1,3,-1,-1],"loss_changes":[6.4028E0,0E0,3.8482912E0,0E0,0E0],"parents":[2147483647,0,0,2,2],"right_children":[2,-1,4,-1,-1],"split_conditions":[1.895E2,-1.4339992E-1,1.995E2,3.2069284E-1,-1.089296E-1],"split_indices":[226,0,0,0,0],"split_type":[0,0,0,0,0],"sum_hessian":[2.1464605E1,1.4549195E1,6.91541E0,4.7306767E0,2.1847332E0],"tree_param":{"num_deleted":"0","num_feature":"250","num_nodes":"5","size_leaf_vector":"0"}},{"base_weights":[-1.15054555E-1,5.2273417E-1,-4.7780794E-1,-3.8086754E-1,1.0007505E0],"categories":[],"categories_nodes":[],"categories_segments":[],"categories_sizes":[],"default_left":[1,1,0,0,0],"id":105,"left_children":[1,3,-1,-1,-1],"loss_changes":[5.4952664E0,4.137965E0,0E0,0E0,0E0],"parents":[2147483647,0,0,1,1],"right_children":[2,4,-1,-1,-1],"split_conditions":[4E1,4.25E1,-1.4334239E-1,-1.14260264E-1,3.0022517E-1],"split_indices":[141,237,0,0,0],"split_type":[0,0,0,0,0],"sum_hessian":[2.1672457E1,7.6976037E0,1.39748535E1,2.7335553E0,4.9640484E0],"tree_param":{"num_deleted":"0","num_feature":"250","num_nodes":"5","size_leaf_vector":"0"}},{"base_weights":[-1.1301352E-1,6.4777166E-1,-4.78014E-1,-3.3925375E-1,1.0189553E0],"categories":[],"categories_nodes":[],"categories_segments":[],"categories_sizes":[],"default_left":[1,1,0,0,0],"id":106,"left_children":[1,3,-1,-1,-1],"loss_changes":[6.51639E0,3.1562397E0,0E0,0E0,0E0],"parents":[2147483647,0,0,1,1],"right_children":[2,4,-1,-1,-1],"split_conditions":[3.15E1,3.15E1,-1.434042E-1,-1.0177613E-1,3.0568662E-1],"split_indices":[184,36,0,0,0],"split_type":[0,0,0,0,0],"sum_hessian":[2.1351595E1,6.671404E0,1.4680191E1,1.8467308E0,4.824673E0],"tree_param":{"num_deleted":"0","num_feature":"250","num_nodes":"5","size_leaf_vector":"0"}},{"base_weights":[-1.17066175E-1,1.7044187E-1,-4.6342933E-1,-4.526285E-1,1.0303037E0],"categories":[],"categories_nodes":[],"categories_segments":[],"categories_sizes":[],"default_left":[1,1,0,0,0],"id":107,"left_children":[1,3,-1,-1,-1],"loss_changes":[2.3292193E0,7.473225E0,0E0,0E0,0E0],"parents":[2147483647,0,0,1,1],"right_children":[2,4,-1,-1,-1],"split_conditions":[6.45E1,6.55E1,-1.390288E-1,-1.3578856E-1,3.0909112E-1],"split_indices":[38,101,0,0,0],"split_type":[0,0,0,0,0],"sum_hessian":[2.159673E1,1.207853E1,9.518198E0,7.2782154E0,4.8003144E0],"tree_param":{"num_deleted":"0","num_feature":"250","num_nodes":"5","size_leaf_vector":"0"}},{"base_weights":[1.1098592E-1,1.3259542E0,4.377642E-5,-3.8296995E-1,2.4708515E-1,2.200608E-1,-4.6781448E-1,7.8128E-1,-4.470126E-1,9.133255E-1,1.8579195E-1],"categories":[],"categories_nodes":[],"categories_segments":[],"categories_sizes":[],"default_left":[1,0,1,1,1,0,0,1,0,0,0],"id":108,"left_children":[1,-1,3,5,7,-1,-1,9,-1,-1,-1],"loss_changes":[3.8031723E0,0E0,2.635641E0,6.617502E-1,6.627737E0,0E0,0E0,6.11331E-1,0E0,0E0,0E0],"parents":[2147483647,0,0,2,2,3,3,4,4,7,7],"right_children":[2,-1,4,6,8,-1,-1,10,-1,-1,-1],"split_conditions":[2.05E1,3.977863E-1,7.65E1,2.25E1,8.35E1,6.601824E-2,-1.4034435E-1,8.45E1,-1.3410379E-1,2.7399766E-1,5.573759E-2],"split_indices":[189,0,0,148,93,0,0,201,0,0,0],"split_type":[0,0,0,0,0,0,0,0,0,0,0],"sum_hessian":[2.7215721E1,1.3608449E0,2.5854876E1,9.9218235E0,1.5933052E1,1.0272154E0,8.8946085E0,8.932654E0,7.0003977E0,6.8745303E0,2.058124E0],"tree_param":{"num_deleted":"0","num_feature":"250","num_nodes":"11","size_leaf_vector":"0"}},{"base_weights":[4.417357E-2,8.4624404E-1,-4.8613226E-1],"categories":[],"categories_nodes":[],"categories_segments":[],"categories_sizes":[],"default_left":[1,0,0],"id":109,"left_children":[1,-1,-1],"loss_changes":[1.1999296E1,0E0,0E0],"parents":[2147483647,0,0],"right_children":[2,-1,-1],"split_conditions":[2.45E1,2.5387323E-1,-1.4583969E-1],"split_indices":[155,0,0],"split_type":[0,0,0],"sum_hessian":[2.6243704E1,1.0208265E1,1.6035439E1],"tree_param":{"num_deleted":"0","num_feature":"250","num_nodes":"3","size_leaf_vector":"0"}},{"base_weights":[2.3289903E-1,-4.6322337E-1,4.8831674E-1,9.3181264E-1,3.023479E-1,-1.3939562E-1,5.4502904E-1,4.9700272E-1,-4.2688724E-1,7.224585E-1,-3.3234137E-1,3.5983688E-1,1.1595513E0,1.0329709E0,-1.2144546E-1],"categories":[],"categories_nodes":[],"categories_segments":[],"categories_sizes":[],"default_left":[1,0,1,0,1,1,1,0,0,1,0,1,0,0,0],"id":110,"left_children":[1,-1,3,-1,5,7,9,-1,-1,11,-1,13,-1,-1,-1],"loss_changes":[6.375789E0,0E0,1.8453007E0,0E0,2.1825788E0,1.6326584E0,2.246185E0,0E0,0E0,1.3316383E0,0E0,2.548965E0,0E0,0E0,0E0],"parents":[2147483647,0,0,2,2,4,4,5,5,6,6,9,9,11,11],"right_children":[2,-1,4,-1,6,8,10,-1,-1,12,-1,14,-1,-1,-1],"split_conditions":[7.35E1,-1.3896702E-1,8.25E1,2.7954382E-1,1.325E2,7.95E1,1.905E2,1.4910083E-1,-1.2806618E-1,1.915E2,-9.970242E-2,1.385E2,3.478654E-1,3.0989128E-1,-3.643364E-2],"split_indices":[173,0,229,0,166,25,239,0,0,20,0,1,0,0,0],"split_type":[0,0,0,0,0,0,0,0,0,0,0,0,0,0,0],"sum_hessian":[3.3586735E1,8.79715E0,2.4789583E1,6.1389403E0,1.8650644E1,6.763995E0,1.1886649E1,1.8780167E0,4.885978E0,1.0034041E1,1.852607E0,6.4807353E0,3.5533066E0,2.2239592E0,4.2567763E0],"tree_param":{"num_deleted":"0","num_feature":"250","num_nodes":"15","size_leaf_vector":"0"}},{"base_weights":[-1.135243E-1,5.5048424E-1,-4.7784364E-1,-3.736074E-1,