{"learner":{"attributes":{"scikit_learn":"{\"_estimator_type\": \"regressor\"}"},"feature_names":[],"feature_types":[],"gradient_booster":{"model":{"gbtree_model_param":{"num_parallel_tree":"1","num_trees":"100"},"iteration_indptr":[0,1,2,3,4,5,6,7,8,9,10,11,12,13,14,15,16,17,18,19,20,21,22,23,24,25,26,27,28,29,30,31,32,33,34,35,36,37,38,39,40,41,42,43,44,45,46,47,48,49,50,51,52,53,54,55,56,57,58,59,60,61,62,63,64,65,66,67,68,69,70,71,72,73,74,75,76,77,78,79,80,81,82,83,84,85,86,87,88,89,90,91,92,93,94,95,96,97,98,99,100],"tree_info":[0,0,0,0,0,0,0,0,0,0,0,0,0,0,0,0,0,0,0,0,0,0,0,0,0,0,0,0,0,0,0,0,0,0,0,0,0,0,0,0,0,0,0,0,0,0,0,0,0,0,0,0,0,0,0,0,0,0,0,0,0,0,0,0,0,0,0,0,0,0,0,0,0,0,0,0,0,0,0,0,0,0,0,0,0,0,0,0,0,0,0,0,0,0,0,0,0,0,0,0],"trees":[{"base_weights":[3.6222644E-7,3.0789621E1,-1.5299187E0,-8.2630205E0,1.8624605E1,-6.344599E0,2.6017895E0,2.6316967E0,-4.597857E0,-6.9201856E0,1.182634E1,1.4069234E1,-7.082393E0,1.2633935E-1,9.684525E-1,2.5176002E-2,-1.1655945E1,1.773951E1,1.1545609E1,-1.1637064E1,-5.287943E-1,-3.6996074E0,9.128803E0,-1.5220726E1,-3.473533E0,-3.3001573E0,2.2754938E1,2.0763395E0,-1.2100325E1,1.1439776E1,-8.984499E0,7.465716E-1,-3.3749554E0,3.1672273E0,-2.2736607E0,-5.178571E-1,-4.841228E0,8.968453E0,-2.1570399E0,-5.6289062E0,4.21098E-1,-1.297857E0,7.671362E0,-4.140637E0,-2.444831E0,1.6401109E-1,1.1242143E1,-4.064955E0,3.322143E0],"categories":[],"categories_nodes":[],"categories_segments":[],"categories_sizes":[],"default_left":[0,0,0,0,0,0,0,0,0,0,0,0,0,0,0,0,0,0,0,0,0,0,0,0,0,0,0,0,0,0,0,0,0,0,0,0,0,0,0,0,0,0,0,0,0,0,0,0,0],"id":0,"left_children":[1,3,5,7,-1,9,11,13,-1,15,-1,17,19,-1,-1,21,23,-1,25,27,29,31,33,35,37,39,41,-1,43,45,47,-1,-1,-1,-1,-1,-1,-1,-1,-1,-1,-1,-1,-1,-1,-1,-1,-1,-1],"loss_changes":[1.5921701E4,2.006579E4,6.422006E3,6.5594385E2,0E0,4.1977827E3,1.9422836E4,3.91473E0,0E0,4.8682446E3,0E0,8.414947E3,2.8295479E3,0E0,0E0,2.1022246E3,2.513959E3,0E0,1.2888749E4,5.651958E2,4.150888E3,2.0837754E3,5.096538E2,7.267412E2,3.687421E3,2.4993093E3,3.4664043E3,0E0,2.5731885E2,4.8005537E3,2.3478066E3,0E0,0E0,0E0,0E0,0E0,0E0,0E0,0E0,0E0,0E0,0E0,0E0,0E0,0E0,0E0,0E0,0E0,0E0],"parents":[2147483647,0,0,1,1,2,2,3,3,5,5,6,6,7,7,9,9,11,11,12,12,15,15,16,16,18,18,19,19,20,20,21,21,22,22,23,23,24,24,25,25,26,26,28,28,29,29,30,30],"right_children":[2,4,6,8,-1,10,12,14,-1,16,-1,18,20,-1,-1,22,24,-1,26,28,30,32,34,36,38,40,42,-1,44,46,48,-1,-1,-1,-1,-1,-1,-1,-1,-1,-1,-1,-1,-1,-1,-1,-1,-1,-1],"split_conditions":[2.5E1,2.5E1,6.9E1,2.3E1,1.8624605E1,6.9E1,9.6E1,2.3E1,-4.597857E0,4.9E1,1.182634E1,6.6E1,1.85E2,1.2633935E-1,9.684525E-1,4.3E1,6.3E1,1.773951E1,8.5E1,9.1E1,2.58E2,3E1,5.4E1,4.4E1,5.4E1,7.3E1,8.3E1,2.0763395E0,1.33E2,2.1E2,4.61E2,7.465716E-1,-3.3749554E0,3.1672273E0,-2.2736607E0,-5.178571E-1,-4.841228E0,8.968453E0,-2.1570399E0,-5.6289062E0,4.21098E-1,-1.297857E0,7.671362E0,-4.140637E0,-2.444831E0,1.6401109E-1,1.1242143E1,-4.064955E0,3.322143E0],"split_indices":[71,74,203,1,0,44,85,0,0,79,0,1,0,0,0,160,127,0,131,29,0,158,14,38,0,173,49,0,166,0,0,0,0,0,0,0,0,0,0,0,0,0,0,0,0,0,0,0,0],"split_type":[0,0,0,0,0,0,0,0,0,0,0,0,0,0,0,0,0,0,0,0,0,0,0,0,0,0,0,0,0,0,0,0,0,0,0,0,0,0,0,0,0,0,0,0,0,0,0,0,0],"sum_hessian":[3.36E2,1.5E1,3.21E2,7E0,8E0,1.48E2,1.73E2,3E0,4E0,1.47E2,1E0,7.9E1,9.4E1,1E0,2E0,6E1,8.7E1,3E0,7.6E1,5.5E1,3.9E1,4.3E1,1.7E1,6E1,2.7E1,3.3E1,4.3E1,1E0,5.4E1,1.6E1,2.3E1,2.4E1,1.9E1,1.6E1,1E0,4E0,5.6E1,2E0,2.5E1,7E0,2.6E1,4E0,3.9E1,3.6E1,1.8E1,1.2E1,4E0,1.9E1,4E0],"tree_param":{"num_deleted":"0","num_feature":"250","num_nodes":"49","size_leaf_vector":"1"}},{"base_weights":[1.5348615E-1,2.249783E1,-9.572685E-1,-6.221999E0,1.3658044E1,-4.3637447E0,1.9652731E0,2.1158848E0,-3.4943721E0,-4.84604E0,1.0052389E1,1.0352674E1,-4.9573298E0,1.0738793E-1,7.74762E-1,-1.0818357E-2,-8.142659E0,1.3663766E1,7.8684235E0,-8.276505E0,-1.0357113E-1,-1.8124564E0,1.060003E1,-1.1464234E1,-2.785295E0,8.106596E-1,2.378986E1,1.1204796E0,-8.819309E0,8.678795E0,-6.3200984E0,2.4036948E-1,-3.242798E0,2.0146964E0,6.2512555E0,-2.7805035E0,-5.3030343E0,7.1747622E0,-1.5384814E0,-8.8268155E-1,5.845573E0,7.7631145E0,3.7488252E-1,-1.1789818E0,1.2341797E0,-3.045087E0,-1.7499838E0,1.18593186E-1,8.544029E0,-2.9064426E0,2.5248284E0],"categories":[],"categories_nodes":[],"categories_segments":[],"categories_sizes":[],"default_left":[0,0,0,0,0,0,0,0,0,0,0,0,0,0,0,0,0,0,0,0,0,0,0,0,0,0,0,0,0,0,0,0,0,0,0,0,0,0,0,0,0,0,0,0,0,0,0,0,0,0,0],"id":1,"left_children":[1,3,5,7,-1,9,11,13,-1,15,-1,17,19,-1,-1,21,23,-1,25,27,29,31,33,35,37,39,41,43,45,47,49,-1,-1,-1,-1,-1,-1,-1,-1,-1,-1,-1,-1,-1,-1,-1,-1,-1,-1,-1,-1],"loss_changes":[8.385566E3,1.086548E4,3.2142693E3,3.8657037E2,0E0,2.8839158E3,1.015422E4,2.3569317E0,0E0,2.3590144E3,0E0,6.548496E3,1.5457488E3,0E0,0E0,1.1853435E3,1.534019E3,0E0,8.408445E3,3.0062305E2,2.2386836E3,1.2549562E3,2.1795868E2,5.728369E2,2.312254E3,3.7718057E3,1.0497148E3,7.664027E1,1.5540527E2,2.7771455E3,1.2727078E3,0E0,0E0,0E0,0E0,0E0,0E0,0E0,0E0,0E0,0E0,0E0,0E0,0E0,0E0,0E0,0E0,0E0,0E0,0E0,0E0],"parents":[2147483647,0,0,1,1,2,2,3,3,5,5,6,6,7,7,9,9,11,11,12,12,15,15,16,16,18,18,19,19,20,20,21,21,22,22,23,23,24,24,25,25,26,26,27,27,28,28,29,29,30,30],"right_children":[2,4,6,8,-1,10,12,14,-1,16,-1,18,20,-1,-1,22,24,-1,26,28,30,32,34,36,38,40,42,44,46,48,50,-1,-1,-1,-1,-1,-1,-1,-1,-1,-1,-1,-1,-1,-1,-1,-1,-1,-1,-1,-1],"split_conditions":[2.5E1,2.5E1,6.9E1,2.3E1,1.3658044E1,6.9E1,9.8E1,2.3E1,-3.4943721E0,4.9E1,1.0052389E1,6.5E1,1.85E2,1.0738793E-1,7.74762E-1,4.9E1,6.1E1,1.3663766E1,9.2E1,9.7E1,2.58E2,4.1E1,5.3E1,5.8E1,5.2E1,9.2E1,9.8E1,9.4E1,1.33E2,2.1E2,4.61E2,2.4036948E-1,-3.242798E0,2.0146964E0,6.2512555E0,-2.7805035E0,-5.3030343E0,7.1747622E0,-1.5384814E0,-8.8268155E-1,5.845573E0,7.7631145E0,3.7488252E-1,-1.1789818E0,1.2341797E0,-3.045087E0,-1.7499838E0,1.18593186E-1,8.544029E0,-2.9064426E0,2.5248284E0],"split_indices":[71,74,203,1,0,44,172,0,0,79,0,0,0,0,0,157,129,0,172,40,0,92,0,71,2,106,1,1,166,0,0,0,0,0,0,0,0,0,0,0,0,0,0,0,0,0,0,0,0,0,0],"split_type":[0,0,0,0,0,0,0,0,0,0,0,0,0,0,0,0,0,0,0,0,0,0,0,0,0,0,0,0,0,0,0,0,0,0,0,0,0,0,0,0,0,0,0,0,0,0,0,0,0,0,0],"sum_hessian":[3.36E2,1.5E1,3.21E2,7E0,8E0,1.48E2,1.73E2,3E0,4E0,1.47E2,1E0,7.8E1,9.5E1,1E0,2E0,6E1,8.7E1,4E0,7.4E1,5.6E1,3.9E1,5.2E1,8E0,5.3E1,3.4E1,5.2E1,2.2E1,3E0,5.3E1,1.6E1,2.3E1,4.1E1,1.1E1,7E0,1E0,4.1E1,1.2E1,2E0,3.2E1,4.4E1,8E0,2E1,2E0,1E0,2E0,3.5E1,1.8E1,1.2E1,4E0,1.9E1,4E0],"tree_param":{"num_deleted":"0","num_feature":"250","num_nodes":"51","size_leaf_vector":"1"}},{"base_weights":[2.6833126E-1,1.6438843E1,-5.360058E-1,-4.6819296E0,1.0015898E1,-3.0425525E0,1.640399E0,1.7016544E0,-2.6557236E0,-3.7890904E0,1.0440252E1,8.636066E0,-3.0839963E0,9.127922E-2,6.19809E-1,-2.5133789E0,-4.041518E0,9.487796E0,7.494804E0,-1.3604165E1,-2.3010864E0,7.871309E-2,-4.674549E0,-1.3093632E1,9.336642E0,-4.637109E0,-1.7944016E0,1.2582251E1,-3.4085023E0,-7.214336E-1,1.5870329E0,-2.6479704E0,1.4995617E-1,-1.6623346E0,-4.645384E0,1.0217066E0,4.1070766E0,-1.4196283E-1,4.451109E0,-1.7773305E0,9.680281E-2],"categories":[],"categories_nodes":[],"categories_segments":[],"categories_sizes":[],"default_left":[0,0,0,0,0,0,0,0,0,0,0,0,0,0,0,0,0,0,0,0,0,0,0,0,0,0,0,0,0,0,0,0,0,0,0,0,0,0,0,0,0],"id":2,"left_children":[1,3,5,7,-1,9,11,13,-1,15,-1,17,19,-1,-1,21,-1,-1,23,25,27,29,31,33,35,-1,-1,37,39,-1,-1,-1,-1,-1,-1,-1,-1,-1,-1,-1,-1],"loss_changes":[4.3920156E3,5.8834146E3,1.7615847E3,2.280447E2,0E0,4.3695923E3,5.744335E3,1.4080801E0,0E0,1.7942737E3,0E0,1.5995962E3,8.252754E2,0E0,0E0,7.3982544E2,0E0,0E0,2.7008494E3,6.414795E0,1.658127E3,8.0221155E2,1.5512754E3,2.254541E1,1.5801035E3,0E0,0E0,2.1308118E2,8.6555176E2,0E0,0E0,0E0,0E0,0E0,0E0,0E0,0E0,0E0,0E0,0E0,0E0],"parents":[2147483647,0,0,1,1,2,2,3,3,5,5,6,6,7,7,9,9,11,11,12,12,15,15,18,18,19,19,20,20,21,21,22,22,23,23,24,24,27,27,28,28],"right_children":[2,4,6,8,-1,10,12,14,-1,16,-1,18,20,-1,-1,22,-1,-1,24,26,28,30,32,34,36,-1,-1,38,40,-1,-1,-1,-1,-1,-1,-1,-1,-1,-1,-1,-1],"split_conditions":[2.5E1,2.5E1,6.9E1,2.3E1,1.0015898E1,7.1E1,9.2E1,2.3E1,-2.6557236E0,6.7E1,1.0440252E1,6.6E1,9.3E1,9.127922E-2,6.19809E-1,4.9E1,-4.041518E0,9.487796E0,7.4E1,9.2E1,9.7E1,4.5E1,5.7E1,7.7E1,8.5E1,-4.637109E0,-1.7944016E0,8.3E1,1.88E2,-7.214336E-1,1.5870329E0,-2.6479704E0,1.4995617E-1,-1.6623346E0,-4.645384E0,1.0217066E0,4.1070766E0,-1.4196283E-1,4.451109E0,-1.7773305E0,9.680281E-2],"split_indices":[71,74,19,1,0,215,61,0,0,51,0,1,236,0,0,79,0,0,173,0,242,28,103,8,131,0,0,0,132,0,0,0,0,0,0,0,0,0,0,0,0],"split_type":[0,0,0,0,0,0,0,0,0,0,0,0,0,0,0,0,0,0,0,0,0,0,0,0,0,0,0,0,0,0,0,0,0,0,0,0,0,0,0,0,0],"sum_hessian":[3.36E2,1.5E1,3.21E2,7E0,8E0,1.49E2,1.72E2,3E0,4E0,1.47E2,2E0,6.9E1,1.03E2,1E0,2E0,1.31E2,1.6E1,2E0,6.7E1,6E0,9.7E1,6E1,7.1E1,5E0,6.2E1,4E0,2E0,6E0,9.1E1,4.1E1,1.9E1,3.9E1,3.2E1,2E0,3E0,2.7E1,3.5E1,1E0,5E0,5.4E1,3.7E1],"tree_param":{"num_deleted":"0","num_feature":"250","num_nodes":"41","size_leaf_vector":"1"}},{"base_weights":[2.3929645E-1,1.00666685E1,-5.464019E-1,1.8421748E0,7.344991E0,-5.5513554E0,2.928892E-1,3.2091033E0,-1.6819581E0,-8.1252086E-1,-3.4302819E0,1.9102217E0,-2.641577E0,1.2515194E0,1.3485032E-1,-2.4090977E0,4.7807643E-1,4.6510275E-2,1.2517252E1,-5.425762E0,-7.23908E-1,1.0180169E0,-1.302983E0,8.097688E-1,-1.1916374E1,1.3992286E1,9.0649414E-1,1.2444649E-1,-5.590378E0,2.953602E0,-1.906768E0,-2.4603438E0,1.1673907E-1,-2.07622E-1,3.5415277E0,-3.9333856E0,-3.5356295E-1,4.7001185E0,1.9907731E0,1.0240631E0,-9.921982E-1,1.2444649E-1,-1.7291677E0,-2.2802722E0,4.015503E-2],"categories":[],"categories_nodes":[],"categories_segments":[],"categories_sizes":[],"default_left":[0,0,0,0,0,0,0,0,0,0,0,0,0,0,0,0,0,0,0,0,0,0,0,0,0,0,0,0,0,0,0,0,0,0,0,0,0,0,0,0,0,0,0,0,0],"id":3,"left_children":[1,3,5,7,-1,9,11,13,-1,15,-1,17,19,-1,-1,-1,21,23,25,27,29,-1,31,33,35,37,39,-1,41,-1,43,-1,-1,-1,-1,-1,-1,-1,-1,-1,-1,-1,-1,-1,-1],"loss_changes":[2.6075952E3,2.9191355E3,1.3164177E3,1.9108327E2,0E0,1.2452273E3,1.2817219E3,3.7971863E1,0E0,2.4603635E2,0E0,3.439127E3,5.086303E2,0E0,0E0,0E0,1.2384548E2,1.3701348E3,4.3259888E2,3.981555E1,7.438853E2,0E0,1.7827843E2,2.3365366E3,1.00024536E2,1.7940137E2,5.3546745E1,0E0,4.198645E1,0E0,6.1685425E2,0E0,0E0,0E0,0E0,0E0,0E0,0E0,0E0,0E0,0E0,0E0,0E0,0E0,0E0],"parents":[2147483647,0,0,1,1,2,2,3,3,5,5,6,6,7,7,9,9,11,11,12,12,16,16,17,17,18,18,19,19,20,20,22,22,23,23,24,24,25,25,26,26,28,28,30,30],"right_children":[2,4,6,8,-1,10,12,14,-1,16,-1,18,20,-1,-1,-1,22,24,26,28,30,-1,32,34,36,38,40,-1,42,-1,44,-1,-1,-1,-1,-1,-1,-1,-1,-1,-1,-1,-1,-1,-1],"split_conditions":[2.8E1,2.9E1,4.3E1,2.8E1,7.344991E0,3.9E1,9.8E1,2.9E1,-1.6819581E0,2E1,-3.4302819E0,9E1,1.33E2,1.2515194E0,1.3485032E-1,-2.4090977E0,2.8E1,8.8E1,9.7E1,1.8E1,1.39E2,1.0180169E0,3.1E1,8.5E1,9.3E1,9.6E1,9.3E1,1.2444649E-1,9.4E1,2.953602E0,1.85E2,-2.4603438E0,1.1673907E-1,-2.07622E-1,3.5415277E0,-3.9333856E0,-3.5356295E-1,4.7001185E0,1.9907731E0,1.0240631E0,-9.921982E-1,1.2444649E-1,-1.7291677E0,-2.2802722E0,4.015503E-2],"split_indices":[209,11,172,2,0,136,172,105,0,70,0,179,166,0,0,0,17,214,140,0,1,0,36,247,50,162,0,0,12,0,0,0,0,0,0,0,0,0,0,0,0,0,0,0,0],"split_type":[0,0,0,0,0,0,0,0,0,0,0,0,0,0,0,0,0,0,0,0,0,0,0,0,0,0,0,0,0,0,0,0,0,0,0,0,0,0,0,0,0,0,0,0,0],"sum_hessian":[3.36E2,2.4E1,3.12E2,1.6E1,8E0,4.4E1,2.68E2,1.4E1,2E0,2.5E1,1.9E1,1.73E2,9.5E1,1E1,4E0,3E0,2.2E1,1.48E2,2.5E1,3.8E1,5.7E1,8E0,1.4E1,1.4E2,8E0,2.2E1,3E0,1E0,3.7E1,5E0,5.2E1,2E0,1.2E1,1.24E2,1.6E1,7E0,1E0,1.7E1,5E0,2E0,1E0,1E0,3.6E1,1.3E1,3.9E1],"tree_param":{"num_deleted":"0","num_feature":"250","num_nodes":"45","size_leaf_vector":"1"}},{"base_weights":[1.8200885E-1,7.328646E0,-3.8939032E-1,1.272136E0,5.3863287E0,-3.6516979E0,3.202167E-1,2.338798E0,-1.3455659E0,-7.936889E-1,-8.377252E0,1.0693553E1,-1.4118215E-1,9.101963E-1,1.02486424E-1,-3.9775379E0,7.6630616E-1,-6.670066E0,-3.7518694E0,3.258912E0,6.866834E0,-3.6428208E0,7.614681E-1,9.529584E-1,-2.2906373E0,1.5249202E0,-1.5915512E0,-2.0570757E0,-5.52063E-1,4.1104892E-1,1.0980405E0,-1.7563295E0,-8.503096E0,9.615294E0,-4.8887666E-2,6.5982914E-1,-3.0799714E-1,-1.7915641E-1,7.472001E-1,9.092191E-1,-8.8051325E-1,-3.1558564E0,7.1909034E-1,-1.6347157E0,2.6844272E-1],"categories":[],"categories_nodes":[],"categories_segments":[],"categories_sizes":[],"default_left":[0,0,0,0,0,0,0,0,0,0,0,0,0,0,0,0,0,0,0,0,0,0,0,0,0,0,0,0,0,0,0,0,0,0,0,0,0,0,0,0,0,0,0,0,0],"id":4,"left_children":[1,3,5,7,-1,9,11,13,-1,15,17,19,21,-1,-1,23,25,27,-1,29,-1,31,33,35,-1,37,-1,-1,-1,-1,-1,39,41,-1,43,-1,-1,-1,-1,-1,-1,-1,-1,-1,-1],"loss_changes":[1.3790212E3,1.5860382E3,7.2575073E2,1.148896E2,0E0,7.496687E2,1.2363611E3,1.9789764E1,0E0,1.818524E2,6.461035E1,9.2279834E2,7.866412E2,0E0,0E0,2.237006E2,1.2323766E2,2.723877E0,0E0,1.0474854E0,0E0,4.5267798E2,5.0219834E3,1.7063274E1,0E0,4.862403E1,0E0,0E0,0E0,0E0,0E0,2.2331323E2,3.329231E2,0E0,9.9352264E2,0E0,0E0,0E0,0E0,0E0,0E0,0E0,0E0,0E0,0E0],"parents":[2147483647,0,0,1,1,2,2,3,3,5,5,6,6,7,7,9,9,10,10,11,11,12,12,15,15,16,16,17,17,19,19,21,21,22,22,23,23,25,25,31,31,32,32,34,34],"right_children":[2,4,6,8,-1,10,12,14,-1,16,18,20,22,-1,-1,24,26,28,-1,30,-1,32,34,36,-1,38,-1,-1,-1,-1,-1,40,42,-1,44,-1,-1,-1,-1,-1,-1,-1,-1,-1,-1],"split_conditions":[2.8E1,2.9E1,4.6E1,2.8E1,5.3863287E0,4.1E1,5E1,2.9E1,-1.3455659E0,3.3E1,5.3E1,5.1E1,6.2E1,9.101963E-1,1.02486424E-1,3E1,4.6E1,4.8E1,-3.7518694E0,4.6E1,6.866834E0,5.9E1,5.5E1,2.6E1,-2.2906373E0,3.4E1,-1.5915512E0,-2.0570757E0,-5.52063E-1,4.1104892E-1,1.0980405E0,5.2E1,6.7E1,9.615294E0,7.4E1,6.5982914E-1,-3.0799714E-1,-1.7915641E-1,7.472001E-1,9.092191E-1,-8.8051325E-1,-3.1558564E0,7.1909034E-1,-1.6347157E0,2.6844272E-1],"split_indices":[209,11,160,2,0,119,189,105,0,58,99,0,213,0,0,17,2,2,0,8,0,225,119,0,0,62,0,0,0,0,0,49,48,0,173,0,0,0,0,0,0,0,0,0,0],"split_type":[0,0,0,0,0,0,0,0,0,0,0,0,0,0,0,0,0,0,0,0,0,0,0,0,0,0,0,0,0,0,0,0,0,0,0,0,0,0,0,0,0,0,0,0,0],"sum_hessian":[3.36E2,2.4E1,3.12E2,1.6E1,8E0,5.5E1,2.57E2,1.4E1,2E0,3.5E1,2E1,1E1,2.47E2,1E1,4E0,1.1E1,2.4E1,1.6E1,4E0,7E0,3E0,5E1,1.97E2,5E0,6E0,2.2E1,2E0,1.5E1,1E0,2E0,5E0,3.7E1,1.3E1,4E0,1.93E2,3E0,2E0,7E0,1.5E1,7E0,3E1,1.1E1,2E0,2.8E1,1.65E2],"tree_param":{"num_deleted":"0","num_feature":"250","num_nodes":"45","size_leaf_vector":"1"}},{"base_weights":[1.5692313E-1,5.332193E0,-2.5693843E-1,8.709151E-1,3.9499757E0,1.22281596E-1,-4.8284745E0,1.7046722E0,-1.0764527E0,-2.4874517E-1,6.3961673E0,-7.312149E0,1.8215753E0,6.619615E-1,7.788987E-2,5.523264E-1,-2.9273524E0,-1.3577963E0,-8.792424E0,-5.1042676E-1,8.542606E0,-3.3121912E0,1.1597099E0,-3.0911298E0,-9.581406E-1,-1.9901816E-2,-2.6291454E0,5.0771446E0,1.5546161E0,-1.3208971E0,-5.3743297E-1],"categories":[],"categories_nodes":[],"categories_segments":[],"categories_sizes":[],"default_left":[0,0,0,0,0,0,0,0,0,0,0,0,0,0,0,0,0,0,0,0,0,0,0,0,0,0,0,0,0,0,0],"id":5,"left_children":[1,3,5,7,-1,9,11,13,-1,15,-1,17,-1,-1,-1,19,21,-1,23,25,27,29,-1,-1,-1,-1,-1,-1,-1,-1,-1],"loss_changes":[7.231719E2,8.623181E2,5.432129E2,6.931924E1,0E0,2.2861902E3,6.9415137E2,1.0305347E1,0E0,6.153031E2,0E0,4.2691284E1,0E0,0E0,0E0,1.8810251E3,1.853432E2,0E0,6.862897E1,7.1780304E2,6.4460254E2,9.661859E1,0E0,0E0,0E0,0E0,0E0,0E0,0E0,0E0,0E0],"parents":[2147483647,0,0,1,1,2,2,3,3,5,5,6,6,7,7,9,9,11,11,15,15,16,16,18,18,19,19,20,20,21,21],"right_children":[2,4,6,8,-1,10,12,14,-1,16,-1,18,-1,-1,-1,20,22,-1,24,26,28,30,-1,-1,-1,-1,-1,-1,-1,-1,-1],"split_conditions":[2.8E1,2.9E1,2.58E2,2.8E1,3.9499757E0,2.1E2,4.61E2,2.9E1,-1.0764527E0,1E2,6.3961673E0,2.9E2,1.8215753E0,6.619615E-1,7.788987E-2,9.2E1,1.98E2,-1.3577963E0,3.13E2,8.8E1,9.4E1,1.33E2,1.1597099E0,-3.0911298E0,-9.581406E-1,-1.9901816E-2,-2.6291454E0,5.0771446E0,1.5546161E0,-1.3208971E0,-5.3743297E-1],"split_indices":[209,11,0,2,0,0,0,105,0,40,0,37,0,0,0,172,108,0,59,220,171,166,0,0,0,0,0,0,0,0,0],"split_type":[0,0,0,0,0,0,0,0,0,0,0,0,0,0,0,0,0,0,0,0,0,0,0,0,0,0,0,0,0,0,0],"sum_hessian":[3.36E2,2.4E1,3.12E2,1.6E1,8E0,2.89E2,2.3E1,1.4E1,2E0,2.85E2,4E0,1.9E1,4E0,1E1,4E0,2.2E2,6.5E1,8E0,1.1E1,1.95E2,2.5E1,6.2E1,3E0,8E0,3E0,1.86E2,9E0,6E0,1.9E1,3.5E1,2.7E1],"tree_param":{"num_deleted":"0","num_feature":"250","num_nodes":"31","size_leaf_vector":"1"}},{"base_weights":[1.3865517E-1,3.5768974E0,-1.9668874E-1,7.9088193E-1,7.690014E0,-2.954569E0,4.4137403E-1,1.7080331E0,-9.22633E-1,4.0355647E-1,2.8966475E0,-1.0644027E0,-7.0958056E0,1.2903759E1,1.3561922E-1,6.139257E-1,5.438118E-2,-3.232509E0,1.8855392E0,-7.3687077E-1,-7.8599706E0,6.405579E-1,5.3262734E0,5.6430078E0,-3.502107E-1,-5.3734675E-2,-4.8185377E0,3.5943833E-1,7.785113E-1,-1.4759299E0,-2.7820399E0,-5.6332207E-1,7.3123984E0,-3.42312E0,7.743263E-1,2.7734438E-1,-3.063611E-1,-4.627762E-1,-1.7345918E0,8.479023E-1,-7.083055E-1,-2.1259375E-1,-2.4608796E0,2.8340578E0,-1.4096236E-1],"categories":[],"categories_nodes":[],"categories_segments":[],"categories_sizes":[],"default_left":[0,0,0,0,0,0,0,0,0,0,0,0,0,0,0,0,0,0,0,0,0,0,0,0,0,0,0,0,0,0,0,0,0,0,0,0,0,0,0,0,0,0,0,0,0],"id":6,"left_children":[1,3,5,7,9,11,13,15,-1,-1,-1,17,19,21,23,-1,-1,25,27,-1,29,-1,-1,31,33,35,37,-1,-1,-1,-1,39,-1,41,43,-1,-1,-1,-1,-1,-1,-1,-1,-1,-1],"loss_changes":[3.8926236E2,3.376943E2,5.4329193E2,7.2627045E1,1.3665881E2,4.4644955E2,9.54669E2,7.8952026E0,0E0,0E0,0E0,2.683223E2,4.451117E1,2.754878E2,6.6018713E2,0E0,0E0,1.2074014E2,5.6697235E0,0E0,1.6716248E1,0E0,0E0,2.3388271E3,7.870719E2,9.461625E0,4.1579437E1,0E0,0E0,0E0,0E0,1.0417038E2,0E0,7.856422E2,1.8064313E3,0E0,0E0,0E0,0E0,0E0,0E0,0E0,0E0,0E0,0E0],"parents":[2147483647,0,0,1,1,2,2,3,3,4,4,5,5,6,6,7,7,11,11,12,12,13,13,14,14,17,17,18,18,20,20,23,23,24,24,25,25,26,26,31,31,33,33,34,34],"right_children":[2,4,6,8,10,12,14,16,-1,-1,-1,18,20,22,24,-1,-1,26,28,-1,30,-1,-1,32,34,36,38,-1,-1,-1,-1,40,-1,42,44,-1,-1,-1,-1,-1,-1,-1,-1,-1,-1],"split_conditions":[2.9E1,3E1,4.9E1,2.8E1,2.8E1,4.7E1,5E1,2.9E1,-9.22633E-1,4.0355647E-1,2.8966475E0,4.3E1,4.2E1,5.1E1,5.6E1,6.139257E-1,5.438118E-2,2.8E1,4.3E1,-7.3687077E-1,4.6E1,6.405579E-1,5.3262734E0,6.4E1,7.4E1,2.8E1,2.8E1,3.5943833E-1,7.785113E-1,-1.4759299E0,-2.7820399E0,5.3E1,7.3123984E0,6.7E1,8.2E1,2.7734438E-1,-3.063611E-1,-4.627762E-1,-1.7345918E0,8.479023E-1,-7.083055E-1,-2.1259375E-1,-2.4608796E0,2.8340578E0,-1.4096236E-1],"split_indices":[206,162,157,2,2,77,189,105,0,0,0,25,132,0,108,0,0,183,248,0,119,0,0,49,173,16,142,0,0,0,0,1,0,51,190,0,0,0,0,0,0,0,0,0,0],"split_type":[0,0,0,0,0,0,0,0,0,0,0,0,0,0,0,0,0,0,0,0,0,0,0,0,0,0,0,0,0,0,0,0,0,0,0,0,0,0,0,0,0,0,0,0,0],"sum_hessian":[3.36E2,2.9E1,3.07E2,1.8E1,1.1E1,5.7E1,2.5E2,1.5E1,3E0,3E0,8E0,4E1,1.7E1,5E0,2.45E2,1.2E1,3E0,2.3E1,1.7E1,3E0,1.4E1,2E0,3E0,1.9E1,2.26E2,8E0,1.5E1,1E1,7E0,6E0,8E0,1.5E1,4E0,6E1,1.66E2,4E0,4E0,4E0,1.1E1,5E0,1E1,3.9E1,2.1E1,2E1,1.46E2],"tree_param":{"num_deleted":"0","num_feature":"250","num_nodes":"45","size_leaf_vector":"1"}},{"base_weights":[1.2792118E-1,3.9672357E-1,-3.3942404E0,1.3867494E-1,4.8949184E0,-5.2549443E0,1.418227E0,7.3629075E-1,-1.9593207E0,-9.5812786E-1,-6.3629208E0,1.8808296E-2,7.5671535E0,-2.5709414E0,-1.6340853E0,-2.229238E0,-7.108435E-1,3.500396E-1,-6.3064084E0,1.0659058E1,3.2251623E0,-1.9045352E0,9.3049055E-1,-7.905538E-2,2.3417685E0,-2.094696E-1,-2.2425265E0,-4.622269E-1,3.5412316E0,-1.8170309E-1,2.3829916E0,-2.6361328E-1,-1.0409018E0],"categories":[],"categories_nodes":[],"categories_segments":[],"categories_sizes":[],"default_left":[0,0,0,0,0,0,0,0,0,0,0,0,0,0,0,0,0,0,0,0,0,0,0,0,0,0,0,0,0,0,0,0,0],"id":7,"left_children":[1,3,5,7,-1,9,-1,11,13,-1,15,17,19,-1,21,-1,-1,23,25,27,29,31,-1,-1,-1,-1,-1,-1,-1,-1,-1,-1,-1],"loss_changes":[3.2040652E2,1.2876648E3,3.875306E2,3.9011917E2,0E0,2.5353271E1,0E0,1.1859056E3,1.3434366E2,0E0,3.356668E1,4.6313165E2,2.7439832E2,0E0,9.17191E1,0E0,0E0,9.627221E2,6.6876465E1,1.9978894E2,2.0362993E2,9.970674E1,0E0,0E0,0E0,0E0,0E0,0E0,0E0,0E0,0E0,0E0,0E0],"parents":[2147483647,0,0,1,1,2,2,3,3,5,5,7,7,8,8,10,10,11,11,12,12,14,14,17,17,18,18,19,19,20,20,21,21],"right_children":[2,4,6,8,-1,10,-1,12,14,-1,16,18,20,-1,22,-1,-1,24,26,28,30,32,-1,-1,-1,-1,-1,-1,-1,-1,-1,-1,-1],"split_conditions":[2.58E2,2.1E2,4.61E2,9.8E1,4.8949184E0,2.9E2,1.418227E0,9.2E1,8.7E1,-9.5812786E-1,3.13E2,8.9E1,9.2E1,-2.5709414E0,1.98E2,-2.229238E0,-7.108435E-1,8.4E1,8.3E1,8.4E1,9.5E1,1.38E2,9.3049055E-1,-7.905538E-2,2.3417685E0,-2.094696E-1,-2.2425265E0,-4.622269E-1,3.5412316E0,-1.8170309E-1,2.3829916E0,-2.6361328E-1,-1.0409018E0],"split_indices":[0,0,0,172,0,37,0,172,63,0,59,235,97,0,108,0,0,231,166,78,27,6,0,0,0,0,0,0,0,0,0,0,0],"split_type":[0,0,0,0,0,0,0,0,0,0,0,0,0,0,0,0,0,0,0,0,0,0,0,0,0,0,0,0,0,0,0,0,0],"sum_hessian":[3.36E2,3.13E2,2.3E1,3.09E2,4E0,1.9E1,4E0,2.41E2,6.8E1,8E0,1.1E1,2.19E2,2.2E1,2E0,6.6E1,8E0,3E0,2.09E2,1E1,1.2E1,1E1,6.3E1,3E0,1.94E2,1.5E1,2E0,8E0,1E0,1.1E1,6E0,4E0,3.9E1,2.4E1],"tree_param":{"num_deleted":"0","num_feature":"250","num_nodes":"33","size_leaf_vector":"1"}},{"base_weights":[1.03079006E-1,2.6817777E0,-1.4842762E-1,6.1512834E-1,5.730491E0,-2.9336748E0,1.7386964E-1,1.3115096E0,-6.9725364E-1,3.3054373E-1,2.1452882E0,-7.8556496E-1,-4.3620887E0,2.98782E0,-1.2951891E-1,1.5526962E0,5.9932712E-2,7.6585084E-1,-1.4827163E0,-1.9588944E0,-2.8593962E0,1.0581592E0,4.145649E0,-2.5466378E0,5.3034943E-1,3.197797E-1,5.8287966E-1,9.486008E-3,2.8245106E-1,-8.8655174E-1,-2.2356178E-1,-9.5549303E-1,1.571354E-1,1.7009645E0,-7.7433246E-1,-1.4629402E0,-5.266722E0,5.576398E0,6.221256E-2,2.9967538E-1,7.119972E-1,-8.230113E-1,1.8874985E-1,-1.9702307E0,6.375824E-1,1.1544527E0,-6.929042E-2],"categories":[],"categories_nodes":[],"categories_segments":[],"categories_sizes":[],"default_left":[0,0,0,0,0,0,0,0,0,0,0,0,0,0,0,0,0,0,0,0,0,0,0,0,0,0,0,0,0,0,0,0,0,0,0,0,0,0,0,0,0,0,0,0,0,0,0],"id":8,"left_children":[1,3,5,7,9,11,13,15,-1,-1,-1,17,19,21,23,25,-1,27,29,-1,31,33,-1,35,37,-1,-1,-1,-1,-1,-1,-1,-1,39,-1,41,43,-1,45,-1,-1,-1,-1,-1,-1,-1,-1],"loss_changes":[2.189627E2,1.8549367E2,2.7699478E2,4.1938873E1,7.1019684E1,9.476178E1,2.368675E2,3.9799728E0,0E0,0E0,0E0,1.6277542E1,4.3215485E1,5.4968207E2,4.0169067E2,3.9835358E-1,0E0,6.1507773E-1,8.657307E0,0E0,1.5987709E1,6.053454E1,0E0,1.5147348E2,1.6726265E3,0E0,0E0,0E0,0E0,0E0,0E0,0E0,0E0,7.5418243E0,0E0,1.0887791E2,1.5818057E2,0E0,2.1622319E2,0E0,0E0,0E0,0E0,0E0,0E0,0E0,0E0],"parents":[2147483647,0,0,1,1,2,2,3,3,4,4,5,5,6,6,7,7,11,11,12,12,13,13,14,14,15,15,17,17,18,18,20,20,21,21,23,23,24,24,33,33,35,35,36,36,38,38],"right_children":[2,4,6,8,10,12,14,16,-1,-1,-1,18,20,22,24,26,-1,28,30,-1,32,34,-1,36,38,-1,-1,-1,-1,-1,-1,-1,-1,40,-1,42,44,-1,46,-1,-1,-1,-1,-1,-1,-1,-1],"split_conditions":[2.9E1,3E1,4.4E1,2.8E1,2.8E1,3.2E1,5.1E1,2.9E1,-6.9725364E-1,3.3054373E-1,2.1452882E0,2.8E1,4.1E1,5.1E1,6.2E1,2.5E1,5.9932712E-2,2.2E1,3.2E1,-1.9588944E0,4.5E1,4.8E1,4.145649E0,5.8E1,5.5E1,3.197797E-1,5.8287966E-1,9.486008E-3,2.8245106E-1,-8.8655174E-1,-2.2356178E-1,-9.5549303E-1,1.571354E-1,4.2E1,-7.7433246E-1,5.5E1,6.2E1,5.576398E0,6.7E1,2.9967538E-1,7.119972E-1,-8.230113E-1,1.8874985E-1,-1.9702307E0,6.375824E-1,1.1544527E0,-6.929042E-2],"split_indices":[206,162,185,2,2,158,210,105,0,0,0,16,189,0,213,8,0,0,36,0,3,56,0,71,119,0,0,0,0,0,0,0,0,95,0,79,5,0,214,0,0,0,0,0,0,0,0],"split_type":[0,0,0,0,0,0,0,0,0,0,0,0,0,0,0,0,0,0,0,0,0,0,0,0,0,0,0,0,0,0,0,0,0,0,0,0,0,0,0,0,0,0,0,0,0,0,0],"sum_hessian":[3.36E2,2.9E1,3.07E2,1.8E1,1.1E1,3.1E1,2.76E2,1.5E1,3E0,3E0,8E0,1.3E1,1.8E1,2.6E1,2.5E2,1.2E1,3E0,4E0,9E0,6E0,1.2E1,2.3E1,3E0,5.3E1,1.97E2,7E0,5E0,1E0,3E0,2E0,7E0,1.1E1,1E0,2E1,3E0,3.9E1,1.4E1,4E0,1.93E2,1.1E1,9E0,2.4E1,1.5E1,1.2E1,2E0,1.3E1,1.8E2],"tree_param":{"num_deleted":"0","num_feature":"250","num_nodes":"47","size_leaf_vector":"1"}},{"base_weights":[9.661621E-2,2.8811836E-1,-2.4128962E0,9.0934485E-2,3.736769E0,-3.8075435E0,1.0944818E0,5.0024056E-1,-1.3459207E0,-2.2804973E0,-4.635533E0,-7.7428654E-2,5.3023167E0,-2.4855468E0,1.312192E-1,-7.297094E-1,-1.5983391E-1,-1.566042E0,-3.4250033E-1,2.9316697E-1,-5.4720054E0,8.889225E0,3.2142897E0,-2.0428956E0,-2.0677667E0,2.4009132E0,-1.6904027E0,-7.839247E-2,2.5379362E0,-1.9843806E0,-2.8855935E-1,3.3417628E0,1.4584186E0,-4.738835E-2,1.4740736E0,1.1001709E-1,-7.121908E-1,-1.7027141E0,1.1884919E-1],"categories":[],"categories_nodes":[],"categories_segments":[],"categories_sizes":[],"default_left":[0,0,0,0,0,0,0,0,0,0,0,0,0,0,0,0,0,0,0,0,0,0,0,0,0,0,0,0,0,0,0,0,0,0,0,0,0,0,0],"id":9,"left_children":[1,3,5,7,-1,9,-1,11,13,15,17,19,21,23,25,-1,-1,-1,-1,27,29,31,33,-1,35,-1,37,-1,-1,-1,-1,-1,-1,-1,-1,-1,-1,-1,-1],"loss_changes":[1.6264966E2,7.5224426E2,2.167676E2,1.829885E2,0E0,1.4716248E1,0E0,6.717214E2,1.16479866E2,1.0928726E0,1.855075E1,4.3543207E2,1.66156E2,5.6373672E1,4.5805246E2,0E0,0E0,0E0,0E0,9.259611E2,6.578342E1,2.7410889E1,1.0392384E2,0E0,2.8452148E1,0E0,2.1845451E2,0E0,0E0,0E0,0E0,0E0,0E0,0E0,0E0,0E0,0E0,0E0,0E0],"parents":[2147483647,0,0,1,1,2,2,3,3,5,5,7,7,8,8,9,9,10,10,11,11,12,12,13,13,14,14,19,19,20,20,21,21,22,22,24,24,26,26],"right_children":[2,4,6,8,-1,10,-1,12,14,16,18,20,22,24,26,-1,-1,-1,-1,28,30,32,34,-1,36,-1,38,-1,-1,-1,-1,-1,-1,-1,-1,-1,-1,-1,-1],"split_conditions":[2.58E2,2.1E2,4.61E2,9.8E1,3.736769E0,2.9E2,1.0944818E0,9E1,1.33E2,2.91E2,3.14E2,8.7E1,8.8E1,8.7E1,1.39E2,-7.297094E-1,-1.5983391E-1,-1.566042E0,-3.4250033E-1,8.3E1,9.4E1,9.3E1,9E1,-2.0428956E0,1.01E2,2.4009132E0,1.62E2,-7.839247E-2,2.5379362E0,-1.9843806E0,-2.8855935E-1,3.3417628E0,1.4584186E0,-4.738835E-2,1.4740736E0,1.1001709E-1,-7.121908E-1,-1.7027141E0,1.1884919E-1],"split_indices":[0,0,0,172,0,37,0,179,166,22,65,229,120,63,1,0,0,0,0,240,64,17,240,0,10,0,0,0,0,0,0,0,0,0,0,0,0,0,0],"split_type":[0,0,0,0,0,0,0,0,0,0,0,0,0,0,0,0,0,0,0,0,0,0,0,0,0,0,0,0,0,0,0,0,0,0,0,0,0,0,0],"sum_hessian":[3.36E2,3.13E2,2.3E1,3.09E2,4E0,1.9E1,4E0,2.41E2,6.8E1,8E0,1.1E1,2.16E2,2.5E1,3.8E1,3E1,7E0,1E0,9E0,2E0,2.03E2,1.3E1,8E0,1.7E1,2E0,3.6E1,5E0,2.5E1,1.91E2,1.2E1,1E1,3E0,4E0,4E0,6E0,1.1E1,4E0,3.2E1,8E0,1.7E1],"tree_param":{"num_deleted":"0","num_feature":"250","num_nodes":"39","size_leaf_vector":"1"}},{"base_weights":[8.727097E-2,2.044396E0,-1.03641436E-1,5.1882094E-1,4.2895236E0,-1.5511394E0,2.3125306E-1,1.0517116E0,-5.227341E-1,2.7380964E-1,1.5941163E0,-5.2091944E-1,-4.4697084E0,3.9701002E0,-1.9990303E-1,1.2286859E0,6.40852E-2,-1.5723777E0,9.45335E-1,-2.5342267E0,-5.478449E0,1.8090184E-1,1.1107374E1,2.5190613E0,-3.1414598E-1,2.5641575E-1,4.5675814E-1,1.0327318E-1,-2.3228488E0,1.1421572E0,-3.8961986E-1,-1.4596024E-1,-8.383259E-1,-1.7424414E0,-4.2614022E-1,6.9623226E-1,-1.3918145E0,8.3515894E-1,4.441546E0,-2.3117416E0,3.9773527E-1,-1.1121941E-1,2.3653851E-1,-2.2048783E-1,-8.172104E-1,2.6086122E-1,5.636828E-1,-5.2499247E-1,3.2846832E-1,-3.1269163E-1,-1.8952867E0,1.5521406E0,-7.6432616E-2],"categories":[],"categories_nodes":[],"categories_segments":[],"categories_sizes":[],"default_left":[0,0,0,0,0,0,0,0,0,0,0,0,0,0,0,0,0,0,0,0,0,0,0,0,0,0,0,0,0,0,0,0,0,0,0,0,0,0,0,0,0,0,0,0,0,0,0,0,0,0,0,0,0],"id":10,"left_children":[1,3,5,7,9,11,13,15,-1,-1,-1,17,19,21,23,25,-1,27,29,31,33,35,37,-1,39,-1,-1,41,43,45,-1,-1,-1,-1,-1,-1,47,-1,-1,49,51,-1,-1,-1,-1,-1,-1,-1,-1,-1,-1,-1,-1],"loss_changes":[1.2612837E2,1.0052782E2,1.496645E2,2.4727713E1,3.6652603E1,1.7206415E2,4.0541232E2,2.1106682E0,0E0,0E0,0E0,6.932146E1,1.5402344E1,7.011489E2,2.2459714E2,1.2719727E-1,0E0,3.2935608E1,9.875322E0,2.3699913E0,3.7905884E0,6.3807503E1,2.3579102E2,0E0,3.1945883E2,0E0,0E0,3.21535E0,9.46463E0,1.9817104E0,0E0,0E0,0E0,0E0,0E0,0E0,1.1713083E1,0E0,0E0,2.9344254E2,5.186463E2,0E0,0E0,0E0,0E0,0E0,0E0,0E0,0E0,0E0,0E0,0E0,0E0],"parents":[2147483647,0,0,1,1,2,2,3,3,4,4,5,5,6,6,7,7,11,11,12,12,13,13,14,14,15,15,17,17,18,18,19,19,20,20,21,21,22,22,24,24,27,27,28,28,29,29,36,36,39,39,40,40],"right_children":[2,4,6,8,10,12,14,16,-1,-1,-1,18,20,22,24,26,-1,28,30,32,34,36,38,-1,40,-1,-1,42,44,46,-1,-1,-1,-1,-1,-1,48,-1,-1,50,52,-1,-1,-1,-1,-1,-1,-1,-1,-1,-1,-1,-1],"split_conditions":[2.9E1,3E1,4.9E1,2.8E1,2.8E1,5E1,5.7E1,2.9E1,-5.227341E-1,2.7380964E-1,1.5941163E0,4.3E1,4.1E1,5.4E1,5.2E1,2.5E1,6.40852E-2,2.8E1,5E1,4.4E1,5.6E1,5.3E1,5.6E1,2.5190613E0,7.1E1,2.5641575E-1,4.5675814E-1,3E1,2.8E1,4.6E1,-3.8961986E-1,-1.4596024E-1,-8.383259E-1,-1.7424414E0,-4.2614022E-1,6.9623226E-1,6.1E1,8.3515894E-1,4.441546E0,6.7E1,8.2E1,-1.1121941E-1,2.3653851E-1,-2.2048783E-1,-8.172104E-1,2.6086122E-1,5.636828E-1,-5.2499247E-1,3.2846832E-1,-3.1269163E-1,-1.8952867E0,1.5521406E0,-7.6432616E-2],"split_indices":[206,162,157,2,2,245,108,105,0,0,0,185,135,110,2,8,0,183,17,2,11,1,67,0,138,0,0,10,142,5,0,0,0,0,0,0,0,0,0,90,199,0,0,0,0,0,0,0,0,0,0,0,0],"split_type":[0,0,0,0,0,0,0,0,0,0,0,0,0,0,0,0,0,0,0,0,0,0,0,0,0,0,0,0,0,0,0,0,0,0,0,0,0,0,0,0,0,0,0,0,0,0,0,0,0,0,0,0,0],"sum_hessian":[3.36E2,2.9E1,3.07E2,1.8E1,1.1E1,5.7E1,2.5E2,1.5E1,3E0,3E0,8E0,4.3E1,1.4E1,2.5E1,2.25E2,1.2E1,3E0,2.5E1,1.8E1,6E0,8E0,1.7E1,8E0,2E0,2.23E2,7E0,5E0,8E0,1.7E1,1.7E1,1E0,1E0,5E0,7E0,1E0,7E0,1E1,3E0,5E0,5.8E1,1.65E2,5E0,3E0,4E0,1.3E1,1.4E1,3E0,9E0,1E0,4.5E1,1.3E1,1.9E1,1.46E2],"tree_param":{"num_deleted":"0","num_feature":"250","num_nodes":"53","size_leaf_vector":"1"}},{"base_weights":[7.905712E-2,2.1377271E-1,-1.686766E0,6.2859714E-2,2.8582873E0,-2.732577E0,8.501496E-1,3.4856203E-1,-8.8638633E-1,-1.6272498E0,-3.3338578E0,-7.77641E-2,3.438433E0,-1.661363E0,1.9217509E-1,-5.1809835E-1,-1.2439385E-1,-1.1783041E0,-3.49288E-1,-2.66758E-1,1.4253902E0,1.0737193E1,1.4704748E0,-1.1819838E0,-1.3178294E0,1.8197938E0,-1.1707095E0,1.7803201E-2,-1.6468008E0,3.945962E0,1.1810334E0,-1.404647E0,8.805327E-1,-1.7443682E-1,-6.882005E-1,-1.1373671E0,2.1121903E-1],"categories":[],"categories_nodes":[],"categories_segments":[],"categories_sizes":[],"default_left":[0,0,0,0,0,0,0,0,0,0,0,0,0,0,0,0,0,0,0,0,0,0,0,0,0,0,0,0,0,0,0,0,0,0,0,0,0],"id":11,"left_children":[1,3,5,7,-1,9,-1,11,13,15,17,19,21,23,25,-1,-1,-1,-1,27,-1,29,31,-1,33,-1,35,-1,-1,-1,-1,-1,-1,-1,-1,-1,-1],"loss_changes":[8.0527466E1,4.407536E2,1.2120826E2,8.438152E1,0E0,7.867218E0,0E0,3.1510034E2,6.0501183E1,3.7246513E-1,1.0887054E1,1.9383951E2,4.0075723E2,2.7684166E1,2.5526633E2,0E0,0E0,0E0,0E0,3.477567E2,0E0,4.6798096E1,2.300151E2,0E0,2.5981567E1,0E0,1.3040385E2,0E0,0E0,0E0,0E0,0E0,0E0,0E0,0E0,0E0,0E0],"parents":[2147483647,0,0,1,1,2,2,3,3,5,5,7,7,8,8,9,9,10,10,11,11,12,12,13,13,14,14,19,19,21,21,22,22,24,24,26,26],"right_children":[2,4,6,8,-1,10,-1,12,14,16,18,20,22,24,26,-1,-1,-1,-1,28,-1,30,32,-1,34,-1,36,-1,-1,-1,-1,-1,-1,-1,-1,-1,-1],"split_conditions":[2.58E2,2.1E2,4.61E2,9.6E1,2.8582873E0,2.9E2,8.501496E-1,8.7E1,1.33E2,2.91E2,3.13E2,8.9E1,8.3E1,9.8E1,1.39E2,-5.1809835E-1,-1.2439385E-1,-1.1783041E0,-3.49288E-1,8.4E1,1.4253902E0,9.1E1,8.4E1,-1.1819838E0,1.21E2,1.8197938E0,1.65E2,1.7803201E-2,-1.6468008E0,3.945962E0,1.1810334E0,-1.404647E0,8.805327E-1,-1.7443682E-1,-6.882005E-1,-1.1373671E0,2.1121903E-1],"split_indices":[0,0,0,137,0,37,0,213,166,22,59,109,101,141,1,0,0,0,0,245,0,5,90,0,207,0,56,0,0,0,0,0,0,0,0,0,0],"split_type":[0,0,0,0,0,0,0,0,0,0,0,0,0,0,0,0,0,0,0,0,0,0,0,0,0,0,0,0,0,0,0,0,0,0,0,0,0],"sum_hessian":[3.36E2,3.13E2,2.3E1,3.09E2,4E0,1.9E1,4E0,2.38E2,7.1E1,8E0,1.1E1,2.1E2,2.8E1,4.1E1,3E1,7E0,1E0,8E0,3E0,2.03E2,7E0,5E0,2.3E1,4E0,3.7E1,5E0,2.5E1,1.92E2,1.1E1,3E0,2E0,4E0,1.9E1,2.2E1,1.5E1,1E1,1.5E1],"tree_param":{"num_deleted":"0","num_feature":"250","num_nodes":"37","size_leaf_vector":"1"}},{"base_weights":[6.954139E-2,1.484612E0,-6.851595E-2,3.5970107E-1,3.1420033E0,-1.1658909E0,1.8533371E-1,7.680826E-1,-4.0912515E-1,2.0819551E-1,1.16427E0,-3.9289892E-1,-3.3556082E0,2.9841177E0,-1.3747035E-1,8.9850265E-1,4.5659065E-2,-1.2312976E0,6.747444E-1,-1.9298346E0,-4.0916977E0,1.3757451E-1,8.345635E0,2.0116882E0,-2.2850527E-1,1.8443213E-1,3.3811724E-1,7.0387095E-2,-1.8479955E0,-3.360405E-1,8.728853E-1,-1.267376E-1,-6.3319623E-1,-4.2990847E0,-3.648903E-1,1.6959867E0,-1.008323E0,2.1441383E0,3.3267083E0,-1.9356549E0,2.605575E-1,1.5698181E-1,-1.18972786E-1,-9.573836E-1,-3.9966026E-1,1.1087037E-2,-1.4180757E-1,1.9430892E-1,4.3284762E-1,-3.7066498E-1,-1.3680677E0,3.0825073E-1,6.322787E-1,-3.8805202E-1,2.7652705E-1,7.6041263E-1,1.4586411E-1,2.4547717E-1,-1.0137398E0,1.9589587E0,-1.1859526E-2],"categories":[],"categories_nodes":[],"categories_segments":[],"categories_sizes":[],"default_left":[0,0,0,0,0,0,0,0,0,0,0,0,0,0,0,0,0,0,0,0,0,0,0,0,0,0,0,0,0,0,0,0,0,0,0,0,0,0,0,0,0,0,0,0,0,0,0,0,0,0,0,0,0,0,0,0,0,0,0,0,0],"id":12,"left_children":[1,3,5,7,9,11,13,15,-1,-1,-1,17,19,21,23,25,-1,27,29,31,33,35,37,-1,39,-1,-1,41,43,45,47,-1,-1,49,-1,51,53,55,-1,57,59,-1,-1,-1,-1,-1,-1,-1,-1,-1,-1,-1,-1,-1,-1,-1,-1,-1,-1,-1,-1],"loss_changes":[6.593834E1,5.4802353E1,8.6015114E1,1.4420163E1,1.9012703E1,9.685436E1,2.2717839E2,1.1484308E0,0E0,0E0,0E0,4.0215683E1,7.846161E0,3.9565845E2,1.4232144E2,1.5013409E-1,0E0,2.0198734E1,4.2988815E0,1.0162754E0,1.3787842E-1,3.3854153E1,1.293418E2,0E0,1.8752267E2,0E0,0E0,2.1108449E0,7.5271683E0,2.213516E-1,1.2473392E0,0E0,0E0,7.657318E-1,0E0,3.5671234E-2,7.246997E0,1.3577347E0,0E0,2.0152557E2,3.2949457E2,0E0,0E0,0E0,0E0,0E0,0E0,0E0,0E0,0E0,0E0,0E0,0E0,0E0,0E0,0E0,0E0,0E0,0E0,0E0,0E0],"parents":[2147483647,0,0,1,1,2,2,3,3,4,4,5,5,6,6,7,7,11,11,12,12,13,13,14,14,15,15,17,17,18,18,19,19,20,20,21,21,22,22,24,24,27,27,28,28,29,29,30,30,33,33,35,35,36,36,37,37,39,39,40,40],"right_children":[2,4,6,8,10,12,14,16,-1,-1,-1,18,20,22,24,26,-1,28,30,32,34,36,38,-1,40,-1,-1,42,44,46,48,-1,-1,50,-1,52,54,56,-1,58,60,-1,-1,-1,-1,-1,-1,-1,-1,-1,-1,-1,-1,-1,-1,-1,-1,-1,-1,-1,-1],"split_conditions":[2.9E1,3E1,4.9E1,2.8E1,2.8E1,5E1,5.7E1,2.9E1,-4.0912515E-1,2.0819551E-1,1.16427E0,4.3E1,4.1E1,5.4E1,5.2E1,2.5E1,4.5659065E-2,2.8E1,4.1E1,4.4E1,5.6E1,5.3E1,5.6E1,2.0116882E0,6.9E1,1.8443213E-1,3.3811724E-1,2.8E1,3E1,4.1E1,4.6E1,-1.267376E-1,-6.3319623E-1,4.8E1,-3.648903E-1,5E1,6.1E1,6.5E1,3.3267083E0,6E1,7.1E1,1.5698181E-1,-1.18972786E-1,-9.573836E-1,-3.9966026E-1,1.1087037E-2,-1.4180757E-1,1.9430892E-1,4.3284762E-1,-3.7066498E-1,-1.3680677E0,3.0825073E-1,6.322787E-1,-3.8805202E-1,2.7652705E-1,7.6041263E-1,1.4586411E-1,2.4547717E-1,-1.0137398E0,1.9589587E0,-1.1859526E-2],"split_indices":[206,162,157,2,2,245,108,105,0,0,0,25,135,110,2,8,0,183,2,2,11,1,67,0,121,0,0,16,202,0,5,0,0,85,0,4,0,0,0,169,116,0,0,0,0,0,0,0,0,0,0,0,0,0,0,0,0,0,0,0,0],"split_type":[0,0,0,0,0,0,0,0,0,0,0,0,0,0,0,0,0,0,0,0,0,0,0,0,0,0,0,0,0,0,0,0,0,0,0,0,0,0,0,0,0,0,0,0,0,0,0,0,0,0,0,0,0,0,0,0,0,0,0,0,0],"sum_hessian":[3.36E2,2.9E1,3.07E2,1.8E1,1.1E1,5.7E1,2.5E2,1.5E1,3E0,3E0,8E0,4.3E1,1.4E1,2.5E1,2.25E2,1.2E1,3E0,2.4E1,1.9E1,6E0,8E0,1.7E1,8E0,2E0,2.23E2,7E0,5E0,8E0,1.6E1,3E0,1.6E1,1E0,5E0,7E0,1E0,7E0,1E1,3E0,5E0,4.9E1,1.74E2,4E0,4E0,3E0,1.3E1,1E0,2E0,1.3E1,3E0,1E0,6E0,4E0,3E0,9E0,1E0,2E0,1E0,1.7E1,3.2E1,7E0,1.67E2],"tree_param":{"num_deleted":"0","num_feature":"250","num_nodes":"61","size_leaf_vector":"1"}},{"base_weights":[6.677185E-2,1.6524528E-1,-1.224371E0,5.043431E-2,2.1751428E0,-2.010044E0,6.489588E-1,2.5544584E-1,-6.9692755E-1,-1.199925E0,-2.4501297E0,-7.7807724E-2,3.1778593E0,-3.7535574E0,-3.3474168E-1,-4.3236735E-1,-5.379944E-1,-8.6092734E-1,-2.6803038E-1,1.1147439E-1,-4.0638795E0,2.302491E0,1.9557921E0,-1.6467026E0,-5.884726E-1,-5.08911E-1,6.8231964E-1,4.0579606E-2,-2.4225083E-1,-2.4652673E-2,1.7300181E0,-1.426987E0,-2.5858077E-1,-3.298789E-1,9.753762E-1,4.291656E-2,-4.1256857E-1],"categories":[],"categories_nodes":[],"categories_segments":[],"categories_sizes":[],"default_left":[0,0,0,0,0,0,0,0,0,0,0,0,0,0,0,0,0,0,0,0,0,0,0,0,0,0,0,0,0,0,0,0,0,0,0,0,0],"id":13,"left_children":[1,3,5,7,-1,9,-1,11,13,15,17,19,21,23,25,-1,27,-1,-1,29,31,-1,33,-1,-1,35,-1,-1,-1,-1,-1,-1,-1,-1,-1,-1,-1],"loss_changes":[4.3049603E1,2.5506145E2,6.822461E1,4.7675545E1,0E0,4.190468E0,0E0,2.3787999E2,7.291708E1,6.621418E-1,5.2748566E0,1.6644125E2,1.2238364E2,1.1002174E1,2.887783E1,0E0,8.3502364E-1,0E0,0E0,2.3154831E2,1.8081375E1,0E0,8.6695984E1,0E0,0E0,3.2955704E1,0E0,0E0,0E0,0E0,0E0,0E0,0E0,0E0,0E0,0E0,0E0],"parents":[2147483647,0,0,1,1,2,2,3,3,5,5,7,7,8,8,9,9,10,10,11,11,12,12,13,13,14,14,16,16,19,19,20,20,22,22,25,25],"right_children":[2,4,6,8,-1,10,-1,12,14,16,18,20,22,24,26,-1,28,-1,-1,30,32,-1,34,-1,-1,36,-1,-1,-1,-1,-1,-1,-1,-1,-1,-1,-1],"split_conditions":[2.58E2,2.1E2,4.61E2,9.9E1,2.1751428E0,2.9E2,6.489588E-1,9.2E1,1.01E2,2.85E2,3.13E2,8.9E1,9.2E1,1E2,1.98E2,-4.3236735E-1,2.92E2,-8.6092734E-1,-2.6803038E-1,8.7E1,9.2E1,2.302491E0,9E1,-1.6467026E0,-5.884726E-1,1.38E2,6.8231964E-1,4.0579606E-2,-2.4225083E-1,-2.4652673E-2,1.7300181E0,-1.426987E0,-2.5858077E-1,-3.298789E-1,9.753762E-1,4.291656E-2,-4.1256857E-1],"split_indices":[0,0,0,1,0,37,0,172,17,0,59,139,170,3,108,0,0,0,0,213,0,0,206,0,0,6,0,0,0,0,0,0,0,0,0,0,0],"split_type":[0,0,0,0,0,0,0,0,0,0,0,0,0,0,0,0,0,0,0,0,0,0,0,0,0,0,0,0,0,0,0,0,0,0,0,0,0],"sum_hessian":[3.36E2,3.13E2,2.3E1,3.09E2,4E0,1.9E1,4E0,2.43E2,6.6E1,8E0,1.1E1,2.19E2,2.4E1,6E0,6E1,5E0,3E0,8E0,3E0,2.1E2,9E0,4E0,2E1,2E0,4E0,5.7E1,3E0,1E0,2E0,2.04E2,6E0,7E0,2E0,6E0,1.4E1,3.3E1,2.4E1],"tree_param":{"num_deleted":"0","num_feature":"250","num_nodes":"37","size_leaf_vector":"1"}},{"base_weights":[5.2989993E-2,1.1141083E0,-5.0537728E-2,2.8351554E-1,2.3363712E0,-9.24079E-1,1.2233492E-1,5.9627914E-1,-3.1152534E-1,1.6689721E-1,8.6037195E-1,-4.5054254E-1,-2.2736053E0,2.4937198E0,-5.5288576E-2,6.9190097E-1,4.093151E-2,-1.8240618E0,-1.4553717E-1,-7.6196784E-1,-1.6180496E-1,1.2415044E0,1.9698292E0,-1.5441775E0,1.8835331E-1,1.4248925E-1,2.5975E-1,1.3984681E-2,-6.430832E-1,2.9409292E-1,-1.0515331E0,2.3520051E-1,4.9570936E-1,4.004881E-2,-3.1307597E0,3.8822932E0,-1.3969529E-1,-8.4503174E-2,1.2903985E-1,-3.4939018E-1,-1.0851593E-1,-4.5365432E-1,1.7746681E-1,-2.910013E-1,-1.1162976E0,2.6563022E-1,2.1429243E0,-6.4736384E-1,7.4208826E-2],"categories":[],"categories_nodes":[],"categories_segments":[],"categories_sizes":[],"default_left":[0,0,0,0,0,0,0,0,0,0,0,0,0,0,0,0,0,0,0,0,0,0,0,0,0,0,0,0,0,0,0,0,0,0,0,0,0,0,0,0,0,0,0,0,0,0,0,0,0],"id":14,"left_children":[1,3,5,7,9,11,13,15,-1,-1,-1,17,19,21,23,25,-1,27,29,-1,-1,31,-1,33,35,-1,-1,-1,-1,37,39,-1,-1,41,43,45,47,-1,-1,-1,-1,-1,-1,-1,-1,-1,-1,-1,-1],"loss_changes":[3.7077496E1,2.9793682E1,4.662455E1,8.474788E0,9.7584E0,3.1567192E1,1.08811E2,6.0913134E-1,0E0,0E0,0E0,1.6072828E1,4.633644E0,8.363904E1,8.771498E1,7.928038E-2,0E0,4.284336E0,1.3453249E1,0E0,0E0,1.524086E0,0E0,8.5584564E1,2.5259503E2,0E0,0E0,0E0,0E0,1.922696E0,4.369316E-1,0E0,0E0,1.6303728E1,1.8071533E1,1.5980133E2,1.505154E2,0E0,0E0,0E0,0E0,0E0,0E0,0E0,0E0,0E0,0E0,0E0,0E0],"parents":[2147483647,0,0,1,1,2,2,3,3,4,4,5,5,6,6,7,7,11,11,12,12,13,13,14,14,15,15,17,17,18,18,21,21,23,23,24,24,29,29,30,30,33,33,34,34,35,35,36,36],"right_children":[2,4,6,8,10,12,14,16,-1,-1,-1,18,20,22,24,26,-1,28,30,-1,-1,32,-1,34,36,-1,-1,-1,-1,38,40,-1,-1,42,44,46,48,-1,-1,-1,-1,-1,-1,-1,-1,-1,-1,-1,-1],"split_conditions":[2.9E1,3E1,4.6E1,2.8E1,2.8E1,4.8E1,5.2E1,2.9E1,-3.1152534E-1,1.6689721E-1,8.6037195E-1,3E1,5E1,5.8E1,6.2E1,2.5E1,4.093151E-2,2.2E1,4.1E1,-7.6196784E-1,-1.6180496E-1,5E1,1.9698292E0,5.6E1,6.3E1,1.4248925E-1,2.5975E-1,1.3984681E-2,-6.430832E-1,3E1,4.4E1,2.3520051E-1,4.9570936E-1,5.4E1,5.4E1,6.5E1,7.5E1,-8.4503174E-2,1.2903985E-1,-3.4939018E-1,-1.0851593E-1,-4.5365432E-1,1.7746681E-1,-2.910013E-1,-1.1162976E0,2.6563022E-1,2.1429243E0,-6.4736384E-1,7.4208826E-2],"split_indices":[206,162,160,2,2,73,184,105,0,0,0,220,197,115,190,8,0,0,119,0,0,4,0,32,0,0,0,0,0,10,0,0,0,24,73,43,176,0,0,0,0,0,0,0,0,0,0,0,0],"split_type":[0,0,0,0,0,0,0,0,0,0,0,0,0,0,0,0,0,0,0,0,0,0,0,0,0,0,0,0,0,0,0,0,0,0,0,0,0,0,0,0,0,0,0,0,0,0,0,0,0],"sum_hessian":[3.36E2,2.9E1,3.07E2,1.8E1,1.1E1,5E1,2.57E2,1.5E1,3E0,3E0,8E0,3.8E1,1.2E1,1.7E1,2.4E2,1.2E1,3E0,6E0,3.2E1,1E1,2E0,1.4E1,3E0,3.3E1,2.07E2,7E0,5E0,1E0,5E0,2.2E1,1E1,8E0,6E0,1.7E1,1.6E1,1.6E1,1.91E2,4E0,1.8E1,8E0,2E0,4E0,1.3E1,4E0,1.2E1,9E0,7E0,3E1,1.61E2],"tree_param":{"num_deleted":"0","num_feature":"250","num_nodes":"49","size_leaf_vector":"1"}},{"base_weights":[4.3161295E-2,3.3189893E-1,-2.8605348E-1,9.7378016E-2,7.1167755E0,-6.6804714E0,5.4618027E-2,-9.050718E-2,2.6570275E0,1.09478245E1,-1.8057702E0,-2.2297122E0,-2.1257287E-1,1.9112478E0,-3.1129035E-1,1.224557E-1,-1.5465143E0,1.1076497E0,4.6940154E-1,3.9533238E0,3.042206E-1,3.8306427E-1,4.585456E0,-4.027494E0,-2.7617062E-2,-8.069921E-2,1.8749679E0,-1.9991643E0,1.8357748E0,-2.1799852E-1,2.8502485E-1,-1.1504449E0,8.863578E-1,6.6443485E-1,1.8117115E0,-2.1838875E-1,-1.304682E0,1.3828532E0,-3.2652876E-1,4.8181877E-2,-7.4007607E-1,8.461337E-2,8.7167364E-1,-7.232113E-1,4.403572E-2,6.8722004E-1,1.3887864E-1,9.1622986E-2,7.6585466E-1,-6.048307E-2,8.524808E-1,-3.2999367E-1,7.1755685E-2],"categories":[],"categories_nodes":[],"categories_segments":[],"categories_sizes":[],"default_left":[0,0,0,0,0,0,0,0,0,0,0,0,0,0,0,0,0,0,0,0,0,0,0,0,0,0,0,0,0,0,0,0,0,0,0,0,0,0,0,0,0,0,0,0,0,0,0,0,0,0,0,0,0],"id":15,"left_children":[1,3,5,7,9,11,13,15,17,19,-1,-1,-1,21,23,25,27,-1,29,-1,-1,31,33,35,37,39,41,43,45,-1,-1,-1,47,-1,-1,-1,-1,49,51,-1,-1,-1,-1,-1,-1,-1,-1,-1,-1,-1,-1,-1,-1],"loss_changes":[3.2129047E1,2.8572214E2,3.4455145E2,8.440153E1,3.6784567E2,3.0655853E1,1.03177765E2,5.104175E1,2.5440826E1,9.739429E1,0E0,0E0,0E0,1.004105E2,1.337706E2,5.141984E1,3.5820877E1,0E0,3.5650141E0,0E0,0E0,3.948716E1,1.763855E1,6.37973E0,5.0622658E1,7.525126E1,2.380576E1,1.713359E1,8.1331825E-1,0E0,0E0,0E0,1.4710644E1,0E0,0E0,0E0,0E0,4.9110935E1,4.358073E1,0E0,0E0,0E0,0E0,0E0,0E0,0E0,0E0,0E0,0E0,0E0,0E0,0E0,0E0],"parents":[2147483647,0,0,1,1,2,2,3,3,4,4,5,5,6,6,7,7,8,8,9,9,13,13,14,14,15,15,16,16,18,18,21,21,22,22,23,23,24,24,25,25,26,26,27,27,28,28,32,32,37,37,38,38],"right_children":[2,4,6,8,10,12,14,16,18,20,-1,-1,-1,22,24,26,28,-1,30,-1,-1,32,34,36,38,40,42,44,46,-1,-1,-1,48,-1,-1,-1,-1,50,52,-1,-1,-1,-1,-1,-1,-1,-1,-1,-1,-1,-1,-1,-1],"split_conditions":[7.5E1,7E1,8.1E1,6.9E1,7.9E1,8.5E1,8.7E1,6.5E1,7.3E1,8.1E1,-1.8057702E0,-2.2297122E0,-2.1257287E-1,8.6E1,8.9E1,6.2E1,6.9E1,1.1076497E0,7.2E1,3.9533238E0,3.042206E-1,8.2E1,8E1,8.1E1,9.6E1,6E1,6.2E1,6.9E1,6.7E1,-2.1799852E-1,2.8502485E-1,-1.1504449E0,9.1E1,6.6443485E-1,1.8117115E0,-2.1838875E-1,-1.304682E0,9.3E1,1.33E2,4.8181877E-2,-7.4007607E-1,8.461337E-2,8.7167364E-1,-7.232113E-1,4.403572E-2,6.8722004E-1,1.3887864E-1,9.1622986E-2,7.6585466E-1,-6.048307E-2,8.524808E-1,-3.2999367E-1,7.1755685E-2],"split_indices":[143,61,22,19,0,0,240,9,22,33,0,0,0,89,95,7,138,0,1,0,0,26,0,1,135,60,176,220,1,0,0,0,4,0,0,0,0,113,166,0,0,0,0,0,0,0,0,0,0,0,0,0,0],"split_type":[0,0,0,0,0,0,0,0,0,0,0,0,0,0,0,0,0,0,0,0,0,0,0,0,0,0,0,0,0,0,0,0,0,0,0,0,0,0,0,0,0,0,0,0,0,0,0,0,0,0,0,0,0],"sum_hessian":[3.36E2,1.79E2,1.57E2,1.74E2,5E0,7E0,1.5E2,1.63E2,1.1E1,4E0,1E0,6E0,1E0,2.4E1,1.26E2,1.43E2,2E1,7E0,4E0,3E0,1E0,1.6E1,8E0,8E0,1.18E2,1.29E2,1.4E1,1.8E1,2E0,1E0,3E0,1E0,1.5E1,4E0,4E0,1E0,7E0,2E1,9.8E1,1.18E2,1.1E1,6E0,8E0,1.5E1,3E0,1E0,1E0,1.2E1,3E0,1E1,1E1,4.1E1,5.7E1],"tree_param":{"num_deleted":"0","num_feature":"250","num_nodes":"53","size_leaf_vector":"1"}},{"base_weights":[3.849095E-2,1.2105786E-1,-1.0433632E0,3.562649E-2,1.6180775E0,-1.6338505E0,4.581775E-1,2.7230892E-1,-2.7320117E-1,-8.978642E-1,-1.8851401E0,9.548435E-2,6.300612E0,-3.5985267E0,5.0807767E-2,-3.4633666E-1,-1.7092387E-1,-6.192808E-1,-1.6207275E-1,-3.4614753E-2,2.002809E0,3.0179536E0,4.4117483E-1,-7.9973143E-1,-4.897958E0,1.7276833E0,-3.2780936E-1,1.2597657E-2,-8.95134E-2,3.7303388E-2,-3.712613E-1,1.2430497E0,3.2001343E-1,2.5858727E-1,-6.0058597E-2,2.1941987E-1,-4.0960923E-1,-1.748729E0,-4.209084E-1,2.650793E-1,1.376902E0,-7.5972944E-1,-1.7164868E-3],"categories":[],"categories_nodes":[],"categories_segments":[],"categories_sizes":[],"default_left":[0,0,0,0,0,0,0,0,0,0,0,0,0,0,0,0,0,0,0,0,0,0,0,0,0,0,0,0,0,0,0,0,0,0,0,0,0,0,0,0,0,0,0],"id":16,"left_children":[1,3,5,7,-1,9,-1,11,13,15,17,19,21,23,25,-1,27,-1,-1,29,31,-1,33,35,37,39,41,-1,-1,-1,-1,-1,-1,-1,-1,-1,-1,-1,-1,-1,-1,-1,-1],"loss_changes":[3.0228952E1,1.4124593E2,3.8925377E1,2.2733559E1,0E0,2.0063095E0,0E0,1.8700595E2,1.4563658E2,1.1083627E0,2.2575417E0,4.2749622E1,1.0569678E2,3.9725037E1,7.929318E1,0E0,9.394063E-2,0E0,0E0,3.113085E1,1.7622925E1,0E0,9.821923E-1,5.3289146E0,1.7855728E1,5.1507164E1,7.241384E1,0E0,0E0,0E0,0E0,0E0,0E0,0E0,0E0,0E0,0E0,0E0,0E0,0E0,0E0,0E0,0E0],"parents":[2147483647,0,0,1,1,2,2,3,3,5,5,7,7,8,8,9,9,10,10,11,11,12,12,13,13,14,14,16,16,19,19,20,20,22,22,23,23,24,24,25,25,26,26],"right_children":[2,4,6,8,-1,10,-1,12,14,16,18,20,22,24,26,-1,28,-1,-1,30,32,-1,34,36,38,40,42,-1,-1,-1,-1,-1,-1,-1,-1,-1,-1,-1,-1,-1,-1,-1,-1],"split_conditions":[2.58E2,2.1E2,4.61E2,7.5E1,1.6180775E0,2.85E2,4.581775E-1,7E1,8.1E1,2.78E2,3.14E2,6.9E1,8.1E1,8.1E1,8.6E1,-3.4633666E-1,2.92E2,-6.192808E-1,-1.6207275E-1,6.5E1,6.5E1,3.0179536E0,7.4E1,7.8E1,9.1E1,8.8E1,8.9E1,1.2597657E-2,-8.95134E-2,3.7303388E-2,-3.712613E-1,1.2430497E0,3.2001343E-1,2.5858727E-1,-6.0058597E-2,2.1941987E-1,-4.0960923E-1,-1.748729E0,-4.209084E-1,2.650793E-1,1.376902E0,-7.5972944E-1,-1.7164868E-3],"split_indices":[0,0,0,123,0,75,0,61,56,0,65,19,33,76,234,0,0,0,0,182,0,0,0,123,0,134,91,0,0,0,0,0,0,0,0,0,0,0,0,0,0,0,0],"split_type":[0,0,0,0,0,0,0,0,0,0,0,0,0,0,0,0,0,0,0,0,0,0,0,0,0,0,0,0,0,0,0,0,0,0,0,0,0,0,0,0,0,0,0],"sum_hessian":[3.36E2,3.13E2,2.3E1,3.09E2,4E0,1.9E1,4E0,1.75E2,1.34E2,6E0,1.3E1,1.71E2,4E0,1.1E1,1.23E2,4E0,2E0,1.1E1,2E0,1.61E2,1E1,2E0,2E0,4E0,7E0,2.2E1,1.01E2,1E0,1E0,1.43E2,1.8E1,2E0,8E0,1E0,1E0,1E0,3E0,5E0,2E0,1.8E1,4E0,1.2E1,8.9E1],"tree_param":{"num_deleted":"0","num_feature":"250","num_nodes":"43","size_leaf_vector":"1"}},{"base_weights":[3.8332954E-2,9.934128E-2,-7.614565E-1,1.3288616E-2,3.3891945E0,-1.2039273E0,3.4821534E-1,1.1195312E-1,-1.104125E0,4.9634174E-1,1.2297401E0,-7.4005383E-1,-1.4515051E0,1.8929379E-2,1.3210183E0,-2.543618E0,2.5111388E-2,-2.7004203E-1,-3.149109E-1,-5.0513107E-1,-1.6980973E-1,1.668008E-1,-1.0124865E0,-2.4718629E-1,-8.502645E-1,1.355341E0,-1.3082571E0,1.0708237E-2,-1.3310319E-1,-1.4093919E-3,5.007954E-1,-8.753975E-1,-1.7929079E-1,-1.5480195E-1,1.3938767E0,-3.1297304E-2,-5.076542E-1],"categories":[],"categories_nodes":[],"categories_segments":[],"categories_sizes":[],"default_left":[0,0,0,0,0,0,0,0,0,0,0,0,0,0,0,0,0,0,0,0,0,0,0,0,0,0,0,0,0,0,0,0,0,0,0,0,0],"id":17,"left_children":[1,3,5,7,9,11,-1,13,15,-1,-1,17,19,21,-1,23,25,-1,27,-1,-1,29,31,-1,-1,33,35,-1,-1,-1,-1,-1,-1,-1,-1,-1,-1],"loss_changes":[1.651916E1,8.884856E1,2.1809559E1,3.3970074E1,3.0704727E0,1.2227039E0,0E0,1.1289191E2,4.0702072E1,0E0,0E0,3.29072E-1,1.514904E0,4.256859E1,0E0,3.1617584E0,2.8378428E1,0E0,1.9642127E-1,0E0,0E0,6.2881718E1,2.5923607E1,0E0,0E0,5.1665047E1,3.5212097E0,0E0,0E0,0E0,0E0,0E0,0E0,0E0,0E0,0E0,0E0],"parents":[2147483647,0,0,1,1,2,2,3,3,4,4,5,5,7,7,8,8,11,11,12,12,13,13,15,15,16,16,18,18,21,21,22,22,25,25,26,26],"right_children":[2,4,6,8,10,12,-1,14,16,-1,-1,18,20,22,-1,24,26,-1,28,-1,-1,30,32,-1,-1,34,36,-1,-1,-1,-1,-1,-1,-1,-1,-1,-1],"split_conditions":[2.58E2,1.98E2,4.61E2,1.34E2,2.1E2,2.9E2,3.4821534E-1,1.33E2,1.62E2,4.9634174E-1,1.2297401E0,2.85E2,3.13E2,9.9E1,1.3210183E0,1.29E2,1.91E2,-2.7004203E-1,2.84E2,-5.0513107E-1,-1.6980973E-1,9.2E1,1.01E2,-2.4718629E-1,-8.502645E-1,1.85E2,1.9E2,1.0708237E-2,-1.3310319E-1,-1.4093919E-3,5.007954E-1,-8.753975E-1,-1.7929079E-1,-1.5480195E-1,1.3938767E0,-3.1297304E-2,-5.076542E-1],"split_indices":[0,108,0,114,0,37,0,166,0,0,0,112,59,1,0,0,14,0,60,0,0,172,29,0,0,0,0,0,0,0,0,0,0,0,0,0,0],"split_type":[0,0,0,0,0,0,0,0,0,0,0,0,0,0,0,0,0,0,0,0,0,0,0,0,0,0,0,0,0,0,0,0,0,0,0,0,0],"sum_hessian":[3.36E2,3.13E2,2.3E1,3.06E2,7E0,1.9E1,4E0,2.82E2,2.4E1,3E0,4E0,8E0,1.1E1,2.77E2,5E0,1E1,1.4E1,5E0,3E0,8E0,3E0,2.43E2,3.4E1,2E0,8E0,7E0,7E0,1E0,2E0,2.19E2,2.4E1,5E0,2.9E1,5E0,2E0,2E0,5E0],"tree_param":{"num_deleted":"0","num_feature":"250","num_nodes":"37","size_leaf_vector":"1"}},{"base_weights":[3.091494E-2,7.520752E-1,-3.6866814E-2,9.9516475E-1,-3.0480766E-1,-6.8168163E-1,1.1485008E-1,4.2326608E-1,6.0851645E-1,-2.7510375E-1,-1.8559698E0,3.5806935E0,2.985044E-2,5.01974E-1,2.2294998E-2,-6.2122077E-1,4.585449E-1,-1.0287355E0,-2.2931552E0,1.3815461E-1,1.5076963E0,1.266537E0,-1.15777165E-1,7.11588E-2,5.4840213E-1,4.142761E-3,1.1512756E-2,-6.5860635E-1,-4.9557114E-1,2.7812195E-1,2.655533E-1,-9.23687E-2,-3.292679E-1,-2.409155E0,-2.0477372E-1,1.9152912E-1,3.6613636E0,-1.2142383E0,7.6630205E-2,4.7439195E-2,1.7085177E-1,-7.232666E-4,2.5875093E-3,-4.8314426E-2,-2.9518053E-1,1.1162854E-1,2.164215E-2,-2.0968209E-1,-7.660869E-1,3.3895016E-1,-9.853346E-2,3.6979598E-1,1.2796475E0,1.53355E-1,-5.959941E-1,6.496816E-1,-2.3169087E-2],"categories":[],"categories_nodes":[],"categories_segments":[],"categories_sizes":[],"default_left":[0,0,0,0,0,0,0,0,0,0,0,0,0,0,0,0,0,0,0,0,0,0,0,0,0,0,0,0,0,0,0,0,0,0,0,0,0,0,0,0,0,0,0,0,0,0,0,0,0,0,0,0,0,0,0,0,0],"id":18,"left_children":[1,3,5,7,-1,9,11,13,-1,15,17,19,21,23,25,27,29,31,33,-1,-1,35,37,-1,39,41,-1,-1,43,45,-1,-1,-1,47,-1,49,51,53,55,-1,-1,-1,-1,-1,-1,-1,-1,-1,-1,-1,-1,-1,-1,-1,-1,-1,-1],"loss_changes":[1.6500795E1,1.347551E1,3.0307545E1,1.4504824E1,0E0,2.765835E1,7.383657E1,5.5688095E-1,0E0,1.171163E1,3.0657692E0,2.4736809E1,4.445018E1,5.4318666E-2,1.0086321E-3,5.0435133E0,9.084275E-1,9.344101E-3,3.6994934E-2,0E0,0E0,6.6234634E1,4.680184E1,0E0,8.777857E-3,1.0891966E-4,0E0,0E0,4.742609E0,2.054376E-1,0E0,0E0,0E0,1.9173813E-1,0E0,9.641075E0,6.4801407E0,4.4995644E1,6.0913887E1,0E0,0E0,0E0,0E0,0E0,0E0,0E0,0E0,0E0,0E0,0E0,0E0,0E0,0E0,0E0,0E0,0E0,0E0],"parents":[2147483647,0,0,1,1,2,2,3,3,5,5,6,6,7,7,9,9,10,10,11,11,12,12,13,13,14,14,15,15,16,16,17,17,18,18,21,21,22,22,24,24,25,25,28,28,29,29,33,33,35,35,36,36,37,37,38,38],"right_children":[2,4,6,8,-1,10,12,14,-1,16,18,20,22,24,26,28,30,32,34,-1,-1,36,38,-1,40,42,-1,-1,44,46,-1,-1,-1,48,-1,50,52,54,56,-1,-1,-1,-1,-1,-1,-1,-1,-1,-1,-1,-1,-1,-1,-1,-1,-1,-1],"split_conditions":[2.7E1,3.1E1,4.9E1,2.8E1,-3.0480766E-1,5E1,5E1,2.9E1,6.0851645E-1,4.3E1,4.1E1,5.1E1,5.7E1,2E1,2.1E1,2.4E1,4.6E1,4.4E1,5.6E1,1.3815461E-1,1.5076963E0,6E1,6.6E1,7.11588E-2,2.1E1,2.2E1,1.1512756E-2,-6.5860635E-1,3.9E1,4.6E1,2.655533E-1,-9.23687E-2,-3.292679E-1,4.8E1,-2.0477372E-1,5.3E1,6.2E1,5.6E1,6.8E1,4.7439195E-2,1.7085177E-1,-7.232666E-4,2.5875093E-3,-4.8314426E-2,-2.9518053E-1,1.1162854E-1,2.164215E-2,-2.0968209E-1,-7.660869E-1,3.3895016E-1,-9.853346E-2,3.6979598E-1,1.2796475E0,1.53355E-1,-5.959941E-1,6.496816E-1,-2.3169087E-2],"split_indices":[222,167,157,2,0,245,189,105,0,2,135,0,113,27,1,6,5,2,11,0,0,168,101,0,6,0,0,0,126,3,0,0,0,85,0,55,33,1,0,0,0,0,0,0,0,0,0,0,0,0,0,0,0,0,0,0,0],"split_type":[0,0,0,0,0,0,0,0,0,0,0,0,0,0,0,0,0,0,0,0,0,0,0,0,0,0,0,0,0,0,0,0,0,0,0,0,0,0,0,0,0,0,0,0,0,0,0,0,0,0,0,0,0,0,0,0,0],"sum_hessian":[3.36E2,2.8E1,3.08E2,2.5E1,3E0,5.8E1,2.5E2,1.7E1,8E0,4.4E1,1.4E1,5E0,2.45E2,1.4E1,3E0,3E1,1.4E1,6E0,8E0,2E0,3E0,2.5E1,2.2E2,3E0,1.1E1,2E0,1E0,1E0,2.9E1,1.1E1,3E0,1E0,5E0,7E0,1E0,1.8E1,7E0,3.2E1,1.88E2,1E0,1E1,1E0,1E0,1.8E1,1.1E1,7E0,4E0,1E0,6E0,6E0,1.2E1,2E0,5E0,1E1,2.2E1,1.2E1,1.76E2],"tree_param":{"num_deleted":"0","num_feature":"250","num_nodes":"57","size_leaf_vector":"1"}},{"base_weights":[2.793316E-2,-1.2490883E0,5.0927725E-2,-5.598152E-1,-2.257457E-1,1.1980463E0,7.886132E-3,2.4730682E-1,4.4624433E-1,-2.9476106E-1,9.975112E-2,2.1995546E-3,9.745636E-2,6.5967105E-3,-1.3233109E0,2.1860785E0,1.1671178E-2,-1.2769619E-1,3.4589073E-1,-1.5976983E-1,-1.4547157E0,8.9732033E-1,1.1684659E0,1.1391487E0,-8.0212384E-2,7.62683E-2,-1.6197391E-1,7.633338E-2,2.7135432E-1,-4.739893E-1,-1.4064485E-1,3.3658448E-1,1.3450871E-1,-4.4956345E-2,8.307404E-1,-1.892206E-1,4.596461E-2],"categories":[],"categories_nodes":[],"categories_segments":[],"categories_sizes":[],"default_left":[0,0,0,0,0,0,0,0,0,0,0,0,0,0,0,0,0,0,0,0,0,0,0,0,0,0,0,0,0,0,0,0,0,0,0,0,0],"id":19,"left_children":[1,3,5,-1,-1,7,9,11,-1,13,15,-1,-1,17,19,21,23,25,27,-1,29,31,-1,33,35,-1,-1,-1,-1,-1,-1,-1,-1,-1,-1,-1,-1],"loss_changes":[9.959467E0,4.3413448E-1,1.638266E1,0E0,0E0,2.9342594E0,8.954063E0,7.205628E-2,0E0,2.3255838E1,4.5364098E1,0E0,0E0,2.7324908E0,9.916992E-1,1.8527435E1,2.4747375E1,6.9069843E0,6.382785E-1,0E0,9.880409E-1,2.0289993E-1,0E0,3.8233994E1,2.849676E1,0E0,0E0,0E0,0E0,0E0,0E0,0E0,0E0,0E0,0E0,0E0,0E0],"parents":[2147483647,0,0,1,1,2,2,5,5,6,6,7,7,9,9,10,10,13,13,14,14,15,15,16,16,17,17,18,18,20,20,21,21,23,23,24,24],"right_children":[2,4,6,-1,-1,8,10,12,-1,14,16,-1,-1,18,20,22,24,26,28,-1,30,32,-1,34,36,-1,-1,-1,-1,-1,-1,-1,-1,-1,-1,-1,-1],"split_conditions":[2.2E1,2.5E1,2.5E1,-5.598152E-1,-2.257457E-1,2.3E1,5E1,2.3E1,4.4624433E-1,5E1,5.3E1,2.1995546E-3,9.745636E-2,4.3E1,4E1,5.3E1,5.7E1,3.3E1,5.2E1,-1.5976983E-1,5.3E1,5.2E1,1.1684659E0,6E1,7.8E1,7.62683E-2,-1.6197391E-1,7.633338E-2,2.7135432E-1,-4.739893E-1,-1.4064485E-1,3.3658448E-1,1.3450871E-1,-4.4956345E-2,8.307404E-1,-1.892206E-1,4.596461E-2],"split_indices":[99,0,71,0,0,1,157,0,0,245,205,0,0,2,133,63,113,98,3,0,1,6,0,168,3,0,0,0,0,0,0,0,0,0,0,0,0],"split_type":[0,0,0,0,0,0,0,0,0,0,0,0,0,0,0,0,0,0,0,0,0,0,0,0,0,0,0,0,0,0,0,0,0,0,0,0,0],"sum_hessian":[3.36E2,5E0,3.31E2,1E0,4E0,1.1E1,3.2E2,3E0,8E0,7.4E1,2.46E2,1E0,2E0,5.8E1,1.6E1,9E0,2.37E2,4.2E1,1.6E1,3E0,1.3E1,6E0,3E0,1.7E1,2.2E2,2.2E1,2E1,1.5E1,1E0,1.1E1,2E0,3E0,3E0,1E1,7E0,6.5E1,1.55E2],"tree_param":{"num_deleted":"0","num_feature":"250","num_nodes":"37","size_leaf_vector":"1"}},{"base_weights":[2.4093606E-2,2.1284594E-1,-1.8111938E-1,1.1924129E-1,2.489049E0,-2.5444114E0,7.891371E-3,2.7763871E-2,1.6258423E0,-2.6530305E-1,-3.6508026E0,1.3024497E0,-1.7710486E-1,-2.3601888E-2,1.4014511E0,1.8466822E0,-5.4257587E-2,-1.9113809E-1,1.8329889E-1,-1.0531884E-1,-1.2216127E0,1.9362225E-1,2.5129666E0,-1.8167152E0,-4.3449957E-2,1.4194919E-1,-7.2242737E-1,5.706791E-1,7.996521E-2,1.0487939E-1,5.970354E-1,-7.487869E-2,7.8871086E-2,1.0037694E0,4.6165544E-1,1.4921013E0,-3.1238327E0,5.6848377E-1,-1.4081907E-1,-5.3635715E-3,5.6614506E-1,-5.602892E-1,2.4478912E-4,-1.5880281E0,-5.243235E-1,-7.545754E-1,-1.0907514E-2],"categories":[],"categories_nodes":[],"categories_segments":[],"categories_sizes":[],"default_left":[0,0,0,0,0,0,0,0,0,0,0,0,0,0,0,0,0,0,0,0,0,0,0,0,0,0,0,0,0,0,0,0,0,0,0,0,0,0,0,0,0,0,0,0,0,0,0],"id":20,"left_children":[1,3,5,7,-1,9,11,13,15,17,19,21,23,25,27,29,-1,-1,-1,-1,-1,31,33,35,37,39,41,-1,-1,-1,-1,-1,-1,-1,-1,-1,43,-1,45,-1,-1,-1,-1,-1,-1,-1,-1],"loss_changes":[1.3092052E1,1.3218958E2,7.238347E1,2.4073353E1,0E0,2.9290459E1,3.639342E1,1.1746117E1,4.323908E0,2.0184271E0,9.690308E0,2.5016262E1,2.9066948E1,1.872885E1,2.9031858E0,1.2368793E0,0E0,0E0,0E0,0E0,0E0,4.033937E-1,2.1534996E0,1.0429524E2,2.3670588E1,3.6573776E1,2.5677605E1,0E0,0E0,0E0,0E0,0E0,0E0,0E0,0E0,0E0,1.7618393E1,0E0,2.9424692E1,0E0,0E0,0E0,0E0,0E0,0E0,0E0,0E0],"parents":[2147483647,0,0,1,1,2,2,3,3,5,5,6,6,7,7,8,8,9,9,10,10,11,11,12,12,13,13,14,14,15,15,21,21,22,22,23,23,24,24,25,25,26,26,36,36,38,38],"right_children":[2,4,6,8,-1,10,12,14,16,18,20,22,24,26,28,30,-1,-1,-1,-1,-1,32,34,36,38,40,42,-1,-1,-1,-1,-1,-1,-1,-1,-1,44,-1,46,-1,-1,-1,-1,-1,-1,-1,-1],"split_conditions":[7.5E1,8.1E1,8.1E1,6.9E1,2.489049E0,7.6E1,8.6E1,6.9E1,7.8E1,7.8E1,8.1E1,8.4E1,8.4E1,6.1E1,6.8E1,6.7E1,-5.4257587E-2,-1.9113809E-1,1.8329889E-1,-1.0531884E-1,-1.2216127E0,8.2E1,8.5E1,5.8E1,8.8E1,6E1,6.4E1,5.706791E-1,7.996521E-2,1.0487939E-1,5.970354E-1,-7.487869E-2,7.8871086E-2,1.0037694E0,4.6165544E-1,1.4921013E0,7.7E1,5.6848377E-1,8.9E1,-5.3635715E-3,5.6614506E-1,-5.602892E-1,2.4478912E-4,-1.5880281E0,-5.243235E-1,-7.545754E-1,-1.0907514E-2],"split_indices":[123,14,56,74,0,24,59,150,0,3,76,81,152,90,0,206,0,0,0,0,0,0,67,0,160,143,226,0,0,0,0,0,0,0,0,0,3,0,95,0,0,0,0,0,0,0,0],"split_type":[0,0,0,0,0,0,0,0,0,0,0,0,0,0,0,0,0,0,0,0,0,0,0,0,0,0,0,0,0,0,0,0,0,0,0,0,0,0,0,0,0,0,0,0,0,0,0],"sum_hessian":[3.36E2,1.75E2,1.61E2,1.74E2,1E0,1.1E1,1.5E2,1.65E2,9E0,4E0,7E0,1.8E1,1.32E2,1.6E2,5E0,8E0,1E0,3E0,1E0,1E0,6E0,1E1,8E0,9E0,1.23E2,1.3E2,3E1,3E0,2E0,1E0,7E0,1E0,9E0,3E0,5E0,1E0,8E0,5E0,1.18E2,1.2E2,1E1,1.1E1,1.9E1,2E0,6E0,4E0,1.14E2],"tree_param":{"num_deleted":"0","num_feature":"250","num_nodes":"47","size_leaf_vector":"1"}},{"base_weights":[2.6081527E-2,7.1893215E-2,-5.7437485E-1,6.3586407E-3,2.577796E0,-9.074093E-1,2.6179138E-1,7.758625E-2,-8.0019224E-1,3.819895E-1,9.3175054E-1,-5.72208E-1,-1.0831928E0,7.917583E-3,9.877911E-1,-1.7335733E0,1.9474205E-1,-2.0550309E-1,-2.5995255E-1,-3.6052713E-1,-9.807434E-2,1.1095275E-1,-8.1661916E-1,-1.8911064E0,-1.7342836E-1,1.7466761E0,-9.9355125E-1,7.318497E-3,-1.0886002E-1,1.8782811E-2,9.1327405E-1,-7.9883045E-1,-1.7924368E-1,-2.0012665E-1,-6.266968E-1,-4.853897E-2,1.1127243E0,-2.7415467E-2,-3.837128E-1],"categories":[],"categories_nodes":[],"categories_segments":[],"categories_sizes":[],"default_left":[0,0,0,0,0,0,0,0,0,0,0,0,0,0,0,0,0,0,0,0,0,0,0,0,0,0,0,0,0,0,0,0,0,0,0,0,0,0,0],"id":21,"left_children":[1,3,5,7,9,11,-1,13,15,-1,-1,17,19,21,-1,23,25,-1,27,-1,-1,29,31,33,-1,35,37,-1,-1,-1,-1,-1,-1,-1,-1,-1,-1,-1,-1],"loss_changes":[9.311463E0,5.1549717E1,1.2357563E1,1.7698833E1,1.555954E0,5.5864525E-1,0E0,6.3362614E1,2.3553923E1,0E0,0E0,1.3893819E-1,6.8313885E-1,2.370845E1,0E0,1.273098E0,2.5709402E1,0E0,1.259057E-1,0E0,0E0,3.4977127E1,1.0950581E1,1.2707939E0,0E0,2.3071295E1,1.9436007E0,0E0,0E0,0E0,0E0,0E0,0E0,0E0,0E0,0E0,0E0,0E0,0E0],"parents":[2147483647,0,0,1,1,2,2,3,3,4,4,5,5,7,7,8,8,11,11,12,12,13,13,15,15,16,16,18,18,21,21,22,22,23,23,25,25,26,26],"right_children":[2,4,6,8,10,12,-1,14,16,-1,-1,18,20,22,-1,24,26,-1,28,-1,-1,30,32,34,-1,36,38,-1,-1,-1,-1,-1,-1,-1,-1,-1,-1,-1,-1],"split_conditions":[2.58E2,1.98E2,4.61E2,1.34E2,2.1E2,2.9E2,2.6179138E-1,1.33E2,1.65E2,3.819895E-1,9.3175054E-1,2.85E2,3.14E2,1E2,9.877911E-1,1.62E2,1.91E2,-2.0550309E-1,2.84E2,-3.6052713E-1,-9.807434E-2,1.02E2,1.03E2,1.29E2,-1.7342836E-1,1.85E2,1.9E2,7.318497E-3,-1.0886002E-1,1.8782811E-2,9.1327405E-1,-7.9883045E-1,-1.7924368E-1,-2.0012665E-1,-6.266968E-1,-4.853897E-2,1.1127243E0,-2.7415467E-2,-3.837128E-1],"split_indices":[0,108,0,114,0,37,0,166,56,0,0,112,65,1,0,0,14,0,60,0,0,29,0,0,0,0,0,0,0,0,0,0,0,0,0,0,0,0,0],"split_type":[0,0,0,0,0,0,0,0,0,0,0,0,0,0,0,0,0,0,0,0,0,0,0,0,0,0,0,0,0,0,0,0,0,0,0,0,0,0,0],"sum_hessian":[3.36E2,3.13E2,2.3E1,3.06E2,7E0,1.9E1,4E0,2.82E2,2.4E1,3E0,4E0,8E0,1.1E1,2.77E2,5E0,1.2E1,1.2E1,5E0,3E0,9E0,2E0,2.47E2,3E1,1E1,2E0,5E0,7E0,1E0,2E0,2.44E2,3E0,2E0,2.8E1,2E0,8E0,3E0,2E0,2E0,5E0],"tree_param":{"num_deleted":"0","num_feature":"250","num_nodes":"39","size_leaf_vector":"1"}},{"base_weights":[2.2424148E-2,-1.1225617E0,3.954879E-2,-4.7785607E-1,-1.8203259E-1,1.880024E-1,-1.1831274E-1,1.0672854E-1,2.1128747E0,-2.0118837E0,1.950038E-2,3.9451174E-2,1.185949E0,1.2654694E0,-3.0567183E0,8.1002015E-1,-1.4249186E-1,1.2752391E-1,-6.7221534E-1,7.205658E-1,7.839686E-1,-1.5235806E-1,-1.2229605E0,-1.1035156E-1,1.6067924E0,-1.835176E0,1.786726E-2,3.4592543E-3,3.6361918E-1,-3.2250488E-1,9.3766786E-2,2.7682343E-1,-4.8936084E-2,5.386124E-2,-5.3835297E-1,2.48864E-1,7.514588E-1,-6.6465E-2,-5.923151E-1,2.2286852E-1,-3.643799E-2],"categories":[],"categories_nodes":[],"categories_segments":[],"categories_sizes":[],"default_left":[0,0,0,0,0,0,0,0,0,0,0,0,0,0,0,0,0,0,0,0,0,0,0,0,0,0,0,0,0,0,0,0,0,0,0,0,0,0,0,0,0],"id":22,"left_children":[1,3,5,-1,-1,7,9,11,-1,13,15,17,19,-1,21,23,25,27,29,-1,31,-1,-1,33,35,37,39,-1,-1,-1,-1,-1,-1,-1,-1,-1,-1,-1,-1,-1,-1],"loss_changes":[6.6521125E0,2.4634647E-1,7.8261356E0,0E0,0E0,9.507385E1,4.231458E1,1.2369027E1,0E0,8.449779E1,1.958025E1,1.0239628E1,3.0048256E0,0E0,2.3923363E1,1.9243803E1,3.450533E1,1.8226896E1,7.4760046E0,0E0,1.3334184E0,0E0,0E0,6.6690288E0,7.694397E0,2.033493E0,1.1909117E1,0E0,0E0,0E0,0E0,0E0,0E0,0E0,0E0,0E0,0E0,0E0,0E0,0E0,0E0],"parents":[2147483647,0,0,1,1,2,2,5,5,6,6,7,7,9,9,10,10,11,11,12,12,14,14,15,15,16,16,17,17,18,18,20,20,23,23,24,24,25,25,26,26],"right_children":[2,4,6,-1,-1,8,10,12,-1,14,16,18,20,-1,22,24,26,28,30,-1,32,-1,-1,34,36,38,40,-1,-1,-1,-1,-1,-1,-1,-1,-1,-1,-1,-1,-1,-1],"split_conditions":[2.1E1,2.5E1,7.5E1,-4.7785607E-1,-1.8203259E-1,8.1E1,7.8E1,6.9E1,2.1128747E0,5.8E1,8.7E1,6.7E1,5.3E1,1.2654694E0,7.6E1,8.4E1,8.9E1,6.2E1,6.9E1,7.205658E-1,7.8E1,-1.5235806E-1,-1.2229605E0,9E1,8.9E1,8.2E1,9.7E1,3.4592543E-3,3.6361918E-1,-3.2250488E-1,9.3766786E-2,2.7682343E-1,-4.8936084E-2,5.386124E-2,-5.3835297E-1,2.48864E-1,7.514588E-1,-6.6465E-2,-5.923151E-1,2.2286852E-1,-3.643799E-2],"split_indices":[243,0,123,0,0,14,3,74,0,0,242,1,0,0,22,60,91,168,185,0,0,0,0,4,161,3,140,0,0,0,0,0,0,0,0,0,0,0,0,0,0],"split_type":[0,0,0,0,0,0,0,0,0,0,0,0,0,0,0,0,0,0,0,0,0,0,0,0,0,0,0,0,0,0,0,0,0,0,0,0,0,0,0,0,0],"sum_hessian":[3.36E2,4E0,3.32E2,1E0,3E0,1.71E2,1.61E2,1.7E2,1E0,1E1,1.51E2,1.61E2,9E0,1E0,9E0,2.5E1,1.26E2,1.44E2,1.7E1,1E0,8E0,3E0,6E0,1.2E1,1.3E1,1E1,1.16E2,1.31E2,1.3E1,1.2E1,5E0,7E0,1E0,1.1E1,1E0,8E0,5E0,1E0,9E0,1.8E1,9.8E1],"tree_param":{"num_deleted":"0","num_feature":"250","num_nodes":"41","size_leaf_vector":"1"}},{"base_weights":[2.303699E-2,4.0494385E-1,-1.4236525E-2,9.3976475E-2,8.6356354E-1,-4.8340312E-1,6.371656E-2,2.2508383E-1,-1.3618413E-1,5.102921E-2,3.227458E-1,-3.7166405E-1,-3.8419056E-1,7.992656E-1,-1.6233413E-2,9.900666E-2,7.889271E-2,-1.1332352E0,-2.5556627E-1,1.5627019E-1,1.8124313E0,-6.68789E-1,7.3107846E-2,3.7892304E-2,-9.918213E-5,-1.458664E-2,-4.176699E-1,-4.3434836E-2,-5.4965466E-1,2.7039242E-1,-2.5045282E-1,7.731709E-1,3.3494437E-1,4.1543093E-1,-1.2612959E0,2.483677E0,2.6622754E-2,-3.2318116E-3,4.7882083E-3,-4.42194E-2,6.012007E-2,-1.7525384E-1,-9.94606E-3,2.2811967E-1,5.610962E-2,2.3726751E-1,5.2731518E-2,-1.9100991E-1,-6.1215854E-1,-1.9792329E-1,1.1254197E0,1.4939283E-1,-3.6252465E-2],"categories":[],"categories_nodes":[],"categories_segments":[],"categories_sizes":[],"default_left":[0,0,0,0,0,0,0,0,0,0,0,0,0,0,0,0,0,0,0,0,0,0,0,0,0,0,0,0,0,0,0,0,0,0,0,0,0,0,0,0,0,0,0,0,0,0,0,0,0,0,0,0,0],"id":23,"left_children":[1,3,5,7,9,11,13,15,-1,-1,-1,17,-1,19,21,-1,23,25,27,29,31,33,35,-1,37,-1,-1,39,41,43,-1,-1,-1,45,47,49,51,-1,-1,-1,-1,-1,-1,-1,-1,-1,-1,-1,-1,-1,-1,-1,-1],"loss_changes":[4.802964E0,4.197318E0,1.12952795E1,1.4670755E0,1.5833111E0,3.4436407E0,1.5596864E1,2.194205E-1,0E0,0E0,0E0,3.2470512E0,0E0,1.6654753E1,1.4040928E1,0E0,2.9975705E-2,1.3368683E0,2.2220001E0,2.1485713E0,2.4452248E0,1.9153809E1,2.3689648E1,0E0,8.5760164E-4,0E0,0E0,5.8723557E-1,2.4811363E-1,5.113348E-1,0E0,0E0,0E0,8.5079265E-1,7.948204E0,1.8414896E1,1.4587304E1,0E0,0E0,0E0,0E0,0E0,0E0,0E0,0E0,0E0,0E0,0E0,0E0,0E0,0E0,0E0,0E0],"parents":[2147483647,0,0,1,1,2,2,3,3,4,4,5,5,6,6,7,7,11,11,13,13,14,14,16,16,17,17,18,18,19,19,20,20,21,21,22,22,24,24,27,27,28,28,29,29,33,33,34,34,35,35,36,36],"right_children":[2,4,6,8,10,12,14,16,-1,-1,-1,18,-1,20,22,-1,24,26,28,30,32,34,36,-1,38,-1,-1,40,42,44,-1,-1,-1,46,48,50,52,-1,-1,-1,-1,-1,-1,-1,-1,-1,-1,-1,-1,-1,-1,-1,-1],"split_conditions":[2.9E1,3E1,4.4E1,2.8E1,2.8E1,4.9E1,5.3E1,2.6E1,-1.3618413E-1,5.102921E-2,3.227458E-1,3E1,-3.8419056E-1,5.3E1,6.1E1,9.900666E-2,2.5E1,2.2E1,4E1,5.3E1,5.3E1,5.5E1,5.8E1,3.7892304E-2,2.3E1,-1.458664E-2,-4.176699E-1,4.4E1,4.9E1,4.4E1,-2.5045282E-1,7.731709E-1,3.3494437E-1,5.2E1,6E1,1.8E1,7.5E1,-3.2318116E-3,4.7882083E-3,-4.42194E-2,6.012007E-2,-1.7525384E-1,-9.94606E-3,2.2811967E-1,5.610962E-2,2.3726751E-1,5.2731518E-2,-1.9100991E-1,-6.1215854E-1,-1.9792329E-1,1.1254197E0,1.4939283E-1,-3.6252465E-2],"split_indices":[206,162,160,2,2,109,193,118,0,0,0,202,0,168,179,0,52,0,131,5,16,45,0,0,0,0,0,6,6,181,0,0,0,180,249,0,123,0,0,0,0,0,0,0,0,0,0,0,0,0,0,0,0],"split_type":[0,0,0,0,0,0,0,0,0,0,0,0,0,0,0,0,0,0,0,0,0,0,0,0,0,0,0,0,0,0,0,0,0,0,0,0,0,0,0,0,0,0,0,0,0,0,0,0,0,0,0,0,0],"sum_hessian":[3.36E2,2.9E1,3.07E2,1.8E1,1.1E1,4.3E1,2.64E2,1.5E1,3E0,3E0,8E0,3.9E1,4E0,2.5E1,2.39E2,8E0,7E0,4E0,3.5E1,1.6E1,9E0,2.8E1,2.11E2,4E0,3E0,1E0,3E0,2.1E1,1.4E1,1.5E1,1E0,3E0,6E0,1E1,1.8E1,3E0,2.08E2,2E0,1E0,1.5E1,6E0,1.3E1,1E0,1E0,1.4E1,3E0,7E0,1.1E1,7E0,1E0,2E0,4.9E1,1.59E2],"tree_param":{"num_deleted":"0","num_feature":"250","num_nodes":"53","size_leaf_vector":"1"}},{"base_weights":[1.927176E-2,-6.896287E-2,1.4092469E-1,-1.4704175E-2,-2.6697044E0,1.7735344E0,5.8069106E-2,-4.6268065E-2,9.068344E-1,-1.0469917E0,-3.133507E-2,1.2380551E0,-4.1456964E-2,5.205845E-3,-1.2308187E0,6.810379E-1,6.1277276E-1,-7.962697E-1,1.0171894E-1,-4.329477E-2,4.5758903E-1,-2.015934E0,2.249054E-1,2.72995E-2,2.5876543E-1,4.398117E-1,-1.2100334E0,7.1661097E-1,-4.971822E-2,-1.678453E-3,-4.7627795E-1,2.80395E-1,-5.257416E-3,-6.7737997E-1,-1.2089081E-1,7.3910523E-3,3.7735292E-1,-4.06235E-1,-4.0290073E-2,-2.4023704E-1,3.6300325E-1,-1.4801352E-1,6.1069902E-2],"categories":[],"categories_nodes":[],"categories_segments":[],"categories_sizes":[],"default_left":[0,0,0,0,0,0,0,0,0,0,0,0,0,0,0,0,0,0,0,0,0,0,0,0,0,0,0,0,0,0,0,0,0,0,0,0,0,0,0,0,0,0,0],"id":24,"left_children":[1,3,5,7,9,-1,11,13,-1,-1,-1,15,17,19,21,23,-1,25,27,29,31,33,-1,-1,-1,35,37,39,41,-1,-1,-1,-1,-1,-1,-1,-1,-1,-1,-1,-1,-1,-1],"loss_changes":[3.627077E0,2.7618864E1,6.755369E1,1.8643705E1,8.052256E0,0E0,1.661028E1,1.171331E1,0E0,0E0,0E0,3.5383797E0,1.42382965E1,4.0788713E0,1.3950703E1,7.7831054E-1,0E0,1.1272544E1,1.0371673E1,9.772067E0,4.0962267E0,1.4321365E0,0E0,0E0,0E0,2.0067668E0,2.2980652E0,1.7440042E1,1.0213938E1,0E0,0E0,0E0,0E0,0E0,0E0,0E0,0E0,0E0,0E0,0E0,0E0,0E0,0E0],"parents":[2147483647,0,0,1,1,2,2,3,3,4,4,6,6,7,7,11,11,12,12,13,13,14,14,15,15,17,17,18,18,19,19,20,20,21,21,25,25,26,26,27,27,28,28],"right_children":[2,4,6,8,10,-1,12,14,-1,-1,-1,16,18,20,22,24,-1,26,28,30,32,34,-1,-1,-1,36,38,40,42,-1,-1,-1,-1,-1,-1,-1,-1,-1,-1,-1,-1,-1,-1],"split_conditions":[8.4E1,8.7E1,7.8E1,8.6E1,9.1E1,1.7735344E0,8.6E1,8.3E1,9.068344E-1,-1.0469917E0,-3.133507E-2,8.7E1,9E1,7.3E1,8.3E1,8.7E1,6.1277276E-1,8.6E1,1.02E2,6.9E1,7.8E1,8.7E1,2.249054E-1,2.72995E-2,2.5876543E-1,9.1E1,9.6E1,9E1,1.33E2,-1.678453E-3,-4.7627795E-1,2.80395E-1,-5.257416E-3,-6.7737997E-1,-1.2089081E-1,7.3910523E-3,3.7735292E-1,-4.06235E-1,-4.0290073E-2,-2.4023704E-1,3.6300325E-1,-1.4801352E-1,6.1069902E-2],"split_indices":[41,0,2,60,0,0,227,229,0,0,0,85,238,187,22,35,0,242,13,21,0,1,0,0,0,4,148,106,166,0,0,0,0,0,0,0,0,0,0,0,0,0,0],"split_type":[0,0,0,0,0,0,0,0,0,0,0,0,0,0,0,0,0,0,0,0,0,0,0,0,0,0,0,0,0,0,0,0,0,0,0,0,0,0,0,0,0,0,0],"sum_hessian":[3.36E2,1.95E2,1.41E2,1.92E2,3E0,1E0,1.4E2,1.91E2,1E0,2E0,1E0,1E1,1.3E2,1.84E2,7E0,7E0,3E0,2E1,1.1E2,1.67E2,1.7E1,5E0,2E0,2E0,5E0,5E0,1.5E1,2.1E1,8.9E1,1.64E2,3E0,8E0,9E0,4E0,1E0,4E0,1E0,1.3E1,2E0,5E0,1.6E1,3.2E1,5.7E1],"tree_param":{"num_deleted":"0","num_feature":"250","num_nodes":"43","size_leaf_vector":"1"}},{"base_weights":[1.853017E-2,5.1371846E-2,-4.1192055E-1,9.771341E-4,1.9788475E0,-6.6242903E-1,2.0174928E-1,4.9305756E-2,-5.46142E-1,2.9865646E-1,7.1092165E-1,-4.2433083E-1,-7.858003E-1,-3.3144779E-3,7.437478E-1,-1.2475528E0,1.972797E-1,-1.5339509E-1,-1.8776894E-1,-2.7435914E-1,-8.991223E-2,4.265871E-2,-8.7328446E-1,-1.15960695E-1,-1.3689617E0,1.4097201E0,-7.3671055E-1,7.963944E-3,-8.041687E-2,-4.8667267E-3,2.7077544E-1,-3.0051637E-1,-1.3252625E-1,-4.564799E-1,-1.3641816E-1,-3.5003472E-2,8.925034E-1,-1.960907E-2,-2.848797E-1],"categories":[],"categories_nodes":[],"categories_segments":[],"categories_sizes":[],"default_left":[0,0,0,0,0,0,0,0,0,0,0,0,0,0,0,0,0,0,0,0,0,0,0,0,0,0,0,0,0,0,0,0,0,0,0,0,0,0,0],"id":25,"left_children":[1,3,5,7,9,11,-1,13,15,-1,-1,17,19,21,-1,23,25,-1,27,-1,-1,29,31,-1,33,35,37,-1,-1,-1,-1,-1,-1,-1,-1,-1,-1,-1,-1],"loss_changes":[4.785238E0,3.0498327E1,6.9652247E0,8.144473E0,7.1586037E-1,2.5405025E-1,0E0,3.6192444E1,1.3282217E1,0E0,0E0,8.918905E-2,4.768052E-1,1.1155945E1,0E0,8.2980347E-1,1.5759853E1,0E0,7.594319E-2,0E0,0E0,1.3432498E1,3.3342648E-1,0E0,8.431053E-1,1.4682666E1,1.0813069E0,0E0,0E0,0E0,0E0,0E0,0E0,0E0,0E0,0E0,0E0,0E0,0E0],"parents":[2147483647,0,0,1,1,2,2,3,3,4,4,5,5,7,7,8,8,11,11,12,12,13,13,15,15,16,16,18,18,21,21,22,22,24,24,25,25,26,26],"right_children":[2,4,6,8,10,12,-1,14,16,-1,-1,18,20,22,-1,24,26,-1,28,-1,-1,30,32,-1,34,36,38,-1,-1,-1,-1,-1,-1,-1,-1,-1,-1,-1,-1],"split_conditions":[2.58E2,1.98E2,4.61E2,1.34E2,2.1E2,2.9E2,2.0174928E-1,1.33E2,1.65E2,2.9865646E-1,7.1092165E-1,2.85E2,3.13E2,1.21E2,7.437478E-1,1.29E2,1.91E2,-1.5339509E-1,2.92E2,-2.7435914E-1,-8.991223E-2,1.02E2,1.3E2,-1.15960695E-1,1.62E2,1.85E2,1.9E2,7.963944E-3,-8.041687E-2,-4.8667267E-3,2.7077544E-1,-3.0051637E-1,-1.3252625E-1,-4.564799E-1,-1.3641816E-1,-3.5003472E-2,8.925034E-1,-1.960907E-2,-2.848797E-1],"split_indices":[0,108,0,114,0,37,0,166,56,0,0,0,59,207,0,0,14,0,0,0,0,29,60,0,0,0,0,0,0,0,0,0,0,0,0,0,0,0,0],"split_type":[0,0,0,0,0,0,0,0,0,0,0,0,0,0,0,0,0,0,0,0,0,0,0,0,0,0,0,0,0,0,0,0,0,0,0,0,0,0,0],"sum_hessian":[3.36E2,3.13E2,2.3E1,3.06E2,7E0,1.9E1,4E0,2.82E2,2.4E1,3E0,4E0,8E0,1.1E1,2.77E2,5E0,1.2E1,1.2E1,5E0,3E0,8E0,3E0,2.64E2,1.3E1,2E0,1E1,5E0,7E0,1E0,2E0,2.48E2,1.6E1,9E0,4E0,8E0,2E0,3E0,2E0,2E0,5E0],"tree_param":{"num_deleted":"0","num_feature":"250","num_nodes":"39","size_leaf_vector":"1"}},{"base_weights":[1.606352E-2,-7.65683E-1,2.7753217E-2,-3.4254456E-1,-1.15858845E-1,4.5201343E-1,-3.712179E-3,2.162318E-1,2.3842774E-1,-2.1165822E-1,6.443913E-2,2.5644466E-1,-5.2012254E-2,2.158723E-2,-7.276414E-1,1.3785537E0,6.007338E-3,4.4965476E-2,9.5288664E-2,-1.2850532E-1,4.203949E-1,-8.041895E-1,2.2877503E-2,6.006787E-1,2.4756384E-1,5.720381E-1,-2.8114421E-2,-2.4730684E-3,-9.851761E-2,6.72767E-2,2.303467E-1,-1.5174547E-1,-2.915536E-1,-8.92862E-2,2.991942E-2],"categories":[],"categories_nodes":[],"categories_segments":[],"categories_sizes":[],"default_left":[0,0,0,0,0,0,0,0,0,0,0,0,0,0,0,0,0,0,0,0,0,0,0,0,0,0,0,0,0,0,0,0,0,0,0],"id":26,"left_children":[1,3,5,-1,-1,7,9,11,-1,13,15,17,-1,19,21,23,25,-1,-1,27,29,31,-1,-1,-1,-1,33,-1,-1,-1,-1,-1,-1,-1,-1],"loss_changes":[3.100884E0,2.7272153E-1,4.447067E0,0E0,0E0,1.6868496E0,4.4210677E0,2.7946842E-1,0E0,9.282714E0,1.8036446E1,4.3669105E-2,0E0,3.2863586E0,1.5382137E0,1.7989426E0,1.47115555E1,0E0,0E0,9.5884204E-1,8.499737E-1,6.0894394E-1,0E0,0E0,0E0,0E0,7.7132015E0,0E0,0E0,0E0,0E0,0E0,0E0,0E0,0E0],"parents":[2147483647,0,0,1,1,2,2,5,5,6,6,7,7,9,9,10,10,11,11,13,13,14,14,15,15,16,16,19,19,20,20,21,21,26,26],"right_children":[2,4,6,-1,-1,8,10,12,-1,14,16,18,-1,20,22,24,26,-1,-1,28,30,32,-1,-1,-1,-1,34,-1,-1,-1,-1,-1,-1,-1,-1],"split_conditions":[2.1E1,2.5E1,2.8E1,-3.4254456E-1,-1.15858845E-1,2.8E1,5.3E1,2.7E1,2.3842774E-1,5E1,5.5E1,2.6E1,-5.2012254E-2,4.5E1,6.3E1,5.3E1,5.6E1,4.4965476E-2,9.5288664E-2,3.9E1,5E1,4.9E1,2.2877503E-2,6.006787E-1,2.4756384E-1,5.720381E-1,8.1E1,-2.4730684E-3,-9.851761E-2,6.72767E-2,2.303467E-1,-1.5174547E-1,-2.915536E-1,-8.92862E-2,2.991942E-2],"split_indices":[243,0,99,0,0,172,122,1,0,245,167,10,0,160,22,16,127,0,0,126,4,100,0,0,0,0,22,0,0,0,0,0,0,0,0],"split_type":[0,0,0,0,0,0,0,0,0,0,0,0,0,0,0,0,0,0,0,0,0,0,0,0,0,0,0,0,0,0,0,0,0,0,0],"sum_hessian":[3.36E2,4E0,3.32E2,1E0,3E0,2.2E1,3.1E2,1.4E1,8E0,7.6E1,2.34E2,1.3E1,1E0,5.3E1,2.3E1,9E0,2.25E2,6E0,7E0,3.9E1,1.4E1,2.1E1,2E0,3E0,6E0,3E0,2.22E2,2.5E1,1.4E1,1E1,4E0,9E0,1.2E1,7.1E1,1.51E2],"tree_param":{"num_deleted":"0","num_feature":"250","num_nodes":"35","size_leaf_vector":"1"}},{"base_weights":[1.4226421E-2,4.0736157E-2,-3.3320203E-1,2.962541E-3,1.4852066E0,-5.21632E-1,1.4614747E-1,4.0074002E-2,-4.172577E-1,2.2472535E-1,5.331189E-1,-3.1310818E-1,-5.886345E-1,1.2027274E-3,5.503292E-1,-9.554338E-1,1.5301514E-1,-1.1951478E-1,-6.6614784E-2,-1.9696428E-1,-7.6414496E-2,6.0654756E-2,-4.0013185E-1,-9.875336E-2,-1.0393733E0,1.1047859E0,-5.7993984E-1,2.2808076E-3,-3.2257464E-2,-6.5654223E-3,1.942244E-1,-6.469788E-1,-7.001435E-2,-3.427307E-1,-1.15118414E-1,-3.3860207E-2,7.0801854E-1,-2.1672059E-2,-2.2113992E-1],"categories":[],"categories_nodes":[],"categories_segments":[],"categories_sizes":[],"default_left":[0,0,0,0,0,0,0,0,0,0,0,0,0,0,0,0,0,0,0,0,0,0,0,0,0,0,0,0,0,0,0,0,0,0,0,0,0,0,0],"id":27,"left_children":[1,3,5,7,9,11,-1,13,15,-1,-1,17,19,21,-1,23,25,-1,27,-1,-1,29,31,-1,33,35,37,-1,-1,-1,-1,-1,-1,-1,-1,-1,-1,-1,-1],"loss_changes":[3.117423E0,1.7128342E1,3.964048E0,4.804382E0,3.875656E-1,9.5125675E-2,0E0,1.9736742E1,7.818876E0,0E0,0E0,1.2059885E-1,1.5025282E-1,6.657393E0,0E0,3.4123993E-1,9.709576E0,0E0,9.926207E-3,0E0,0E0,1.1782868E1,1.0040789E1,0E0,3.0491257E-1,9.437319E0,5.8520484E-1,0E0,0E0,0E0,0E0,0E0,0E0,0E0,0E0,0E0,0E0,0E0,0E0],"parents":[2147483647,0,0,1,1,2,2,3,3,4,4,5,5,7,7,8,8,11,11,12,12,13,13,15,15,16,16,18,18,21,21,22,22,24,24,25,25,26,26],"right_children":[2,4,6,8,10,12,-1,14,16,-1,-1,18,20,22,-1,24,26,-1,28,-1,-1,30,32,-1,34,36,38,-1,-1,-1,-1,-1,-1,-1,-1,-1,-1,-1,-1],"split_conditions":[2.58E2,1.98E2,4.61E2,1.34E2,2.1E2,2.85E2,1.4614747E-1,1.33E2,1.65E2,2.2472535E-1,5.331189E-1,2.78E2,3.13E2,9.8E1,5.503292E-1,1.29E2,1.91E2,-1.1951478E-1,2.92E2,-1.9696428E-1,-7.6414496E-2,8.7E1,1E2,-9.875336E-2,1.62E2,1.85E2,1.9E2,2.2808076E-3,-3.2257464E-2,-6.5654223E-3,1.942244E-1,-6.469788E-1,-7.001435E-2,-3.427307E-1,-1.15118414E-1,-3.3860207E-2,7.0801854E-1,-2.1672059E-2,-2.2113992E-1],"split_indices":[0,108,0,114,0,75,0,166,56,0,0,0,59,1,0,0,14,0,0,0,0,213,3,0,0,0,0,0,0,0,0,0,0,0,0,0,0,0,0],"split_type":[0,0,0,0,0,0,0,0,0,0,0,0,0,0,0,0,0,0,0,0,0,0,0,0,0,0,0,0,0,0,0,0,0,0,0,0,0,0,0],"sum_hessian":[3.36E2,3.13E2,2.3E1,3.06E2,7E0,1.9E1,4E0,2.82E2,2.4E1,3E0,4E0,6E0,1.3E1,2.77E2,5E0,1.2E1,1.2E1,4E0,2E0,1E1,3E0,2.42E2,3.5E1,2E0,1E1,5E0,7E0,1E0,1E0,2.13E2,2.9E1,2E0,3.3E1,8E0,2E0,3E0,2E0,2E0,5E0],"tree_param":{"num_deleted":"0","num_feature":"250","num_nodes":"39","size_leaf_vector":"1"}},{"base_weights":[1.1078356E-2,8.87067E-2,-9.7459674E-2,3.90024E-2,1.4746125E0,-7.9895663E-1,5.3265825E-2,1.2431881E-2,3.933838E-1,7.8591615E-1,-1.0505565E0,1.2657226E0,-5.94919E-2,4.9958665E-2,-5.1101273E-1,-8.678021E-1,-6.496506E-1,2.2464687E-1,5.5616E-1,-7.6669145E-1,4.7509763E-3,-8.105653E-3,6.105854E-1,-3.1539345E-1,-4.191208E-2,-4.3572435E-1,-5.3638995E-1,-6.341801E-2,-3.0273247E-1,6.4869404E-1,-5.069306E-2,2.2892892E-2,-1.4516512E-1,3.2588884E-1,1.1419549E-1,-8.228226E-2,2.43763E-2,-8.292135E-3,-2.1899998E-1,-4.098511E-3,2.6152688E-1,-1.5635066E-1,9.68216E-3],"categories":[],"categories_nodes":[],"categories_segments":[],"categories_sizes":[],"default_left":[0,0,0,0,0,0,0,0,0,0,0,0,0,0,0,0,0,0,0,0,0,0,0,0,0,0,0,0,0,0,0,0,0,0,0,0,0,0,0,0,0,0,0],"id":28,"left_children":[1,3,5,7,-1,9,11,13,-1,-1,15,17,19,21,23,-1,25,-1,-1,27,29,31,33,-1,35,37,-1,-1,-1,39,41,-1,-1,-1,-1,-1,-1,-1,-1,-1,-1,-1,-1],"loss_changes":[2.8480818E0,4.70698E1,1.4950976E1,6.6094894E0,0E0,2.4255634E1,1.6070822E1,3.816666E0,0E0,0E0,1.5845152E1,1.6518974E0,4.9103565E0,5.8969355E0,3.2508457E0,0E0,4.3347683E0,0E0,0E0,9.982033E-1,3.6031647E0,6.6638103E0,1.4459925E0,0E0,2.512396E-1,2.2615159E0,0E0,0E0,0E0,1.193882E0,3.6469758E0,0E0,0E0,0E0,0E0,0E0,0E0,0E0,0E0,0E0,0E0,0E0,0E0],"parents":[2147483647,0,0,1,1,2,2,3,3,5,5,6,6,7,7,10,10,11,11,12,12,13,13,14,14,16,16,19,19,20,20,21,21,22,22,24,24,25,25,29,29,30,30],"right_children":[2,4,6,8,-1,10,12,14,-1,-1,16,18,20,22,24,-1,26,-1,-1,28,30,32,34,-1,36,38,-1,-1,-1,40,42,-1,-1,-1,-1,-1,-1,-1,-1,-1,-1,-1,-1],"split_conditions":[8.5E1,8.8E1,9.1E1,8.4E1,1.4746125E0,5.8E1,9.3E1,8E1,3.933838E-1,7.8591615E-1,8.3E1,9.3E1,9E1,6.9E1,8.2E1,-8.678021E-1,9.5E1,2.2464687E-1,5.5616E-1,8.7E1,1E2,6.3E1,7.3E1,-3.1539345E-1,8.2E1,8.8E1,-5.3638995E-1,-6.341801E-2,-3.0273247E-1,9E1,1.18E2,2.2892892E-2,-1.4516512E-1,3.2588884E-1,1.1419549E-1,-8.228226E-2,2.43763E-2,-8.292135E-3,-2.1899998E-1,-4.098511E-3,2.6152688E-1,-1.5635066E-1,9.68216E-3],"split_indices":[87,61,109,79,0,0,122,80,0,0,126,134,60,150,51,0,158,0,0,46,10,161,0,0,0,87,0,0,0,61,229,0,0,0,0,0,0,0,0,0,0,0,0],"split_type":[0,0,0,0,0,0,0,0,0,0,0,0,0,0,0,0,0,0,0,0,0,0,0,0,0,0,0,0,0,0,0,0,0,0,0,0,0,0,0,0,0,0,0],"sum_hessian":[3.36E2,1.96E2,1.4E2,1.95E2,1E0,2.4E1,1.16E2,1.92E2,3E0,1E0,2.3E1,9E0,1.07E2,1.8E2,1.2E1,3E0,2E1,6E0,3E0,8E0,9.9E1,1.64E2,1.6E1,5E0,7E0,1.8E1,2E0,3E0,5E0,7E0,9.2E1,1.4E2,2.4E1,4E0,1.2E1,2E0,5E0,8E0,1E1,2E0,5E0,1.3E1,7.9E1],"tree_param":{"num_deleted":"0","num_feature":"250","num_nodes":"43","size_leaf_vector":"1"}},{"base_weights":[1.2182423E-2,-5.857773E-1,2.2952229E-2,-2.936119E-1,-9.343506E-2,4.7753778E-1,5.886874E-3,1.5392685E-1,1.7049155E-1,-1.2698312E-1,5.505199E-2,-1.272583E-3,6.241913E-2,3.0823708E-2,-5.4251033E-1,1.0554913E0,5.8969455E-3,-4.9984567E-2,3.5168573E-1,-5.9866405E-1,1.5036012E-2,7.0178226E-2,1.608502E0,7.701908E-1,-2.582905E-2,3.9206825E-2,-4.2442348E-2,5.731659E-2,1.7114502E-1,-8.172161E-2,-2.1119572E-1,-1.22526176E-1,8.757992E-2,5.290287E-1,1.0184098E-1,2.7834046E-1,1.3756257E-1,-1.5085867E-1,1.0828993E-2],"categories":[],"categories_nodes":[],"categories_segments":[],"categories_sizes":[],"default_left":[0,0,0,0,0,0,0,0,0,0,0,0,0,0,0,0,0,0,0,0,0,0,0,0,0,0,0,0,0,0,0,0,0,0,0,0,0,0,0],"id":29,"left_children":[1,3,5,-1,-1,7,9,11,-1,13,15,-1,-1,17,19,21,23,25,27,29,-1,31,33,35,37,-1,-1,-1,-1,-1,-1,-1,-1,-1,-1,-1,-1,-1,-1],"loss_changes":[2.1836944E0,3.4192848E-1,2.5727334E0,0E0,0E0,2.6500225E-1,2.103945E0,3.5133675E-2,0E0,5.7215757E0,1.1550286E1,0E0,0E0,1.6769904E0,8.2868624E-1,5.8808947E0,5.4756894E0,8.7804127E-1,3.478986E-1,5.641961E-1,0E0,6.4988947E-1,7.776203E-1,1.6636848E-2,6.4284644E0,0E0,0E0,0E0,0E0,0E0,0E0,0E0,0E0,0E0,0E0,0E0,0E0,0E0,0E0],"parents":[2147483647,0,0,1,1,2,2,5,5,6,6,7,7,9,9,10,10,13,13,14,14,15,15,16,16,17,17,18,18,19,19,21,21,22,22,23,23,24,24],"right_children":[2,4,6,-1,-1,8,10,12,-1,14,16,-1,-1,18,20,22,24,26,28,30,-1,32,34,36,38,-1,-1,-1,-1,-1,-1,-1,-1,-1,-1,-1,-1,-1,-1],"split_conditions":[2.2E1,2.5E1,2.5E1,-2.936119E-1,-9.343506E-2,2.3E1,5.3E1,2.3E1,1.7049155E-1,5E1,5.7E1,-1.272583E-3,6.241913E-2,4.6E1,6.3E1,5.5E1,5.5E1,3E1,5E1,4.1E1,1.5036012E-2,6.1E1,6.4E1,5.6E1,6.5E1,3.9206825E-2,-4.2442348E-2,5.731659E-2,1.7114502E-1,-8.172161E-2,-2.1119572E-1,-1.22526176E-1,8.757992E-2,5.290287E-1,1.0184098E-1,2.7834046E-1,1.3756257E-1,-1.5085867E-1,1.0828993E-2],"split_indices":[99,0,71,0,0,1,122,0,0,245,108,0,0,171,22,109,161,108,4,135,0,0,2,21,94,0,0,0,0,0,0,0,0,0,0,0,0,0,0],"split_type":[0,0,0,0,0,0,0,0,0,0,0,0,0,0,0,0,0,0,0,0,0,0,0,0,0,0,0,0,0,0,0,0,0,0,0,0,0,0,0],"sum_hessian":[3.36E2,5E0,3.31E2,1E0,4E0,1.1E1,3.2E2,3E0,8E0,8.6E1,2.34E2,1E0,2E0,6.3E1,2.3E1,1E1,2.24E2,5.1E1,1.2E1,2.1E1,2E0,4E0,6E0,8E0,2.16E2,1.7E1,3.4E1,8E0,4E0,6E0,1.5E1,1E0,3E0,5E0,1E0,4E0,4E0,2.4E1,1.92E2],"tree_param":{"num_deleted":"0","num_feature":"250","num_nodes":"39","size_leaf_vector":"1"}},{"base_weights":[1.0497979E-2,8.1970215E-2,-7.915054E-2,1.7616726E-2,3.0378265E0,-2.3037186E0,-3.3523146E-2,4.384877E-2,-3.5410368E-1,-9.550324E-2,1.2787995E0,-8.17622E-1,-2.1905138E-1,3.0276248E-1,-8.241472E-2,-5.566715E-2,2.6306206E-1,6.576347E-2,1.1750679E0,-8.980165E-1,-6.9644293E-3,-2.3856284E-3,-8.412714E-1,1.0475178E0,1.322879E-1,-1.4407818E-2,9.296379E-2,3.9732212E-1,1.0905762E-1,-8.627186E-2,-3.272959E-1,-5.23085E-1,3.9595664E-2,-1.7708251E-2,1.6773023E-1,-1.3287735E-1,-2.975084E-1,4.1039065E-1,1.1552239E-1,-1.2467589E-1,8.3893836E-2,1.2820088E-2,-6.573716E-2,-1.915186E-1,-1.2368775E-2,1.343605E-1,-1.8193284E-2],"categories":[],"categories_nodes":[],"categories_segments":[],"categories_sizes":[],"default_left":[0,0,0,0,0,0,0,0,0,0,0,0,0,0,0,0,0,0,0,0,0,0,0,0,0,0,0,0,0,0,0,0,0,0,0,0,0,0,0,0,0,0,0,0,0,0,0],"id":30,"left_children":[1,3,5,7,9,11,13,15,-1,-1,-1,-1,-1,17,19,21,23,25,27,29,31,33,35,37,39,41,-1,-1,-1,-1,-1,43,45,-1,-1,-1,-1,-1,-1,-1,-1,-1,-1,-1,-1,-1,-1],"loss_changes":[2.1657753E0,3.570778E1,1.5147958E1,5.8653817E0,1.7800064E1,6.246567E-4,2.4582987E0,3.9850125E0,0E0,0E0,0E0,0E0,0E0,3.8506985E0,7.9936056E0,5.272125E0,5.708859E0,3.1760198E-1,3.3240318E-3,9.8203087E-1,2.9043868E0,3.8176358E0,4.011917E-2,1.1714745E0,4.1529055E0,1.6143495E-1,0E0,0E0,0E0,0E0,0E0,5.293088E-1,4.5698614E0,0E0,0E0,0E0,0E0,0E0,0E0,0E0,0E0,0E0,0E0,0E0,0E0,0E0,0E0],"parents":[2147483647,0,0,1,1,2,2,3,3,4,4,5,5,6,6,7,7,13,13,14,14,15,15,16,16,17,17,18,18,19,19,20,20,21,21,22,22,23,23,24,24,25,25,31,31,32,32],"right_children":[2,4,6,8,10,12,14,16,-1,-1,-1,-1,-1,18,20,22,24,26,28,30,32,34,36,38,40,42,-1,-1,-1,-1,-1,44,46,-1,-1,-1,-1,-1,-1,-1,-1,-1,-1,-1,-1,-1,-1],"split_conditions":[8E1,8E1,8E1,7.8E1,1.8E1,8.9E1,8.6E1,5.9E1,-3.5410368E-1,-9.550324E-2,1.2787995E0,-8.17622E-1,-2.1905138E-1,8.6E1,8.8E1,5.9E1,5.6E1,9.2E1,9.4E1,8.3E1,8.9E1,5.9E1,6.2E1,6.4E1,6E1,8.4E1,9.296379E-2,3.9732212E-1,1.0905762E-1,-8.627186E-2,-3.272959E-1,8.9E1,1.02E2,-1.7708251E-2,1.6773023E-1,-1.3287735E-1,-2.975084E-1,4.1039065E-1,1.1552239E-1,-1.2467589E-1,8.3893836E-2,1.2820088E-2,-6.573716E-2,-1.915186E-1,-1.2368775E-2,1.343605E-1,-1.8193284E-2],"split_indices":[0,18,208,165,0,0,246,131,0,0,0,0,0,85,64,128,245,2,0,0,127,94,23,3,212,81,0,0,0,0,0,159,138,0,0,0,0,0,0,0,0,0,0,0,0,0,0],"split_type":[0,0,0,0,0,0,0,0,0,0,0,0,0,0,0,0,0,0,0,0,0,0,0,0,0,0,0,0,0,0,0,0,0,0,0,0,0,0,0,0,0,0,0,0,0,0,0],"sum_hessian":[3.36E2,1.87E2,1.49E2,1.84E2,3E0,2E0,1.47E2,1.81E2,3E0,1E0,2E0,1E0,1E0,1.8E1,1.29E2,1.25E2,5.6E1,1.5E1,3E0,1E1,1.19E2,1.18E2,7E0,7E0,4.9E1,1.2E1,3E0,2E0,1E0,3E0,7E0,9E0,1.1E2,1.08E2,1E1,3E0,4E0,4E0,3E0,1E1,3.9E1,1E1,2E0,7E0,2E0,2.1E1,8.9E1],"tree_param":{"num_deleted":"0","num_feature":"250","num_nodes":"47","size_leaf_vector":"1"}},{"base_weights":[7.4759237E-3,2.690139E-2,-2.4698544E-1,-1.992589E-3,1.1323452E0,-3.8848E-1,1.1051697E-1,2.4279295E-2,-2.993106E-1,1.7364235E-1,4.0461183E-1,-2.5055948E-1,-4.5954704E-1,-4.9364376E-3,4.1216853E-1,-7.1375453E-1,1.3815719E-1,-9.082909E-2,-1.0961342E-1,-1.5726726E-1,-5.9741024E-2,2.627077E-2,-5.952917E-1,-7.9464726E-2,-7.712874E-1,8.83784E-1,-4.3833256E-1,1.5918732E-3,-4.4906616E-2,-3.615561E-3,1.7581181E-1,-2.0380348E-1,-6.459675E-2,-2.5195312E-1,-9.255677E-2,-2.676201E-2,5.659531E-1,-1.7799377E-2,-1.6643335E-1],"categories":[],"categories_nodes":[],"categories_segments":[],"categories_sizes":[],"default_left":[0,0,0,0,0,0,0,0,0,0,0,0,0,0,0,0,0,0,0,0,0,0,0,0,0,0,0,0,0,0,0,0,0,0,0,0,0,0,0],"id":31,"left_children":[1,3,5,7,9,11,-1,13,15,-1,-1,17,19,21,-1,23,25,-1,27,-1,-1,29,31,-1,33,35,37,-1,-1,-1,-1,-1,-1,-1,-1,-1,-1,-1,-1],"loss_changes":[1.6724457E0,1.0031628E1,2.2328467E0,2.405276E0,1.774683E-1,8.088827E-2,0E0,1.1165474E1,4.631257E0,0E0,0E0,3.30348E-2,9.7718716E-2,5.1373267E0,0E0,1.31423E-1,5.975392E0,0E0,1.921605E-2,0E0,0E0,5.691793E0,3.0084848E-1,0E0,8.98695E-2,6.0221496E0,3.201474E-1,0E0,0E0,0E0,0E0,0E0,0E0,0E0,0E0,0E0,0E0,0E0,0E0],"parents":[2147483647,0,0,1,1,2,2,3,3,4,4,5,5,7,7,8,8,11,11,12,12,13,13,15,15,16,16,18,18,21,21,22,22,24,24,25,25,26,26],"right_children":[2,4,6,8,10,12,-1,14,16,-1,-1,18,20,22,-1,24,26,-1,28,-1,-1,30,32,-1,34,36,38,-1,-1,-1,-1,-1,-1,-1,-1,-1,-1,-1,-1],"split_conditions":[2.58E2,1.98E2,4.61E2,1.34E2,2.1E2,2.9E2,1.1051697E-1,1.33E2,1.65E2,1.7364235E-1,4.0461183E-1,2.85E2,3.13E2,1.21E2,4.1216853E-1,1.29E2,1.91E2,-9.082909E-2,2.84E2,-1.5726726E-1,-5.9741024E-2,1.02E2,1.29E2,-7.9464726E-2,1.62E2,1.85E2,1.9E2,1.5918732E-3,-4.4906616E-2,-3.615561E-3,1.7581181E-1,-2.0380348E-1,-6.459675E-2,-2.5195312E-1,-9.255677E-2,-2.676201E-2,5.659531E-1,-1.7799377E-2,-1.6643335E-1],"split_indices":[0,108,0,114,0,37,0,166,56,0,0,112,59,207,0,0,14,0,60,0,0,29,89,0,0,0,0,0,0,0,0,0,0,0,0,0,0,0,0],"split_type":[0,0,0,0,0,0,0,0,0,0,0,0,0,0,0,0,0,0,0,0,0,0,0,0,0,0,0,0,0,0,0,0,0,0,0,0,0,0,0],"sum_hessian":[3.36E2,3.13E2,2.3E1,3.06E2,7E0,1.9E1,4E0,2.82E2,2.4E1,3E0,4E0,8E0,1.1E1,2.77E2,5E0,1.2E1,1.2E1,5E0,3E0,8E0,3E0,2.64E2,1.3E1,2E0,1E1,5E0,7E0,1E0,2E0,2.48E2,1.6E1,1E1,3E0,8E0,2E0,3E0,2E0,2E0,5E0],"tree_param":{"num_deleted":"0","num_feature":"250","num_nodes":"39","size_leaf_vector":"1"}},{"base_weights":[6.9681727E-3,6.615219E-2,-7.577098E-2,3.0417617E-2,1.0605195E0,-5.342459E-1,2.2841364E-2,1.326052E-2,2.5519297E-1,4.7512665E-1,-6.884858E-1,7.946808E-1,-4.883674E-2,6.220429E-2,-2.0191659E-1,-6.688034E-1,-4.4707385E-1,1.3912877E-1,3.5253525E-1,-3.2627106E-1,4.310915E-2,-1.8901825E-3,2.7567342E-1,-6.7344666E-1,9.38807E-2,-2.3716557E-1,-2.9019052E-1,1.3934453E-1,-4.384266E-1,5.6969607E-1,-2.9616578E-2,1.2806864E-2,-2.362115E-1,-4.657288E-2,-2.2406311E-1,7.5910956E-2,-2.192955E-2,1.9901734E-2,-1.0069639E-1,-9.313088E-2,8.741639E-2,-8.478013E-2,-1.8963268E-1,2.8349993E-1,1.0732356E-1,-1.162993E-1,2.0899754E-2],"categories":[],"categories_nodes":[],"categories_segments":[],"categories_sizes":[],"default_left":[0,0,0,0,0,0,0,0,0,0,0,0,0,0,0,0,0,0,0,0,0,0,0,0,0,0,0,0,0,0,0,0,0,0,0,0,0,0,0,0,0,0,0,0,0,0,0],"id":32,"left_children":[1,3,5,7,-1,9,11,13,-1,-1,15,17,19,21,23,-1,25,-1,-1,27,29,31,-1,33,35,37,-1,39,41,43,45,-1,-1,-1,-1,-1,-1,-1,-1,-1,-1,-1,-1,-1,-1,-1,-1],"loss_changes":[1.6552461E0,2.4312614E1,6.386995E0,2.746967E0,0E0,9.2574005E0,6.5117164E0,2.0451546E0,0E0,0E0,7.9308796E0,7.1395874E-1,2.7690318E0,8.677546E0,5.0844073E0,0E0,2.1729922E0,0E0,0E0,1.4710691E0,3.1571782E0,5.216062E0,0E0,4.1677856E-1,6.2973785E-1,5.30429E-1,0E0,5.0077456E-1,4.8534346E-1,4.5739055E-1,2.6219997E0,0E0,0E0,0E0,0E0,0E0,0E0,0E0,0E0,0E0,0E0,0E0,0E0,0E0,0E0,0E0,0E0],"parents":[2147483647,0,0,1,1,2,2,3,3,5,5,6,6,7,7,10,10,11,11,12,12,13,13,14,14,16,16,19,19,20,20,21,21,23,23,24,24,25,25,27,27,28,28,29,29,30,30],"right_children":[2,4,6,8,-1,10,12,14,-1,-1,16,18,20,22,24,-1,26,-1,-1,28,30,32,-1,34,36,38,-1,40,42,44,46,-1,-1,-1,-1,-1,-1,-1,-1,-1,-1,-1,-1,-1,-1,-1,-1],"split_conditions":[8.5E1,8.8E1,9.1E1,8.4E1,1.0605195E0,5.8E1,9.3E1,6.8E1,2.5519297E-1,4.7512665E-1,7.9E1,9.3E1,1.12E2,6.6E1,7.3E1,-6.688034E-1,9.1E1,1.3912877E-1,3.5253525E-1,9.2E1,1.21E2,6.4E1,2.7567342E-1,6.1E1,7.9E1,8.3E1,-2.9019052E-1,7.9E1,9.8E1,1.09E2,1.33E2,1.2806864E-2,-2.362115E-1,-4.657288E-2,-2.2406311E-1,7.5910956E-2,-2.192955E-2,1.9901734E-2,-1.0069639E-1,-9.313088E-2,8.741639E-2,-8.478013E-2,-1.8963268E-1,2.8349993E-1,1.0732356E-1,-1.162993E-1,2.0899754E-2],"split_indices":[87,61,109,79,0,0,122,118,0,0,1,134,240,112,173,0,221,0,0,140,121,148,0,19,76,65,0,1,245,0,166,0,0,0,0,0,0,0,0,0,0,0,0,0,0,0,0],"split_type":[0,0,0,0,0,0,0,0,0,0,0,0,0,0,0,0,0,0,0,0,0,0,0,0,0,0,0,0,0,0,0,0,0,0,0,0,0,0,0,0,0,0,0,0,0,0,0],"sum_hessian":[3.36E2,1.96E2,1.4E2,1.95E2,1E0,2.4E1,1.16E2,1.92E2,3E0,1E0,2.3E1,9E0,1.07E2,1.57E2,3.5E1,2E0,2.1E1,6E0,3E0,2.6E1,8.1E1,1.47E2,1E1,1.3E1,2.2E1,1.6E1,5E0,5E0,2.1E1,9E0,7.2E1,1.4E2,7E0,2E0,1.1E1,1.1E1,1.1E1,4E0,1.2E1,1E0,4E0,1.3E1,8E0,2E0,7E0,1.5E1,5.7E1],"tree_param":{"num_deleted":"0","num_feature":"250","num_nodes":"47","size_leaf_vector":"1"}},{"base_weights":[8.122181E-3,-5.1912385E-1,1.6014397E-2,-2.4829331E-1,-7.052479E-2,2.5106117E-1,-6.1074283E-4,1.21732436E-1,1.2730306E-1,-1.7509341E-1,2.8689E-2,1.4718217E-1,-3.1367112E-2,-8.332021E-2,-5.3292847E-1,3.1592375E-1,-6.1380705E-3,5.442861E-2,1.6830597E-2,-1.386122E-1,7.982941E-2,-4.9450688E-2,-1.8436499E-1,2.389619E-1,3.7062836E-1,-4.971428E-1,1.5144117E-2,2.1209718E-4,-1.06196396E-1,-6.9030764E-4,4.0489964E-2,3.956425E-2,1.1122399E-1,-1.857605E-2,-2.0244631E-1,1.2748535E-1,-3.9760047E-3],"categories":[],"categories_nodes":[],"categories_segments":[],"categories_sizes":[],"default_left":[0,0,0,0,0,0,0,0,0,0,0,0,0,0,0,0,0,0,0,0,0,0,0,0,0,0,0,0,0,0,0,0,0,0,0,0,0],"id":33,"left_children":[1,3,5,-1,-1,7,9,11,-1,13,15,17,-1,19,21,23,25,-1,-1,27,29,-1,-1,31,-1,33,35,-1,-1,-1,-1,-1,-1,-1,-1,-1,-1],"loss_changes":[1.4106175E0,2.4359798E-1,1.3014126E0,0E0,0E0,4.4137216E-1,1.6000601E0,9.601505E-2,0E0,1.4333818E0,2.6828895E0,3.0370831E-2,0E0,3.448374E-1,1.6909862E-1,1.7570152E0,2.5154457E0,0E0,0E0,8.4041756E-1,4.5594916E-2,0E0,0E0,3.4623182E-1,0E0,7.315109E-1,2.69389E0,0E0,0E0,0E0,0E0,0E0,0E0,0E0,0E0,0E0,0E0],"parents":[2147483647,0,0,1,1,2,2,5,5,6,6,7,7,9,9,10,10,11,11,13,13,14,14,15,15,16,16,19,19,20,20,23,23,25,25,26,26],"right_children":[2,4,6,-1,-1,8,10,12,-1,14,16,18,-1,20,22,24,26,-1,-1,28,30,-1,-1,32,-1,34,36,-1,-1,-1,-1,-1,-1,-1,-1,-1,-1],"split_conditions":[2.1E1,2.5E1,2.9E1,-2.4829331E-1,-7.052479E-2,2.7E1,4.5E1,2.6E1,1.2730306E-1,4.3E1,5.3E1,2.2E1,-3.1367112E-2,4.3E1,4.1E1,6.5E1,5.1E1,5.442861E-2,1.6830597E-2,3.5E1,4.4E1,-4.9450688E-2,-1.8436499E-1,5E1,3.7062836E-1,5.1E1,5.7E1,2.1209718E-4,-1.06196396E-1,-6.9030764E-4,4.0489964E-2,3.956425E-2,1.1122399E-1,-1.857605E-2,-2.0244631E-1,1.2748535E-1,-3.9760047E-3],"split_indices":[243,0,117,0,0,147,185,1,0,120,44,137,0,12,9,139,121,0,0,131,8,0,0,4,0,6,114,0,0,0,0,0,0,0,0,0,0],"split_type":[0,0,0,0,0,0,0,0,0,0,0,0,0,0,0,0,0,0,0,0,0,0,0,0,0,0,0,0,0,0,0,0,0,0,0,0,0],"sum_hessian":[3.36E2,4E0,3.32E2,1E0,3E0,2.1E1,3.11E2,1.3E1,8E0,4.4E1,2.67E2,1.2E1,1E0,3.6E1,8E0,2.8E1,2.39E2,8E0,4E0,2.7E1,9E0,2E0,6E0,2.7E1,1E0,9E0,2.3E2,1.7E1,1E1,4E0,5E0,1.6E1,1.1E1,3E0,6E0,1.4E1,2.16E2],"tree_param":{"num_deleted":"0","num_feature":"250","num_nodes":"37","size_leaf_vector":"1"}},{"base_weights":[5.6030997E-3,2.123404E-2,-1.9913514E-1,-4.3457726E-4,8.501129E-1,-3.0557138E-1,7.993103E-2,1.8746447E-2,-2.1754639E-1,1.3076478E-1,3.034424E-1,-2.0533922E-1,-3.552812E-1,-2.8513079E-3,3.048954E-1,-5.2675337E-1,1.0839491E-1,-7.317276E-2,-9.6149445E-2,-1.1984254E-1,-5.0107386E-2,1.3115043E-2,-3.9159048E-1,-3.9515685E-2,-1.7598101E-1,6.9441223E-1,-3.4466743E-1,-1.185608E-3,-3.7669376E-2,-2.7557833E-3,8.703198E-2,-2.0844327E-1,-5.7309438E-2,-2.4547579E-2,4.4937745E-1,-1.7623901E-2,-1.2905502E-1],"categories":[],"categories_nodes":[],"categories_segments":[],"categories_sizes":[],"default_left":[0,0,0,0,0,0,0,0,0,0,0,0,0,0,0,0,0,0,0,0,0,0,0,0,0,0,0,0,0,0,0,0,0,0,0,0,0],"id":34,"left_children":[1,3,5,7,9,11,-1,13,15,-1,-1,17,19,21,-1,23,25,-1,27,-1,-1,29,31,-1,-1,33,35,-1,-1,-1,-1,-1,-1,-1,-1,-1,-1],"loss_changes":[1.0827129E0,5.640016E0,1.2707047E0,1.2825574E0,9.384346E-2,2.6697278E-2,0E0,6.1002197E0,2.5766802E0,0E0,0E0,1.4451295E-2,3.3115268E-2,1.7306111E0,0E0,2.3008966E-1,3.6908724E0,0E0,1.0351762E-2,0E0,0E0,1.6581503E0,5.3621864E-1,0E0,0E0,3.8648674E0,1.70335E-1,0E0,0E0,0E0,0E0,0E0,0E0,0E0,0E0,0E0,0E0],"parents":[2147483647,0,0,1,1,2,2,3,3,4,4,5,5,7,7,8,8,11,11,12,12,13,13,15,15,16,16,18,18,21,21,22,22,25,25,26,26],"right_children":[2,4,6,8,10,12,-1,14,16,-1,-1,18,20,22,-1,24,26,-1,28,-1,-1,30,32,-1,-1,34,36,-1,-1,-1,-1,-1,-1,-1,-1,-1,-1],"split_conditions":[2.58E2,1.98E2,4.61E2,1.34E2,2.1E2,2.9E2,7.993103E-2,1.33E2,1.65E2,1.3076478E-1,3.034424E-1,2.85E2,3.13E2,1.21E2,3.048954E-1,1.29E2,1.91E2,-7.317276E-2,2.92E2,-1.1984254E-1,-5.0107386E-2,1.02E2,1.25E2,-3.9515685E-2,-1.7598101E-1,1.85E2,1.9E2,-1.185608E-3,-3.7669376E-2,-2.7557833E-3,8.703198E-2,-2.0844327E-1,-5.7309438E-2,-2.4547579E-2,4.4937745E-1,-1.7623901E-2,-1.2905502E-1],"split_indices":[0,108,0,114,0,37,0,166,56,0,0,0,59,211,0,0,14,0,0,0,0,29,6,0,0,0,0,0,0,0,0,0,0,0,0,0,0],"split_type":[0,0,0,0,0,0,0,0,0,0,0,0,0,0,0,0,0,0,0,0,0,0,0,0,0,0,0,0,0,0,0,0,0,0,0,0,0],"sum_hessian":[3.36E2,3.13E2,2.3E1,3.06E2,7E0,1.9E1,4E0,2.82E2,2.4E1,3E0,4E0,8E0,1.1E1,2.77E2,5E0,1.2E1,1.2E1,5E0,3E0,8E0,3E0,2.67E2,1E1,2E0,1E1,5E0,7E0,1E0,2E0,2.48E2,1.9E1,3E0,7E0,3E0,2E0,2E0,5E0],"tree_param":{"num_deleted":"0","num_feature":"250","num_nodes":"37","size_leaf_vector":"1"}},{"base_weights":[5.1633567E-3,-2.1063653E-1,9.3580205E-3,5.516313E-2,-5.43807E-2,2.4592903E-2,9.0245366E-1,-5.5290455E-1,-3.7203056E-3,1.1137366E-2,6.6431046E-1,4.048691E-1,-8.239072E-1,1.553711E-1,-2.8930172E-2,4.590976E-2,-1.4081828E-1,2.284073E-1,5.5975344E-2,-3.7082443E-1,-6.1786425E-1,-2.1629182E-1,3.0541189E-2,-4.4204174E-3,1.7437807E-1,-1.4534946E-1,2.235021E-2,-2.6252747E-3,-1.832245E-1,-2.806808E-2,-1.6263257E-1,2.4393712E-1,-1.1448321E-3],"categories":[],"categories_nodes":[],"categories_segments":[],"categories_sizes":[],"default_left":[0,0,0,0,0,0,0,0,0,0,0,0,0,0,0,0,0,0,0,0,0,0,0,0,0,0,0,0,0,0,0,0,0],"id":35,"left_children":[1,-1,3,5,7,9,-1,11,13,15,17,-1,19,-1,21,23,25,-1,-1,27,-1,29,31,-1,-1,-1,-1,-1,-1,-1,-1,-1,-1],"loss_changes":[1.0063899E0,0E0,9.8397166E-1,1.7619795E1,3.5589569E0,1.6711112E0,0E0,7.814376E0,1.7113421E0,1.0209663E0,4.3390393E-2,0E0,5.954438E0,0E0,1.3882946E0,5.105735E0,2.7001243E0,0E0,0E0,8.633561E-1,0E0,1.1489199E0,2.5574079E0,0E0,0E0,0E0,0E0,0E0,0E0,0E0,0E0,0E0,0E0],"parents":[2147483647,0,0,2,2,3,3,4,4,5,5,7,7,8,8,9,9,10,10,12,12,14,14,15,15,16,16,19,19,21,21,22,22],"right_children":[2,-1,4,6,8,10,-1,12,14,16,18,-1,20,-1,22,24,26,-1,-1,28,-1,30,32,-1,-1,-1,-1,-1,-1,-1,-1,-1,-1],"split_conditions":[1.9E1,-2.1063653E-1,8.5E1,8.8E1,8.6E1,8.4E1,9.0245366E-1,5.8E1,8.3E1,6.8E1,9.4E1,4.048691E-1,8.6E1,1.553711E-1,9.9E1,6.4E1,7.3E1,2.284073E-1,5.5975344E-2,8.6E1,-6.1786425E-1,9.2E1,1.04E2,-4.4204174E-3,1.7437807E-1,-1.4534946E-1,2.235021E-2,-2.6252747E-3,-1.832245E-1,-2.806808E-2,-1.6263257E-1,2.4393712E-1,-1.1448321E-3],"split_indices":[11,0,87,61,83,79,0,0,31,118,0,0,74,0,184,232,173,0,0,95,0,245,185,0,0,0,0,0,0,0,0,0,0],"split_type":[0,0,0,0,0,0,0,0,0,0,0,0,0,0,0,0,0,0,0,0,0,0,0,0,0,0,0,0,0,0,0,0,0],"sum_hessian":[3.36E2,1E0,3.35E2,1.95E2,1.4E2,1.94E2,1E0,1.2E1,1.28E2,1.91E2,3E0,1E0,1.1E1,5E0,1.23E2,1.56E2,3.5E1,2E0,1E0,9E0,2E0,2.9E1,9.4E1,1.41E2,1.5E1,1.3E1,2.2E1,4E0,5E0,2.2E1,7E0,3E0,9.1E1],"tree_param":{"num_deleted":"0","num_feature":"250","num_nodes":"33","size_leaf_vector":"1"}},{"base_weights":[6.0814875E-3,-3.8016814E-1,1.1862769E-2,-1.7904054E-1,-5.3042796E-2,1.9033118E-1,-1.3740024E-3,8.4429815E-2,8.945535E-2,-7.946785E-2,3.54692E-2,1.05680466E-1,-2.5586702E-2,-2.7551755E-2,-5.4395753E-1,3.3350372E-1,1.9925872E-2,3.7064873E-2,1.1716462E-2,-7.136236E-2,4.3590355E-1,-1.0800575E-1,-2.189581E-1,1.9040516E-1,-3.4538936E-2,8.103629E-3,-6.504755E-2,8.184281E-2,1.8503724E-1,2.7580537E-2,7.670861E-1,-1.5720749E-1,-5.6817266E-4],"categories":[],"categories_nodes":[],"categories_segments":[],"categories_sizes":[],"default_left":[0,0,0,0,0,0,0,0,0,0,0,0,0,0,0,0,0,0,0,0,0,0,0,0,0,0,0,0,0,0,0,0,0],"id":36,"left_children":[1,3,5,-1,-1,7,9,11,-1,13,15,17,-1,19,21,-1,23,-1,-1,25,27,-1,-1,29,31,-1,-1,-1,-1,-1,-1,-1,-1],"loss_changes":[7.570369E-1,1.1475164E-1,7.869226E-1,0E0,0E0,2.3752594E-1,8.9763635E-1,5.5899628E-2,0E0,2.396462E0,3.5241601E0,9.461254E-3,0E0,1.8787944E0,7.918286E-2,0E0,1.956452E0,0E0,0E0,1.2078819E0,6.7747E-2,0E0,0E0,1.1649666E1,2.5556934E0,0E0,0E0,0E0,0E0,0E0,0E0,0E0,0E0],"parents":[2147483647,0,0,1,1,2,2,5,5,6,6,7,7,9,9,10,10,11,11,13,13,14,14,16,16,19,19,20,20,23,23,24,24],"right_children":[2,4,6,-1,-1,8,10,12,-1,14,16,18,-1,20,22,-1,24,-1,-1,26,28,-1,-1,30,32,-1,-1,-1,-1,-1,-1,-1,-1],"split_conditions":[2.1E1,2.5E1,2.8E1,-1.7904054E-1,-5.3042796E-2,2.7E1,5.9E1,2.9E1,8.945535E-2,5.7E1,5.4E1,2.7E1,-2.5586702E-2,5.9E1,6.5E1,3.3350372E-1,7.3E1,3.7064873E-2,1.1716462E-2,4.9E1,6.7E1,-1.0800575E-1,-2.189581E-1,7.9E1,8.1E1,8.103629E-3,-6.504755E-2,8.184281E-2,1.8503724E-1,2.7580537E-2,7.670861E-1,-1.5720749E-1,-5.6817266E-4],"split_indices":[243,0,99,0,0,172,131,0,0,130,89,21,0,246,29,0,111,0,0,245,48,0,0,1,22,0,0,0,0,0,0,0,0],"split_type":[0,0,0,0,0,0,0,0,0,0,0,0,0,0,0,0,0,0,0,0,0,0,0,0,0,0,0,0,0,0,0,0,0],"sum_hessian":[3.36E2,4E0,3.32E2,1E0,3E0,2.2E1,3.1E2,1.2E1,1E1,9.9E1,2.11E2,1.1E1,1E0,9E1,9E0,2E0,2.09E2,8E0,3E0,8.3E1,7E0,6E0,3E0,5E1,1.59E2,5E1,3.3E1,5E0,2E0,4.9E1,1E0,9E0,1.5E2],"tree_param":{"num_deleted":"0","num_feature":"250","num_nodes":"33","size_leaf_vector":"1"}},{"base_weights":[6.433368E-3,1.8077267E-2,-1.461757E-1,1.5291345E-3,6.508522E-1,-2.2637519E-1,6.115723E-2,3.1689927E-2,-7.270393E-2,1.0172654E-1,2.3102784E-1,-1.5466648E-1,-2.6129213E-1,1.255706E-2,8.480652E-1,-4.1224888E-1,-9.199544E-3,-5.5407338E-2,-7.0962906E-2,-8.494835E-2,-3.0389404E-2,-2.9840695E-3,6.6588134E-1,6.520226E-1,-2.6622772E-2,4.7664646E-2,-4.6840376E-1,2.0079762E-1,-7.311055E-2,-7.5187685E-4,-2.7883913E-2,3.4460316E-3,-8.8498995E-2,2.3375474E-1,3.1901553E-2,-4.3032076E-2,1.8038942E-2,-2.5491658E-1,-8.0710836E-2,-4.802068E-2,1.5164933E-1,-1.05049066E-1,-2.8268776E-3],"categories":[],"categories_nodes":[],"categories_segments":[],"categories_sizes":[],"default_left":[0,0,0,0,0,0,0,0,0,0,0,0,0,0,0,0,0,0,0,0,0,0,0,0,0,0,0,0,0,0,0,0,0,0,0,0,0,0,0,0,0,0,0],"id":37,"left_children":[1,3,5,7,9,11,-1,13,15,-1,-1,17,19,21,23,25,27,-1,29,-1,-1,31,33,-1,35,-1,37,39,41,-1,-1,-1,-1,-1,-1,-1,-1,-1,-1,-1,-1,-1,-1],"loss_changes":[6.0147953E-1,3.2869754E0,7.1988773E-1,6.8965495E-1,3.6269426E-2,9.66382E-3,0E0,3.4100428E0,1.9152783E0,0E0,0E0,9.51229E-3,1.330328E-2,2.1849678E0,5.8541713E0,5.234258E-1,1.0346862E0,0E0,5.7867114E-3,0E0,0E0,8.950044E-1,2.341268E-1,0E0,4.91619E-2,0E0,7.596867E-1,2.0601242E0,1.0377463E0,0E0,0E0,0E0,0E0,0E0,0E0,0E0,0E0,0E0,0E0,0E0,0E0,0E0,0E0],"parents":[2147483647,0,0,1,1,2,2,3,3,4,4,5,5,7,7,8,8,11,11,12,12,13,13,14,14,15,15,16,16,18,18,21,21,22,22,24,24,26,26,27,27,28,28],"right_children":[2,4,6,8,10,12,-1,14,16,-1,-1,18,20,22,24,26,28,-1,30,-1,-1,32,34,-1,36,-1,38,40,42,-1,-1,-1,-1,-1,-1,-1,-1,-1,-1,-1,-1,-1,-1],"split_conditions":[2.58E2,1.98E2,4.61E2,9E1,2.1E2,2.9E2,6.115723E-2,8.9E1,9E1,1.0172654E-1,2.3102784E-1,2.85E2,3.14E2,8.9E1,7.9E1,8.7E1,1.03E2,-5.5407338E-2,2.84E2,-8.494835E-2,-3.0389404E-2,8.7E1,9.1E1,6.520226E-1,8.7E1,4.7664646E-2,8.8E1,9.2E1,1.18E2,-7.5187685E-4,-2.7883913E-2,3.4460316E-3,-8.8498995E-2,2.3375474E-1,3.1901553E-2,-4.3032076E-2,1.8038942E-2,-2.5491658E-1,-8.0710836E-2,-4.802068E-2,1.5164933E-1,-1.05049066E-1,-2.8268776E-3],"split_indices":[0,108,0,158,0,37,0,231,237,0,0,112,65,153,0,106,118,0,60,0,0,0,2,0,0,0,243,80,13,0,0,0,0,0,0,0,0,0,0,0,0,0,0],"split_type":[0,0,0,0,0,0,0,0,0,0,0,0,0,0,0,0,0,0,0,0,0,0,0,0,0,0,0,0,0,0,0,0,0,0,0,0,0,0,0,0,0,0,0],"sum_hessian":[3.36E2,3.13E2,2.3E1,3.06E2,7E0,1.9E1,4E0,2.18E2,8.8E1,3E0,4E0,8E0,1.1E1,2.14E2,4E0,1.3E1,7.5E1,5E0,3E0,9E0,2E0,2.1E2,4E0,1E0,3E0,1E0,1.2E1,1.7E1,5.8E1,1E0,2E0,2.01E2,9E0,3E0,1E0,1E0,2E0,3E0,9E0,8E0,9E0,1E1,4.8E1],"tree_param":{"num_deleted":"0","num_feature":"250","num_nodes":"43","size_leaf_vector":"1"}},{"base_weights":[6.60898E-3,-1.5270196E-1,9.65845E-3,1.8655747E-2,-1.08083725E-1,5.711329E-4,3.7789866E-1,-1.6843338E-1,4.6479493E-2,1.9493643E-2,-2.9591328E-1,3.6040956E-1,1.587988E-1,-1.1760542E-1,-1.9251823E-1,3.2529589E-3,2.298069E-1,-4.128404E-1,-9.81493E-2,-9.565545E-2,4.9718666E-1,-4.197693E-2,-5.4727554E-2,-6.4776614E-2,-2.7519036E-2,3.7138183E-3,-1.23306274E-1,-3.0705262E-2,-1.4113975E-1,-4.1325383E-2,-1.8597031E-2,7.883721E-2,1.7557985E-1,-6.3858036E-4,-2.1465302E-2],"categories":[],"categories_nodes":[],"categories_segments":[],"categories_sizes":[],"default_left":[0,0,0,0,0,0,0,0,0,0,0,0,0,0,0,0,0,0,0,0,0,0,0,0,0,0,0,0,0,0,0,0,0,0,0],"id":38,"left_children":[1,-1,3,5,7,9,11,13,-1,15,17,-1,19,21,23,25,-1,27,29,-1,31,-1,33,-1,-1,-1,-1,-1,-1,-1,-1,-1,-1,-1,-1],"loss_changes":[5.347996E-1,0E0,3.5796177E-1,2.033273E0,4.0704492E-1,1.683227E0,2.5155451E0,1.8424988E-3,0E0,3.416518E0,3.7571168E-1,0E0,2.2597325E0,4.9719363E-3,8.499354E-3,1.0523818E0,0E0,1.4866018E-1,2.9165894E-3,0E0,1.1361241E-2,0E0,3.3872798E-3,0E0,0E0,0E0,0E0,0E0,0E0,0E0,0E0,0E0,0E0,0E0,0E0],"parents":[2147483647,0,0,2,2,3,3,4,4,5,5,6,6,7,7,9,9,10,10,12,12,13,13,14,14,15,15,17,17,18,18,20,20,22,22],"right_children":[2,-1,4,6,8,10,12,14,-1,16,18,-1,20,22,24,26,-1,28,30,-1,32,-1,34,-1,-1,-1,-1,-1,-1,-1,-1,-1,-1,-1,-1],"split_conditions":[1.9E1,-1.5270196E-1,2.58E2,1.88E2,4.61E2,1.34E2,1.91E2,2.9E2,4.6479493E-2,1.33E2,1.62E2,3.6040956E-1,1.98E2,2.85E2,3.13E2,1.28E2,2.298069E-1,1.29E2,1.65E2,-9.565545E-2,2.1E2,-4.197693E-2,2.92E2,-6.4776614E-2,-2.7519036E-2,3.7138183E-3,-1.23306274E-1,-3.0705262E-2,-1.4113975E-1,-4.1325383E-2,-1.8597031E-2,7.883721E-2,1.7557985E-1,-6.3858036E-4,-2.1465302E-2],"split_indices":[11,0,0,132,0,114,14,37,0,166,0,0,108,0,59,159,0,0,56,0,0,0,0,0,0,0,0,0,0,0,0,0,0,0,0],"split_type":[0,0,0,0,0,0,0,0,0,0,0,0,0,0,0,0,0,0,0,0,0,0,0,0,0,0,0,0,0,0,0,0,0,0,0],"sum_hessian":[3.36E2,1E0,3.35E2,3.12E2,2.3E1,2.98E2,1.4E1,1.9E1,4E0,2.81E2,1.7E1,2E0,1.2E1,8E0,1.1E1,2.76E2,5E0,1E1,7E0,5E0,7E0,5E0,3E0,8E0,3E0,2.71E2,5E0,2E0,8E0,2E0,5E0,3E0,4E0,1E0,2E0],"tree_param":{"num_deleted":"0","num_feature":"250","num_nodes":"35","size_leaf_vector":"1"}},{"base_weights":[5.0266166E-3,-2.645124E-1,9.882662E-3,-1.2979661E-1,-4.3305818E-2,1.4913031E-1,4.7854887E-4,6.65304E-2,6.545188E-2,-1.464083E-1,1.8969776E-2,1.1458589E-2,2.5133133E-2,7.6999664E-3,-3.298931E-1,1.9893101E-1,-6.9220806E-3,-1.992394E-2,1.23176575E-1,-5.6645095E-1,-3.9394E-2,1.4131026E-1,2.299347E-1,-1.7333622E-1,2.3660816E-2,4.4744113E-3,-1.8294526E-2,1.0784913E-2,4.2080693E-2,-7.4697115E-2,-1.9309112E-1,2.1908857E-2,8.73159E-2,-6.2399125E-3,-1.5062962E-1,1.3543186E-1,-1.4937298E-3],"categories":[],"categories_nodes":[],"categories_segments":[],"categories_sizes":[],"default_left":[0,0,0,0,0,0,0,0,0,0,0,0,0,0,0,0,0,0,0,0,0,0,0,0,0,0,0,0,0,0,0,0,0,0,0,0,0],"id":39,"left_children":[1,3,5,-1,-1,7,9,11,-1,13,15,-1,-1,17,19,21,23,25,27,29,-1,31,-1,33,35,-1,-1,-1,-1,-1,-1,-1,-1,-1,-1,-1,-1],"loss_changes":[4.437113E-1,5.8769017E-2,4.346829E-1,0E0,0E0,1.0524604E-1,8.5020614E-1,2.1756701E-3,0E0,9.922186E-1,1.2967265E0,0E0,0E0,6.625246E-2,6.77227E-1,1.0362215E0,1.2459215E0,2.5226297E-2,9.2103705E-4,1.1265516E-2,0E0,3.161546E-1,0E0,1.8951911E0,2.5383174E0,0E0,0E0,0E0,0E0,0E0,0E0,0E0,0E0,0E0,0E0,0E0,0E0],"parents":[2147483647,0,0,1,1,2,2,5,5,6,6,7,7,9,9,10,10,13,13,14,14,15,15,16,16,17,17,18,18,19,19,21,21,23,23,24,24],"right_children":[2,4,6,-1,-1,8,10,12,-1,14,16,-1,-1,18,20,22,24,26,28,30,-1,32,-1,34,36,-1,-1,-1,-1,-1,-1,-1,-1,-1,-1,-1,-1],"split_conditions":[2.2E1,2.5E1,2.8E1,-1.2979661E-1,-4.3305818E-2,2.8E1,4.3E1,2.2E1,